<?xml version="1.0"?>
<opencv_storage>
<opencv_ml_svm>
  <format>3</format>
  <svmType>C_SVC</svmType>
  <kernel>
    <type>RBF</type>
    <gamma>2.2500000000000003e-03</gamma></kernel>
  <C>1.0000000000000001e-01</C>
  <term_criteria><epsilon>1.1920928955078125e-07</epsilon>
    <iterations>1000</iterations></term_criteria>
  <var_count>3</var_count>
  <class_count>2</class_count>
  <class_labels type_id="opencv-matrix">
    <rows>2</rows>
    <cols>1</cols>
    <dt>i</dt>
    <data>
      -1 1</data></class_labels>
  <sv_total>670</sv_total>
  <support_vectors>
    <_>
      60. 255. 7.</_>
    <_>
      56. 170. 21.</_>
    <_>
      59. 118. 65.</_>
    <_>
      59. 134. 74.</_>
    <_>
      58. 174. 22.</_>
    <_>
      61. 119. 47.</_>
    <_>
      59. 120. 64.</_>
    <_>
      59. 134. 74.</_>
    <_>
      60. 148. 79.</_>
    <_>
      59. 121. 63.</_>
    <_>
      59. 133. 75.</_>
    <_>
      57. 180. 99.</_>
    <_>
      57. 188. 102.</_>
    <_>
      69. 255. 27.</_>
    <_>
      69. 221. 52.</_>
    <_>
      70. 146. 126.</_>
    <_>
      60. 198. 9.</_>
    <_>
      58. 142. 27.</_>
    <_>
      58. 154. 43.</_>
    <_>
      58. 142. 27.</_>
    <_>
      63. 221. 120.</_>
    <_>
      63. 153. 125.</_>
    <_>
      62. 218. 116.</_>
    <_>
      63. 169. 127.</_>
    <_>
      63. 179. 140.</_>
    <_>
      62. 217. 122.</_>
    <_>
      63. 183. 146.</_>
    <_>
      74. 179. 100.</_>
    <_>
      73. 172. 156.</_>
    <_>
      73. 168. 221.</_>
    <_>
      72. 189. 232.</_>
    <_>
      73. 168. 137.</_>
    <_>
      73. 155. 207.</_>
    <_>
      72. 164. 228.</_>
    <_>
      71. 158. 220.</_>
    <_>
      70. 218. 184.</_>
    <_>
      70. 217. 188.</_>
    <_>
      74. 154. 106.</_>
    <_>
      73. 146. 164.</_>
    <_>
      73. 138. 155.</_>
    <_>
      72. 149. 190.</_>
    <_>
      73. 151. 183.</_>
    <_>
      72. 183. 226.</_>
    <_>
      72. 199. 226.</_>
    <_>
      73. 197. 217.</_>
    <_>
      64. 206. 31.</_>
    <_>
      65. 220. 65.</_>
    <_>
      65. 216. 66.</_>
    <_>
      58. 215. 63.</_>
    <_>
      63. 241. 72.</_>
    <_>
      59. 188. 57.</_>
    <_>
      63. 240. 67.</_>
    <_>
      60. 198. 40.</_>
    <_>
      60. 193. 41.</_>
    <_>
      71. 163. 133.</_>
    <_>
      70. 223. 174.</_>
    <_>
      73. 227. 144.</_>
    <_>
      73. 230. 145.</_>
    <_>
      110. 128. 6.</_>
    <_>
      110. 153. 5.</_>
    <_>
      126. 128. 10.</_>
    <_>
      114. 85. 15.</_>
    <_>
      110. 51. 15.</_>
    <_>
      83. 60. 17.</_>
    <_>
      60. 71. 25.</_>
    <_>
      63. 98. 26.</_>
    <_>
      62. 119. 30.</_>
    <_>
      71. 146. 47.</_>
    <_>
      110. 128. 6.</_>
    <_>
      96. 182. 7.</_>
    <_>
      96. 128. 10.</_>
    <_>
      90. 96. 16.</_>
    <_>
      80. 104. 22.</_>
    <_>
      110. 128. 6.</_>
    <_>
      96. 142. 9.</_>
    <_>
      80. 153. 15.</_>
    <_>
      74. 144. 23.</_>
    <_>
      96. 142. 9.</_>
    <_>
      80. 164. 14.</_>
    <_>
      74. 151. 22.</_>
    <_>
      72. 152. 37.</_>
    <_>
      59. 157. 57.</_>
    <_>
      83. 93. 11.</_>
    <_>
      74. 134. 21.</_>
    <_>
      70. 170. 36.</_>
    <_>
      70. 102. 15.</_>
    <_>
      69. 172. 43.</_>
    <_>
      68. 164. 56.</_>
    <_>
      66. 106. 24.</_>
    <_>
      59. 133. 44.</_>
    <_>
      72. 136. 71.</_>
    <_>
      69. 135. 106.</_>
    <_>
      68. 136. 146.</_>
    <_>
      67. 139. 176.</_>
    <_>
      70. 123. 102.</_>
    <_>
      68. 126. 138.</_>
    <_>
      67. 134. 169.</_>
    <_>
      68. 121. 139.</_>
    <_>
      67. 119. 175.</_>
    <_>
      67. 131. 200.</_>
    <_>
      67. 145. 209.</_>
    <_>
      67. 122. 172.</_>
    <_>
      66. 126. 199.</_>
    <_>
      67. 141. 212.</_>
    <_>
      66. 128. 196.</_>
    <_>
      66. 139. 208.</_>
    <_>
      66. 142. 207.</_>
    <_>
      73. 176. 199.</_>
    <_>
      73. 175. 201.</_>
    <_>
      73. 168. 199.</_>
    <_>
      66. 128. 20.</_>
    <_>
      66. 179. 30.</_>
    <_>
      64. 142. 144.</_>
    <_>
      63. 160. 164.</_>
    <_>
      63. 146. 91.</_>
    <_>
      64. 144. 133.</_>
    <_>
      63. 150. 162.</_>
    <_>
      63. 153. 147.</_>
    <_>
      59. 183. 205.</_>
    <_>
      59. 185. 205.</_>
    <_>
      59. 184. 204.</_>
    <_>
      63. 161. 218.</_>
    <_>
      65. 158. 221.</_>
    <_>
      62. 160. 172.</_>
    <_>
      61. 166. 175.</_>
    <_>
      60. 174. 182.</_>
    <_>
      59. 177. 187.</_>
    <_>
      60. 170. 193.</_>
    <_>
      72. 255. 23.</_>
    <_>
      70. 245. 49.</_>
    <_>
      69. 204. 248.</_>
    <_>
      68. 198. 248.</_>
    <_>
      70. 255. 39.</_>
    <_>
      70. 135. 180.</_>
    <_>
      70. 206. 247.</_>
    <_>
      70. 206. 247.</_>
    <_>
      69. 208. 247.</_>
    <_>
      70. 170. 251.</_>
    <_>
      71. 170. 251.</_>
    <_>
      72. 176. 251.</_>
    <_>
      70. 177. 251.</_>
    <_>
      70. 177. 251.</_>
    <_>
      70. 167. 249.</_>
    <_>
      69. 165. 248.</_>
    <_>
      69. 161. 247.</_>
    <_>
      71. 205. 248.</_>
    <_>
      69. 161. 247.</_>
    <_>
      71. 199. 248.</_>
    <_>
      60. 106. 29.</_>
    <_>
      57. 175. 67.</_>
    <_>
      54. 216. 84.</_>
    <_>
      54. 218. 83.</_>
    <_>
      60. 118. 41.</_>
    <_>
      58. 161. 65.</_>
    <_>
      54. 213. 85.</_>
    <_>
      60. 120. 51.</_>
    <_>
      55. 188. 84.</_>
    <_>
      55. 219. 92.</_>
    <_>
      55. 193. 82.</_>
    <_>
      57. 162. 77.</_>
    <_>
      58. 161. 92.</_>
    <_>
      56. 204. 101.</_>
    <_>
      57. 215. 102.</_>
    <_>
      57. 174. 97.</_>
    <_>
      58. 164. 95.</_>
    <_>
      64. 255. 28.</_>
    <_>
      70. 160. 140.</_>
    <_>
      70. 247. 223.</_>
    <_>
      73. 222. 218.</_>
    <_>
      74. 233. 216.</_>
    <_>
      69. 250. 237.</_>
    <_>
      68. 249. 239.</_>
    <_>
      69. 254. 236.</_>
    <_>
      68. 250. 238.</_>
    <_>
      69. 254. 233.</_>
    <_>
      69. 254. 230.</_>
    <_>
      69. 251. 229.</_>
    <_>
      63. 200. 232.</_>
    <_>
      72. 167. 179.</_>
    <_>
      72. 188. 174.</_>
    <_>
      71. 208. 169.</_>
    <_>
      71. 201. 164.</_>
    <_>
      72. 221. 157.</_>
    <_>
      71. 213. 126.</_>
    <_>
      72. 212. 114.</_>
    <_>
      55. 159. 48.</_>
    <_>
      57. 175. 64.</_>
    <_>
      63. 222. 115.</_>
    <_>
      61. 199. 122.</_>
    <_>
      61. 196. 121.</_>
    <_>
      59. 220. 147.</_>
    <_>
      58. 228. 149.</_>
    <_>
      58. 228. 149.</_>
    <_>
      56. 246. 148.</_>
    <_>
      56. 248. 148.</_>
    <_>
      56. 250. 147.</_>
    <_>
      60. 208. 152.</_>
    <_>
      72. 220. 132.</_>
    <_>
      72. 220. 132.</_>
    <_>
      71. 199. 178.</_>
    <_>
      71. 216. 169.</_>
    <_>
      69. 255. 14.</_>
    <_>
      72. 194. 50.</_>
    <_>
      73. 154. 106.</_>
    <_>
      72. 182. 130.</_>
    <_>
      73. 200. 42.</_>
    <_>
      73. 148. 98.</_>
    <_>
      73. 182. 123.</_>
    <_>
      72. 173. 170.</_>
    <_>
      72. 160. 86.</_>
    <_>
      73. 171. 125.</_>
    <_>
      73. 175. 168.</_>
    <_>
      73. 171. 115.</_>
    <_>
      73. 189. 146.</_>
    <_>
      73. 180. 200.</_>
    <_>
      73. 200. 129.</_>
    <_>
      73. 190. 181.</_>
    <_>
      73. 195. 213.</_>
    <_>
      73. 207. 155.</_>
    <_>
      73. 200. 182.</_>
    <_>
      73. 203. 215.</_>
    <_>
      73. 220. 220.</_>
    <_>
      73. 208. 195.</_>
    <_>
      73. 213. 215.</_>
    <_>
      73. 230. 215.</_>
    <_>
      72. 244. 201.</_>
    <_>
      73. 206. 204.</_>
    <_>
      73. 220. 212.</_>
    <_>
      73. 239. 205.</_>
    <_>
      72. 248. 193.</_>
    <_>
      73. 254. 180.</_>
    <_>
      73. 212. 207.</_>
    <_>
      73. 229. 196.</_>
    <_>
      73. 214. 207.</_>
    <_>
      72. 255. 151.</_>
    <_>
      73. 231. 182.</_>
    <_>
      72. 255. 142.</_>
    <_>
      72. 232. 180.</_>
    <_>
      72. 255. 159.</_>
    <_>
      73. 251. 184.</_>
    <_>
      72. 255. 170.</_>
    <_>
      72. 255. 160.</_>
    <_>
      73. 252. 185.</_>
    <_>
      72. 255. 160.</_>
    <_>
      73. 241. 197.</_>
    <_>
      73. 255. 172.</_>
    <_>
      73. 251. 184.</_>
    <_>
      72. 255. 171.</_>
    <_>
      51. 94. 19.</_>
    <_>
      60. 133. 23.</_>
    <_>
      56. 170. 21.</_>
    <_>
      59. 209. 28.</_>
    <_>
      62. 229. 39.</_>
    <_>
      59. 221. 37.</_>
    <_>
      62. 245. 49.</_>
    <_>
      62. 250. 48.</_>
    <_>
      62. 169. 115.</_>
    <_>
      62. 242. 97.</_>
    <_>
      62. 246. 86.</_>
    <_>
      62. 255. 89.</_>
    <_>
      61. 246. 81.</_>
    <_>
      62. 246. 56.</_>
    <_>
      62. 252. 84.</_>
    <_>
      62. 245. 79.</_>
    <_>
      68. 216. 46.</_>
    <_>
      62. 230. 41.</_>
    <_>
      62. 230. 41.</_>
    <_>
      59. 196. 61.</_>
    <_>
      59. 206. 62.</_>
    <_>
      71. 255. 144.</_>
    <_>
      56. 97. 21.</_>
    <_>
      60. 153. 20.</_>
    <_>
      62. 202. 134.</_>
    <_>
      68. 255. 11.</_>
    <_>
      71. 176. 42.</_>
    <_>
      73. 190. 74.</_>
    <_>
      73. 191. 112.</_>
    <_>
      72. 183. 159.</_>
    <_>
      72. 193. 149.</_>
    <_>
      70. 222. 242.</_>
    <_>
      72. 181. 226.</_>
    <_>
      72. 225. 237.</_>
    <_>
      71. 233. 242.</_>
    <_>
      71. 228. 244.</_>
    <_>
      70. 242. 215.</_>
    <_>
      71. 230. 240.</_>
    <_>
      72. 230. 164.</_>
    <_>
      73. 234. 155.</_>
    <_>
      78. 234. 123.</_>
    <_>
      81. 244. 114.</_>
    <_>
      81. 248. 112.</_>
    <_>
      80. 255. 112.</_>
    <_>
      78. 239. 124.</_>
    <_>
      79. 240. 119.</_>
    <_>
      63. 255. 129.</_>
    <_>
      63. 255. 129.</_>
    <_>
      78. 251. 124.</_>
    <_>
      79. 255. 115.</_>
    <_>
      80. 255. 105.</_>
    <_>
      80. 255. 105.</_>
    <_>
      62. 255. 129.</_>
    <_>
      78. 255. 105.</_>
    <_>
      80. 255. 102.</_>
    <_>
      79. 255. 101.</_>
    <_>
      47. 111. 103.</_>
    <_>
      50. 118. 106.</_>
    <_>
      48. 113. 102.</_>
    <_>
      58. 101. 104.</_>
    <_>
      58. 104. 101.</_>
    <_>
      64. 129. 119.</_>
    <_>
      63. 120. 125.</_>
    <_>
      50. 100. 105.</_>
    <_>
      50. 100. 105.</_>
    <_>
      59. 131. 105.</_>
    <_>
      59. 135. 108.</_>
    <_>
      59. 135. 108.</_>
    <_>
      50. 100. 105.</_>
    <_>
      50. 100. 105.</_>
    <_>
      88. 113. 36.</_>
    <_>
      77. 115. 51.</_>
    <_>
      73. 133. 67.</_>
    <_>
      80. 125. 53.</_>
    <_>
      75. 131. 66.</_>
    <_>
      76. 148. 67.</_>
    <_>
      73. 159. 74.</_>
    <_>
      74. 170. 75.</_>
    <_>
      72. 187. 82.</_>
    <_>
      74. 192. 85.</_>
    <_>
      73. 197. 93.</_>
    <_>
      73. 221. 97.</_>
    <_>
      72. 227. 92.</_>
    <_>
      74. 220. 94.</_>
    <_>
      74. 222. 93.</_>
    <_>
      74. 213. 97.</_>
    <_>
      73. 206. 109.</_>
    <_>
      73. 202. 106.</_>
    <_>
      116. 142. 36.</_>
    <_>
      111. 207. 90.</_>
    <_>
      114. 162. 44.</_>
    <_>
      111. 179. 54.</_>
    <_>
      105. 196. 134.</_>
    <_>
      106. 200. 115.</_>
    <_>
      106. 196. 159.</_>
    <_>
      106. 198. 153.</_>
    <_>
      114. 136. 62.</_>
    <_>
      110. 154. 71.</_>
    <_>
      110. 154. 68.</_>
    <_>
      104. 194. 88.</_>
    <_>
      104. 192. 89.</_>
    <_>
      104. 192. 89.</_>
    <_>
      108. 168. 88.</_>
    <_>
      104. 190. 90.</_>
    <_>
      108. 165. 88.</_>
    <_>
      107. 167. 84.</_>
    <_>
      108. 168. 94.</_>
    <_>
      108. 168. 94.</_>
    <_>
      108. 168. 94.</_>
    <_>
      108. 173. 103.</_>
    <_>
      106. 195. 107.</_>
    <_>
      108. 182. 108.</_>
    <_>
      108. 182. 108.</_>
    <_>
      102. 236. 227.</_>
    <_>
      101. 229. 223.</_>
    <_>
      102. 234. 226.</_>
    <_>
      102. 233. 230.</_>
    <_>
      101. 227. 220.</_>
    <_>
      101. 225. 215.</_>
    <_>
      101. 215. 217.</_>
    <_>
      100. 224. 211.</_>
    <_>
      101. 215. 211.</_>
    <_>
      101. 214. 216.</_>
    <_>
      100. 221. 209.</_>
    <_>
      101. 215. 209.</_>
    <_>
      104. 212. 242.</_>
    <_>
      101. 224. 228.</_>
    <_>
      104. 214. 244.</_>
    <_>
      104. 214. 245.</_>
    <_>
      104. 210. 241.</_>
    <_>
      104. 207. 243.</_>
    <_>
      103. 211. 240.</_>
    <_>
      104. 209. 242.</_>
    <_>
      103. 206. 239.</_>
    <_>
      102. 211. 238.</_>
    <_>
      114. 223. 32.</_>
    <_>
      111. 221. 60.</_>
    <_>
      110. 219. 42.</_>
    <_>
      110. 226. 61.</_>
    <_>
      109. 222. 39.</_>
    <_>
      108. 227. 36.</_>
    <_>
      108. 221. 37.</_>
    <_>
      109. 217. 40.</_>
    <_>
      107. 235. 39.</_>
    <_>
      109. 211. 41.</_>
    <_>
      110. 213. 43.</_>
    <_>
      112. 201. 52.</_>
    <_>
      112. 201. 52.</_>
    <_>
      112. 201. 52.</_>
    <_>
      112. 201. 52.</_>
    <_>
      112. 201. 52.</_>
    <_>
      105. 255. 191.</_>
    <_>
      106. 255. 193.</_>
    <_>
      108. 210. 200.</_>
    <_>
      108. 212. 196.</_>
    <_>
      106. 255. 171.</_>
    <_>
      105. 237. 131.</_>
    <_>
      110. 148. 31.</_>
    <_>
      111. 146. 35.</_>
    <_>
      112. 152. 42.</_>
    <_>
      111. 142. 36.</_>
    <_>
      112. 155. 41.</_>
    <_>
      112. 151. 44.</_>
    <_>
      114. 151. 59.</_>
    <_>
      115. 159. 72.</_>
    <_>
      115. 154. 63.</_>
    <_>
      115. 154. 63.</_>
    <_>
      115. 154. 63.</_>
    <_>
      111. 175. 51.</_>
    <_>
      115. 166. 77.</_>
    <_>
      111. 175. 51.</_>
    <_>
      115. 168. 79.</_>
    <_>
      115. 168. 79.</_>
    <_>
      106. 179. 128.</_>
    <_>
      105. 181. 158.</_>
    <_>
      103. 193. 177.</_>
    <_>
      105. 176. 149.</_>
    <_>
      105. 178. 176.</_>
    <_>
      105. 183. 198.</_>
    <_>
      106. 175. 176.</_>
    <_>
      105. 180. 194.</_>
    <_>
      106. 172. 200.</_>
    <_>
      104. 198. 215.</_>
    <_>
      103. 202. 198.</_>
    <_>
      102. 197. 177.</_>
    <_>
      103. 202. 207.</_>
    <_>
      103. 203. 205.</_>
    <_>
      103. 196. 173.</_>
    <_>
      103. 191. 182.</_>
    <_>
      104. 188. 183.</_>
    <_>
      104. 187. 187.</_>
    <_>
      102. 211. 172.</_>
    <_>
      101. 211. 174.</_>
    <_>
      101. 213. 177.</_>
    <_>
      104. 199. 210.</_>
    <_>
      105. 183. 196.</_>
    <_>
      101. 209. 176.</_>
    <_>
      100. 213. 176.</_>
    <_>
      101. 219. 179.</_>
    <_>
      109. 191. 231.</_>
    <_>
      109. 192. 229.</_>
    <_>
      109. 190. 231.</_>
    <_>
      109. 190. 231.</_>
    <_>
      104. 183. 196.</_>
    <_>
      105. 179. 202.</_>
    <_>
      106. 175. 213.</_>
    <_>
      106. 176. 211.</_>
    <_>
      104. 200. 216.</_>
    <_>
      106. 175. 214.</_>
    <_>
      107. 174. 228.</_>
    <_>
      107. 173. 224.</_>
    <_>
      102. 212. 198.</_>
    <_>
      102. 213. 200.</_>
    <_>
      107. 173. 228.</_>
    <_>
      107. 173. 226.</_>
    <_>
      107. 177. 228.</_>
    <_>
      107. 174. 226.</_>
    <_>
      107. 173. 227.</_>
    <_>
      108. 194. 130.</_>
    <_>
      104. 230. 175.</_>
    <_>
      104. 233. 173.</_>
    <_>
      104. 232. 174.</_>
    <_>
      107. 228. 192.</_>
    <_>
      107. 228. 190.</_>
    <_>
      104. 234. 197.</_>
    <_>
      104. 234. 197.</_>
    <_>
      104. 234. 186.</_>
    <_>
      106. 203. 153.</_>
    <_>
      104. 255. 226.</_>
    <_>
      104. 255. 221.</_>
    <_>
      105. 253. 251.</_>
    <_>
      105. 255. 249.</_>
    <_>
      105. 255. 248.</_>
    <_>
      105. 255. 249.</_>
    <_>
      106. 197. 140.</_>
    <_>
      104. 255. 221.</_>
    <_>
      104. 255. 222.</_>
    <_>
      105. 255. 247.</_>
    <_>
      105. 255. 246.</_>
    <_>
      105. 255. 246.</_>
    <_>
      105. 255. 246.</_>
    <_>
      104. 255. 227.</_>
    <_>
      104. 255. 223.</_>
    <_>
      105. 230. 252.</_>
    <_>
      106. 238. 253.</_>
    <_>
      105. 227. 254.</_>
    <_>
      105. 240. 255.</_>
    <_>
      105. 227. 255.</_>
    <_>
      104. 231. 255.</_>
    <_>
      104. 232. 253.</_>
    <_>
      104. 255. 225.</_>
    <_>
      104. 255. 214.</_>
    <_>
      104. 255. 214.</_>
    <_>
      106. 255. 246.</_>
    <_>
      104. 255. 224.</_>
    <_>
      104. 255. 225.</_>
    <_>
      108. 167. 26.</_>
    <_>
      106. 158. 42.</_>
    <_>
      105. 179. 50.</_>
    <_>
      105. 191. 56.</_>
    <_>
      106. 182. 73.</_>
    <_>
      106. 152. 37.</_>
    <_>
      105. 163. 50.</_>
    <_>
      106. 187. 71.</_>
    <_>
      105. 190. 71.</_>
    <_>
      105. 163. 50.</_>
    <_>
      107. 179. 60.</_>
    <_>
      112. 199. 101.</_>
    <_>
      113. 174. 101.</_>
    <_>
      111. 201. 108.</_>
    <_>
      113. 173. 102.</_>
    <_>
      104. 201. 85.</_>
    <_>
      103. 222. 70.</_>
    <_>
      103. 219. 71.</_>
    <_>
      103. 209. 72.</_>
    <_>
      103. 202. 72.</_>
    <_>
      103. 202. 72.</_>
    <_>
      105. 213. 92.</_>
    <_>
      104. 218. 89.</_>
    <_>
      103. 226. 79.</_>
    <_>
      103. 227. 82.</_>
    <_>
      103. 229. 78.</_>
    <_>
      103. 224. 83.</_>
    <_>
      111. 190. 51.</_>
    <_>
      108. 196. 116.</_>
    <_>
      107. 196. 120.</_>
    <_>
      107. 196. 113.</_>
    <_>
      106. 215. 127.</_>
    <_>
      106. 221. 126.</_>
    <_>
      106. 224. 124.</_>
    <_>
      106. 224. 115.</_>
    <_>
      106. 225. 111.</_>
    <_>
      106. 222. 108.</_>
    <_>
      106. 255. 185.</_>
    <_>
      105. 254. 175.</_>
    <_>
      105. 255. 174.</_>
    <_>
      106. 255. 191.</_>
    <_>
      105. 255. 95.</_>
    <_>
      105. 255. 96.</_>
    <_>
      105. 255. 95.</_>
    <_>
      112. 255. 174.</_>
    <_>
      113. 255. 168.</_>
    <_>
      113. 255. 166.</_>
    <_>
      112. 255. 104.</_>
    <_>
      113. 255. 162.</_>
    <_>
      113. 255. 155.</_>
    <_>
      113. 255. 143.</_>
    <_>
      113. 255. 138.</_>
    <_>
      113. 255. 136.</_>
    <_>
      115. 234. 134.</_>
    <_>
      115. 236. 137.</_>
    <_>
      113. 226. 97.</_>
    <_>
      113. 225. 101.</_>
    <_>
      114. 225. 111.</_>
    <_>
      114. 224. 106.</_>
    <_>
      114. 227. 117.</_>
    <_>
      103. 255. 77.</_>
    <_>
      103. 255. 78.</_>
    <_>
      104. 255. 75.</_>
    <_>
      103. 255. 77.</_>
    <_>
      103. 255. 77.</_>
    <_>
      104. 255. 81.</_>
    <_>
      127. 158. 123.</_>
    <_>
      127. 162. 124.</_>
    <_>
      127. 164. 126.</_>
    <_>
      126. 154. 124.</_>
    <_>
      127. 158. 126.</_>
    <_>
      106. 158. 124.</_>
    <_>
      106. 158. 124.</_>
    <_>
      125. 182. 165.</_>
    <_>
      125. 182. 165.</_>
    <_>
      125. 182. 165.</_>
    <_>
      125. 182. 165.</_>
    <_>
      125. 182. 165.</_>
    <_>
      125. 183. 167.</_>
    <_>
      125. 182. 165.</_>
    <_>
      125. 182. 165.</_>
    <_>
      127. 167. 133.</_>
    <_>
      125. 168. 144.</_>
    <_>
      125. 168. 144.</_>
    <_>
      115. 158. 150.</_>
    <_>
      114. 151. 147.</_>
    <_>
      113. 152. 146.</_>
    <_>
      116. 183. 139.</_>
    <_>
      115. 160. 153.</_>
    <_>
      115. 162. 153.</_>
    <_>
      109. 150. 129.</_>
    <_>
      109. 150. 129.</_>
    <_>
      106. 158. 124.</_>
    <_>
      108. 153. 125.</_>
    <_>
      108. 153. 125.</_>
    <_>
      125. 153. 127.</_>
    <_>
      125. 153. 127.</_>
    <_>
      113. 163. 153.</_>
    <_>
      125. 153. 127.</_>
    <_>
      114. 169. 161.</_>
    <_>
      106. 255. 161.</_>
    <_>
      106. 255. 163.</_>
    <_>
      106. 255. 160.</_>
    <_>
      106. 255. 157.</_>
    <_>
      106. 255. 120.</_>
    <_>
      106. 255. 126.</_>
    <_>
      105. 255. 101.</_>
    <_>
      105. 255. 101.</_>
    <_>
      105. 255. 103.</_>
    <_>
      105. 255. 103.</_>
    <_>
      106. 255. 108.</_>
    <_>
      106. 255. 111.</_>
    <_>
      108. 251. 58.</_>
    <_>
      108. 247. 62.</_>
    <_>
      109. 255. 50.</_>
    <_>
      109. 249. 46.</_>
    <_>
      109. 249. 46.</_>
    <_>
      108. 243. 41.</_>
    <_>
      108. 243. 41.</_>
    <_>
      108. 243. 41.</_>
    <_>
      108. 243. 41.</_>
    <_>
      108. 243. 41.</_>
    <_>
      106. 255. 133.</_>
    <_>
      106. 255. 125.</_>
    <_>
      106. 255. 148.</_>
    <_>
      106. 255. 148.</_>
    <_>
      106. 255. 149.</_>
    <_>
      106. 255. 152.</_>
    <_>
      106. 209. 128.</_>
    <_>
      105. 221. 142.</_>
    <_>
      105. 235. 64.</_>
    <_>
      106. 207. 138.</_>
    <_>
      106. 228. 140.</_>
    <_>
      105. 238. 132.</_>
    <_>
      106. 217. 146.</_>
    <_>
      106. 228. 153.</_>
    <_>
      105. 255. 74.</_>
    <_>
      106. 237. 111.</_>
    <_>
      108. 255. 199.</_>
    <_>
      107. 255. 224.</_>
    <_>
      108. 255. 203.</_>
    <_>
      108. 255. 196.</_>
    <_>
      108. 255. 208.</_>
    <_>
      108. 255. 205.</_>
    <_>
      108. 255. 206.</_>
    <_>
      106. 255. 182.</_>
    <_>
      106. 255. 120.</_>
    <_>
      106. 255. 123.</_>
    <_>
      106. 255. 123.</_>
    <_>
      105. 253. 116.</_>
    <_>
      112. 216. 143.</_>
    <_>
      112. 216. 145.</_>
    <_>
      112. 229. 158.</_>
    <_>
      112. 226. 159.</_>
    <_>
      112. 223. 157.</_>
    <_>
      112. 222. 155.</_>
    <_>
      106. 255. 48.</_>
    <_>
      106. 185. 142.</_>
    <_>
      106. 200. 140.</_>
    <_>
      102. 241. 204.</_>
    <_>
      102. 240. 207.</_>
    <_>
      112. 204. 70.</_>
    <_>
      112. 218. 75.</_>
    <_>
      112. 222. 85.</_>
    <_>
      109. 255. 87.</_>
    <_>
      111. 235. 90.</_></support_vectors>
  <decision_functions>
    <_>
      <sv_count>670</sv_count>
      <rho>2.2070831083267961e-01</rho>
      <alpha>
        5.9592299255471687e-02 7.5706624867260666e-02
        1.0000000000000001e-01 1.0000000000000001e-01
        1.0000000000000001e-01 3.0987771726520980e-02
        1.0000000000000001e-01 1.0000000000000001e-01
        1.0000000000000001e-01 1.0000000000000001e-01
        1.0000000000000001e-01 1.0000000000000001e-01
        8.7813158082935133e-02 1.7878623393289481e-02
        1.0000000000000001e-01 1.0000000000000001e-01
        1.0000000000000001e-01 1.0000000000000001e-01
        1.0000000000000001e-01 1.0000000000000001e-01
        1.0000000000000001e-01 3.8478997386773177e-02
        1.0000000000000001e-01 1.0000000000000001e-01
        2.3773340251421873e-02 1.0000000000000001e-01
        5.2081191863189810e-02 1.0000000000000001e-01
        1.0000000000000001e-01 5.9033140931207040e-02
        6.5863878533842013e-02 1.0000000000000001e-01
        1.1908737380766393e-02 1.0000000000000001e-01
        1.0000000000000001e-01 1.0000000000000001e-01
        4.0731197394037830e-03 7.2191935256741308e-02
        1.0000000000000001e-01 1.0000000000000001e-01
        1.0000000000000001e-01 1.0000000000000001e-01
        8.6976657518032213e-02 1.0000000000000001e-01
        1.0000000000000001e-01 7.5525000134186726e-02
        1.0000000000000001e-01 4.6884384105481174e-02
        5.4511944871317858e-02 1.0000000000000001e-01
        1.0000000000000001e-01 1.0000000000000001e-01
        1.0000000000000001e-01 1.0000000000000001e-01
        6.8223232113047635e-02 1.0000000000000001e-01
        1.0000000000000001e-01 1.0000000000000001e-01
        1.0000000000000001e-01 1.0000000000000001e-01
        1.0000000000000001e-01 1.9944421211461782e-02
        1.0000000000000001e-01 1.0000000000000001e-01
        5.7269486185723875e-02 3.8659689683039136e-02
        7.8008405979918496e-02 1.0000000000000001e-01
        1.0000000000000001e-01 1.0000000000000001e-01
        1.0000000000000001e-01 1.0000000000000001e-01
        1.0000000000000001e-01 8.0209386449701964e-02
        1.0000000000000001e-01 1.0000000000000001e-01
        1.0000000000000001e-01 1.0000000000000001e-01
        7.7916073057728838e-02 1.0000000000000001e-01
        2.7162654281199902e-02 1.0000000000000001e-01
        1.0000000000000001e-01 1.0000000000000001e-01
        1.0000000000000001e-01 1.0000000000000001e-01
        4.8485382354132092e-02 1.0000000000000001e-01
        1.0000000000000001e-01 6.3726977135505555e-02
        1.0000000000000001e-01 1.0000000000000001e-01
        1.0000000000000001e-01 2.7329477071559555e-02
        7.8144372440763610e-02 1.0000000000000001e-01
        1.0000000000000001e-01 1.0000000000000001e-01
        1.0000000000000001e-01 5.1822287410948589e-02
        3.7597414856304523e-02 1.0000000000000001e-01
        8.0975288242873200e-02 1.0000000000000001e-01
        1.0000000000000001e-01 3.2723536163903652e-02
        1.0000000000000001e-01 1.0000000000000001e-01
        1.0000000000000001e-01 1.0000000000000001e-01
        1.0000000000000001e-01 8.0112023970889776e-02
        1.0000000000000001e-01 1.0000000000000001e-01
        1.0000000000000001e-01 1.0000000000000001e-01
        1.0000000000000001e-01 1.0000000000000001e-01
        3.3601541378814818e-02 7.5236348739845416e-02
        1.0000000000000001e-01 1.0000000000000001e-01
        1.0000000000000001e-01 1.0404156095472853e-02
        1.0000000000000001e-01 1.0000000000000001e-01
        1.0000000000000001e-01 1.0000000000000001e-01
        1.0000000000000001e-01 1.0000000000000001e-01
        7.1163873335908387e-02 1.0000000000000001e-01
        1.0000000000000001e-01 1.0000000000000001e-01
        3.1516056776661229e-02 1.0000000000000001e-01
        1.9501336476182324e-02 1.0000000000000001e-01
        1.0000000000000001e-01 2.6538152259694817e-02
        1.0000000000000001e-01 1.0000000000000001e-01
        1.0000000000000001e-01 1.0000000000000001e-01
        1.0000000000000001e-01 1.0000000000000001e-01
        1.0000000000000001e-01 2.0070691752108565e-03
        1.0000000000000001e-01 1.0000000000000001e-01
        1.0000000000000001e-01 1.0000000000000001e-01
        1.5511733331786820e-02 1.0000000000000001e-01
        1.0000000000000001e-01 1.0000000000000001e-01
        1.0000000000000001e-01 1.0000000000000001e-01
        1.0000000000000001e-01 1.0000000000000001e-01
        1.0000000000000001e-01 1.0000000000000001e-01
        1.0000000000000001e-01 1.0000000000000001e-01
        1.2562090949769452e-02 1.1824004531228199e-02
        9.2252668425093221e-03 1.0000000000000001e-01
        1.0000000000000001e-01 1.0000000000000001e-01
        1.0000000000000001e-01 1.0000000000000001e-01
        1.0000000000000001e-01 1.0000000000000001e-01
        4.3573222410197968e-02 1.0000000000000001e-01
        3.7204668620898981e-02 9.8034823999658943e-03
        1.0000000000000001e-01 2.0326482663616127e-02
        9.1405960638033995e-02 1.0000000000000001e-01
        2.5103196233417547e-02 1.0000000000000001e-01
        7.2478176055606955e-02 4.7870611060464502e-02
        1.0000000000000001e-01 1.0000000000000001e-01
        9.0788301411887470e-02 1.0000000000000001e-01
        3.2409873107128020e-02 1.0000000000000001e-01
        1.0000000000000001e-01 1.0000000000000001e-01
        1.0000000000000001e-01 3.6601667496854312e-02
        1.0000000000000001e-01 1.0000000000000001e-01
        8.7369326898102759e-03 1.0000000000000001e-01
        1.0000000000000001e-01 1.0000000000000001e-01
        1.0000000000000001e-01 4.8085845860302373e-02
        1.0000000000000001e-01 3.2606303523199646e-02
        1.0000000000000001e-01 9.1438681982391648e-02
        1.0000000000000001e-01 1.0000000000000001e-01
        3.8392111808687401e-02 9.5086284369060289e-02
        1.0000000000000001e-01 1.0000000000000001e-01
        9.5946769657404354e-02 1.0000000000000001e-01
        2.5710911875920561e-02 1.0000000000000001e-01
        4.7104294579306837e-02 9.3106315371150813e-02
        1.0000000000000001e-01 1.0000000000000001e-01
        1.0000000000000001e-01 6.5804291414911315e-02
        1.0000000000000001e-01 1.0000000000000001e-01
        5.5983025593260245e-02 1.0000000000000001e-01
        1.0000000000000001e-01 1.0000000000000001e-01
        1.0000000000000001e-01 1.0000000000000001e-01
        1.0000000000000001e-01 1.0000000000000001e-01
        1.0000000000000001e-01 1.0000000000000001e-01
        1.0000000000000001e-01 4.1648522162421625e-02
        1.0000000000000001e-01 1.0000000000000001e-01
        9.4437448906733765e-02 1.0000000000000001e-01
        1.0000000000000001e-01 1.0000000000000001e-01
        1.0000000000000001e-01 1.0000000000000001e-01
        1.0000000000000001e-01 3.9859030946019322e-02
        1.0000000000000001e-01 9.6844544384861481e-02
        2.4831032604972783e-02 1.0000000000000001e-01
        1.0000000000000001e-01 1.0000000000000001e-01
        1.0000000000000001e-01 1.0000000000000001e-01
        1.0000000000000001e-01 1.0000000000000001e-01
        1.0000000000000001e-01 1.0000000000000001e-01
        1.0000000000000001e-01 1.0000000000000001e-01
        1.0000000000000001e-01 1.0000000000000001e-01
        8.3750818092631810e-02 8.5239526013201200e-03
        7.5481656697156063e-02 1.5629413153878800e-02
        3.2984061559358055e-02 8.4384208824533433e-03
        5.5644158065932023e-02 1.0000000000000001e-01
        9.6096936951244841e-02 1.0000000000000001e-01
        1.0000000000000001e-01 1.0000000000000001e-01
        1.0000000000000001e-01 1.0000000000000001e-01
        4.9822570490437611e-02 4.4839294832561737e-02
        1.0000000000000001e-01 5.9551039461042010e-02
        1.0000000000000001e-01 1.0000000000000001e-01
        1.0000000000000001e-01 1.0000000000000001e-01
        1.0000000000000001e-01 1.0000000000000001e-01
        1.0000000000000001e-01 9.6493518041025211e-02
        5.9998028180274970e-02 1.0000000000000001e-01
        1.0000000000000001e-01 1.0000000000000001e-01
        1.0000000000000001e-01 1.0000000000000001e-01
        1.0000000000000001e-01 1.0000000000000001e-01
        1.0000000000000001e-01 4.4451928193923483e-02
        7.7304876457791660e-02 3.6009545354554122e-03
        1.5866020411116059e-02 1.0000000000000001e-01
        1.0000000000000001e-01 5.3253193908135502e-02
        1.0000000000000001e-01 8.1014587869323071e-02
        1.0000000000000001e-01 5.3174383860103841e-02
        2.6572262245475976e-02 1.3627333499273725e-02
        1.3377225187052453e-02 9.6186223390908196e-02
        2.7198874567395080e-02 1.0000000000000001e-01
        1.0000000000000001e-01 1.0000000000000001e-01
        2.0410925389802277e-02 1.0000000000000001e-01
        5.2876676405169611e-02 1.0000000000000001e-01
        1.0000000000000001e-01 1.0000000000000001e-01
        1.0000000000000001e-01 1.0000000000000001e-01
        1.0000000000000001e-01 1.0000000000000001e-01
        3.6223855086429488e-02 3.1110569349734572e-02
        1.0000000000000001e-01 9.3328791958862400e-03
        7.6606245814555274e-03 8.5050800835132140e-02
        -1.0000000000000001e-01 -1.0000000000000001e-01
        -1.0000000000000001e-01 -1.0000000000000001e-01
        -1.0000000000000001e-01 -7.0900831966452527e-02
        -1.0000000000000001e-01 -3.5568178278551132e-02
        -4.2371696538129985e-02 -1.0000000000000001e-01
        -1.0000000000000001e-01 -8.5227223952612743e-02
        -1.0000000000000001e-01 -1.0000000000000001e-01
        -1.0000000000000001e-01 -1.0000000000000001e-01
        -1.0000000000000001e-01 -1.0000000000000001e-01
        -6.7819108084941987e-02 -6.2992519991026980e-02
        -1.0000000000000001e-01 -1.0000000000000001e-01
        -7.1794100453244775e-03 -2.9378678629824493e-02
        -6.9504024262086475e-02 -4.3368550444453258e-02
        -1.0000000000000001e-01 -1.0000000000000001e-01
        -1.0000000000000001e-01 -1.0000000000000001e-01
        -4.7841499120678227e-02 -1.0000000000000001e-01
        -7.1168480377321722e-02 -9.2327481640486528e-02
        -1.0000000000000001e-01 -8.5430520775621493e-02
        -6.0126839547634973e-02 -1.0000000000000001e-01
        -1.0000000000000001e-01 -1.0000000000000001e-01
        -1.0000000000000001e-01 -1.0000000000000001e-01
        -1.0000000000000001e-01 -4.4475911544999275e-03
        -1.0000000000000001e-01 -1.0000000000000001e-01
        -3.4089057135554053e-02 -1.0000000000000001e-01
        -1.0000000000000001e-01 -8.9969191232822876e-02
        -8.2431670707703422e-02 -1.0000000000000001e-01
        -1.0000000000000001e-01 -8.1393406206397304e-02
        -4.8163303954487646e-03 -7.7875404126056577e-02
        -1.0000000000000001e-01 -6.2203390482638114e-03
        -1.0000000000000001e-01 -1.0000000000000001e-01
        -1.0000000000000001e-01 -1.0000000000000001e-01
        -1.0000000000000001e-01 -1.0000000000000001e-01
        -1.0000000000000001e-01 -1.0000000000000001e-01
        -2.8088637416232472e-02 -1.0000000000000001e-01
        -1.0000000000000001e-01 -1.0000000000000001e-01
        -1.0000000000000001e-01 -1.0000000000000001e-01
        -1.0000000000000001e-01 -1.0000000000000001e-01
        -1.0000000000000001e-01 -1.0000000000000001e-01
        -3.1259834037738132e-02 -1.0000000000000001e-01
        -1.0000000000000001e-01 -1.0000000000000001e-01
        -1.0000000000000001e-01 -6.7480394573297561e-02
        -1.0000000000000001e-01 -1.0000000000000001e-01
        -3.6482184077982316e-02 -1.0000000000000001e-01
        -1.0000000000000001e-01 -3.7011363606311312e-02
        -1.0000000000000001e-01 -6.5815039092739794e-02
        -5.8083650710844759e-02 -1.0000000000000001e-01
        -1.0000000000000001e-01 -3.0459777132384958e-02
        -1.0000000000000001e-01 -1.0000000000000001e-01
        -1.0000000000000001e-01 -1.0000000000000001e-01
        -1.0000000000000001e-01 -1.0000000000000001e-01
        -1.0982059737014207e-02 -1.0000000000000001e-01
        -1.0000000000000001e-01 -1.0000000000000001e-01
        -1.0000000000000001e-01 -1.0000000000000001e-01
        -1.0000000000000001e-01 -5.5983275064402552e-02
        -4.5249709734153626e-02 -1.0000000000000001e-01
        -1.0000000000000001e-01 -1.0000000000000001e-01
        -9.5058722652513014e-02 -3.7261317700645214e-03
        -7.9970982721105505e-03 -4.7464799281064896e-02
        -1.0000000000000001e-01 -1.0000000000000001e-01
        -8.1979955400847265e-02 -1.0000000000000001e-01
        -4.6050006513049538e-02 -5.4991486388257113e-02
        -1.0000000000000001e-01 -1.0000000000000001e-01
        -1.0000000000000001e-01 -5.5577873814920825e-02
        -1.0000000000000001e-01 -2.3484861996289325e-02
        -1.0000000000000001e-01 -1.0000000000000001e-01
        -3.0719788445072324e-02 -7.2663378286000141e-02
        -1.0000000000000001e-01 -1.0000000000000001e-01
        -1.0000000000000001e-01 -5.5223383202688006e-02
        -8.6010850196913166e-02 -4.0351780940897676e-02
        -1.0000000000000001e-01 -1.0000000000000001e-01
        -5.3281196918213973e-02 -1.0000000000000001e-01
        -1.4819174325864663e-02 -1.0000000000000001e-01
        -1.0000000000000001e-01 -1.0000000000000001e-01
        -1.0000000000000001e-01 -1.0000000000000001e-01
        -1.0000000000000001e-01 -7.6693232200532396e-02
        -1.0000000000000001e-01 -1.0000000000000001e-01
        -1.0000000000000001e-01 -5.2636036225817022e-02
        -1.4660919056325999e-02 -4.8692957575016238e-02
        -7.2171539294467901e-02 -9.1334847189810747e-02
        -1.0000000000000001e-01 -7.9883657459164675e-02
        -1.0000000000000001e-01 -6.1019346678221495e-02
        -5.3381826470344909e-02 -2.2542863353184832e-02
        -9.1393192616776628e-02 -1.0000000000000001e-01
        -9.5022221568292389e-02 -1.0000000000000001e-01
        -1.0000000000000001e-01 -1.0000000000000001e-01
        -1.0000000000000001e-01 -1.0000000000000001e-01
        -1.0000000000000001e-01 -1.0000000000000001e-01
        -1.0000000000000001e-01 -1.0000000000000001e-01
        -2.6144734614532827e-03 -8.7299254920964020e-02
        -5.2802158890982595e-02 -1.0000000000000001e-01
        -1.0000000000000001e-01 -1.7111858222699755e-02
        -5.3709771069587450e-02 -2.0823092339515258e-02
        -2.1081333846530197e-02 -1.0000000000000001e-01
        -1.0000000000000001e-01 -1.4574458320355029e-02
        -1.0000000000000001e-01 -3.3321977149343068e-02
        -1.0000000000000001e-01 -1.0000000000000001e-01
        -1.2306036713512138e-02 -9.6211142871902272e-02
        -1.0000000000000001e-01 -1.0000000000000001e-01
        -1.0000000000000001e-01 -1.0000000000000001e-01
        -6.0573132835536378e-02 -1.0000000000000001e-01
        -9.7442070639237183e-02 -1.0000000000000001e-01
        -1.0000000000000001e-01 -1.0000000000000001e-01
        -2.6979637013829515e-02 -1.0000000000000001e-01
        -1.0000000000000001e-01 -1.0000000000000001e-01
        -4.1988145267892463e-03 -1.0000000000000001e-01
        -1.0000000000000001e-01 -1.0000000000000001e-01
        -1.0000000000000001e-01 -1.0000000000000001e-01
        -1.0000000000000001e-01 -1.0000000000000001e-01
        -1.0000000000000001e-01 -7.5303230642024571e-02
        -1.0000000000000001e-01 -1.0000000000000001e-01
        -1.0000000000000001e-01 -1.0000000000000001e-01
        -1.0000000000000001e-01 -2.2678140741754338e-02
        -5.2187249042618053e-02 -1.0000000000000001e-01
        -1.0000000000000001e-01 -5.9064354237295308e-02
        -1.0000000000000001e-01 -1.0000000000000001e-01
        -1.0000000000000001e-01 -1.0000000000000001e-01
        -1.0000000000000001e-01 -1.0100750560396846e-02
        -1.0000000000000001e-01 -1.0000000000000001e-01
        -1.0000000000000001e-01 -4.2864644725457935e-03
        -1.0000000000000001e-01 -1.0000000000000001e-01
        -7.4664374470145515e-03 -1.0000000000000001e-01
        -1.0000000000000001e-01 -1.1064211060767257e-02
        -8.1179880286612452e-02 -1.0000000000000001e-01
        -5.1307632056305855e-02 -1.0000000000000001e-01
        -1.0000000000000001e-01 -1.0000000000000001e-01
        -1.0000000000000001e-01 -1.0000000000000001e-01
        -1.0000000000000001e-01 -1.0000000000000001e-01
        -9.2835286218613464e-02 -1.0000000000000001e-01
        -5.1081606063494954e-02 -4.6185728453658842e-02
        -1.3770691594474381e-02 -1.0000000000000001e-01
        -1.0000000000000001e-01 -1.0000000000000001e-01
        -1.0000000000000001e-01 -1.0000000000000001e-01
        -7.3656032695339796e-02 -1.0000000000000001e-01
        -2.2704942473084237e-02 -6.9540222867615048e-02
        -5.7726374726103064e-02 -1.0169772135218913e-02
        -1.0000000000000001e-01 -1.0000000000000001e-01
        -6.6976092789158337e-02 -1.0000000000000001e-01
        -1.0000000000000001e-01 -1.0000000000000001e-01
        -1.0000000000000001e-01 -1.0000000000000001e-01
        -1.0000000000000001e-01 -1.0000000000000001e-01
        -6.4632692724700486e-02 -4.4914283972573535e-02
        -1.0000000000000001e-01 -1.0000000000000001e-01
        -4.2262047359192763e-02 -1.0000000000000001e-01
        -1.0000000000000001e-01 -5.3871582875429910e-02
        -1.0000000000000001e-01 -1.0000000000000001e-01
        -1.0000000000000001e-01 -1.0000000000000001e-01
        -1.0000000000000001e-01 -5.3715894986146144e-02
        -1.0000000000000001e-01 -3.9073437100517014e-02
        -8.8535673712775070e-02 -9.1637448206235109e-02
        -1.0000000000000001e-01 -1.0000000000000001e-01
        -1.0000000000000001e-01 -5.6779213450749794e-02
        -1.0000000000000001e-01 -1.0000000000000001e-01
        -1.0000000000000001e-01 -1.0000000000000001e-01
        -4.6054102899354368e-02 -1.0000000000000001e-01
        -1.0000000000000001e-01 -1.0000000000000001e-01
        -1.0000000000000001e-01 -1.0000000000000001e-01
        -1.0000000000000001e-01 -3.9649819134276162e-02
        -1.0000000000000001e-01 -4.7875665124951242e-02
        -1.0000000000000001e-01 -1.0000000000000001e-01
        -1.0000000000000001e-01 -1.0000000000000001e-01
        -4.6332762670765755e-02 -1.0000000000000001e-01
        -1.0000000000000001e-01 -1.0000000000000001e-01
        -1.0000000000000001e-01 -1.0000000000000001e-01
        -1.0000000000000001e-01 -1.0000000000000001e-01
        -1.0000000000000001e-01 -7.6494094589718703e-03
        -1.0000000000000001e-01 -1.0000000000000001e-01
        -1.0000000000000001e-01 -1.0000000000000001e-01
        -1.0000000000000001e-01 -1.7923163606305192e-02</alpha>
      <index>
        337 338 339 340 341 342 343 344 345 346 347 348 349 350 351 352
        353 354 355 356 357 358 359 360 361 362 363 364 365 366 367 368
        369 370 371 372 373 374 375 376 377 378 379 380 381 382 383 384
        385 386 387 388 389 390 391 392 393 394 395 396 397 398 399 400
        401 402 403 404 405 406 407 408 409 410 411 412 413 414 415 416
        417 418 419 420 421 422 423 424 425 426 427 428 429 430 431 432
        433 434 435 436 437 438 439 440 441 442 443 444 445 446 447 448
        449 450 451 452 453 454 455 456 457 458 459 460 461 462 463 464
        465 466 467 468 469 470 471 472 473 474 475 476 477 478 479 480
        481 482 483 484 485 486 487 488 489 490 491 492 493 494 495 496
        497 498 499 500 501 502 503 504 505 506 507 508 509 510 511 512
        513 514 515 516 517 518 519 520 521 522 523 524 525 526 527 528
        529 530 531 532 533 534 535 536 537 538 539 540 541 542 543 544
        545 546 547 548 549 550 551 552 553 554 555 556 557 558 559 560
        561 562 563 564 565 566 567 568 569 570 571 572 573 574 575 576
        577 578 579 580 581 582 583 584 585 586 587 588 589 590 591 592
        593 594 595 596 597 598 599 600 601 602 603 604 605 606 607 608
        609 336 610 611 612 613 614 615 616 617 618 619 620 621 622 623
        624 625 626 627 628 629 630 631 632 633 634 635 636 637 638 639
        640 641 642 643 644 645 646 647 648 649 650 651 652 653 654 655
        656 657 658 659 660 661 662 663 664 665 666 667 668 669 0 1 2 3
        4 5 6 7 8 9 10 11 12 13 14 15 16 17 18 19 20 21 22 23 24 25 26
        27 28 29 30 31 32 33 34 35 36 37 38 39 40 41 42 43 44 45 46 47
        48 49 50 51 52 53 54 55 56 57 58 59 60 61 62 63 64 65 66 67 68
        69 70 71 72 73 74 75 76 77 78 79 80 81 82 83 84 85 86 87 88 89
        90 91 92 93 94 95 96 97 98 99 100 101 102 103 104 105 106 107
        108 109 110 111 112 113 114 115 116 117 118 119 120 121 122 123
        124 125 126 127 128 129 130 131 132 133 134 135 136 137 138 139
        140 141 142 143 144 145 146 147 148 149 150 151 152 153 154 155
        156 157 158 159 160 161 162 163 164 165 166 167 168 169 170 171
        172 173 174 175 176 177 178 179 180 181 182 183 184 185 186 187
        188 189 190 191 192 193 194 195 196 197 198 199 200 201 202 203
        204 205 206 207 208 209 210 211 212 213 214 215 216 217 218 219
        220 221 222 223 224 225 226 227 228 229 230 231 232 233 234 235
        236 237 238 239 240 241 242 243 244 245 246 247 248 249 250 251
        252 253 254 255 256 257 258 259 260 261 262 263 264 265 266 267
        268 269 270 271 272 273 274 275 276 277 278 279 280 281 282 283
        284 285 286 287 288 289 290 291 292 293 294 295 296 297 298 299
        300 301 302 303 304 305 306 307 308 309 310 311 312 313 314 315
        316 317 318 319 320 321 322 323 324 325 326 327 328 329 330 331
        332 333 334 335</index></_></decision_functions></opencv_ml_svm>
</opencv_storage>
