<?xml version="1.0"?>
<opencv_storage>
<opencv_ml_svm>
  <format>3</format>
  <svmType>C_SVC</svmType>
  <kernel>
    <type>RBF</type>
    <gamma>1.0000000000000001e-05</gamma></kernel>
  <C>1.0000000000000001e-01</C>
  <term_criteria><epsilon>1.1920928955078125e-07</epsilon>
    <iterations>1000</iterations></term_criteria>
  <var_count>3</var_count>
  <class_count>2</class_count>
  <class_labels type_id="opencv-matrix">
    <rows>2</rows>
    <cols>1</cols>
    <dt>i</dt>
    <data>
      -1 1</data></class_labels>
  <sv_total>2000</sv_total>
  <support_vectors>
    <_>
      4. 181. 135.</_>
    <_>
      6. 195. 148.</_>
    <_>
      6. 197. 149.</_>
    <_>
      6. 198. 148.</_>
    <_>
      6. 195. 148.</_>
    <_>
      6. 197. 149.</_>
    <_>
      6. 197. 149.</_>
    <_>
      6. 193. 149.</_>
    <_>
      6. 197. 149.</_>
    <_>
      6. 197. 149.</_>
    <_>
      6. 192. 150.</_>
    <_>
      6. 195. 150.</_>
    <_>
      6. 192. 150.</_>
    <_>
      6. 192. 150.</_>
    <_>
      6. 192. 150.</_>
    <_>
      6. 192. 150.</_>
    <_>
      6. 192. 150.</_>
    <_>
      6. 192. 150.</_>
    <_>
      6. 193. 148.</_>
    <_>
      6. 193. 148.</_>
    <_>
      6. 193. 149.</_>
    <_>
      6. 193. 149.</_>
    <_>
      6. 193. 148.</_>
    <_>
      6. 193. 148.</_>
    <_>
      6. 193. 149.</_>
    <_>
      6. 197. 149.</_>
    <_>
      6. 198. 147.</_>
    <_>
      6. 193. 148.</_>
    <_>
      6. 193. 149.</_>
    <_>
      6. 198. 148.</_>
    <_>
      6. 198. 148.</_>
    <_>
      6. 198. 147.</_>
    <_>
      6. 196. 148.</_>
    <_>
      6. 193. 149.</_>
    <_>
      6. 195. 148.</_>
    <_>
      6. 197. 149.</_>
    <_>
      6. 196. 148.</_>
    <_>
      6. 193. 148.</_>
    <_>
      6. 193. 148.</_>
    <_>
      6. 193. 148.</_>
    <_>
      6. 192. 149.</_>
    <_>
      6. 192. 149.</_>
    <_>
      6. 189. 146.</_>
    <_>
      6. 190. 141.</_>
    <_>
      6. 189. 142.</_>
    <_>
      6. 188. 140.</_>
    <_>
      6. 187. 143.</_>
    <_>
      6. 187. 147.</_>
    <_>
      6. 188. 140.</_>
    <_>
      6. 186. 140.</_>
    <_>
      6. 187. 143.</_>
    <_>
      6. 187. 147.</_>
    <_>
      6. 187. 139.</_>
    <_>
      6. 184. 136.</_>
    <_>
      6. 189. 139.</_>
    <_>
      6. 187. 147.</_>
    <_>
      6. 188. 138.</_>
    <_>
      6. 187. 134.</_>
    <_>
      6. 192. 137.</_>
    <_>
      6. 184. 136.</_>
    <_>
      6. 186. 133.</_>
    <_>
      6. 192. 137.</_>
    <_>
      6. 189. 146.</_>
    <_>
      7. 190. 134.</_>
    <_>
      6. 189. 131.</_>
    <_>
      6. 195. 135.</_>
    <_>
      6. 185. 135.</_>
    <_>
      6. 189. 131.</_>
    <_>
      6. 193. 136.</_>
    <_>
      6. 187. 147.</_>
    <_>
      6. 186. 140.</_>
    <_>
      6. 188. 138.</_>
    <_>
      6. 190. 141.</_>
    <_>
      6. 187. 147.</_>
    <_>
      9. 178. 192.</_>
    <_>
      9. 177. 186.</_>
    <_>
      9. 177. 186.</_>
    <_>
      9. 178. 185.</_>
    <_>
      9. 178. 185.</_>
    <_>
      9. 178. 185.</_>
    <_>
      9. 178. 185.</_>
    <_>
      9. 174. 182.</_>
    <_>
      9. 174. 182.</_>
    <_>
      9. 174. 182.</_>
    <_>
      9. 174. 182.</_>
    <_>
      9. 174. 182.</_>
    <_>
      9. 173. 190.</_>
    <_>
      9. 174. 189.</_>
    <_>
      9. 174. 189.</_>
    <_>
      9. 172. 199.</_>
    <_>
      9. 173. 198.</_>
    <_>
      9. 172. 191.</_>
    <_>
      9. 173. 190.</_>
    <_>
      9. 173. 190.</_>
    <_>
      9. 172. 191.</_>
    <_>
      9. 173. 190.</_>
    <_>
      9. 172. 191.</_>
    <_>
      9. 173. 197.</_>
    <_>
      9. 171. 192.</_>
    <_>
      9. 172. 191.</_>
    <_>
      9. 172. 191.</_>
    <_>
      9. 172. 191.</_>
    <_>
      9. 172. 191.</_>
    <_>
      9. 173. 198.</_>
    <_>
      9. 173. 197.</_>
    <_>
      9. 172. 191.</_>
    <_>
      9. 172. 191.</_>
    <_>
      9. 172. 191.</_>
    <_>
      9. 172. 191.</_>
    <_>
      9. 172. 191.</_>
    <_>
      9. 173. 198.</_>
    <_>
      9. 173. 198.</_>
    <_>
      9. 174. 189.</_>
    <_>
      9. 172. 191.</_>
    <_>
      9. 176. 194.</_>
    <_>
      9. 176. 194.</_>
    <_>
      9. 174. 189.</_>
    <_>
      9. 172. 191.</_>
    <_>
      9. 176. 194.</_>
    <_>
      9. 176. 194.</_>
    <_>
      8. 173. 178.</_>
    <_>
      8. 173. 178.</_>
    <_>
      9. 174. 189.</_>
    <_>
      9. 172. 191.</_>
    <_>
      9. 175. 192.</_>
    <_>
      9. 175. 192.</_>
    <_>
      8. 173. 178.</_>
    <_>
      8. 174. 177.</_>
    <_>
      9. 173. 190.</_>
    <_>
      9. 172. 191.</_>
    <_>
      9. 175. 192.</_>
    <_>
      9. 175. 192.</_>
    <_>
      9. 173. 190.</_>
    <_>
      9. 172. 191.</_>
    <_>
      9. 172. 191.</_>
    <_>
      9. 172. 191.</_>
    <_>
      9. 175. 192.</_>
    <_>
      9. 175. 192.</_>
    <_>
      9. 175. 192.</_>
    <_>
      9. 175. 192.</_>
    <_>
      9. 173. 190.</_>
    <_>
      9. 172. 191.</_>
    <_>
      9. 172. 191.</_>
    <_>
      9. 173. 190.</_>
    <_>
      9. 175. 192.</_>
    <_>
      9. 175. 192.</_>
    <_>
      9. 175. 192.</_>
    <_>
      9. 175. 192.</_>
    <_>
      8. 188. 182.</_>
    <_>
      9. 164. 242.</_>
    <_>
      9. 166. 240.</_>
    <_>
      9. 163. 241.</_>
    <_>
      6. 118. 255.</_>
    <_>
      8. 179. 177.</_>
    <_>
      8. 179. 177.</_>
    <_>
      8. 179. 177.</_>
    <_>
      8. 179. 177.</_>
    <_>
      8. 179. 177.</_>
    <_>
      8. 179. 177.</_>
    <_>
      8. 179. 177.</_>
    <_>
      8. 179. 177.</_>
    <_>
      8. 179. 177.</_>
    <_>
      8. 179. 177.</_>
    <_>
      8. 179. 177.</_>
    <_>
      8. 179. 177.</_>
    <_>
      179. 170. 48.</_>
    <_>
      0. 170. 60.</_>
    <_>
      1. 178. 73.</_>
    <_>
      179. 183. 106.</_>
    <_>
      0. 167. 55.</_>
    <_>
      179. 167. 64.</_>
    <_>
      1. 170. 78.</_>
    <_>
      179. 165. 62.</_>
    <_>
      0. 163. 72.</_>
    <_>
      1. 168. 85.</_>
    <_>
      179. 185. 105.</_>
    <_>
      179. 173. 68.</_>
    <_>
      179. 168. 76.</_>
    <_>
      1. 169. 89.</_>
    <_>
      179. 185. 105.</_>
    <_>
      179. 177. 75.</_>
    <_>
      179. 179. 80.</_>
    <_>
      179. 185. 105.</_>
    <_>
      179. 174. 82.</_>
    <_>
      0. 180. 85.</_>
    <_>
      1. 182. 94.</_>
    <_>
      1. 182. 94.</_>
    <_>
      1. 182. 94.</_>
    <_>
      179. 183. 106.</_>
    <_>
      179. 179. 100.</_>
    <_>
      179. 182. 98.</_>
    <_>
      179. 179. 100.</_>
    <_>
      178. 192. 113.</_>
    <_>
      179. 181. 107.</_>
    <_>
      179. 180. 99.</_>
    <_>
      179. 182. 98.</_>
    <_>
      179. 183. 106.</_>
    <_>
      179. 180. 99.</_>
    <_>
      179. 182. 98.</_>
    <_>
      0. 184. 86.</_>
    <_>
      179. 181. 107.</_>
    <_>
      179. 175. 102.</_>
    <_>
      179. 175. 102.</_>
    <_>
      0. 182. 87.</_>
    <_>
      0. 178. 86.</_>
    <_>
      179. 177. 101.</_>
    <_>
      179. 177. 101.</_>
    <_>
      179. 185. 105.</_>
    <_>
      0. 180. 85.</_>
    <_>
      0. 180. 85.</_>
    <_>
      179. 185. 105.</_>
    <_>
      179. 183. 106.</_>
    <_>
      179. 184. 97.</_>
    <_>
      0. 184. 86.</_>
    <_>
      0. 184. 86.</_>
    <_>
      179. 184. 97.</_>
    <_>
      179. 186. 96.</_>
    <_>
      179. 186. 96.</_>
    <_>
      1. 184. 93.</_>
    <_>
      1. 184. 93.</_>
    <_>
      1. 184. 93.</_>
    <_>
      179. 188. 95.</_>
    <_>
      179. 190. 94.</_>
    <_>
      1. 184. 93.</_>
    <_>
      179. 186. 96.</_>
    <_>
      179. 188. 95.</_>
    <_>
      1. 184. 93.</_>
    <_>
      179. 186. 96.</_>
    <_>
      179. 188. 95.</_>
    <_>
      179. 181. 93.</_>
    <_>
      179. 188. 95.</_>
    <_>
      179. 188. 95.</_>
    <_>
      0. 184. 86.</_>
    <_>
      0. 184. 86.</_>
    <_>
      0. 184. 86.</_>
    <_>
      179. 186. 96.</_>
    <_>
      179. 186. 96.</_>
    <_>
      179. 185. 95.</_>
    <_>
      179. 183. 96.</_>
    <_>
      179. 181. 93.</_>
    <_>
      0. 184. 86.</_>
    <_>
      0. 184. 86.</_>
    <_>
      0. 184. 86.</_>
    <_>
      179. 177. 118.</_>
    <_>
      179. 177. 118.</_>
    <_>
      179. 184. 97.</_>
    <_>
      179. 184. 97.</_>
    <_>
      179. 181. 97.</_>
    <_>
      179. 179. 94.</_>
    <_>
      0. 184. 86.</_>
    <_>
      0. 182. 87.</_>
    <_>
      0. 182. 87.</_>
    <_>
      9. 179. 214.</_>
    <_>
      9. 177. 213.</_>
    <_>
      9. 179. 211.</_>
    <_>
      9. 179. 211.</_>
    <_>
      10. 181. 210.</_>
    <_>
      9. 178. 211.</_>
    <_>
      9. 181. 213.</_>
    <_>
      9. 179. 214.</_>
    <_>
      9. 179. 214.</_>
    <_>
      9. 178. 212.</_>
    <_>
      10. 180. 213.</_>
    <_>
      10. 179. 212.</_>
    <_>
      9. 177. 212.</_>
    <_>
      9. 179. 219.</_>
    <_>
      9. 179. 216.</_>
    <_>
      9. 179. 216.</_>
    <_>
      10. 179. 214.</_>
    <_>
      9. 178. 212.</_>
    <_>
      9. 179. 214.</_>
    <_>
      9. 180. 222.</_>
    <_>
      9. 180. 223.</_>
    <_>
      9. 180. 218.</_>
    <_>
      9. 180. 217.</_>
    <_>
      9. 181. 215.</_>
    <_>
      9. 181. 214.</_>
    <_>
      9. 180. 215.</_>
    <_>
      10. 182. 226.</_>
    <_>
      10. 182. 225.</_>
    <_>
      9. 180. 222.</_>
    <_>
      9. 181. 217.</_>
    <_>
      9. 181. 217.</_>
    <_>
      9. 180. 217.</_>
    <_>
      9. 181. 216.</_>
    <_>
      9. 178. 215.</_>
    <_>
      10. 176. 230.</_>
    <_>
      10. 184. 226.</_>
    <_>
      10. 182. 225.</_>
    <_>
      9. 183. 222.</_>
    <_>
      9. 179. 219.</_>
    <_>
      9. 180. 218.</_>
    <_>
      9. 180. 217.</_>
    <_>
      9. 181. 215.</_>
    <_>
      9. 180. 214.</_>
    <_>
      9. 179. 215.</_>
    <_>
      10. 181. 224.</_>
    <_>
      10. 181. 224.</_>
    <_>
      9. 182. 223.</_>
    <_>
      9. 180. 222.</_>
    <_>
      9. 180. 219.</_>
    <_>
      9. 181. 217.</_>
    <_>
      10. 182. 223.</_>
    <_>
      10. 181. 224.</_>
    <_>
      9. 182. 223.</_>
    <_>
      9. 180. 220.</_>
    <_>
      9. 180. 219.</_>
    <_>
      9. 180. 218.</_>
    <_>
      10. 183. 222.</_>
    <_>
      10. 182. 223.</_>
    <_>
      9. 181. 221.</_>
    <_>
      9. 181. 224.</_>
    <_>
      9. 180. 223.</_>
    <_>
      9. 180. 222.</_>
    <_>
      9. 180. 223.</_>
    <_>
      9. 180. 220.</_>
    <_>
      9. 180. 220.</_>
    <_>
      9. 181. 224.</_>
    <_>
      9. 182. 223.</_>
    <_>
      9. 180. 222.</_>
    <_>
      9. 180. 223.</_>
    <_>
      9. 180. 223.</_>
    <_>
      9. 180. 218.</_>
    <_>
      9. 181. 224.</_>
    <_>
      9. 183. 223.</_>
    <_>
      9. 181. 223.</_>
    <_>
      9. 180. 217.</_>
    <_>
      9. 181. 224.</_>
    <_>
      9. 180. 223.</_>
    <_>
      9. 180. 223.</_>
    <_>
      9. 180. 218.</_>
    <_>
      9. 180. 225.</_>
    <_>
      9. 180. 225.</_>
    <_>
      9. 177. 231.</_>
    <_>
      9. 180. 225.</_>
    <_>
      9. 181. 224.</_>
    <_>
      9. 179. 219.</_>
    <_>
      9. 180. 223.</_>
    <_>
      9. 176. 209.</_>
    <_>
      9. 176. 209.</_>
    <_>
      9. 176. 209.</_>
    <_>
      9. 180. 222.</_>
    <_>
      9. 180. 220.</_>
    <_>
      9. 179. 219.</_>
    <_>
      9. 176. 209.</_>
    <_>
      9. 176. 209.</_>
    <_>
      9. 176. 209.</_>
    <_>
      9. 176. 209.</_>
    <_>
      9. 176. 209.</_>
    <_>
      9. 176. 207.</_>
    <_>
      9. 180. 222.</_>
    <_>
      9. 179. 219.</_>
    <_>
      9. 176. 209.</_>
    <_>
      9. 176. 209.</_>
    <_>
      9. 176. 209.</_>
    <_>
      9. 176. 209.</_>
    <_>
      9. 176. 209.</_>
    <_>
      9. 176. 207.</_>
    <_>
      9. 169. 239.</_>
    <_>
      9. 180. 224.</_>
    <_>
      9. 180. 223.</_>
    <_>
      4. 200. 115.</_>
    <_>
      6. 200. 143.</_>
    <_>
      6. 200. 138.</_>
    <_>
      6. 201. 152.</_>
    <_>
      6. 198. 152.</_>
    <_>
      6. 202. 149.</_>
    <_>
      6. 197. 145.</_>
    <_>
      6. 205. 137.</_>
    <_>
      6. 202. 135.</_>
    <_>
      6. 198. 138.</_>
    <_>
      6. 203. 151.</_>
    <_>
      6. 200. 143.</_>
    <_>
      6. 203. 137.</_>
    <_>
      6. 200. 135.</_>
    <_>
      5. 199. 136.</_>
    <_>
      6. 205. 152.</_>
    <_>
      6. 208. 147.</_>
    <_>
      6. 200. 149.</_>
    <_>
      6. 200. 144.</_>
    <_>
      6. 203. 138.</_>
    <_>
      6. 199. 136.</_>
    <_>
      6. 197. 137.</_>
    <_>
      6. 206. 152.</_>
    <_>
      6. 209. 144.</_>
    <_>
      6. 200. 143.</_>
    <_>
      6. 195. 140.</_>
    <_>
      6. 191. 140.</_>
    <_>
      6. 195. 141.</_>
    <_>
      6. 195. 140.</_>
    <_>
      6. 203. 148.</_>
    <_>
      6. 201. 142.</_>
    <_>
      6. 206. 140.</_>
    <_>
      6. 206. 136.</_>
    <_>
      6. 202. 143.</_>
    <_>
      6. 199. 147.</_>
    <_>
      6. 199. 146.</_>
    <_>
      6. 195. 148.</_>
    <_>
      6. 202. 149.</_>
    <_>
      6. 205. 142.</_>
    <_>
      7. 205. 138.</_>
    <_>
      6. 198. 144.</_>
    <_>
      6. 196. 152.</_>
    <_>
      7. 203. 146.</_>
    <_>
      6. 199. 146.</_>
    <_>
      6. 198. 152.</_>
    <_>
      6. 197. 146.</_>
    <_>
      6. 203. 141.</_>
    <_>
      6. 197. 145.</_>
    <_>
      6. 197. 149.</_>
    <_>
      6. 195. 150.</_>
    <_>
      6. 195. 148.</_>
    <_>
      6. 203. 141.</_>
    <_>
      6. 197. 146.</_>
    <_>
      6. 198. 151.</_>
    <_>
      6. 197. 145.</_>
    <_>
      6. 196. 147.</_>
    <_>
      6. 203. 148.</_>
    <_>
      6. 196. 147.</_>
    <_>
      6. 203. 147.</_>
    <_>
      6. 200. 149.</_>
    <_>
      6. 204. 141.</_>
    <_>
      6. 202. 145.</_>
    <_>
      6. 202. 145.</_>
    <_>
      6. 201. 146.</_>
    <_>
      6. 208. 141.</_>
    <_>
      6. 205. 142.</_>
    <_>
      6. 205. 142.</_>
    <_>
      6. 201. 146.</_>
    <_>
      6. 208. 141.</_>
    <_>
      7. 208. 142.</_>
    <_>
      6. 205. 142.</_>
    <_>
      6. 199. 147.</_>
    <_>
      6. 205. 143.</_>
    <_>
      7. 205. 144.</_>
    <_>
      6. 202. 144.</_>
    <_>
      6. 196. 152.</_>
    <_>
      6. 202. 145.</_>
    <_>
      7. 204. 145.</_>
    <_>
      6. 202. 145.</_>
    <_>
      6. 196. 152.</_>
    <_>
      6. 197. 146.</_>
    <_>
      179. 164. 251.</_>
    <_>
      179. 159. 250.</_>
    <_>
      179. 162. 251.</_>
    <_>
      8. 140. 158.</_>
    <_>
      8. 141. 157.</_>
    <_>
      8. 141. 165.</_>
    <_>
      8. 145. 169.</_>
    <_>
      8. 145. 169.</_>
    <_>
      8. 146. 168.</_>
    <_>
      8. 146. 168.</_>
    <_>
      8. 146. 168.</_>
    <_>
      8. 147. 166.</_>
    <_>
      8. 147. 166.</_>
    <_>
      8. 146. 168.</_>
    <_>
      8. 147. 167.</_>
    <_>
      8. 145. 169.</_>
    <_>
      8. 149. 170.</_>
    <_>
      8. 147. 167.</_>
    <_>
      8. 147. 167.</_>
    <_>
      8. 147. 168.</_>
    <_>
      8. 149. 170.</_>
    <_>
      8. 149. 169.</_>
    <_>
      8. 153. 168.</_>
    <_>
      8. 153. 170.</_>
    <_>
      8. 152. 169.</_>
    <_>
      8. 153. 170.</_>
    <_>
      8. 161. 171.</_>
    <_>
      8. 162. 170.</_>
    <_>
      8. 161. 169.</_>
    <_>
      8. 165. 175.</_>
    <_>
      5. 191. 253.</_>
    <_>
      179. 198. 248.</_>
    <_>
      177. 215. 241.</_>
    <_>
      176. 222. 238.</_>
    <_>
      176. 220. 234.</_>
    <_>
      6. 234. 193.</_>
    <_>
      6. 230. 187.</_>
    <_>
      4. 197. 253.</_>
    <_>
      176. 222. 234.</_>
    <_>
      6. 232. 191.</_>
    <_>
      6. 228. 188.</_>
    <_>
      4. 205. 248.</_>
    <_>
      176. 220. 234.</_>
    <_>
      7. 224. 189.</_>
    <_>
      3. 210. 245.</_>
    <_>
      6. 229. 193.</_>
    <_>
      7. 229. 189.</_>
    <_>
      7. 226. 186.</_>
    <_>
      2. 214. 245.</_>
    <_>
      7. 223. 190.</_>
    <_>
      7. 224. 188.</_>
    <_>
      2. 220. 239.</_>
    <_>
      7. 227. 188.</_>
    <_>
      7. 226. 185.</_>
    <_>
      7. 225. 188.</_>
    <_>
      7. 228. 186.</_>
    <_>
      7. 230. 184.</_>
    <_>
      7. 228. 186.</_>
    <_>
      8. 230. 183.</_>
    <_>
      7. 231. 183.</_>
    <_>
      7. 228. 180.</_>
    <_>
      7. 230. 182.</_>
    <_>
      7. 231. 183.</_>
    <_>
      7. 228. 171.</_>
    <_>
      8. 232. 174.</_>
    <_>
      8. 231. 180.</_>
    <_>
      7. 231. 183.</_>
    <_>
      6. 223. 169.</_>
    <_>
      7. 231. 167.</_>
    <_>
      8. 234. 169.</_>
    <_>
      8. 235. 175.</_>
    <_>
      7. 229. 183.</_>
    <_>
      6. 224. 163.</_>
    <_>
      8. 234. 160.</_>
    <_>
      8. 235. 165.</_>
    <_>
      8. 236. 171.</_>
    <_>
      7. 230. 180.</_>
    <_>
      7. 226. 158.</_>
    <_>
      7. 232. 158.</_>
    <_>
      8. 234. 161.</_>
    <_>
      7. 234. 170.</_>
    <_>
      7. 227. 180.</_>
    <_>
      6. 220. 162.</_>
    <_>
      6. 225. 162.</_>
    <_>
      6. 224. 166.</_>
    <_>
      6. 224. 173.</_>
    <_>
      10. 199. 187.</_>
    <_>
      8. 206. 194.</_>
    <_>
      7. 223. 194.</_>
    <_>
      8. 228. 180.</_>
    <_>
      174. 216. 198.</_>
    <_>
      173. 219. 200.</_>
    <_>
      173. 218. 205.</_>
    <_>
      173. 218. 205.</_>
    <_>
      174. 214. 203.</_>
    <_>
      10. 200. 191.</_>
    <_>
      9. 209. 198.</_>
    <_>
      7. 228. 191.</_>
    <_>
      9. 230. 181.</_>
    <_>
      173. 217. 200.</_>
    <_>
      173. 221. 200.</_>
    <_>
      172. 221. 203.</_>
    <_>
      173. 220. 203.</_>
    <_>
      174. 218. 204.</_>
    <_>
      9. 194. 201.</_>
    <_>
      8. 201. 204.</_>
    <_>
      7. 226. 191.</_>
    <_>
      9. 230. 180.</_>
    <_>
      174. 215. 199.</_>
    <_>
      173. 216. 201.</_>
    <_>
      173. 219. 201.</_>
    <_>
      172. 222. 202.</_>
    <_>
      173. 220. 203.</_>
    <_>
      174. 219. 203.</_>
    <_>
      7. 224. 191.</_>
    <_>
      9. 235. 176.</_>
    <_>
      174. 218. 198.</_>
    <_>
      173. 216. 201.</_>
    <_>
      172. 219. 201.</_>
    <_>
      172. 221. 203.</_>
    <_>
      173. 218. 205.</_>
    <_>
      174. 218. 206.</_>
    <_>
      6. 235. 195.</_>
    <_>
      8. 228. 190.</_>
    <_>
      9. 236. 175.</_>
    <_>
      174. 219. 199.</_>
    <_>
      173. 217. 202.</_>
    <_>
      172. 222. 202.</_>
    <_>
      172. 222. 202.</_>
    <_>
      172. 218. 207.</_>
    <_>
      173. 218. 205.</_>
    <_>
      8. 223. 193.</_>
    <_>
      9. 230. 181.</_>
    <_>
      174. 218. 198.</_>
    <_>
      173. 216. 203.</_>
    <_>
      172. 221. 203.</_>
    <_>
      172. 218. 206.</_>
    <_>
      173. 209. 214.</_>
    <_>
      174. 207. 211.</_>
    <_>
      7. 221. 193.</_>
    <_>
      8. 211. 195.</_>
    <_>
      174. 214. 197.</_>
    <_>
      173. 216. 201.</_>
    <_>
      172. 203. 217.</_>
    <_>
      172. 206. 214.</_>
    <_>
      173. 207. 211.</_>
    <_>
      174. 185. 227.</_>
    <_>
      8. 212. 198.</_>
    <_>
      8. 206. 198.</_>
    <_>
      174. 215. 199.</_>
    <_>
      173. 209. 209.</_>
    <_>
      173. 205. 213.</_>
    <_>
      173. 186. 232.</_>
    <_>
      174. 182. 226.</_>
    <_>
      7. 218. 194.</_>
    <_>
      8. 210. 198.</_>
    <_>
      8. 206. 196.</_>
    <_>
      173. 219. 198.</_>
    <_>
      173. 214. 206.</_>
    <_>
      173. 208. 212.</_>
    <_>
      173. 201. 214.</_>
    <_>
      174. 182. 225.</_>
    <_>
      8. 215. 193.</_>
    <_>
      7. 222. 179.</_>
    <_>
      8. 211. 197.</_>
    <_>
      8. 206. 196.</_>
    <_>
      174. 216. 205.</_>
    <_>
      173. 221. 204.</_>
    <_>
      173. 217. 206.</_>
    <_>
      173. 207. 212.</_>
    <_>
      8. 218. 188.</_>
    <_>
      7. 233. 182.</_>
    <_>
      8. 214. 187.</_>
    <_>
      8. 208. 200.</_>
    <_>
      8. 208. 201.</_>
    <_>
      8. 212. 194.</_>
    <_>
      173. 237. 193.</_>
    <_>
      173. 226. 204.</_>
    <_>
      173. 223. 207.</_>
    <_>
      173. 223. 205.</_>
    <_>
      174. 205. 216.</_>
    <_>
      6. 242. 190.</_>
    <_>
      7. 222. 192.</_>
    <_>
      7. 230. 184.</_>
    <_>
      9. 221. 181.</_>
    <_>
      8. 211. 195.</_>
    <_>
      8. 210. 199.</_>
    <_>
      7. 214. 192.</_>
    <_>
      173. 237. 193.</_>
    <_>
      173. 241. 189.</_>
    <_>
      172. 218. 211.</_>
    <_>
      173. 222. 203.</_>
    <_>
      174. 215. 206.</_>
    <_>
      7. 222. 192.</_>
    <_>
      8. 223. 176.</_>
    <_>
      8. 209. 193.</_>
    <_>
      173. 232. 187.</_>
    <_>
      173. 232. 187.</_>
    <_>
      173. 226. 193.</_>
    <_>
      173. 218. 199.</_>
    <_>
      174. 212. 203.</_>
    <_>
      5. 247. 184.</_>
    <_>
      5. 254. 177.</_>
    <_>
      7. 236. 178.</_>
    <_>
      174. 216. 190.</_>
    <_>
      174. 219. 186.</_>
    <_>
      173. 202. 202.</_>
    <_>
      174. 211. 195.</_>
    <_>
      174. 220. 189.</_>
    <_>
      175. 199. 190.</_>
    <_>
      175. 177. 208.</_>
    <_>
      175. 179. 210.</_>
    <_>
      175. 199. 190.</_>
    <_>
      176. 179. 198.</_>
    <_>
      176. 161. 211.</_>
    <_>
      176. 162. 213.</_>
    <_>
      176. 174. 201.</_>
    <_>
      175. 200. 191.</_>
    <_>
      175. 199. 195.</_>
    <_>
      176. 173. 202.</_>
    <_>
      176. 160. 209.</_>
    <_>
      176. 162. 210.</_>
    <_>
      176. 176. 201.</_>
    <_>
      175. 196. 190.</_>
    <_>
      175. 197. 190.</_>
    <_>
      175. 200. 191.</_>
    <_>
      175. 199. 190.</_>
    <_>
      174. 214. 204.</_>
    <_>
      174. 221. 201.</_>
    <_>
      176. 172. 200.</_>
    <_>
      176. 158. 207.</_>
    <_>
      176. 174. 198.</_>
    <_>
      175. 195. 188.</_>
    <_>
      174. 196. 187.</_>
    <_>
      174. 203. 192.</_>
    <_>
      175. 200. 191.</_>
    <_>
      178. 157. 164.</_>
    <_>
      175. 193. 184.</_>
    <_>
      174. 210. 200.</_>
    <_>
      174. 218. 211.</_>
    <_>
      176. 172. 197.</_>
    <_>
      177. 157. 203.</_>
    <_>
      177. 154. 205.</_>
    <_>
      175. 196. 187.</_>
    <_>
      175. 199. 188.</_>
    <_>
      175. 199. 190.</_>
    <_>
      178. 158. 163.</_>
    <_>
      175. 193. 184.</_>
    <_>
      174. 209. 201.</_>
    <_>
      174. 218. 211.</_>
    <_>
      176. 170. 199.</_>
    <_>
      177. 153. 206.</_>
    <_>
      175. 199. 190.</_>
    <_>
      175. 199. 192.</_>
    <_>
      174. 213. 205.</_>
    <_>
      176. 173. 199.</_>
    <_>
      176. 173. 193.</_>
    <_>
      6. 145. 144.</_>
    <_>
      174. 214. 201.</_>
    <_>
      174. 221. 201.</_>
    <_>
      176. 171. 195.</_>
    <_>
      176. 170. 197.</_>
    <_>
      176. 176. 198.</_>
    <_>
      6. 147. 142.</_>
    <_>
      175. 195. 191.</_>
    <_>
      175. 177. 200.</_>
    <_>
      176. 175. 200.</_>
    <_>
      176. 170. 197.</_>
    <_>
      176. 160. 204.</_>
    <_>
      176. 170. 197.</_>
    <_>
      176. 175. 194.</_>
    <_>
      7. 156. 129.</_>
    <_>
      174. 221. 205.</_>
    <_>
      175. 196. 190.</_>
    <_>
      175. 193. 190.</_>
    <_>
      176. 173. 199.</_>
    <_>
      176. 170. 192.</_>
    <_>
      177. 153. 210.</_>
    <_>
      176. 171. 191.</_>
    <_>
      176. 172. 200.</_>
    <_>
      176. 169. 192.</_>
    <_>
      176. 174. 199.</_>
    <_>
      176. 170. 202.</_>
    <_>
      6. 138. 139.</_>
    <_>
      174. 221. 186.</_>
    <_>
      175. 201. 190.</_>
    <_>
      175. 197. 192.</_>
    <_>
      175. 198. 185.</_>
    <_>
      175. 192. 185.</_>
    <_>
      175. 176. 197.</_>
    <_>
      175. 171. 197.</_>
    <_>
      176. 161. 204.</_>
    <_>
      176. 167. 197.</_>
    <_>
      176. 172. 197.</_>
    <_>
      175. 192. 185.</_>
    <_>
      175. 197. 186.</_>
    <_>
      176. 167. 194.</_>
    <_>
      176. 173. 201.</_>
    <_>
      176. 170. 200.</_>
    <_>
      6. 133. 140.</_>
    <_>
      179. 148. 159.</_>
    <_>
      174. 216. 188.</_>
    <_>
      174. 218. 204.</_>
    <_>
      174. 218. 206.</_>
    <_>
      175. 200. 196.</_>
    <_>
      175. 199. 192.</_>
    <_>
      175. 197. 190.</_>
    <_>
      175. 198. 183.</_>
    <_>
      175. 188. 187.</_>
    <_>
      175. 170. 200.</_>
    <_>
      175. 174. 195.</_>
    <_>
      175. 172. 197.</_>
    <_>
      175. 193. 188.</_>
    <_>
      175. 198. 188.</_>
    <_>
      176. 169. 192.</_>
    <_>
      176. 167. 203.</_>
    <_>
      176. 167. 200.</_>
    <_>
      179. 147. 165.</_>
    <_>
      176. 171. 195.</_>
    <_>
      174. 203. 197.</_>
    <_>
      174. 210. 208.</_>
    <_>
      174. 210. 211.</_>
    <_>
      174. 201. 190.</_>
    <_>
      174. 197. 193.</_>
    <_>
      174. 199. 188.</_>
    <_>
      174. 196. 186.</_>
    <_>
      174. 179. 199.</_>
    <_>
      175. 174. 202.</_>
    <_>
      175. 192. 183.</_>
    <_>
      175. 196. 181.</_>
    <_>
      175. 194. 187.</_>
    <_>
      176. 170. 199.</_>
    <_>
      176. 168. 208.</_>
    <_>
      176. 171. 195.</_>
    <_>
      174. 203. 212.</_>
    <_>
      174. 204. 214.</_>
    <_>
      175. 200. 195.</_>
    <_>
      175. 198. 193.</_>
    <_>
      174. 200. 190.</_>
    <_>
      174. 197. 193.</_>
    <_>
      174. 199. 191.</_>
    <_>
      174. 198. 189.</_>
    <_>
      174. 195. 192.</_>
    <_>
      174. 196. 189.</_>
    <_>
      174. 194. 188.</_>
    <_>
      175. 195. 186.</_>
    <_>
      176. 170. 205.</_>
    <_>
      176. 168. 194.</_>
    <_>
      175. 178. 215.</_>
    <_>
      174. 201. 214.</_>
    <_>
      175. 198. 193.</_>
    <_>
      175. 197. 190.</_>
    <_>
      174. 199. 188.</_>
    <_>
      174. 197. 190.</_>
    <_>
      173. 200. 193.</_>
    <_>
      173. 200. 196.</_>
    <_>
      173. 206. 191.</_>
    <_>
      173. 202. 191.</_>
    <_>
      174. 196. 191.</_>
    <_>
      174. 216. 170.</_>
    <_>
      175. 240. 157.</_>
    <_>
      177. 163. 191.</_>
    <_>
      176. 176. 198.</_>
    <_>
      175. 197. 198.</_>
    <_>
      8. 134. 165.</_>
    <_>
      8. 134. 166.</_>
    <_>
      8. 132. 168.</_>
    <_>
      8. 133. 167.</_>
    <_>
      8. 134. 165.</_>
    <_>
      8. 134. 165.</_>
    <_>
      8. 134. 165.</_>
    <_>
      8. 133. 163.</_>
    <_>
      8. 132. 164.</_>
    <_>
      8. 132. 168.</_>
    <_>
      8. 133. 167.</_>
    <_>
      8. 134. 166.</_>
    <_>
      8. 132. 164.</_>
    <_>
      8. 132. 164.</_>
    <_>
      8. 132. 164.</_>
    <_>
      8. 131. 165.</_>
    <_>
      8. 132. 168.</_>
    <_>
      8. 134. 166.</_>
    <_>
      8. 132. 164.</_>
    <_>
      8. 133. 163.</_>
    <_>
      8. 133. 163.</_>
    <_>
      8. 132. 164.</_>
    <_>
      9. 132. 162.</_>
    <_>
      9. 131. 163.</_>
    <_>
      8. 132. 164.</_>
    <_>
      8. 132. 164.</_>
    <_>
      8. 132. 164.</_>
    <_>
      8. 132. 164.</_>
    <_>
      9. 131. 163.</_>
    <_>
      9. 131. 163.</_>
    <_>
      9. 131. 163.</_>
    <_>
      9. 131. 163.</_>
    <_>
      8. 133. 163.</_>
    <_>
      8. 132. 164.</_>
    <_>
      8. 132. 164.</_>
    <_>
      9. 131. 163.</_>
    <_>
      9. 131. 163.</_>
    <_>
      9. 131. 163.</_>
    <_>
      9. 129. 162.</_>
    <_>
      9. 130. 161.</_>
    <_>
      9. 131. 163.</_>
    <_>
      8. 132. 164.</_>
    <_>
      8. 132. 164.</_>
    <_>
      9. 132. 162.</_>
    <_>
      9. 132. 162.</_>
    <_>
      9. 131. 160.</_>
    <_>
      9. 130. 161.</_>
    <_>
      9. 130. 161.</_>
    <_>
      9. 131. 163.</_>
    <_>
      8. 133. 167.</_>
    <_>
      8. 134. 166.</_>
    <_>
      8. 129. 164.</_>
    <_>
      8. 128. 165.</_>
    <_>
      8. 128. 164.</_>
    <_>
      8. 129. 162.</_>
    <_>
      9. 131. 160.</_>
    <_>
      9. 131. 163.</_>
    <_>
      8. 136. 167.</_>
    <_>
      8. 134. 166.</_>
    <_>
      8. 134. 165.</_>
    <_>
      8. 129. 164.</_>
    <_>
      8. 129. 164.</_>
    <_>
      8. 129. 162.</_>
    <_>
      9. 132. 162.</_>
    <_>
      9. 131. 164.</_>
    <_>
      8. 134. 165.</_>
    <_>
      8. 134. 165.</_>
    <_>
      8. 132. 164.</_>
    <_>
      8. 132. 164.</_>
    <_>
      8. 127. 166.</_>
    <_>
      8. 127. 166.</_>
    <_>
      8. 127. 166.</_>
    <_>
      8. 131. 166.</_>
    <_>
      8. 140. 166.</_>
    <_>
      8. 138. 161.</_>
    <_>
      8. 140. 166.</_>
    <_>
      8. 139. 167.</_>
    <_>
      8. 140. 166.</_>
    <_>
      8. 138. 166.</_>
    <_>
      8. 139. 167.</_>
    <_>
      8. 140. 166.</_>
    <_>
      8. 138. 168.</_>
    <_>
      8. 138. 168.</_>
    <_>
      8. 141. 165.</_>
    <_>
      8. 141. 164.</_>
    <_>
      8. 141. 165.</_>
    <_>
      8. 138. 168.</_>
    <_>
      8. 140. 164.</_>
    <_>
      8. 139. 167.</_>
    <_>
      8. 146. 168.</_>
    <_>
      8. 145. 169.</_>
    <_>
      8. 145. 169.</_>
    <_>
      8. 149. 169.</_>
    <_>
      8. 148. 167.</_>
    <_>
      8. 147. 167.</_>
    <_>
      8. 147. 167.</_>
    <_>
      8. 145. 167.</_>
    <_>
      8. 146. 166.</_>
    <_>
      8. 149. 169.</_>
    <_>
      8. 147. 167.</_>
    <_>
      8. 147. 166.</_>
    <_>
      8. 147. 165.</_>
    <_>
      8. 147. 165.</_>
    <_>
      8. 147. 165.</_>
    <_>
      8. 149. 169.</_>
    <_>
      8. 150. 168.</_>
    <_>
      8. 147. 166.</_>
    <_>
      8. 147. 166.</_>
    <_>
      8. 147. 165.</_>
    <_>
      8. 148. 164.</_>
    <_>
      8. 148. 164.</_>
    <_>
      8. 148. 164.</_>
    <_>
      8. 147. 166.</_>
    <_>
      8. 147. 166.</_>
    <_>
      8. 147. 165.</_>
    <_>
      8. 147. 165.</_>
    <_>
      8. 142. 163.</_>
    <_>
      8. 147. 167.</_>
    <_>
      8. 147. 167.</_>
    <_>
      8. 147. 167.</_>
    <_>
      8. 153. 170.</_>
    <_>
      8. 153. 170.</_>
    <_>
      8. 157. 169.</_>
    <_>
      8. 156. 170.</_>
    <_>
      8. 152. 170.</_>
    <_>
      8. 152. 169.</_>
    <_>
      8. 152. 170.</_>
    <_>
      8. 152. 170.</_>
    <_>
      8. 152. 169.</_>
    <_>
      8. 149. 169.</_>
    <_>
      8. 149. 169.</_>
    <_>
      8. 152. 169.</_>
    <_>
      8. 157. 167.</_>
    <_>
      8. 157. 169.</_>
    <_>
      8. 152. 170.</_>
    <_>
      8. 152. 169.</_>
    <_>
      8. 152. 169.</_>
    <_>
      8. 153. 168.</_>
    <_>
      8. 156. 170.</_>
    <_>
      8. 154. 171.</_>
    <_>
      8. 155. 170.</_>
    <_>
      8. 154. 171.</_>
    <_>
      8. 172. 168.</_>
    <_>
      8. 167. 169.</_>
    <_>
      8. 174. 169.</_>
    <_>
      8. 174. 166.</_>
    <_>
      8. 169. 171.</_>
    <_>
      8. 174. 169.</_>
    <_>
      8. 173. 168.</_>
    <_>
      8. 170. 170.</_>
    <_>
      8. 174. 169.</_>
    <_>
      8. 172. 169.</_>
    <_>
      8. 170. 171.</_>
    <_>
      7. 211. 192.</_>
    <_>
      7. 211. 193.</_>
    <_>
      7. 211. 196.</_>
    <_>
      7. 213. 200.</_>
    <_>
      7. 212. 202.</_>
    <_>
      7. 215. 199.</_>
    <_>
      7. 214. 200.</_>
    <_>
      7. 217. 200.</_>
    <_>
      7. 214. 203.</_>
    <_>
      8. 205. 198.</_>
    <_>
      8. 207. 196.</_>
    <_>
      8. 208. 194.</_>
    <_>
      8. 208. 194.</_>
    <_>
      8. 207. 193.</_>
    <_>
      8. 204. 196.</_>
    <_>
      8. 127. 253.</_>
    <_>
      9. 135. 248.</_>
    <_>
      171. 214. 105.</_>
    <_>
      173. 212. 107.</_>
    <_>
      175. 200. 112.</_>
    <_>
      176. 190. 121.</_>
    <_>
      177. 176. 132.</_>
    <_>
      178. 165. 142.</_>
    <_>
      178. 158. 153.</_>
    <_>
      179. 151. 162.</_>
    <_>
      173. 210. 107.</_>
    <_>
      174. 198. 112.</_>
    <_>
      176. 185. 121.</_>
    <_>
      177. 174. 132.</_>
    <_>
      178. 161. 144.</_>
    <_>
      174. 198. 112.</_>
    <_>
      175. 184. 119.</_>
    <_>
      177. 171. 130.</_>
    <_>
      179. 160. 142.</_>
    <_>
      175. 185. 121.</_>
    <_>
      177. 171. 130.</_>
    <_>
      179. 159. 143.</_>
    <_>
      177. 174. 132.</_>
    <_>
      178. 160. 145.</_>
    <_>
      178. 164. 143.</_>
    <_>
      179. 152. 159.</_>
    <_>
      60. 255. 7.</_>
    <_>
      56. 170. 21.</_>
    <_>
      69. 255. 27.</_>
    <_>
      66. 181. 225.</_>
    <_>
      66. 182. 224.</_>
    <_>
      110. 128. 6.</_>
    <_>
      110. 153. 5.</_>
    <_>
      126. 128. 10.</_>
    <_>
      60. 71. 25.</_>
    <_>
      66. 149. 209.</_>
    <_>
      65. 153. 212.</_>
    <_>
      65. 158. 214.</_>
    <_>
      66. 168. 214.</_>
    <_>
      66. 151. 204.</_>
    <_>
      67. 155. 215.</_>
    <_>
      66. 157. 216.</_>
    <_>
      66. 161. 216.</_>
    <_>
      67. 131. 200.</_>
    <_>
      67. 145. 209.</_>
    <_>
      66. 164. 215.</_>
    <_>
      66. 126. 199.</_>
    <_>
      67. 141. 212.</_>
    <_>
      67. 156. 213.</_>
    <_>
      66. 128. 196.</_>
    <_>
      66. 139. 208.</_>
    <_>
      67. 156. 211.</_>
    <_>
      66. 142. 207.</_>
    <_>
      66. 154. 208.</_>
    <_>
      67. 157. 213.</_>
    <_>
      66. 164. 214.</_>
    <_>
      67. 165. 219.</_>
    <_>
      66. 170. 216.</_>
    <_>
      68. 173. 231.</_>
    <_>
      67. 172. 224.</_>
    <_>
      63. 170. 194.</_>
    <_>
      63. 169. 199.</_>
    <_>
      62. 168. 204.</_>
    <_>
      62. 170. 205.</_>
    <_>
      62. 175. 200.</_>
    <_>
      61. 177. 194.</_>
    <_>
      61. 178. 186.</_>
    <_>
      61. 173. 184.</_>
    <_>
      61. 172. 184.</_>
    <_>
      63. 184. 201.</_>
    <_>
      63. 177. 199.</_>
    <_>
      63. 177. 199.</_>
    <_>
      63. 177. 200.</_>
    <_>
      63. 178. 199.</_>
    <_>
      62. 178. 196.</_>
    <_>
      62. 182. 192.</_>
    <_>
      61. 182. 189.</_>
    <_>
      61. 177. 187.</_>
    <_>
      61. 172. 185.</_>
    <_>
      61. 172. 184.</_>
    <_>
      62. 182. 192.</_>
    <_>
      63. 188. 206.</_>
    <_>
      64. 178. 208.</_>
    <_>
      62. 183. 191.</_>
    <_>
      61. 180. 191.</_>
    <_>
      61. 175. 189.</_>
    <_>
      61. 170. 187.</_>
    <_>
      61. 171. 185.</_>
    <_>
      61. 171. 183.</_>
    <_>
      61. 177. 187.</_>
    <_>
      61. 179. 194.</_>
    <_>
      61. 181. 197.</_>
    <_>
      62. 183. 203.</_>
    <_>
      63. 188. 208.</_>
    <_>
      63. 189. 209.</_>
    <_>
      63. 186. 202.</_>
    <_>
      63. 170. 194.</_>
    <_>
      64. 176. 207.</_>
    <_>
      64. 186. 211.</_>
    <_>
      62. 186. 193.</_>
    <_>
      62. 182. 196.</_>
    <_>
      61. 177. 195.</_>
    <_>
      61. 172. 193.</_>
    <_>
      61. 171. 191.</_>
    <_>
      62. 170. 187.</_>
    <_>
      61. 176. 188.</_>
    <_>
      61. 178. 192.</_>
    <_>
      60. 179. 197.</_>
    <_>
      60. 181. 201.</_>
    <_>
      61. 183. 205.</_>
    <_>
      62. 185. 209.</_>
    <_>
      63. 187. 209.</_>
    <_>
      63. 187. 207.</_>
    <_>
      63. 186. 202.</_>
    <_>
      63. 162. 195.</_>
    <_>
      63. 171. 207.</_>
    <_>
      63. 179. 214.</_>
    <_>
      62. 179. 199.</_>
    <_>
      61. 176. 199.</_>
    <_>
      61. 172. 197.</_>
    <_>
      61. 171. 194.</_>
    <_>
      62. 173. 190.</_>
    <_>
      62. 172. 188.</_>
    <_>
      62. 175. 188.</_>
    <_>
      61. 178. 191.</_>
    <_>
      60. 176. 197.</_>
    <_>
      60. 180. 200.</_>
    <_>
      60. 182. 202.</_>
    <_>
      60. 183. 206.</_>
    <_>
      61. 184. 207.</_>
    <_>
      62. 187. 206.</_>
    <_>
      62. 185. 204.</_>
    <_>
      63. 162. 195.</_>
    <_>
      63. 164. 211.</_>
    <_>
      63. 173. 214.</_>
    <_>
      64. 185. 210.</_>
    <_>
      62. 178. 202.</_>
    <_>
      62. 177. 202.</_>
    <_>
      61. 173. 200.</_>
    <_>
      62. 176. 196.</_>
    <_>
      62. 179. 192.</_>
    <_>
      60. 177. 199.</_>
    <_>
      60. 180. 204.</_>
    <_>
      59. 183. 205.</_>
    <_>
      60. 182. 206.</_>
    <_>
      60. 183. 204.</_>
    <_>
      61. 185. 203.</_>
    <_>
      62. 185. 201.</_>
    <_>
      62. 185. 199.</_>
    <_>
      63. 157. 202.</_>
    <_>
      63. 163. 211.</_>
    <_>
      63. 172. 213.</_>
    <_>
      63. 178. 211.</_>
    <_>
      62. 181. 199.</_>
    <_>
      62. 178. 201.</_>
    <_>
      62. 179. 199.</_>
    <_>
      62. 176. 198.</_>
    <_>
      62. 178. 196.</_>
    <_>
      61. 180. 200.</_>
    <_>
      60. 180. 204.</_>
    <_>
      59. 185. 205.</_>
    <_>
      59. 184. 204.</_>
    <_>
      60. 182. 202.</_>
    <_>
      61. 181. 199.</_>
    <_>
      62. 183. 195.</_>
    <_>
      62. 184. 195.</_>
    <_>
      63. 161. 197.</_>
    <_>
      63. 161. 218.</_>
    <_>
      63. 170. 217.</_>
    <_>
      63. 180. 213.</_>
    <_>
      63. 186. 202.</_>
    <_>
      62. 183. 197.</_>
    <_>
      62. 181. 199.</_>
    <_>
      61. 180. 201.</_>
    <_>
      62. 180. 201.</_>
    <_>
      62. 181. 196.</_>
    <_>
      61. 179. 202.</_>
    <_>
      60. 180. 204.</_>
    <_>
      59. 183. 205.</_>
    <_>
      60. 182. 202.</_>
    <_>
      60. 181. 199.</_>
    <_>
      60. 178. 195.</_>
    <_>
      61. 181. 192.</_>
    <_>
      62. 182. 192.</_>
    <_>
      62. 183. 196.</_>
    <_>
      63. 162. 209.</_>
    <_>
      63. 166. 219.</_>
    <_>
      63. 177. 216.</_>
    <_>
      63. 179. 214.</_>
    <_>
      62. 183. 201.</_>
    <_>
      62. 179. 206.</_>
    <_>
      62. 179. 205.</_>
    <_>
      63. 180. 200.</_>
    <_>
      62. 177. 205.</_>
    <_>
      60. 178. 205.</_>
    <_>
      60. 180. 203.</_>
    <_>
      60. 178. 199.</_>
    <_>
      60. 179. 194.</_>
    <_>
      61. 179. 191.</_>
    <_>
      61. 180. 188.</_>
    <_>
      62. 180. 191.</_>
    <_>
      62. 181. 197.</_>
    <_>
      63. 168. 213.</_>
    <_>
      63. 173. 217.</_>
    <_>
      64. 180. 215.</_>
    <_>
      64. 176. 216.</_>
    <_>
      63. 183. 201.</_>
    <_>
      61. 182. 206.</_>
    <_>
      62. 182. 205.</_>
    <_>
      63. 184. 201.</_>
    <_>
      63. 178. 200.</_>
    <_>
      62. 180. 204.</_>
    <_>
      62. 179. 206.</_>
    <_>
      61. 179. 202.</_>
    <_>
      61. 179. 197.</_>
    <_>
      61. 179. 191.</_>
    <_>
      61. 177. 186.</_>
    <_>
      61. 176. 185.</_>
    <_>
      61. 178. 191.</_>
    <_>
      62. 178. 200.</_>
    <_>
      64. 168. 217.</_>
    <_>
      63. 172. 218.</_>
    <_>
      64. 177. 215.</_>
    <_>
      64. 174. 214.</_>
    <_>
      64. 172. 206.</_>
    <_>
      61. 182. 206.</_>
    <_>
      61. 181. 207.</_>
    <_>
      63. 185. 203.</_>
    <_>
      63. 179. 204.</_>
    <_>
      62. 179. 205.</_>
    <_>
      62. 179. 202.</_>
    <_>
      62. 177. 194.</_>
    <_>
      61. 177. 187.</_>
    <_>
      61. 174. 183.</_>
    <_>
      61. 172. 185.</_>
    <_>
      62. 175. 194.</_>
    <_>
      62. 175. 204.</_>
    <_>
      64. 163. 219.</_>
    <_>
      64. 169. 219.</_>
    <_>
      64. 172. 216.</_>
    <_>
      64. 176. 209.</_>
    <_>
      63. 182. 203.</_>
    <_>
      61. 181. 207.</_>
    <_>
      61. 179. 209.</_>
    <_>
      63. 183. 205.</_>
    <_>
      64. 177. 206.</_>
    <_>
      63. 181. 204.</_>
    <_>
      63. 180. 200.</_>
    <_>
      62. 178. 192.</_>
    <_>
      62. 174. 195.</_>
    <_>
      62. 174. 205.</_>
    <_>
      65. 158. 221.</_>
    <_>
      64. 163. 219.</_>
    <_>
      64. 169. 216.</_>
    <_>
      64. 172. 208.</_>
    <_>
      63. 180. 205.</_>
    <_>
      61. 180. 205.</_>
    <_>
      61. 179. 206.</_>
    <_>
      63. 182. 203.</_>
    <_>
      62. 174. 195.</_>
    <_>
      62. 176. 204.</_>
    <_>
      65. 160. 218.</_>
    <_>
      64. 165. 213.</_>
    <_>
      64. 166. 212.</_>
    <_>
      64. 168. 210.</_>
    <_>
      62. 175. 204.</_>
    <_>
      61. 175. 204.</_>
    <_>
      63. 181. 203.</_>
    <_>
      62. 174. 193.</_>
    <_>
      62. 176. 201.</_>
    <_>
      65. 161. 217.</_>
    <_>
      65. 163. 214.</_>
    <_>
      64. 165. 207.</_>
    <_>
      63. 170. 196.</_>
    <_>
      61. 171. 183.</_>
    <_>
      60. 174. 182.</_>
    <_>
      60. 175. 184.</_>
    <_>
      60. 174. 185.</_>
    <_>
      61. 175. 189.</_>
    <_>
      62. 173. 190.</_>
    <_>
      63. 179. 201.</_>
    <_>
      63. 180. 208.</_>
    <_>
      63. 185. 211.</_>
    <_>
      63. 185. 211.</_>
    <_>
      63. 182. 211.</_>
    <_>
      63. 184. 208.</_>
    <_>
      62. 175. 188.</_>
    <_>
      62. 174. 190.</_>
    <_>
      62. 177. 193.</_>
    <_>
      65. 162. 216.</_>
    <_>
      65. 167. 209.</_>
    <_>
      62. 173. 192.</_>
    <_>
      60. 175. 188.</_>
    <_>
      60. 176. 187.</_>
    <_>
      59. 177. 187.</_>
    <_>
      60. 173. 190.</_>
    <_>
      63. 183. 210.</_>
    <_>
      62. 186. 214.</_>
    <_>
      62. 188. 212.</_>
    <_>
      63. 185. 211.</_>
    <_>
      63. 183. 209.</_>
    <_>
      62. 177. 190.</_>
    <_>
      62. 174. 189.</_>
    <_>
      62. 174. 191.</_>
    <_>
      65. 161. 217.</_>
    <_>
      65. 166. 211.</_>
    <_>
      62. 171. 191.</_>
    <_>
      61. 172. 187.</_>
    <_>
      60. 173. 186.</_>
    <_>
      60. 174. 189.</_>
    <_>
      60. 170. 193.</_>
    <_>
      63. 174. 196.</_>
    <_>
      63. 180. 208.</_>
    <_>
      63. 182. 214.</_>
    <_>
      62. 184. 212.</_>
    <_>
      63. 184. 209.</_>
    <_>
      63. 183. 209.</_>
    <_>
      62. 175. 195.</_>
    <_>
      62. 177. 190.</_>
    <_>
      62. 175. 188.</_>
    <_>
      62. 174. 190.</_>
    <_>
      65. 162. 219.</_>
    <_>
      65. 166. 214.</_>
    <_>
      62. 173. 187.</_>
    <_>
      60. 174. 185.</_>
    <_>
      60. 171. 188.</_>
    <_>
      61. 171. 194.</_>
    <_>
      63. 174. 199.</_>
    <_>
      63. 181. 204.</_>
    <_>
      63. 182. 211.</_>
    <_>
      63. 182. 211.</_>
    <_>
      63. 184. 208.</_>
    <_>
      63. 185. 207.</_>
    <_>
      62. 177. 190.</_>
    <_>
      62. 175. 188.</_>
    <_>
      62. 174. 190.</_>
    <_>
      65. 163. 218.</_>
    <_>
      65. 166. 214.</_>
    <_>
      61. 176. 185.</_>
    <_>
      61. 175. 188.</_>
    <_>
      61. 175. 194.</_>
    <_>
      63. 184. 204.</_>
    <_>
      63. 182. 206.</_>
    <_>
      63. 182. 206.</_>
    <_>
      63. 185. 203.</_>
    <_>
      62. 174. 190.</_>
    <_>
      65. 165. 220.</_>
    <_>
      65. 168. 216.</_>
    <_>
      61. 174. 191.</_>
    <_>
      61. 174. 195.</_>
    <_>
      62. 176. 197.</_>
    <_>
      63. 184. 201.</_>
    <_>
      63. 185. 203.</_>
    <_>
      62. 174. 189.</_>
    <_>
      65. 166. 220.</_>
    <_>
      65. 170. 216.</_>
    <_>
      62. 174. 195.</_>
    <_>
      62. 174. 198.</_>
    <_>
      62. 174. 199.</_>
    <_>
      62. 174. 189.</_>
    <_>
      65. 166. 219.</_>
    <_>
      65. 171. 218.</_>
    <_>
      64. 176. 209.</_>
    <_>
      62. 174. 196.</_>
    <_>
      62. 176. 199.</_>
    <_>
      63. 179. 198.</_>
    <_>
      65. 167. 222.</_>
    <_>
      65. 173. 218.</_>
    <_>
      64. 176. 212.</_>
    <_>
      64. 179. 207.</_>
    <_>
      63. 172. 200.</_>
    <_>
      65. 167. 221.</_>
    <_>
      65. 173. 218.</_>
    <_>
      64. 178. 214.</_>
    <_>
      64. 179. 208.</_>
    <_>
      64. 173. 204.</_>
    <_>
      63. 179. 198.</_>
    <_>
      66. 170. 222.</_>
    <_>
      65. 175. 218.</_>
    <_>
      64. 180. 214.</_>
    <_>
      64. 181. 210.</_>
    <_>
      64. 172. 208.</_>
    <_>
      63. 179. 199.</_>
    <_>
      63. 181. 207.</_>
    <_>
      63. 184. 204.</_>
    <_>
      62. 171. 189.</_>
    <_>
      65. 170. 222.</_>
    <_>
      65. 177. 216.</_>
    <_>
      64. 182. 209.</_>
    <_>
      64. 172. 208.</_>
    <_>
      63. 168. 199.</_>
    <_>
      63. 181. 207.</_>
    <_>
      63. 184. 208.</_>
    <_>
      63. 188. 204.</_>
    <_>
      63. 186. 202.</_>
    <_>
      62. 172. 188.</_>
    <_>
      65. 169. 223.</_>
    <_>
      65. 177. 216.</_>
    <_>
      64. 174. 205.</_>
    <_>
      63. 181. 207.</_>
    <_>
      63. 185. 207.</_>
    <_>
      63. 186. 202.</_>
    <_>
      65. 169. 223.</_>
    <_>
      65. 178. 219.</_>
    <_>
      64. 183. 210.</_>
    <_>
      63. 180. 208.</_>
    <_>
      63. 185. 208.</_>
    <_>
      63. 188. 203.</_>
    <_>
      65. 168. 224.</_>
    <_>
      65. 176. 222.</_>
    <_>
      65. 182. 217.</_>
    <_>
      64. 183. 210.</_>
    <_>
      63. 182. 203.</_>
    <_>
      62. 180. 200.</_>
    <_>
      62. 173. 190.</_>
    <_>
      63. 184. 208.</_>
    <_>
      63. 184. 209.</_>
    <_>
      62. 183. 206.</_>
    <_>
      63. 183. 202.</_>
    <_>
      65. 165. 225.</_>
    <_>
      65. 172. 222.</_>
    <_>
      65. 180. 218.</_>
    <_>
      63. 179. 199.</_>
    <_>
      63. 181. 201.</_>
    <_>
      62. 179. 201.</_>
    <_>
      62. 172. 188.</_>
    <_>
      63. 182. 206.</_>
    <_>
      62. 180. 210.</_>
    <_>
      62. 181. 209.</_>
    <_>
      63. 180. 205.</_>
    <_>
      63. 181. 201.</_>
    <_>
      72. 255. 23.</_>
    <_>
      70. 245. 49.</_>
    <_>
      66. 150. 207.</_>
    <_>
      68. 173. 231.</_>
    <_>
      69. 204. 248.</_>
    <_>
      68. 198. 248.</_>
    <_>
      67. 194. 244.</_>
    <_>
      66. 190. 237.</_>
    <_>
      66. 190. 235.</_>
    <_>
      70. 255. 39.</_>
    <_>
      66. 161. 211.</_>
    <_>
      67. 163. 230.</_>
    <_>
      67. 176. 238.</_>
    <_>
      68. 186. 245.</_>
    <_>
      68. 199. 246.</_>
    <_>
      67. 194. 243.</_>
    <_>
      66. 190. 239.</_>
    <_>
      67. 191. 238.</_>
    <_>
      67. 171. 235.</_>
    <_>
      68. 182. 239.</_>
    <_>
      68. 189. 243.</_>
    <_>
      68. 181. 237.</_>
    <_>
      67. 192. 240.</_>
    <_>
      67. 192. 240.</_>
    <_>
      68. 172. 236.</_>
    <_>
      67. 189. 235.</_>
    <_>
      68. 190. 242.</_>
    <_>
      68. 194. 244.</_>
    <_>
      68. 182. 238.</_>
    <_>
      67. 193. 240.</_>
    <_>
      67. 194. 241.</_>
    <_>
      68. 175. 232.</_>
    <_>
      68. 186. 240.</_>
    <_>
      67. 188. 242.</_>
    <_>
      67. 193. 241.</_>
    <_>
      67. 193. 242.</_>
    <_>
      68. 191. 243.</_>
    <_>
      69. 178. 241.</_>
    <_>
      69. 181. 245.</_>
    <_>
      67. 191. 238.</_>
    <_>
      67. 194. 239.</_>
    <_>
      67. 193. 240.</_>
    <_>
      69. 179. 245.</_>
    <_>
      69. 181. 247.</_>
    <_>
      69. 171. 245.</_>
    <_>
      70. 179. 250.</_>
    <_>
      69. 169. 239.</_>
    <_>
      70. 170. 251.</_>
    <_>
      70. 179. 249.</_>
    <_>
      70. 168. 248.</_>
    <_>
      70. 171. 250.</_>
    <_>
      71. 170. 251.</_>
    <_>
      71. 175. 251.</_>
    <_>
      70. 178. 245.</_>
    <_>
      72. 176. 251.</_>
    <_>
      72. 170. 249.</_>
    <_>
      71. 174. 249.</_>
    <_>
      70. 176. 249.</_>
    <_>
      70. 182. 248.</_>
    <_>
      70. 174. 250.</_>
    <_>
      70. 174. 250.</_>
    <_>
      70. 180. 246.</_>
    <_>
      70. 176. 249.</_>
    <_>
      70. 179. 246.</_>
    <_>
      68. 187. 240.</_>
    <_>
      68. 187. 240.</_>
    <_>
      70. 176. 250.</_>
    <_>
      70. 179. 247.</_>
    <_>
      70. 177. 250.</_>
    <_>
      70. 180. 247.</_>
    <_>
      70. 178. 249.</_>
    <_>
      70. 180. 248.</_>
    <_>
      70. 177. 251.</_>
    <_>
      70. 178. 249.</_>
    <_>
      70. 177. 251.</_>
    <_>
      70. 177. 249.</_>
    <_>
      69. 180. 244.</_>
    <_>
      70. 175. 250.</_>
    <_>
      70. 175. 249.</_>
    <_>
      70. 171. 250.</_>
    <_>
      70. 173. 249.</_>
    <_>
      69. 180. 244.</_>
    <_>
      70. 167. 249.</_>
    <_>
      70. 172. 248.</_>
    <_>
      69. 177. 243.</_>
    <_>
      69. 165. 248.</_>
    <_>
      69. 168. 246.</_>
    <_>
      69. 176. 242.</_>
    <_>
      69. 161. 247.</_>
    <_>
      69. 168. 245.</_>
    <_>
      69. 174. 240.</_>
    <_>
      69. 161. 247.</_>
    <_>
      69. 168. 243.</_>
    <_>
      57. 218. 96.</_>
    <_>
      57. 220. 95.</_>
    <_>
      57. 219. 93.</_>
    <_>
      56. 215. 95.</_>
    <_>
      56. 211. 93.</_>
    <_>
      56. 212. 89.</_>
    <_>
      54. 216. 84.</_>
    <_>
      54. 218. 83.</_>
    <_>
      57. 220. 94.</_>
    <_>
      55. 205. 91.</_>
    <_>
      56. 217. 87.</_>
    <_>
      55. 214. 87.</_>
    <_>
      54. 213. 85.</_>
    <_>
      55. 202. 86.</_>
    <_>
      55. 218. 89.</_>
    <_>
      55. 212. 90.</_>
    <_>
      55. 219. 92.</_>
    <_>
      55. 216. 92.</_>
    <_>
      55. 193. 82.</_>
    <_>
      56. 217. 94.</_>
    <_>
      56. 209. 100.</_>
    <_>
      57. 218. 96.</_>
    <_>
      64. 255. 28.</_>
    <_>
      66. 236. 236.</_>
    <_>
      66. 247. 232.</_>
    <_>
      66. 243. 234.</_>
    <_>
      66. 242. 233.</_>
    <_>
      66. 239. 237.</_>
    <_>
      66. 239. 233.</_>
    <_>
      66. 235. 238.</_>
    <_>
      65. 215. 228.</_>
    <_>
      65. 222. 232.</_>
    <_>
      65. 223. 231.</_>
    <_>
      64. 217. 231.</_>
    <_>
      64. 223. 225.</_>
    <_>
      65. 215. 231.</_>
    <_>
      65. 225. 230.</_>
    <_>
      65. 225. 228.</_>
    <_>
      65. 223. 236.</_>
    <_>
      64. 219. 229.</_>
    <_>
      64. 219. 224.</_>
    <_>
      68. 246. 239.</_>
    <_>
      65. 224. 238.</_>
    <_>
      64. 222. 230.</_>
    <_>
      64. 220. 224.</_>
    <_>
      64. 216. 227.</_>
    <_>
      64. 213. 233.</_>
    <_>
      69. 250. 237.</_>
    <_>
      68. 249. 239.</_>
    <_>
      66. 238. 234.</_>
    <_>
      65. 231. 237.</_>
    <_>
      64. 225. 237.</_>
    <_>
      64. 223. 230.</_>
    <_>
      64. 222. 225.</_>
    <_>
      64. 217. 230.</_>
    <_>
      64. 213. 237.</_>
    <_>
      69. 254. 236.</_>
    <_>
      68. 250. 238.</_>
    <_>
      68. 249. 236.</_>
    <_>
      65. 235. 233.</_>
    <_>
      64. 230. 232.</_>
    <_>
      64. 225. 229.</_>
    <_>
      64. 220. 230.</_>
    <_>
      64. 215. 233.</_>
    <_>
      64. 213. 237.</_>
    <_>
      69. 254. 233.</_>
    <_>
      68. 251. 235.</_>
    <_>
      65. 233. 234.</_>
    <_>
      64. 233. 234.</_>
    <_>
      64. 231. 234.</_>
    <_>
      65. 225. 231.</_>
    <_>
      64. 220. 232.</_>
    <_>
      64. 215. 235.</_>
    <_>
      64. 216. 237.</_>
    <_>
      65. 228. 236.</_>
    <_>
      65. 231. 235.</_>
    <_>
      65. 231. 233.</_>
    <_>
      65. 228. 232.</_>
    <_>
      65. 220. 235.</_>
    <_>
      64. 216. 236.</_>
    <_>
      64. 218. 236.</_>
    <_>
      65. 223. 236.</_>
    <_>
      65. 224. 238.</_>
    <_>
      65. 228. 236.</_>
    <_>
      65. 218. 238.</_>
    <_>
      65. 218. 237.</_>
    <_>
      65. 220. 233.</_>
    <_>
      65. 219. 237.</_>
    <_>
      65. 226. 238.</_>
    <_>
      66. 221. 239.</_>
    <_>
      65. 214. 231.</_>
    <_>
      64. 216. 233.</_>
    <_>
      64. 218. 236.</_>
    <_>
      66. 224. 238.</_>
    <_>
      65. 208. 233.</_>
    <_>
      64. 211. 233.</_>
    <_>
      65. 217. 235.</_>
    <_>
      65. 210. 228.</_>
    <_>
      64. 207. 227.</_>
    <_>
      63. 200. 232.</_>
    <_>
      64. 206. 232.</_>
    <_>
      64. 213. 233.</_>
    <_>
      59. 239. 142.</_>
    <_>
      59. 248. 142.</_>
    <_>
      60. 246. 146.</_>
    <_>
      61. 246. 147.</_>
    <_>
      59. 239. 142.</_>
    <_>
      59. 246. 143.</_>
    <_>
      59. 245. 146.</_>
    <_>
      60. 245. 147.</_>
    <_>
      62. 246. 147.</_>
    <_>
      58. 237. 143.</_>
    <_>
      58. 250. 143.</_>
    <_>
      58. 246. 146.</_>
    <_>
      59. 243. 147.</_>
    <_>
      60. 239. 147.</_>
    <_>
      61. 239. 144.</_>
    <_>
      60. 235. 140.</_>
    <_>
      61. 239. 143.</_>
    <_>
      58. 235. 143.</_>
    <_>
      58. 244. 143.</_>
    <_>
      58. 246. 145.</_>
    <_>
      59. 241. 147.</_>
    <_>
      59. 238. 148.</_>
    <_>
      59. 236. 146.</_>
    <_>
      60. 234. 144.</_>
    <_>
      60. 230. 143.</_>
    <_>
      59. 234. 143.</_>
    <_>
      59. 239. 142.</_>
    <_>
      59. 241. 142.</_>
    <_>
      59. 227. 146.</_>
    <_>
      58. 239. 144.</_>
    <_>
      58. 241. 145.</_>
    <_>
      58. 241. 146.</_>
    <_>
      58. 236. 149.</_>
    <_>
      58. 236. 147.</_>
    <_>
      58. 237. 145.</_>
    <_>
      58. 237. 144.</_>
    <_>
      58. 237. 144.</_>
    <_>
      58. 241. 144.</_>
    <_>
      58. 246. 142.</_>
    <_>
      59. 220. 147.</_>
    <_>
      58. 234. 145.</_>
    <_>
      58. 237. 145.</_>
    <_>
      58. 238. 146.</_>
    <_>
      58. 233. 149.</_>
    <_>
      58. 234. 148.</_>
    <_>
      58. 239. 145.</_>
    <_>
      57. 237. 145.</_>
    <_>
      57. 239. 146.</_>
    <_>
      57. 243. 145.</_>
    <_>
      57. 248. 143.</_>
    <_>
      59. 230. 144.</_>
    <_>
      59. 226. 147.</_>
    <_>
      58. 228. 149.</_>
    <_>
      58. 231. 149.</_>
    <_>
      58. 236. 147.</_>
    <_>
      57. 239. 146.</_>
    <_>
      57. 239. 146.</_>
    <_>
      57. 243. 145.</_>
    <_>
      58. 241. 144.</_>
    <_>
      59. 224. 148.</_>
    <_>
      58. 228. 149.</_>
    <_>
      58. 236. 147.</_>
    <_>
      58. 236. 147.</_>
    <_>
      58. 236. 147.</_>
    <_>
      58. 239. 145.</_>
    <_>
      58. 239. 145.</_>
    <_>
      59. 224. 148.</_>
    <_>
      58. 229. 148.</_>
    <_>
      58. 231. 147.</_>
    <_>
      59. 231. 147.</_>
    <_>
      59. 234. 146.</_>
    <_>
      60. 231. 146.</_>
    <_>
      59. 226. 148.</_>
    <_>
      60. 227. 148.</_>
    <_>
      60. 229. 147.</_>
    <_>
      61. 238. 147.</_>
    <_>
      61. 238. 147.</_>
    <_>
      61. 238. 147.</_>
    <_>
      60. 229. 147.</_>
    <_>
      60. 231. 146.</_>
    <_>
      60. 236. 146.</_>
    <_>
      61. 239. 147.</_>
    <_>
      60. 239. 147.</_>
    <_>
      61. 243. 148.</_>
    <_>
      59. 229. 145.</_>
    <_>
      59. 227. 146.</_>
    <_>
      60. 243. 148.</_>
    <_>
      60. 245. 149.</_>
    <_>
      61. 245. 148.</_>
    <_>
      59. 226. 143.</_>
    <_>
      58. 232. 145.</_>
    <_>
      58. 236. 147.</_>
    <_>
      58. 234. 146.</_>
    <_>
      59. 224. 146.</_>
    <_>
      61. 238. 151.</_>
    <_>
      60. 243. 150.</_>
    <_>
      61. 250. 149.</_>
    <_>
      61. 248. 146.</_>
    <_>
      59. 232. 143.</_>
    <_>
      58. 239. 145.</_>
    <_>
      56. 241. 148.</_>
    <_>
      57. 240. 149.</_>
    <_>
      58. 231. 149.</_>
    <_>
      60. 237. 152.</_>
    <_>
      60. 243. 153.</_>
    <_>
      60. 250. 151.</_>
    <_>
      61. 252. 147.</_>
    <_>
      58. 235. 143.</_>
    <_>
      57. 241. 146.</_>
    <_>
      56. 246. 148.</_>
    <_>
      56. 246. 148.</_>
    <_>
      57. 238. 148.</_>
    <_>
      59. 231. 147.</_>
    <_>
      60. 237. 152.</_>
    <_>
      60. 243. 153.</_>
    <_>
      60. 248. 152.</_>
    <_>
      61. 248. 151.</_>
    <_>
      58. 237. 143.</_>
    <_>
      57. 244. 144.</_>
    <_>
      56. 248. 148.</_>
    <_>
      56. 250. 147.</_>
    <_>
      57. 241. 147.</_>
    <_>
      59. 232. 146.</_>
    <_>
      60. 231. 150.</_>
    <_>
      60. 237. 152.</_>
    <_>
      60. 243. 151.</_>
    <_>
      60. 247. 153.</_>
    <_>
      61. 247. 152.</_>
    <_>
      59. 236. 144.</_>
    <_>
      57. 244. 145.</_>
    <_>
      57. 246. 148.</_>
    <_>
      57. 243. 149.</_>
    <_>
      58. 236. 148.</_>
    <_>
      59. 231. 148.</_>
    <_>
      60. 233. 152.</_>
    <_>
      60. 242. 152.</_>
    <_>
      60. 243. 155.</_>
    <_>
      61. 247. 154.</_>
    <_>
      59. 234. 145.</_>
    <_>
      58. 238. 148.</_>
    <_>
      58. 241. 148.</_>
    <_>
      58. 238. 148.</_>
    <_>
      59. 231. 149.</_>
    <_>
      60. 228. 152.</_>
    <_>
      60. 237. 152.</_>
    <_>
      61. 245. 156.</_>
    <_>
      61. 245. 155.</_>
    <_>
      60. 231. 146.</_>
    <_>
      59. 233. 148.</_>
    <_>
      60. 229. 150.</_>
    <_>
      60. 228. 150.</_>
    <_>
      60. 230. 154.</_>
    <_>
      60. 242. 156.</_>
    <_>
      61. 247. 157.</_>
    <_>
      60. 230. 145.</_>
    <_>
      60. 232. 147.</_>
    <_>
      60. 229. 155.</_>
    <_>
      60. 240. 157.</_>
    <_>
      61. 244. 159.</_>
    <_>
      61. 234. 160.</_>
    <_>
      60. 229. 149.</_>
    <_>
      60. 240. 157.</_>
    <_>
      61. 244. 159.</_>
    <_>
      61. 234. 160.</_>
    <_>
      60. 228. 150.</_>
    <_>
      61. 240. 154.</_>
    <_>
      61. 242. 157.</_>
    <_>
      69. 255. 14.</_>
    <_>
      71. 242. 140.</_>
    <_>
      61. 234. 49.</_>
    <_>
      61. 234. 49.</_>
    <_>
      61. 234. 49.</_>
    <_>
      59. 209. 28.</_>
    <_>
      59. 221. 37.</_>
    <_>
      62. 245. 49.</_>
    <_>
      62. 250. 48.</_>
    <_>
      61. 243. 44.</_>
    <_>
      61. 240. 83.</_>
    <_>
      61. 238. 45.</_>
    <_>
      61. 241. 90.</_>
    <_>
      61. 235. 51.</_>
    <_>
      62. 246. 86.</_>
    <_>
      61. 239. 48.</_>
    <_>
      62. 255. 89.</_>
    <_>
      61. 246. 81.</_>
    <_>
      62. 246. 56.</_>
    <_>
      61. 234. 49.</_>
    <_>
      62. 252. 84.</_>
    <_>
      62. 245. 79.</_>
    <_>
      62. 240. 52.</_>
    <_>
      59. 230. 50.</_>
    <_>
      59. 230. 50.</_>
    <_>
      63. 239. 48.</_>
    <_>
      68. 255. 11.</_>
    <_>
      71. 228. 244.</_>
    <_>
      63. 255. 146.</_>
    <_>
      63. 255. 144.</_>
    <_>
      63. 253. 130.</_>
    <_>
      81. 248. 112.</_>
    <_>
      63. 253. 130.</_>
    <_>
      63. 255. 129.</_>
    <_>
      63. 255. 129.</_>
    <_>
      63. 255. 129.</_>
    <_>
      63. 255. 132.</_>
    <_>
      63. 255. 129.</_>
    <_>
      63. 255. 132.</_>
    <_>
      62. 255. 129.</_>
    <_>
      63. 255. 132.</_>
    <_>
      63. 255. 130.</_>
    <_>
      63. 255. 131.</_>
    <_>
      63. 255. 131.</_>
    <_>
      63. 255. 131.</_>
    <_>
      63. 255. 131.</_>
    <_>
      63. 255. 132.</_>
    <_>
      63. 255. 132.</_>
    <_>
      63. 255. 131.</_>
    <_>
      63. 255. 131.</_>
    <_>
      63. 255. 131.</_>
    <_>
      63. 255. 130.</_>
    <_>
      63. 255. 130.</_>
    <_>
      63. 255. 131.</_>
    <_>
      50. 114. 105.</_>
    <_>
      49. 113. 104.</_>
    <_>
      49. 106. 103.</_>
    <_>
      50. 102. 103.</_>
    <_>
      50. 114. 105.</_>
    <_>
      48. 111. 103.</_>
    <_>
      49. 106. 103.</_>
    <_>
      50. 102. 103.</_>
    <_>
      50. 107. 105.</_>
    <_>
      47. 111. 103.</_>
    <_>
      48. 105. 102.</_>
    <_>
      50. 102. 103.</_>
    <_>
      50. 108. 104.</_>
    <_>
      47. 111. 103.</_>
    <_>
      48. 105. 102.</_>
    <_>
      50. 102. 103.</_>
    <_>
      50. 108. 104.</_>
    <_>
      49. 106. 103.</_>
    <_>
      50. 102. 103.</_>
    <_>
      50. 102. 103.</_>
    <_>
      49. 113. 104.</_>
    <_>
      50. 108. 104.</_>
    <_>
      51. 114. 105.</_>
    <_>
      50. 114. 105.</_>
    <_>
      51. 114. 105.</_>
    <_>
      50. 118. 106.</_>
    <_>
      51. 113. 106.</_>
    <_>
      50. 115. 104.</_>
    <_>
      49. 113. 104.</_>
    <_>
      49. 112. 105.</_>
    <_>
      49. 111. 106.</_>
    <_>
      51. 106. 106.</_>
    <_>
      49. 112. 105.</_>
    <_>
      48. 113. 102.</_>
    <_>
      50. 109. 103.</_>
    <_>
      51. 113. 106.</_>
    <_>
      50. 116. 103.</_>
    <_>
      50. 108. 104.</_>
    <_>
      49. 105. 104.</_>
    <_>
      49. 106. 103.</_>
    <_>
      50. 107. 105.</_>
    <_>
      50. 101. 104.</_>
    <_>
      50. 101. 104.</_>
    <_>
      50. 100. 105.</_>
    <_>
      50. 102. 103.</_>
    <_>
      50. 101. 104.</_>
    <_>
      50. 102. 103.</_>
    <_>
      49. 108. 102.</_>
    <_>
      49. 106. 103.</_>
    <_>
      49. 108. 102.</_>
    <_>
      49. 106. 103.</_>
    <_>
      50. 103. 102.</_>
    <_>
      50. 103. 102.</_>
    <_>
      50. 101. 104.</_>
    <_>
      50. 100. 105.</_>
    <_>
      50. 109. 103.</_>
    <_>
      51. 107. 105.</_>
    <_>
      51. 106. 106.</_>
    <_>
      50. 107. 105.</_>
    <_>
      50. 108. 104.</_>
    <_>
      50. 108. 104.</_>
    <_>
      50. 107. 105.</_>
    <_>
      50. 107. 105.</_>
    <_>
      50. 107. 105.</_>
    <_>
      50. 108. 104.</_>
    <_>
      50. 109. 103.</_>
    <_>
      49. 109. 101.</_>
    <_>
      50. 108. 104.</_>
    <_>
      51. 107. 105.</_>
    <_>
      50. 107. 105.</_>
    <_>
      50. 108. 104.</_>
    <_>
      51. 107. 105.</_>
    <_>
      50. 108. 104.</_>
    <_>
      51. 107. 105.</_>
    <_>
      50. 108. 104.</_>
    <_>
      50. 108. 104.</_>
    <_>
      51. 107. 105.</_>
    <_>
      50. 108. 104.</_>
    <_>
      49. 108. 102.</_>
    <_>
      50. 108. 104.</_>
    <_>
      50. 110. 102.</_>
    <_>
      49. 108. 102.</_>
    <_>
      50. 108. 104.</_>
    <_>
      50. 108. 104.</_>
    <_>
      49. 108. 102.</_>
    <_>
      50. 109. 103.</_>
    <_>
      50. 108. 104.</_>
    <_>
      50. 108. 104.</_>
    <_>
      50. 109. 103.</_>
    <_>
      50. 110. 102.</_>
    <_>
      50. 108. 104.</_>
    <_>
      50. 107. 105.</_>
    <_>
      49. 106. 103.</_>
    <_>
      50. 107. 105.</_>
    <_>
      50. 108. 104.</_>
    <_>
      49. 106. 103.</_>
    <_>
      48. 105. 102.</_>
    <_>
      50. 101. 104.</_>
    <_>
      49. 105. 104.</_>
    <_>
      49. 106. 103.</_>
    <_>
      50. 108. 104.</_>
    <_>
      51. 107. 105.</_>
    <_>
      50. 107. 105.</_>
    <_>
      50. 108. 104.</_>
    <_>
      50. 106. 106.</_>
    <_>
      50. 108. 104.</_>
    <_>
      50. 108. 104.</_>
    <_>
      50. 107. 105.</_>
    <_>
      49. 108. 102.</_>
    <_>
      49. 106. 103.</_>
    <_>
      49. 106. 103.</_>
    <_>
      48. 105. 102.</_>
    <_>
      49. 109. 101.</_>
    <_>
      49. 106. 103.</_>
    <_>
      49. 108. 102.</_>
    <_>
      50. 107. 105.</_>
    <_>
      50. 108. 104.</_>
    <_>
      50. 108. 104.</_>
    <_>
      50. 106. 106.</_>
    <_>
      50. 106. 106.</_>
    <_>
      50. 108. 104.</_>
    <_>
      50. 107. 105.</_>
    <_>
      49. 108. 102.</_>
    <_>
      49. 106. 103.</_>
    <_>
      50. 108. 104.</_>
    <_>
      50. 107. 105.</_>
    <_>
      49. 106. 103.</_>
    <_>
      50. 107. 105.</_>
    <_>
      50. 108. 104.</_>
    <_>
      50. 110. 102.</_>
    <_>
      50. 109. 103.</_>
    <_>
      50. 109. 103.</_>
    <_>
      50. 110. 102.</_>
    <_>
      50. 107. 105.</_>
    <_>
      49. 106. 103.</_>
    <_>
      50. 107. 105.</_>
    <_>
      51. 107. 105.</_>
    <_>
      50. 108. 104.</_>
    <_>
      49. 108. 102.</_>
    <_>
      50. 108. 104.</_>
    <_>
      51. 107. 105.</_>
    <_>
      50. 108. 104.</_>
    <_>
      50. 108. 104.</_>
    <_>
      51. 107. 105.</_>
    <_>
      50. 109. 103.</_>
    <_>
      50. 108. 104.</_>
    <_>
      49. 109. 101.</_>
    <_>
      50. 109. 103.</_>
    <_>
      50. 108. 104.</_>
    <_>
      50. 107. 105.</_>
    <_>
      50. 107. 105.</_>
    <_>
      50. 107. 105.</_>
    <_>
      50. 107. 105.</_>
    <_>
      50. 110. 102.</_>
    <_>
      51. 106. 106.</_>
    <_>
      50. 106. 106.</_>
    <_>
      51. 107. 105.</_>
    <_>
      50. 100. 105.</_>
    <_>
      50. 101. 104.</_>
    <_>
      50. 103. 102.</_>
    <_>
      50. 103. 102.</_>
    <_>
      49. 106. 103.</_>
    <_>
      49. 108. 102.</_>
    <_>
      49. 108. 102.</_>
    <_>
      49. 106. 103.</_>
    <_>
      50. 103. 102.</_>
    <_>
      50. 103. 102.</_>
    <_>
      50. 101. 104.</_>
    <_>
      49. 108. 102.</_>
    <_>
      48. 106. 101.</_>
    <_>
      50. 101. 104.</_>
    <_>
      50. 100. 105.</_>
    <_>
      50. 101. 104.</_>
    <_>
      50. 101. 104.</_>
    <_>
      50. 107. 105.</_>
    <_>
      49. 106. 103.</_>
    <_>
      49. 106. 103.</_>
    <_>
      50. 107. 105.</_>
    <_>
      50. 110. 102.</_></support_vectors>
  <decision_functions>
    <_>
      <sv_count>2000</sv_count>
      <rho>2.4716141939163183e+00</rho>
      <alpha>
        1.0000000000000001e-01 1.0000000000000001e-01
        1.0000000000000001e-01 1.0000000000000001e-01
        1.0000000000000001e-01 1.0000000000000001e-01
        1.0000000000000001e-01 1.0000000000000001e-01
        1.0000000000000001e-01 1.0000000000000001e-01
        1.0000000000000001e-01 1.0000000000000001e-01
        1.0000000000000001e-01 1.0000000000000001e-01
        1.0000000000000001e-01 1.0000000000000001e-01
        1.0000000000000001e-01 1.0000000000000001e-01
        1.0000000000000001e-01 1.0000000000000001e-01
        1.0000000000000001e-01 1.0000000000000001e-01
        1.0000000000000001e-01 1.0000000000000001e-01
        1.0000000000000001e-01 1.0000000000000001e-01
        1.0000000000000001e-01 1.0000000000000001e-01
        1.0000000000000001e-01 1.0000000000000001e-01
        1.0000000000000001e-01 1.0000000000000001e-01
        1.0000000000000001e-01 1.0000000000000001e-01
        1.0000000000000001e-01 1.0000000000000001e-01
        1.0000000000000001e-01 1.0000000000000001e-01
        1.0000000000000001e-01 1.0000000000000001e-01
        1.0000000000000001e-01 1.0000000000000001e-01
        1.0000000000000001e-01 1.0000000000000001e-01
        1.0000000000000001e-01 1.0000000000000001e-01
        1.0000000000000001e-01 1.0000000000000001e-01
        1.0000000000000001e-01 1.0000000000000001e-01
        1.0000000000000001e-01 1.0000000000000001e-01
        1.0000000000000001e-01 1.0000000000000001e-01
        1.0000000000000001e-01 1.0000000000000001e-01
        1.0000000000000001e-01 1.0000000000000001e-01
        1.0000000000000001e-01 1.0000000000000001e-01
        1.0000000000000001e-01 1.0000000000000001e-01
        1.0000000000000001e-01 1.0000000000000001e-01
        1.0000000000000001e-01 1.0000000000000001e-01
        1.0000000000000001e-01 1.0000000000000001e-01
        1.0000000000000001e-01 1.0000000000000001e-01
        1.0000000000000001e-01 1.0000000000000001e-01
        1.0000000000000001e-01 1.0000000000000001e-01
        1.0000000000000001e-01 1.0000000000000001e-01
        1.0000000000000001e-01 1.0000000000000001e-01
        1.0000000000000001e-01 1.0000000000000001e-01
        1.0000000000000001e-01 1.0000000000000001e-01
        1.0000000000000001e-01 1.0000000000000001e-01
        1.0000000000000001e-01 1.0000000000000001e-01
        1.0000000000000001e-01 1.0000000000000001e-01
        1.0000000000000001e-01 1.0000000000000001e-01
        1.0000000000000001e-01 1.0000000000000001e-01
        1.0000000000000001e-01 1.0000000000000001e-01
        1.0000000000000001e-01 1.0000000000000001e-01
        1.0000000000000001e-01 1.0000000000000001e-01
        1.0000000000000001e-01 1.0000000000000001e-01
        1.0000000000000001e-01 1.0000000000000001e-01
        1.0000000000000001e-01 1.0000000000000001e-01
        1.0000000000000001e-01 1.0000000000000001e-01
        1.0000000000000001e-01 1.0000000000000001e-01
        1.0000000000000001e-01 1.0000000000000001e-01
        1.0000000000000001e-01 1.0000000000000001e-01
        1.0000000000000001e-01 1.0000000000000001e-01
        1.0000000000000001e-01 1.0000000000000001e-01
        1.0000000000000001e-01 1.0000000000000001e-01
        1.0000000000000001e-01 1.0000000000000001e-01
        1.0000000000000001e-01 1.0000000000000001e-01
        1.0000000000000001e-01 1.0000000000000001e-01
        1.0000000000000001e-01 1.0000000000000001e-01
        1.0000000000000001e-01 1.0000000000000001e-01
        1.0000000000000001e-01 1.0000000000000001e-01
        1.0000000000000001e-01 1.0000000000000001e-01
        1.0000000000000001e-01 1.0000000000000001e-01
        1.0000000000000001e-01 1.0000000000000001e-01
        1.0000000000000001e-01 1.0000000000000001e-01
        1.0000000000000001e-01 1.0000000000000001e-01
        1.0000000000000001e-01 1.0000000000000001e-01
        1.0000000000000001e-01 1.0000000000000001e-01
        1.0000000000000001e-01 1.0000000000000001e-01
        1.0000000000000001e-01 1.0000000000000001e-01
        1.0000000000000001e-01 1.0000000000000001e-01
        1.0000000000000001e-01 1.0000000000000001e-01
        1.0000000000000001e-01 1.0000000000000001e-01
        1.0000000000000001e-01 1.0000000000000001e-01
        1.0000000000000001e-01 1.0000000000000001e-01
        1.0000000000000001e-01 1.0000000000000001e-01
        1.0000000000000001e-01 1.0000000000000001e-01
        1.0000000000000001e-01 1.0000000000000001e-01
        1.0000000000000001e-01 1.0000000000000001e-01
        1.0000000000000001e-01 1.0000000000000001e-01
        1.0000000000000001e-01 1.0000000000000001e-01
        1.0000000000000001e-01 1.0000000000000001e-01
        1.0000000000000001e-01 1.0000000000000001e-01
        1.0000000000000001e-01 1.0000000000000001e-01
        1.0000000000000001e-01 1.0000000000000001e-01
        1.0000000000000001e-01 1.0000000000000001e-01
        1.0000000000000001e-01 1.0000000000000001e-01
        1.0000000000000001e-01 1.0000000000000001e-01
        1.0000000000000001e-01 1.0000000000000001e-01
        1.0000000000000001e-01 1.0000000000000001e-01
        1.0000000000000001e-01 1.0000000000000001e-01
        1.0000000000000001e-01 1.0000000000000001e-01
        1.0000000000000001e-01 1.0000000000000001e-01
        1.0000000000000001e-01 1.0000000000000001e-01
        1.0000000000000001e-01 1.0000000000000001e-01
        1.0000000000000001e-01 1.0000000000000001e-01
        1.0000000000000001e-01 1.0000000000000001e-01
        1.0000000000000001e-01 1.0000000000000001e-01
        1.0000000000000001e-01 1.0000000000000001e-01
        1.0000000000000001e-01 1.0000000000000001e-01
        1.0000000000000001e-01 1.0000000000000001e-01
        1.0000000000000001e-01 1.0000000000000001e-01
        1.0000000000000001e-01 1.0000000000000001e-01
        1.0000000000000001e-01 1.0000000000000001e-01
        1.0000000000000001e-01 1.0000000000000001e-01
        1.0000000000000001e-01 1.0000000000000001e-01
        1.0000000000000001e-01 1.0000000000000001e-01
        1.0000000000000001e-01 1.0000000000000001e-01
        1.0000000000000001e-01 1.0000000000000001e-01
        1.0000000000000001e-01 1.0000000000000001e-01
        1.0000000000000001e-01 1.0000000000000001e-01
        1.0000000000000001e-01 1.0000000000000001e-01
        1.0000000000000001e-01 1.0000000000000001e-01
        1.0000000000000001e-01 1.0000000000000001e-01
        1.0000000000000001e-01 1.0000000000000001e-01
        1.0000000000000001e-01 1.0000000000000001e-01
        1.0000000000000001e-01 1.0000000000000001e-01
        1.0000000000000001e-01 1.0000000000000001e-01
        1.0000000000000001e-01 1.0000000000000001e-01
        1.0000000000000001e-01 1.0000000000000001e-01
        1.0000000000000001e-01 1.0000000000000001e-01
        1.0000000000000001e-01 1.0000000000000001e-01
        1.0000000000000001e-01 1.0000000000000001e-01
        1.0000000000000001e-01 1.0000000000000001e-01
        1.0000000000000001e-01 1.0000000000000001e-01
        1.0000000000000001e-01 1.0000000000000001e-01
        1.0000000000000001e-01 1.0000000000000001e-01
        1.0000000000000001e-01 1.0000000000000001e-01
        1.0000000000000001e-01 1.0000000000000001e-01
        1.0000000000000001e-01 1.0000000000000001e-01
        1.0000000000000001e-01 1.0000000000000001e-01
        1.0000000000000001e-01 1.0000000000000001e-01
        1.0000000000000001e-01 1.0000000000000001e-01
        1.0000000000000001e-01 1.0000000000000001e-01
        1.0000000000000001e-01 1.0000000000000001e-01
        1.0000000000000001e-01 1.0000000000000001e-01
        1.0000000000000001e-01 1.0000000000000001e-01
        1.0000000000000001e-01 1.0000000000000001e-01
        1.0000000000000001e-01 1.0000000000000001e-01
        1.0000000000000001e-01 1.0000000000000001e-01
        1.0000000000000001e-01 1.0000000000000001e-01
        1.0000000000000001e-01 1.0000000000000001e-01
        1.0000000000000001e-01 1.0000000000000001e-01
        1.0000000000000001e-01 1.0000000000000001e-01
        1.0000000000000001e-01 1.0000000000000001e-01
        1.0000000000000001e-01 1.0000000000000001e-01
        1.0000000000000001e-01 1.0000000000000001e-01
        1.0000000000000001e-01 1.0000000000000001e-01
        1.0000000000000001e-01 1.0000000000000001e-01
        1.0000000000000001e-01 1.0000000000000001e-01
        1.0000000000000001e-01 1.0000000000000001e-01
        1.0000000000000001e-01 1.0000000000000001e-01
        1.0000000000000001e-01 1.0000000000000001e-01
        1.0000000000000001e-01 1.0000000000000001e-01
        1.0000000000000001e-01 1.0000000000000001e-01
        1.0000000000000001e-01 1.0000000000000001e-01
        1.0000000000000001e-01 1.0000000000000001e-01
        1.0000000000000001e-01 1.0000000000000001e-01
        1.0000000000000001e-01 1.0000000000000001e-01
        1.0000000000000001e-01 1.0000000000000001e-01
        1.0000000000000001e-01 1.0000000000000001e-01
        1.0000000000000001e-01 1.0000000000000001e-01
        1.0000000000000001e-01 1.0000000000000001e-01
        1.0000000000000001e-01 1.0000000000000001e-01
        1.0000000000000001e-01 1.0000000000000001e-01
        1.0000000000000001e-01 1.0000000000000001e-01
        1.0000000000000001e-01 1.0000000000000001e-01
        1.0000000000000001e-01 1.0000000000000001e-01
        1.0000000000000001e-01 1.0000000000000001e-01
        1.0000000000000001e-01 1.0000000000000001e-01
        1.0000000000000001e-01 1.0000000000000001e-01
        1.0000000000000001e-01 1.0000000000000001e-01
        1.0000000000000001e-01 1.0000000000000001e-01
        1.0000000000000001e-01 1.0000000000000001e-01
        1.0000000000000001e-01 1.0000000000000001e-01
        1.0000000000000001e-01 1.0000000000000001e-01
        1.0000000000000001e-01 1.0000000000000001e-01
        1.0000000000000001e-01 1.0000000000000001e-01
        1.0000000000000001e-01 1.0000000000000001e-01
        1.0000000000000001e-01 1.0000000000000001e-01
        1.0000000000000001e-01 1.0000000000000001e-01
        1.0000000000000001e-01 1.0000000000000001e-01
        1.0000000000000001e-01 1.0000000000000001e-01
        1.0000000000000001e-01 1.0000000000000001e-01
        1.0000000000000001e-01 1.0000000000000001e-01
        1.0000000000000001e-01 1.0000000000000001e-01
        1.0000000000000001e-01 1.0000000000000001e-01
        1.0000000000000001e-01 1.0000000000000001e-01
        1.0000000000000001e-01 1.0000000000000001e-01
        1.0000000000000001e-01 1.0000000000000001e-01
        1.0000000000000001e-01 1.0000000000000001e-01
        1.0000000000000001e-01 1.0000000000000001e-01
        1.0000000000000001e-01 1.0000000000000001e-01
        1.0000000000000001e-01 1.0000000000000001e-01
        1.0000000000000001e-01 1.0000000000000001e-01
        1.0000000000000001e-01 1.0000000000000001e-01
        1.0000000000000001e-01 1.0000000000000001e-01
        1.0000000000000001e-01 1.0000000000000001e-01
        1.0000000000000001e-01 1.0000000000000001e-01
        1.0000000000000001e-01 1.0000000000000001e-01
        1.0000000000000001e-01 1.0000000000000001e-01
        1.0000000000000001e-01 1.0000000000000001e-01
        1.0000000000000001e-01 1.0000000000000001e-01
        1.0000000000000001e-01 1.0000000000000001e-01
        1.0000000000000001e-01 1.0000000000000001e-01
        1.0000000000000001e-01 1.0000000000000001e-01
        1.0000000000000001e-01 1.0000000000000001e-01
        1.0000000000000001e-01 1.0000000000000001e-01
        1.0000000000000001e-01 1.0000000000000001e-01
        1.0000000000000001e-01 1.0000000000000001e-01
        1.0000000000000001e-01 1.0000000000000001e-01
        1.0000000000000001e-01 1.0000000000000001e-01
        1.0000000000000001e-01 1.0000000000000001e-01
        1.0000000000000001e-01 1.0000000000000001e-01
        1.0000000000000001e-01 1.0000000000000001e-01
        1.0000000000000001e-01 1.0000000000000001e-01
        1.0000000000000001e-01 1.0000000000000001e-01
        1.0000000000000001e-01 1.0000000000000001e-01
        1.0000000000000001e-01 1.0000000000000001e-01
        1.0000000000000001e-01 1.0000000000000001e-01
        1.0000000000000001e-01 1.0000000000000001e-01
        1.0000000000000001e-01 1.0000000000000001e-01
        1.0000000000000001e-01 1.0000000000000001e-01
        1.0000000000000001e-01 1.0000000000000001e-01
        1.0000000000000001e-01 1.0000000000000001e-01
        1.0000000000000001e-01 1.0000000000000001e-01
        1.0000000000000001e-01 1.0000000000000001e-01
        1.0000000000000001e-01 1.0000000000000001e-01
        1.0000000000000001e-01 1.0000000000000001e-01
        1.0000000000000001e-01 1.0000000000000001e-01
        1.0000000000000001e-01 1.0000000000000001e-01
        1.0000000000000001e-01 1.0000000000000001e-01
        1.0000000000000001e-01 1.0000000000000001e-01
        1.0000000000000001e-01 1.0000000000000001e-01
        1.0000000000000001e-01 1.0000000000000001e-01
        1.0000000000000001e-01 1.0000000000000001e-01
        1.0000000000000001e-01 1.0000000000000001e-01
        1.0000000000000001e-01 1.0000000000000001e-01
        1.0000000000000001e-01 1.0000000000000001e-01
        1.0000000000000001e-01 1.0000000000000001e-01
        1.0000000000000001e-01 1.0000000000000001e-01
        1.0000000000000001e-01 1.0000000000000001e-01
        1.0000000000000001e-01 1.0000000000000001e-01
        1.0000000000000001e-01 1.0000000000000001e-01
        1.0000000000000001e-01 1.0000000000000001e-01
        1.0000000000000001e-01 1.0000000000000001e-01
        1.0000000000000001e-01 1.0000000000000001e-01
        1.0000000000000001e-01 1.0000000000000001e-01
        1.0000000000000001e-01 1.0000000000000001e-01
        1.0000000000000001e-01 1.0000000000000001e-01
        1.0000000000000001e-01 1.0000000000000001e-01
        1.0000000000000001e-01 1.0000000000000001e-01
        1.0000000000000001e-01 1.0000000000000001e-01
        1.0000000000000001e-01 1.0000000000000001e-01
        1.0000000000000001e-01 1.0000000000000001e-01
        1.0000000000000001e-01 1.0000000000000001e-01
        1.0000000000000001e-01 1.0000000000000001e-01
        1.0000000000000001e-01 1.0000000000000001e-01
        1.0000000000000001e-01 1.0000000000000001e-01
        1.0000000000000001e-01 1.0000000000000001e-01
        1.0000000000000001e-01 1.0000000000000001e-01
        1.0000000000000001e-01 1.0000000000000001e-01
        1.0000000000000001e-01 1.0000000000000001e-01
        1.0000000000000001e-01 1.0000000000000001e-01
        1.0000000000000001e-01 1.0000000000000001e-01
        1.0000000000000001e-01 1.0000000000000001e-01
        1.0000000000000001e-01 1.0000000000000001e-01
        1.0000000000000001e-01 1.0000000000000001e-01
        1.0000000000000001e-01 1.0000000000000001e-01
        1.0000000000000001e-01 1.0000000000000001e-01
        1.0000000000000001e-01 1.0000000000000001e-01
        1.0000000000000001e-01 1.0000000000000001e-01
        1.0000000000000001e-01 1.0000000000000001e-01
        1.0000000000000001e-01 1.0000000000000001e-01
        1.0000000000000001e-01 1.0000000000000001e-01
        1.0000000000000001e-01 1.0000000000000001e-01
        1.0000000000000001e-01 1.0000000000000001e-01
        1.0000000000000001e-01 1.0000000000000001e-01
        1.0000000000000001e-01 1.0000000000000001e-01
        1.0000000000000001e-01 1.0000000000000001e-01
        1.0000000000000001e-01 1.0000000000000001e-01
        1.0000000000000001e-01 1.0000000000000001e-01
        1.0000000000000001e-01 1.0000000000000001e-01
        1.0000000000000001e-01 1.0000000000000001e-01
        1.0000000000000001e-01 1.0000000000000001e-01
        1.0000000000000001e-01 1.0000000000000001e-01
        1.0000000000000001e-01 1.0000000000000001e-01
        1.0000000000000001e-01 1.0000000000000001e-01
        1.0000000000000001e-01 1.0000000000000001e-01
        1.0000000000000001e-01 1.0000000000000001e-01
        1.0000000000000001e-01 1.0000000000000001e-01
        1.0000000000000001e-01 1.0000000000000001e-01
        1.0000000000000001e-01 1.0000000000000001e-01
        1.0000000000000001e-01 1.0000000000000001e-01
        1.0000000000000001e-01 1.0000000000000001e-01
        1.0000000000000001e-01 1.0000000000000001e-01
        1.0000000000000001e-01 1.0000000000000001e-01
        1.0000000000000001e-01 1.0000000000000001e-01
        1.0000000000000001e-01 1.0000000000000001e-01
        1.0000000000000001e-01 1.0000000000000001e-01
        1.0000000000000001e-01 1.0000000000000001e-01
        1.0000000000000001e-01 1.0000000000000001e-01
        1.0000000000000001e-01 1.0000000000000001e-01
        1.0000000000000001e-01 1.0000000000000001e-01
        1.0000000000000001e-01 1.0000000000000001e-01
        1.0000000000000001e-01 1.0000000000000001e-01
        1.0000000000000001e-01 1.0000000000000001e-01
        1.0000000000000001e-01 1.0000000000000001e-01
        1.0000000000000001e-01 1.0000000000000001e-01
        1.0000000000000001e-01 1.0000000000000001e-01
        1.0000000000000001e-01 1.0000000000000001e-01
        1.0000000000000001e-01 1.0000000000000001e-01
        1.0000000000000001e-01 1.0000000000000001e-01
        1.0000000000000001e-01 1.0000000000000001e-01
        1.0000000000000001e-01 1.0000000000000001e-01
        1.0000000000000001e-01 1.0000000000000001e-01
        1.0000000000000001e-01 1.0000000000000001e-01
        1.0000000000000001e-01 1.0000000000000001e-01
        1.0000000000000001e-01 1.0000000000000001e-01
        1.0000000000000001e-01 1.0000000000000001e-01
        1.0000000000000001e-01 1.0000000000000001e-01
        1.0000000000000001e-01 1.0000000000000001e-01
        1.0000000000000001e-01 1.0000000000000001e-01
        1.0000000000000001e-01 1.0000000000000001e-01
        1.0000000000000001e-01 1.0000000000000001e-01
        1.0000000000000001e-01 1.0000000000000001e-01
        1.0000000000000001e-01 1.0000000000000001e-01
        1.0000000000000001e-01 1.0000000000000001e-01
        1.0000000000000001e-01 1.0000000000000001e-01
        1.0000000000000001e-01 1.0000000000000001e-01
        1.0000000000000001e-01 1.0000000000000001e-01
        1.0000000000000001e-01 1.0000000000000001e-01
        1.0000000000000001e-01 1.0000000000000001e-01
        1.0000000000000001e-01 1.0000000000000001e-01
        1.0000000000000001e-01 1.0000000000000001e-01
        1.0000000000000001e-01 1.0000000000000001e-01
        1.0000000000000001e-01 1.0000000000000001e-01
        1.0000000000000001e-01 1.0000000000000001e-01
        1.0000000000000001e-01 1.0000000000000001e-01
        1.0000000000000001e-01 1.0000000000000001e-01
        1.0000000000000001e-01 1.0000000000000001e-01
        1.0000000000000001e-01 1.0000000000000001e-01
        1.0000000000000001e-01 1.0000000000000001e-01
        1.0000000000000001e-01 1.0000000000000001e-01
        1.0000000000000001e-01 1.0000000000000001e-01
        1.0000000000000001e-01 1.0000000000000001e-01
        1.0000000000000001e-01 1.0000000000000001e-01
        1.0000000000000001e-01 1.0000000000000001e-01
        1.0000000000000001e-01 1.0000000000000001e-01
        1.0000000000000001e-01 1.0000000000000001e-01
        1.0000000000000001e-01 1.0000000000000001e-01
        1.0000000000000001e-01 1.0000000000000001e-01
        1.0000000000000001e-01 1.0000000000000001e-01
        1.0000000000000001e-01 1.0000000000000001e-01
        1.0000000000000001e-01 1.0000000000000001e-01
        1.0000000000000001e-01 1.0000000000000001e-01
        1.0000000000000001e-01 1.0000000000000001e-01
        1.0000000000000001e-01 1.0000000000000001e-01
        1.0000000000000001e-01 1.0000000000000001e-01
        1.0000000000000001e-01 1.0000000000000001e-01
        1.0000000000000001e-01 1.0000000000000001e-01
        1.0000000000000001e-01 1.0000000000000001e-01
        1.0000000000000001e-01 1.0000000000000001e-01
        1.0000000000000001e-01 1.0000000000000001e-01
        1.0000000000000001e-01 1.0000000000000001e-01
        1.0000000000000001e-01 1.0000000000000001e-01
        1.0000000000000001e-01 1.0000000000000001e-01
        1.0000000000000001e-01 1.0000000000000001e-01
        1.0000000000000001e-01 1.0000000000000001e-01
        1.0000000000000001e-01 1.0000000000000001e-01
        1.0000000000000001e-01 1.0000000000000001e-01
        1.0000000000000001e-01 1.0000000000000001e-01
        1.0000000000000001e-01 1.0000000000000001e-01
        1.0000000000000001e-01 1.0000000000000001e-01
        1.0000000000000001e-01 1.0000000000000001e-01
        1.0000000000000001e-01 1.0000000000000001e-01
        1.0000000000000001e-01 1.0000000000000001e-01
        1.0000000000000001e-01 1.0000000000000001e-01
        1.0000000000000001e-01 1.0000000000000001e-01
        1.0000000000000001e-01 1.0000000000000001e-01
        1.0000000000000001e-01 1.0000000000000001e-01
        1.0000000000000001e-01 1.0000000000000001e-01
        1.0000000000000001e-01 1.0000000000000001e-01
        1.0000000000000001e-01 1.0000000000000001e-01
        1.0000000000000001e-01 1.0000000000000001e-01
        1.0000000000000001e-01 1.0000000000000001e-01
        1.0000000000000001e-01 1.0000000000000001e-01
        1.0000000000000001e-01 1.0000000000000001e-01
        1.0000000000000001e-01 1.0000000000000001e-01
        1.0000000000000001e-01 1.0000000000000001e-01
        1.0000000000000001e-01 1.0000000000000001e-01
        1.0000000000000001e-01 1.0000000000000001e-01
        1.0000000000000001e-01 1.0000000000000001e-01
        1.0000000000000001e-01 1.0000000000000001e-01
        1.0000000000000001e-01 1.0000000000000001e-01
        1.0000000000000001e-01 1.0000000000000001e-01
        1.0000000000000001e-01 1.0000000000000001e-01
        1.0000000000000001e-01 1.0000000000000001e-01
        1.0000000000000001e-01 1.0000000000000001e-01
        1.0000000000000001e-01 1.0000000000000001e-01
        1.0000000000000001e-01 1.0000000000000001e-01
        1.0000000000000001e-01 1.0000000000000001e-01
        1.0000000000000001e-01 1.0000000000000001e-01
        1.0000000000000001e-01 1.0000000000000001e-01
        1.0000000000000001e-01 1.0000000000000001e-01
        1.0000000000000001e-01 1.0000000000000001e-01
        1.0000000000000001e-01 1.0000000000000001e-01
        1.0000000000000001e-01 1.0000000000000001e-01
        1.0000000000000001e-01 1.0000000000000001e-01
        1.0000000000000001e-01 1.0000000000000001e-01
        1.0000000000000001e-01 1.0000000000000001e-01
        1.0000000000000001e-01 1.0000000000000001e-01
        1.0000000000000001e-01 1.0000000000000001e-01
        1.0000000000000001e-01 1.0000000000000001e-01
        1.0000000000000001e-01 1.0000000000000001e-01
        1.0000000000000001e-01 1.0000000000000001e-01
        1.0000000000000001e-01 1.0000000000000001e-01
        1.0000000000000001e-01 1.0000000000000001e-01
        1.0000000000000001e-01 1.0000000000000001e-01
        1.0000000000000001e-01 1.0000000000000001e-01
        1.0000000000000001e-01 1.0000000000000001e-01
        1.0000000000000001e-01 1.0000000000000001e-01
        1.0000000000000001e-01 1.0000000000000001e-01
        1.0000000000000001e-01 1.0000000000000001e-01
        1.0000000000000001e-01 1.0000000000000001e-01
        1.0000000000000001e-01 1.0000000000000001e-01
        1.0000000000000001e-01 1.0000000000000001e-01
        1.0000000000000001e-01 1.0000000000000001e-01
        1.0000000000000001e-01 1.0000000000000001e-01
        1.0000000000000001e-01 1.0000000000000001e-01
        1.0000000000000001e-01 1.0000000000000001e-01
        1.0000000000000001e-01 1.0000000000000001e-01
        1.0000000000000001e-01 1.0000000000000001e-01
        1.0000000000000001e-01 1.0000000000000001e-01
        1.0000000000000001e-01 1.0000000000000001e-01
        1.0000000000000001e-01 1.0000000000000001e-01
        1.0000000000000001e-01 1.0000000000000001e-01
        1.0000000000000001e-01 1.0000000000000001e-01
        1.0000000000000001e-01 1.0000000000000001e-01
        1.0000000000000001e-01 1.0000000000000001e-01
        1.0000000000000001e-01 1.0000000000000001e-01
        1.0000000000000001e-01 1.0000000000000001e-01
        1.0000000000000001e-01 1.0000000000000001e-01
        1.0000000000000001e-01 1.0000000000000001e-01
        1.0000000000000001e-01 1.0000000000000001e-01
        1.0000000000000001e-01 1.0000000000000001e-01
        1.0000000000000001e-01 1.0000000000000001e-01
        1.0000000000000001e-01 1.0000000000000001e-01
        1.0000000000000001e-01 1.0000000000000001e-01
        1.0000000000000001e-01 1.0000000000000001e-01
        1.0000000000000001e-01 1.0000000000000001e-01
        1.0000000000000001e-01 1.0000000000000001e-01
        1.0000000000000001e-01 1.0000000000000001e-01
        1.0000000000000001e-01 1.0000000000000001e-01
        1.0000000000000001e-01 1.0000000000000001e-01
        1.0000000000000001e-01 1.0000000000000001e-01
        1.0000000000000001e-01 1.0000000000000001e-01
        1.0000000000000001e-01 1.0000000000000001e-01
        1.0000000000000001e-01 1.0000000000000001e-01
        1.0000000000000001e-01 1.0000000000000001e-01
        1.0000000000000001e-01 1.0000000000000001e-01
        1.0000000000000001e-01 1.0000000000000001e-01
        1.0000000000000001e-01 1.0000000000000001e-01
        1.0000000000000001e-01 1.0000000000000001e-01
        1.0000000000000001e-01 1.0000000000000001e-01
        1.0000000000000001e-01 1.0000000000000001e-01
        1.0000000000000001e-01 1.0000000000000001e-01
        1.0000000000000001e-01 1.0000000000000001e-01
        1.0000000000000001e-01 1.0000000000000001e-01
        1.0000000000000001e-01 1.0000000000000001e-01
        1.0000000000000001e-01 1.0000000000000001e-01
        1.0000000000000001e-01 1.0000000000000001e-01
        1.0000000000000001e-01 1.0000000000000001e-01
        1.0000000000000001e-01 1.0000000000000001e-01
        1.0000000000000001e-01 1.0000000000000001e-01
        1.0000000000000001e-01 1.0000000000000001e-01
        1.0000000000000001e-01 1.0000000000000001e-01
        1.0000000000000001e-01 1.0000000000000001e-01
        1.0000000000000001e-01 1.0000000000000001e-01
        1.0000000000000001e-01 1.0000000000000001e-01
        1.0000000000000001e-01 1.0000000000000001e-01
        1.0000000000000001e-01 1.0000000000000001e-01
        1.0000000000000001e-01 1.0000000000000001e-01
        1.0000000000000001e-01 1.0000000000000001e-01
        1.0000000000000001e-01 1.0000000000000001e-01
        1.0000000000000001e-01 1.0000000000000001e-01
        1.0000000000000001e-01 1.0000000000000001e-01
        1.0000000000000001e-01 1.0000000000000001e-01
        1.0000000000000001e-01 1.0000000000000001e-01
        1.0000000000000001e-01 1.0000000000000001e-01
        1.0000000000000001e-01 1.0000000000000001e-01
        1.0000000000000001e-01 1.0000000000000001e-01
        1.0000000000000001e-01 1.0000000000000001e-01
        1.0000000000000001e-01 1.0000000000000001e-01
        1.0000000000000001e-01 1.0000000000000001e-01
        1.0000000000000001e-01 1.0000000000000001e-01
        -1.0000000000000001e-01 -1.0000000000000001e-01
        -1.0000000000000001e-01 -1.0000000000000001e-01
        -1.0000000000000001e-01 -1.0000000000000001e-01
        -1.0000000000000001e-01 -1.0000000000000001e-01
        -1.0000000000000001e-01 -1.0000000000000001e-01
        -1.0000000000000001e-01 -1.0000000000000001e-01
        -1.0000000000000001e-01 -1.0000000000000001e-01
        -1.0000000000000001e-01 -1.0000000000000001e-01
        -1.0000000000000001e-01 -1.0000000000000001e-01
        -1.0000000000000001e-01 -1.0000000000000001e-01
        -1.0000000000000001e-01 -1.0000000000000001e-01
        -1.0000000000000001e-01 -1.0000000000000001e-01
        -1.0000000000000001e-01 -1.0000000000000001e-01
        -1.0000000000000001e-01 -1.0000000000000001e-01
        -1.0000000000000001e-01 -1.0000000000000001e-01
        -1.0000000000000001e-01 -1.0000000000000001e-01
        -1.0000000000000001e-01 -1.0000000000000001e-01
        -1.0000000000000001e-01 -1.0000000000000001e-01
        -1.0000000000000001e-01 -1.0000000000000001e-01
        -1.0000000000000001e-01 -1.0000000000000001e-01
        -1.0000000000000001e-01 -1.0000000000000001e-01
        -1.0000000000000001e-01 -1.0000000000000001e-01
        -1.0000000000000001e-01 -1.0000000000000001e-01
        -1.0000000000000001e-01 -1.0000000000000001e-01
        -1.0000000000000001e-01 -1.0000000000000001e-01
        -1.0000000000000001e-01 -1.0000000000000001e-01
        -1.0000000000000001e-01 -1.0000000000000001e-01
        -1.0000000000000001e-01 -1.0000000000000001e-01
        -1.0000000000000001e-01 -1.0000000000000001e-01
        -1.0000000000000001e-01 -1.0000000000000001e-01
        -1.0000000000000001e-01 -1.0000000000000001e-01
        -1.0000000000000001e-01 -1.0000000000000001e-01
        -1.0000000000000001e-01 -1.0000000000000001e-01
        -1.0000000000000001e-01 -1.0000000000000001e-01
        -1.0000000000000001e-01 -1.0000000000000001e-01
        -1.0000000000000001e-01 -1.0000000000000001e-01
        -1.0000000000000001e-01 -1.0000000000000001e-01
        -1.0000000000000001e-01 -1.0000000000000001e-01
        -1.0000000000000001e-01 -1.0000000000000001e-01
        -1.0000000000000001e-01 -1.0000000000000001e-01
        -1.0000000000000001e-01 -1.0000000000000001e-01
        -1.0000000000000001e-01 -1.0000000000000001e-01
        -1.0000000000000001e-01 -1.0000000000000001e-01
        -1.0000000000000001e-01 -1.0000000000000001e-01
        -1.0000000000000001e-01 -1.0000000000000001e-01
        -1.0000000000000001e-01 -1.0000000000000001e-01
        -1.0000000000000001e-01 -1.0000000000000001e-01
        -1.0000000000000001e-01 -1.0000000000000001e-01
        -1.0000000000000001e-01 -1.0000000000000001e-01
        -1.0000000000000001e-01 -1.0000000000000001e-01
        -1.0000000000000001e-01 -1.0000000000000001e-01
        -1.0000000000000001e-01 -1.0000000000000001e-01
        -1.0000000000000001e-01 -1.0000000000000001e-01
        -1.0000000000000001e-01 -1.0000000000000001e-01
        -1.0000000000000001e-01 -1.0000000000000001e-01
        -1.0000000000000001e-01 -1.0000000000000001e-01
        -1.0000000000000001e-01 -1.0000000000000001e-01
        -1.0000000000000001e-01 -1.0000000000000001e-01
        -1.0000000000000001e-01 -1.0000000000000001e-01
        -1.0000000000000001e-01 -1.0000000000000001e-01
        -1.0000000000000001e-01 -1.0000000000000001e-01
        -1.0000000000000001e-01 -1.0000000000000001e-01
        -1.0000000000000001e-01 -1.0000000000000001e-01
        -1.0000000000000001e-01 -1.0000000000000001e-01
        -1.0000000000000001e-01 -1.0000000000000001e-01
        -1.0000000000000001e-01 -1.0000000000000001e-01
        -1.0000000000000001e-01 -1.0000000000000001e-01
        -1.0000000000000001e-01 -1.0000000000000001e-01
        -1.0000000000000001e-01 -1.0000000000000001e-01
        -1.0000000000000001e-01 -1.0000000000000001e-01
        -1.0000000000000001e-01 -1.0000000000000001e-01
        -1.0000000000000001e-01 -1.0000000000000001e-01
        -1.0000000000000001e-01 -1.0000000000000001e-01
        -1.0000000000000001e-01 -1.0000000000000001e-01
        -1.0000000000000001e-01 -1.0000000000000001e-01
        -1.0000000000000001e-01 -1.0000000000000001e-01
        -1.0000000000000001e-01 -1.0000000000000001e-01
        -1.0000000000000001e-01 -1.0000000000000001e-01
        -1.0000000000000001e-01 -1.0000000000000001e-01
        -1.0000000000000001e-01 -1.0000000000000001e-01
        -1.0000000000000001e-01 -1.0000000000000001e-01
        -1.0000000000000001e-01 -1.0000000000000001e-01
        -1.0000000000000001e-01 -1.0000000000000001e-01
        -1.0000000000000001e-01 -1.0000000000000001e-01
        -1.0000000000000001e-01 -1.0000000000000001e-01
        -1.0000000000000001e-01 -1.0000000000000001e-01
        -1.0000000000000001e-01 -1.0000000000000001e-01
        -1.0000000000000001e-01 -1.0000000000000001e-01
        -1.0000000000000001e-01 -1.0000000000000001e-01
        -1.0000000000000001e-01 -1.0000000000000001e-01
        -1.0000000000000001e-01 -1.0000000000000001e-01
        -1.0000000000000001e-01 -1.0000000000000001e-01
        -1.0000000000000001e-01 -1.0000000000000001e-01
        -1.0000000000000001e-01 -1.0000000000000001e-01
        -1.0000000000000001e-01 -1.0000000000000001e-01
        -1.0000000000000001e-01 -1.0000000000000001e-01
        -1.0000000000000001e-01 -1.0000000000000001e-01
        -1.0000000000000001e-01 -1.0000000000000001e-01
        -1.0000000000000001e-01 -1.0000000000000001e-01
        -1.0000000000000001e-01 -1.0000000000000001e-01
        -1.0000000000000001e-01 -1.0000000000000001e-01
        -1.0000000000000001e-01 -1.0000000000000001e-01
        -1.0000000000000001e-01 -1.0000000000000001e-01
        -1.0000000000000001e-01 -1.0000000000000001e-01
        -1.0000000000000001e-01 -1.0000000000000001e-01
        -1.0000000000000001e-01 -1.0000000000000001e-01
        -1.0000000000000001e-01 -1.0000000000000001e-01
        -1.0000000000000001e-01 -1.0000000000000001e-01
        -1.0000000000000001e-01 -1.0000000000000001e-01
        -1.0000000000000001e-01 -1.0000000000000001e-01
        -1.0000000000000001e-01 -1.0000000000000001e-01
        -1.0000000000000001e-01 -1.0000000000000001e-01
        -1.0000000000000001e-01 -1.0000000000000001e-01
        -1.0000000000000001e-01 -1.0000000000000001e-01
        -1.0000000000000001e-01 -1.0000000000000001e-01
        -1.0000000000000001e-01 -1.0000000000000001e-01
        -1.0000000000000001e-01 -1.0000000000000001e-01
        -1.0000000000000001e-01 -1.0000000000000001e-01
        -1.0000000000000001e-01 -1.0000000000000001e-01
        -1.0000000000000001e-01 -1.0000000000000001e-01
        -1.0000000000000001e-01 -1.0000000000000001e-01
        -1.0000000000000001e-01 -1.0000000000000001e-01
        -1.0000000000000001e-01 -1.0000000000000001e-01
        -1.0000000000000001e-01 -1.0000000000000001e-01
        -1.0000000000000001e-01 -1.0000000000000001e-01
        -1.0000000000000001e-01 -1.0000000000000001e-01
        -1.0000000000000001e-01 -1.0000000000000001e-01
        -1.0000000000000001e-01 -1.0000000000000001e-01
        -1.0000000000000001e-01 -1.0000000000000001e-01
        -1.0000000000000001e-01 -1.0000000000000001e-01
        -1.0000000000000001e-01 -1.0000000000000001e-01
        -1.0000000000000001e-01 -1.0000000000000001e-01
        -1.0000000000000001e-01 -1.0000000000000001e-01
        -1.0000000000000001e-01 -1.0000000000000001e-01
        -1.0000000000000001e-01 -1.0000000000000001e-01
        -1.0000000000000001e-01 -1.0000000000000001e-01
        -1.0000000000000001e-01 -1.0000000000000001e-01
        -1.0000000000000001e-01 -1.0000000000000001e-01
        -1.0000000000000001e-01 -1.0000000000000001e-01
        -1.0000000000000001e-01 -1.0000000000000001e-01
        -1.0000000000000001e-01 -1.0000000000000001e-01
        -1.0000000000000001e-01 -1.0000000000000001e-01
        -1.0000000000000001e-01 -1.0000000000000001e-01
        -1.0000000000000001e-01 -1.0000000000000001e-01
        -1.0000000000000001e-01 -1.0000000000000001e-01
        -1.0000000000000001e-01 -1.0000000000000001e-01
        -1.0000000000000001e-01 -1.0000000000000001e-01
        -1.0000000000000001e-01 -1.0000000000000001e-01
        -1.0000000000000001e-01 -1.0000000000000001e-01
        -1.0000000000000001e-01 -1.0000000000000001e-01
        -1.0000000000000001e-01 -1.0000000000000001e-01
        -1.0000000000000001e-01 -1.0000000000000001e-01
        -1.0000000000000001e-01 -1.0000000000000001e-01
        -1.0000000000000001e-01 -1.0000000000000001e-01
        -1.0000000000000001e-01 -1.0000000000000001e-01
        -1.0000000000000001e-01 -1.0000000000000001e-01
