<?xml version="1.0"?>
<opencv_storage>
<opencv_ml_svm>
  <format>3</format>
  <svmType>C_SVC</svmType>
  <kernel>
    <type>RBF</type>
    <gamma>1.0000000000000001e-05</gamma></kernel>
  <C>1.0000000000000001e-01</C>
  <term_criteria><epsilon>1.1920928955078125e-07</epsilon>
    <iterations>1000</iterations></term_criteria>
  <var_count>3</var_count>
  <class_count>2</class_count>
  <class_labels type_id="opencv-matrix">
    <rows>2</rows>
    <cols>1</cols>
    <dt>i</dt>
    <data>
      -1 1</data></class_labels>
  <sv_total>2000</sv_total>
  <support_vectors>
    <_>
      4. 181. 135.</_>
    <_>
      6. 195. 148.</_>
    <_>
      6. 197. 149.</_>
    <_>
      6. 198. 148.</_>
    <_>
      6. 195. 148.</_>
    <_>
      6. 197. 149.</_>
    <_>
      6. 197. 149.</_>
    <_>
      6. 197. 149.</_>
    <_>
      6. 197. 149.</_>
    <_>
      6. 193. 148.</_>
    <_>
      6. 193. 148.</_>
    <_>
      6. 197. 149.</_>
    <_>
      6. 198. 147.</_>
    <_>
      6. 198. 148.</_>
    <_>
      6. 198. 148.</_>
    <_>
      6. 198. 147.</_>
    <_>
      6. 196. 148.</_>
    <_>
      6. 195. 148.</_>
    <_>
      6. 197. 149.</_>
    <_>
      6. 196. 148.</_>
    <_>
      6. 189. 146.</_>
    <_>
      6. 190. 141.</_>
    <_>
      6. 189. 142.</_>
    <_>
      6. 188. 140.</_>
    <_>
      6. 187. 143.</_>
    <_>
      6. 188. 140.</_>
    <_>
      6. 186. 140.</_>
    <_>
      6. 187. 143.</_>
    <_>
      6. 187. 139.</_>
    <_>
      6. 184. 136.</_>
    <_>
      6. 189. 139.</_>
    <_>
      6. 188. 138.</_>
    <_>
      6. 187. 134.</_>
    <_>
      6. 192. 137.</_>
    <_>
      6. 184. 136.</_>
    <_>
      6. 186. 133.</_>
    <_>
      6. 192. 137.</_>
    <_>
      6. 189. 146.</_>
    <_>
      7. 190. 134.</_>
    <_>
      6. 189. 131.</_>
    <_>
      6. 195. 135.</_>
    <_>
      6. 185. 135.</_>
    <_>
      6. 189. 131.</_>
    <_>
      6. 193. 136.</_>
    <_>
      6. 186. 140.</_>
    <_>
      6. 188. 138.</_>
    <_>
      6. 190. 141.</_>
    <_>
      9. 178. 192.</_>
    <_>
      9. 177. 186.</_>
    <_>
      9. 177. 186.</_>
    <_>
      9. 178. 185.</_>
    <_>
      9. 178. 185.</_>
    <_>
      9. 178. 185.</_>
    <_>
      9. 178. 185.</_>
    <_>
      9. 174. 182.</_>
    <_>
      9. 174. 182.</_>
    <_>
      9. 174. 182.</_>
    <_>
      9. 174. 182.</_>
    <_>
      9. 174. 182.</_>
    <_>
      9. 173. 190.</_>
    <_>
      9. 174. 189.</_>
    <_>
      9. 174. 189.</_>
    <_>
      9. 173. 198.</_>
    <_>
      9. 172. 191.</_>
    <_>
      9. 173. 190.</_>
    <_>
      9. 173. 190.</_>
    <_>
      9. 172. 191.</_>
    <_>
      9. 173. 190.</_>
    <_>
      9. 172. 191.</_>
    <_>
      9. 173. 197.</_>
    <_>
      9. 171. 192.</_>
    <_>
      9. 172. 191.</_>
    <_>
      9. 172. 191.</_>
    <_>
      9. 172. 191.</_>
    <_>
      9. 172. 191.</_>
    <_>
      9. 173. 198.</_>
    <_>
      9. 173. 197.</_>
    <_>
      9. 172. 191.</_>
    <_>
      9. 172. 191.</_>
    <_>
      9. 172. 191.</_>
    <_>
      9. 172. 191.</_>
    <_>
      9. 172. 191.</_>
    <_>
      9. 174. 189.</_>
    <_>
      9. 172. 191.</_>
    <_>
      9. 176. 194.</_>
    <_>
      9. 176. 194.</_>
    <_>
      9. 174. 189.</_>
    <_>
      9. 172. 191.</_>
    <_>
      9. 176. 194.</_>
    <_>
      9. 176. 194.</_>
    <_>
      9. 174. 189.</_>
    <_>
      9. 172. 191.</_>
    <_>
      9. 175. 192.</_>
    <_>
      9. 175. 192.</_>
    <_>
      9. 173. 190.</_>
    <_>
      9. 172. 191.</_>
    <_>
      9. 175. 192.</_>
    <_>
      9. 175. 192.</_>
    <_>
      9. 173. 190.</_>
    <_>
      9. 172. 191.</_>
    <_>
      9. 172. 191.</_>
    <_>
      9. 172. 191.</_>
    <_>
      9. 175. 192.</_>
    <_>
      9. 175. 192.</_>
    <_>
      9. 175. 192.</_>
    <_>
      9. 175. 192.</_>
    <_>
      9. 173. 190.</_>
    <_>
      9. 172. 191.</_>
    <_>
      9. 172. 191.</_>
    <_>
      9. 173. 190.</_>
    <_>
      9. 175. 192.</_>
    <_>
      9. 175. 192.</_>
    <_>
      9. 175. 192.</_>
    <_>
      9. 175. 192.</_>
    <_>
      8. 139. 246.</_>
    <_>
      9. 160. 241.</_>
    <_>
      9. 160. 241.</_>
    <_>
      6. 118. 255.</_>
    <_>
      6. 120. 255.</_>
    <_>
      5. 126. 255.</_>
    <_>
      179. 170. 48.</_>
    <_>
      0. 170. 60.</_>
    <_>
      1. 178. 73.</_>
    <_>
      0. 176. 90.</_>
    <_>
      0. 167. 55.</_>
    <_>
      179. 167. 64.</_>
    <_>
      1. 170. 78.</_>
    <_>
      179. 165. 62.</_>
    <_>
      0. 163. 72.</_>
    <_>
      1. 168. 85.</_>
    <_>
      179. 173. 68.</_>
    <_>
      179. 168. 76.</_>
    <_>
      1. 169. 89.</_>
    <_>
      179. 177. 75.</_>
    <_>
      179. 179. 80.</_>
    <_>
      0. 176. 90.</_>
    <_>
      179. 174. 82.</_>
    <_>
      0. 180. 85.</_>
    <_>
      1. 182. 94.</_>
    <_>
      0. 174. 91.</_>
    <_>
      1. 182. 94.</_>
    <_>
      1. 180. 95.</_>
    <_>
      1. 182. 94.</_>
    <_>
      179. 179. 100.</_>
    <_>
      179. 182. 98.</_>
    <_>
      179. 179. 100.</_>
    <_>
      179. 180. 99.</_>
    <_>
      0. 183. 89.</_>
    <_>
      179. 180. 99.</_>
    <_>
      0. 183. 89.</_>
    <_>
      0. 184. 86.</_>
    <_>
      179. 175. 102.</_>
    <_>
      179. 175. 102.</_>
    <_>
      0. 182. 87.</_>
    <_>
      0. 178. 86.</_>
    <_>
      179. 177. 101.</_>
    <_>
      179. 177. 101.</_>
    <_>
      0. 180. 85.</_>
    <_>
      0. 180. 85.</_>
    <_>
      0. 184. 86.</_>
    <_>
      0. 184. 86.</_>
    <_>
      0. 183. 89.</_>
    <_>
      0. 187. 90.</_>
    <_>
      1. 180. 95.</_>
    <_>
      1. 182. 94.</_>
    <_>
      1. 182. 94.</_>
    <_>
      1. 182. 94.</_>
    <_>
      1. 182. 94.</_>
    <_>
      1. 182. 94.</_>
    <_>
      1. 184. 93.</_>
    <_>
      1. 184. 93.</_>
    <_>
      1. 184. 93.</_>
    <_>
      1. 184. 93.</_>
    <_>
      1. 184. 93.</_>
    <_>
      179. 181. 93.</_>
    <_>
      0. 185. 88.</_>
    <_>
      0. 185. 88.</_>
    <_>
      0. 185. 88.</_>
    <_>
      0. 184. 86.</_>
    <_>
      0. 184. 86.</_>
    <_>
      0. 184. 86.</_>
    <_>
      179. 181. 93.</_>
    <_>
      0. 184. 86.</_>
    <_>
      0. 184. 86.</_>
    <_>
      0. 184. 86.</_>
    <_>
      0. 183. 89.</_>
    <_>
      179. 181. 97.</_>
    <_>
      179. 179. 94.</_>
    <_>
      0. 184. 86.</_>
    <_>
      0. 182. 87.</_>
    <_>
      0. 182. 87.</_>
    <_>
      0. 183. 89.</_>
    <_>
      10. 181. 210.</_>
    <_>
      10. 180. 213.</_>
    <_>
      10. 179. 212.</_>
    <_>
      10. 179. 214.</_>
    <_>
      10. 182. 226.</_>
    <_>
      10. 182. 225.</_>
    <_>
      10. 176. 230.</_>
    <_>
      10. 184. 226.</_>
    <_>
      10. 182. 225.</_>
    <_>
      10. 181. 224.</_>
    <_>
      10. 181. 224.</_>
    <_>
      10. 182. 223.</_>
    <_>
      10. 181. 224.</_>
    <_>
      10. 183. 222.</_>
    <_>
      10. 182. 223.</_>
    <_>
      8. 130. 223.</_>
    <_>
      2. 198. 102.</_>
    <_>
      4. 200. 115.</_>
    <_>
      6. 200. 143.</_>
    <_>
      6. 200. 138.</_>
    <_>
      6. 202. 149.</_>
    <_>
      6. 197. 145.</_>
    <_>
      6. 205. 137.</_>
    <_>
      6. 202. 135.</_>
    <_>
      6. 198. 138.</_>
    <_>
      6. 203. 151.</_>
    <_>
      6. 200. 143.</_>
    <_>
      6. 203. 137.</_>
    <_>
      6. 200. 135.</_>
    <_>
      5. 199. 136.</_>
    <_>
      6. 208. 147.</_>
    <_>
      6. 200. 149.</_>
    <_>
      6. 200. 144.</_>
    <_>
      6. 203. 138.</_>
    <_>
      6. 199. 136.</_>
    <_>
      6. 197. 137.</_>
    <_>
      6. 206. 152.</_>
    <_>
      6. 209. 144.</_>
    <_>
      6. 200. 143.</_>
    <_>
      6. 195. 140.</_>
    <_>
      6. 191. 140.</_>
    <_>
      6. 195. 141.</_>
    <_>
      6. 195. 140.</_>
    <_>
      6. 203. 148.</_>
    <_>
      6. 201. 142.</_>
    <_>
      6. 206. 140.</_>
    <_>
      6. 206. 136.</_>
    <_>
      6. 202. 143.</_>
    <_>
      6. 199. 147.</_>
    <_>
      6. 199. 146.</_>
    <_>
      6. 195. 148.</_>
    <_>
      6. 202. 149.</_>
    <_>
      6. 205. 142.</_>
    <_>
      7. 205. 138.</_>
    <_>
      6. 198. 144.</_>
    <_>
      7. 203. 146.</_>
    <_>
      6. 199. 146.</_>
    <_>
      6. 197. 146.</_>
    <_>
      6. 203. 141.</_>
    <_>
      6. 197. 145.</_>
    <_>
      6. 197. 149.</_>
    <_>
      6. 195. 148.</_>
    <_>
      6. 203. 141.</_>
    <_>
      6. 197. 146.</_>
    <_>
      6. 197. 145.</_>
    <_>
      6. 196. 147.</_>
    <_>
      6. 203. 148.</_>
    <_>
      6. 196. 147.</_>
    <_>
      6. 203. 147.</_>
    <_>
      6. 200. 149.</_>
    <_>
      6. 204. 141.</_>
    <_>
      6. 202. 145.</_>
    <_>
      6. 202. 145.</_>
    <_>
      6. 201. 146.</_>
    <_>
      6. 208. 141.</_>
    <_>
      6. 205. 142.</_>
    <_>
      6. 205. 142.</_>
    <_>
      6. 201. 146.</_>
    <_>
      6. 208. 141.</_>
    <_>
      7. 208. 142.</_>
    <_>
      6. 205. 142.</_>
    <_>
      6. 199. 147.</_>
    <_>
      6. 205. 143.</_>
    <_>
      7. 205. 144.</_>
    <_>
      6. 202. 144.</_>
    <_>
      6. 202. 145.</_>
    <_>
      7. 204. 145.</_>
    <_>
      6. 202. 145.</_>
    <_>
      6. 197. 146.</_>
    <_>
      179. 139. 226.</_>
    <_>
      179. 152. 243.</_>
    <_>
      179. 160. 248.</_>
    <_>
      179. 160. 248.</_>
    <_>
      179. 159. 250.</_>
    <_>
      179. 162. 251.</_>
    <_>
      179. 159. 250.</_>
    <_>
      5. 103. 251.</_>
    <_>
      6. 108. 245.</_>
    <_>
      7. 115. 239.</_>
    <_>
      6. 106. 248.</_>
    <_>
      6. 112. 236.</_>
    <_>
      6. 110. 239.</_>
    <_>
      7. 139. 163.</_>
    <_>
      7. 141. 161.</_>
    <_>
      7. 140. 162.</_>
    <_>
      7. 139. 163.</_>
    <_>
      7. 139. 163.</_>
    <_>
      7. 140. 160.</_>
    <_>
      7. 140. 160.</_>
    <_>
      7. 139. 163.</_>
    <_>
      7. 138. 163.</_>
    <_>
      7. 139. 161.</_>
    <_>
      7. 141. 159.</_>
    <_>
      7. 142. 158.</_>
    <_>
      7. 141. 159.</_>
    <_>
      7. 138. 163.</_>
    <_>
      7. 139. 161.</_>
    <_>
      8. 140. 158.</_>
    <_>
      8. 141. 157.</_>
    <_>
      7. 141. 159.</_>
    <_>
      7. 137. 164.</_>
    <_>
      7. 138. 163.</_>
    <_>
      7. 139. 161.</_>
    <_>
      7. 140. 160.</_>
    <_>
      7. 139. 161.</_>
    <_>
      8. 141. 165.</_>
    <_>
      8. 144. 170.</_>
    <_>
      8. 145. 169.</_>
    <_>
      8. 145. 169.</_>
    <_>
      8. 146. 168.</_>
    <_>
      8. 146. 168.</_>
    <_>
      8. 146. 168.</_>
    <_>
      7. 134. 165.</_>
    <_>
      7. 135. 164.</_>
    <_>
      4. 103. 253.</_>
    <_>
      6. 110. 247.</_>
    <_>
      8. 150. 175.</_>
    <_>
      8. 149. 176.</_>
    <_>
      8. 149. 176.</_>
    <_>
      8. 149. 176.</_>
    <_>
      8. 148. 177.</_>
    <_>
      8. 150. 175.</_>
    <_>
      8. 150. 175.</_>
    <_>
      8. 148. 177.</_>
    <_>
      8. 147. 166.</_>
    <_>
      8. 147. 172.</_>
    <_>
      8. 147. 166.</_>
    <_>
      8. 146. 168.</_>
    <_>
      8. 147. 172.</_>
    <_>
      8. 148. 171.</_>
    <_>
      8. 147. 167.</_>
    <_>
      8. 145. 169.</_>
    <_>
      8. 147. 172.</_>
    <_>
      8. 147. 172.</_>
    <_>
      8. 148. 171.</_>
    <_>
      8. 149. 170.</_>
    <_>
      8. 147. 172.</_>
    <_>
      8. 147. 167.</_>
    <_>
      8. 147. 167.</_>
    <_>
      8. 147. 168.</_>
    <_>
      8. 148. 171.</_>
    <_>
      8. 148. 171.</_>
    <_>
      8. 149. 170.</_>
    <_>
      8. 149. 169.</_>
    <_>
      8. 147. 172.</_>
    <_>
      8. 153. 168.</_>
    <_>
      8. 153. 170.</_>
    <_>
      8. 150. 172.</_>
    <_>
      8. 152. 169.</_>
    <_>
      8. 153. 170.</_>
    <_>
      8. 151. 172.</_>
    <_>
      8. 149. 175.</_>
    <_>
      8. 149. 175.</_>
    <_>
      8. 148. 176.</_>
    <_>
      8. 147. 177.</_>
    <_>
      8. 149. 175.</_>
    <_>
      8. 149. 175.</_>
    <_>
      8. 149. 176.</_>
    <_>
      8. 149. 176.</_>
    <_>
      8. 149. 176.</_>
    <_>
      8. 149. 176.</_>
    <_>
      8. 149. 176.</_>
    <_>
      8. 150. 175.</_>
    <_>
      8. 149. 174.</_>
    <_>
      8. 150. 173.</_>
    <_>
      7. 115. 247.</_>
    <_>
      8. 161. 171.</_>
    <_>
      8. 162. 170.</_>
    <_>
      8. 161. 169.</_>
    <_>
      6. 110. 248.</_>
    <_>
      7. 120. 236.</_>
    <_>
      8. 165. 175.</_>
    <_>
      8. 165. 175.</_>
    <_>
      7. 115. 247.</_>
    <_>
      6. 115. 252.</_>
    <_>
      7. 119. 250.</_>
    <_>
      7. 123. 245.</_>
    <_>
      8. 135. 239.</_>
    <_>
      4. 205. 248.</_>
    <_>
      8. 230. 183.</_>
    <_>
      7. 231. 183.</_>
    <_>
      7. 228. 180.</_>
    <_>
      7. 230. 182.</_>
    <_>
      7. 231. 183.</_>
    <_>
      7. 228. 171.</_>
    <_>
      8. 232. 174.</_>
    <_>
      8. 231. 180.</_>
    <_>
      7. 231. 183.</_>
    <_>
      7. 231. 167.</_>
    <_>
      8. 234. 169.</_>
    <_>
      8. 235. 175.</_>
    <_>
      7. 229. 183.</_>
    <_>
      8. 234. 160.</_>
    <_>
      8. 235. 165.</_>
    <_>
      8. 236. 171.</_>
    <_>
      7. 230. 180.</_>
    <_>
      7. 226. 158.</_>
    <_>
      7. 232. 158.</_>
    <_>
      8. 234. 161.</_>
    <_>
      7. 234. 170.</_>
    <_>
      7. 227. 180.</_>
    <_>
      6. 225. 162.</_>
    <_>
      10. 199. 187.</_>
    <_>
      8. 228. 180.</_>
    <_>
      10. 200. 191.</_>
    <_>
      9. 209. 198.</_>
    <_>
      9. 230. 181.</_>
    <_>
      9. 194. 201.</_>
    <_>
      9. 230. 180.</_>
    <_>
      9. 235. 176.</_>
    <_>
      172. 219. 201.</_>
    <_>
      8. 228. 190.</_>
    <_>
      9. 236. 175.</_>
    <_>
      8. 223. 193.</_>
    <_>
      9. 230. 181.</_>
    <_>
      172. 203. 217.</_>
    <_>
      172. 206. 214.</_>
    <_>
      173. 186. 232.</_>
    <_>
      174. 182. 226.</_>
    <_>
      174. 182. 225.</_>
    <_>
      8. 215. 193.</_>
    <_>
      8. 218. 188.</_>
    <_>
      7. 233. 182.</_>
    <_>
      8. 214. 187.</_>
    <_>
      9. 221. 181.</_>
    <_>
      8. 223. 176.</_>
    <_>
      5. 254. 177.</_>
    <_>
      7. 236. 178.</_>
    <_>
      173. 202. 202.</_>
    <_>
      175. 177. 208.</_>
    <_>
      176. 161. 211.</_>
    <_>
      176. 162. 213.</_>
    <_>
      179. 157. 162.</_>
    <_>
      176. 160. 209.</_>
    <_>
      176. 162. 210.</_>
    <_>
      179. 155. 163.</_>
    <_>
      176. 172. 200.</_>
    <_>
      177. 156. 206.</_>
    <_>
      176. 158. 207.</_>
    <_>
      177. 165. 195.</_>
    <_>
      174. 196. 187.</_>
    <_>
      178. 157. 164.</_>
    <_>
      176. 172. 197.</_>
    <_>
      177. 157. 203.</_>
    <_>
      177. 154. 205.</_>
    <_>
      177. 164. 193.</_>
    <_>
      178. 158. 163.</_>
    <_>
      176. 170. 199.</_>
    <_>
      177. 157. 203.</_>
    <_>
      177. 153. 206.</_>
    <_>
      177. 165. 192.</_>
    <_>
      176. 173. 199.</_>
    <_>
      177. 156. 206.</_>
    <_>
      177. 155. 207.</_>
    <_>
      176. 173. 193.</_>
    <_>
      177. 166. 190.</_>
    <_>
      177. 166. 190.</_>
    <_>
      177. 163. 194.</_>
    <_>
      177. 166. 193.</_>
    <_>
      6. 145. 144.</_>
    <_>
      176. 171. 195.</_>
    <_>
      176. 170. 197.</_>
    <_>
      177. 164. 193.</_>
    <_>
      177. 166. 193.</_>
    <_>
      6. 147. 142.</_>
    <_>
      175. 177. 200.</_>
    <_>
      176. 170. 197.</_>
    <_>
      176. 160. 204.</_>
    <_>
      177. 164. 196.</_>
    <_>
      176. 170. 197.</_>
    <_>
      7. 156. 129.</_>
    <_>
      176. 173. 199.</_>
    <_>
      176. 170. 192.</_>
    <_>
      177. 153. 210.</_>
    <_>
      177. 158. 203.</_>
    <_>
      176. 171. 191.</_>
    <_>
      176. 172. 200.</_>
    <_>
      176. 169. 192.</_>
    <_>
      176. 170. 202.</_>
    <_>
      6. 138. 139.</_>
    <_>
      175. 176. 197.</_>
    <_>
      175. 171. 197.</_>
    <_>
      176. 161. 204.</_>
    <_>
      176. 167. 197.</_>
    <_>
      176. 172. 197.</_>
    <_>
      177. 164. 194.</_>
    <_>
      176. 167. 194.</_>
    <_>
      176. 170. 200.</_>
    <_>
      6. 133. 140.</_>
    <_>
      179. 148. 159.</_>
    <_>
      175. 170. 200.</_>
    <_>
      175. 174. 195.</_>
    <_>
      175. 172. 197.</_>
    <_>
      176. 169. 192.</_>
    <_>
      176. 167. 203.</_>
    <_>
      176. 167. 200.</_>
    <_>
      179. 147. 165.</_>
    <_>
      176. 171. 195.</_>
    <_>
      174. 196. 186.</_>
    <_>
      174. 179. 199.</_>
    <_>
      175. 174. 202.</_>
    <_>
      176. 170. 199.</_>
    <_>
      176. 168. 208.</_>
    <_>
      179. 141. 179.</_>
    <_>
      176. 171. 195.</_>
    <_>
      174. 195. 192.</_>
    <_>
      174. 196. 189.</_>
    <_>
      174. 194. 188.</_>
    <_>
      176. 170. 205.</_>
    <_>
      179. 147. 182.</_>
    <_>
      176. 168. 194.</_>
    <_>
      173. 200. 193.</_>
    <_>
      173. 200. 196.</_>
    <_>
      173. 206. 191.</_>
    <_>
      173. 202. 191.</_>
    <_>
      174. 196. 191.</_>
    <_>
      178. 154. 184.</_>
    <_>
      177. 163. 191.</_>
    <_>
      4. 94. 241.</_>
    <_>
      4. 98. 238.</_>
    <_>
      5. 100. 238.</_>
    <_>
      5. 103. 232.</_>
    <_>
      8. 134. 165.</_>
    <_>
      8. 134. 166.</_>
    <_>
      8. 132. 168.</_>
    <_>
      8. 133. 167.</_>
    <_>
      8. 134. 165.</_>
    <_>
      8. 134. 165.</_>
    <_>
      8. 134. 165.</_>
    <_>
      8. 133. 163.</_>
    <_>
      8. 132. 164.</_>
    <_>
      8. 132. 168.</_>
    <_>
      8. 130. 171.</_>
    <_>
      8. 131. 169.</_>
    <_>
      8. 133. 167.</_>
    <_>
      8. 134. 166.</_>
    <_>
      8. 132. 164.</_>
    <_>
      8. 132. 164.</_>
    <_>
      8. 132. 164.</_>
    <_>
      8. 131. 165.</_>
    <_>
      8. 132. 168.</_>
    <_>
      8. 130. 171.</_>
    <_>
      8. 134. 166.</_>
    <_>
      8. 132. 164.</_>
    <_>
      8. 133. 163.</_>
    <_>
      8. 133. 163.</_>
    <_>
      8. 132. 164.</_>
    <_>
      9. 132. 162.</_>
    <_>
      9. 131. 163.</_>
    <_>
      8. 132. 164.</_>
    <_>
      8. 129. 172.</_>
    <_>
      8. 131. 170.</_>
    <_>
      8. 132. 164.</_>
    <_>
      8. 132. 164.</_>
    <_>
      8. 132. 164.</_>
    <_>
      9. 131. 163.</_>
    <_>
      9. 131. 163.</_>
    <_>
      9. 131. 163.</_>
    <_>
      9. 131. 163.</_>
    <_>
      8. 133. 163.</_>
    <_>
      8. 129. 172.</_>
    <_>
      8. 131. 170.</_>
    <_>
      8. 132. 164.</_>
    <_>
      8. 132. 164.</_>
    <_>
      9. 131. 163.</_>
    <_>
      9. 131. 163.</_>
    <_>
      9. 131. 163.</_>
    <_>
      9. 129. 162.</_>
    <_>
      9. 130. 161.</_>
    <_>
      9. 131. 163.</_>
    <_>
      8. 129. 172.</_>
    <_>
      8. 131. 170.</_>
    <_>
      8. 132. 164.</_>
    <_>
      8. 132. 164.</_>
    <_>
      9. 132. 162.</_>
    <_>
      9. 132. 162.</_>
    <_>
      9. 131. 160.</_>
    <_>
      9. 130. 161.</_>
    <_>
      9. 130. 161.</_>
    <_>
      9. 131. 163.</_>
    <_>
      8. 133. 175.</_>
    <_>
      8. 132. 176.</_>
    <_>
      8. 132. 174.</_>
    <_>
      8. 134. 171.</_>
    <_>
      8. 133. 167.</_>
    <_>
      8. 134. 166.</_>
    <_>
      8. 129. 164.</_>
    <_>
      8. 128. 165.</_>
    <_>
      8. 128. 164.</_>
    <_>
      8. 129. 162.</_>
    <_>
      9. 131. 160.</_>
    <_>
      9. 131. 163.</_>
    <_>
      8. 132. 176.</_>
    <_>
      8. 131. 177.</_>
    <_>
      8. 131. 175.</_>
    <_>
      8. 133. 173.</_>
    <_>
      8. 136. 167.</_>
    <_>
      8. 134. 166.</_>
    <_>
      8. 134. 165.</_>
    <_>
      8. 129. 164.</_>
    <_>
      8. 129. 164.</_>
    <_>
      8. 129. 162.</_>
    <_>
      9. 132. 162.</_>
    <_>
      9. 131. 164.</_>
    <_>
      8. 134. 173.</_>
    <_>
      8. 134. 173.</_>
    <_>
      8. 131. 177.</_>
    <_>
      8. 130. 178.</_>
    <_>
      8. 134. 177.</_>
    <_>
      8. 133. 175.</_>
    <_>
      8. 135. 170.</_>
    <_>
      8. 134. 165.</_>
    <_>
      8. 134. 165.</_>
    <_>
      8. 132. 164.</_>
    <_>
      8. 132. 164.</_>
    <_>
      8. 127. 166.</_>
    <_>
      8. 134. 173.</_>
    <_>
      8. 133. 174.</_>
    <_>
      8. 132. 176.</_>
    <_>
      8. 131. 177.</_>
    <_>
      8. 134. 177.</_>
    <_>
      8. 135. 176.</_>
    <_>
      8. 135. 172.</_>
    <_>
      8. 136. 169.</_>
    <_>
      8. 132. 168.</_>
    <_>
      8. 131. 169.</_>
    <_>
      8. 134. 173.</_>
    <_>
      8. 133. 175.</_>
    <_>
      8. 135. 179.</_>
    <_>
      8. 136. 178.</_>
    <_>
      8. 135. 172.</_>
    <_>
      8. 135. 172.</_>
    <_>
      8. 135. 172.</_>
    <_>
      8. 134. 173.</_>
    <_>
      8. 132. 176.</_>
    <_>
      8. 135. 179.</_>
    <_>
      8. 135. 179.</_>
    <_>
      8. 136. 180.</_>
    <_>
      8. 135. 181.</_>
    <_>
      8. 136. 180.</_>
    <_>
      8. 135. 181.</_>
    <_>
      8. 135. 181.</_>
    <_>
      8. 136. 180.</_>
    <_>
      8. 135. 181.</_>
    <_>
      8. 136. 180.</_>
    <_>
      8. 135. 180.</_>
    <_>
      8. 136. 180.</_>
    <_>
      8. 135. 180.</_>
    <_>
      8. 136. 178.</_>
    <_>
      8. 136. 171.</_>
    <_>
      8. 132. 176.</_>
    <_>
      8. 133. 175.</_>
    <_>
      8. 134. 177.</_>
    <_>
      8. 135. 176.</_>
    <_>
      8. 133. 175.</_>
    <_>
      8. 135. 172.</_>
    <_>
      8. 132. 176.</_>
    <_>
      8. 133. 175.</_>
    <_>
      8. 135. 176.</_>
    <_>
      8. 136. 175.</_>
    <_>
      8. 133. 174.</_>
    <_>
      8. 134. 173.</_>
    <_>
      8. 131. 170.</_>
    <_>
      8. 131. 170.</_>
    <_>
      8. 135. 172.</_>
    <_>
      8. 132. 176.</_>
    <_>
      8. 133. 175.</_>
    <_>
      8. 131. 177.</_>
    <_>
      8. 133. 175.</_>
    <_>
      7. 128. 169.</_>
    <_>
      7. 129. 168.</_>
    <_>
      7. 129. 168.</_>
    <_>
      8. 131. 169.</_>
    <_>
      8. 131. 170.</_>
    <_>
      8. 134. 173.</_>
    <_>
      7. 129. 168.</_>
    <_>
      8. 127. 166.</_>
    <_>
      8. 127. 166.</_>
    <_>
      8. 131. 166.</_>
    <_>
      8. 131. 170.</_>
    <_>
      6. 106. 248.</_>
    <_>
      6. 110. 245.</_>
    <_>
      6. 108. 246.</_>
    <_>
      7. 114. 238.</_>
    <_>
      8. 137. 169.</_>
    <_>
      7. 138. 163.</_>
    <_>
      7. 138. 163.</_>
    <_>
      7. 135. 163.</_>
    <_>
      7. 135. 164.</_>
    <_>
      7. 135. 164.</_>
    <_>
      7. 135. 164.</_>
    <_>
      7. 134. 165.</_>
    <_>
      7. 134. 165.</_>
    <_>
      8. 140. 166.</_>
    <_>
      7. 138. 163.</_>
    <_>
      7. 139. 162.</_>
    <_>
      7. 138. 163.</_>
    <_>
      7. 137. 164.</_>
    <_>
      7. 134. 164.</_>
    <_>
      7. 135. 163.</_>
    <_>
      7. 134. 165.</_>
    <_>
      7. 134. 165.</_>
    <_>
      7. 134. 165.</_>
    <_>
      7. 139. 162.</_>
    <_>
      8. 138. 161.</_>
    <_>
      7. 135. 161.</_>
    <_>
      7. 134. 162.</_>
    <_>
      7. 135. 163.</_>
    <_>
      7. 135. 162.</_>
    <_>
      7. 135. 164.</_>
    <_>
      7. 135. 164.</_>
    <_>
      7. 134. 165.</_>
    <_>
      7. 134. 165.</_>
    <_>
      7. 137. 164.</_>
    <_>
      7. 139. 162.</_>
    <_>
      7. 135. 163.</_>
    <_>
      7. 135. 163.</_>
    <_>
      7. 135. 162.</_>
    <_>
      7. 135. 164.</_>
    <_>
      7. 134. 165.</_>
    <_>
      7. 134. 165.</_>
    <_>
      8. 139. 181.</_>
    <_>
      8. 142. 178.</_>
    <_>
      8. 143. 176.</_>
    <_>
      8. 139. 181.</_>
    <_>
      8. 141. 176.</_>
    <_>
      8. 143. 176.</_>
    <_>
      8. 139. 182.</_>
    <_>
      8. 140. 177.</_>
    <_>
      8. 143. 177.</_>
    <_>
      8. 139. 181.</_>
    <_>
      8. 141. 176.</_>
    <_>
      8. 143. 176.</_>
    <_>
      8. 139. 181.</_>
    <_>
      8. 141. 176.</_>
    <_>
      8. 142. 174.</_>
    <_>
      8. 140. 166.</_>
    <_>
      8. 139. 182.</_>
    <_>
      8. 141. 176.</_>
    <_>
      8. 142. 174.</_>
    <_>
      8. 141. 174.</_>
    <_>
      8. 139. 167.</_>
    <_>
      8. 140. 166.</_>
    <_>
      8. 138. 166.</_>
    <_>
      8. 139. 167.</_>
    <_>
      8. 140. 166.</_>
    <_>
      8. 139. 181.</_>
    <_>
      8. 141. 175.</_>
    <_>
      8. 142. 172.</_>
    <_>
      8. 136. 171.</_>
    <_>
      8. 137. 170.</_>
    <_>
      8. 136. 169.</_>
    <_>
      8. 136. 169.</_>
    <_>
      8. 137. 170.</_>
    <_>
      8. 137. 169.</_>
    <_>
      8. 139. 181.</_>
    <_>
      8. 139. 176.</_>
    <_>
      8. 141. 174.</_>
    <_>
      8. 135. 172.</_>
    <_>
      8. 135. 170.</_>
    <_>
      8. 135. 170.</_>
    <_>
      8. 136. 171.</_>
    <_>
      8. 136. 171.</_>
    <_>
      8. 136. 171.</_>
    <_>
      8. 140. 180.</_>
    <_>
      8. 139. 176.</_>
    <_>
      8. 141. 174.</_>
    <_>
      8. 134. 173.</_>
    <_>
      8. 134. 171.</_>
    <_>
      8. 134. 171.</_>
    <_>
      8. 135. 172.</_>
    <_>
      8. 135. 172.</_>
    <_>
      8. 135. 172.</_>
    <_>
      8. 140. 180.</_>
    <_>
      8. 139. 176.</_>
    <_>
      8. 141. 174.</_>
    <_>
      8. 138. 168.</_>
    <_>
      8. 134. 173.</_>
    <_>
      8. 134. 173.</_>
    <_>
      8. 134. 173.</_>
    <_>
      8. 134. 173.</_>
    <_>
      8. 134. 173.</_>
    <_>
      8. 139. 181.</_>
    <_>
      8. 138. 177.</_>
    <_>
      8. 139. 174.</_>
    <_>
      8. 138. 168.</_>
    <_>
      8. 141. 165.</_>
    <_>
      8. 134. 173.</_>
    <_>
      8. 134. 173.</_>
    <_>
      8. 134. 173.</_>
    <_>
      8. 134. 173.</_>
    <_>
      8. 134. 173.</_>
    <_>
      8. 139. 176.</_>
    <_>
      8. 141. 164.</_>
    <_>
      7. 137. 164.</_>
    <_>
      8. 135. 172.</_>
    <_>
      8. 135. 172.</_>
    <_>
      8. 135. 172.</_>
    <_>
      8. 134. 173.</_>
    <_>
      8. 138. 175.</_>
    <_>
      8. 137. 169.</_>
    <_>
      8. 141. 165.</_>
    <_>
      8. 135. 172.</_>
    <_>
      8. 134. 173.</_>
    <_>
      8. 134. 173.</_>
    <_>
      8. 134. 173.</_>
    <_>
      8. 138. 175.</_>
    <_>
      8. 138. 168.</_>
    <_>
      8. 140. 164.</_>
    <_>
      7. 137. 164.</_>
    <_>
      7. 137. 164.</_>
    <_>
      7. 137. 164.</_>
    <_>
      8. 134. 173.</_>
    <_>
      8. 134. 173.</_>
    <_>
      8. 134. 173.</_>
    <_>
      8. 133. 174.</_>
    <_>
      8. 139. 182.</_>
    <_>
      8. 138. 178.</_>
    <_>
      8. 138. 175.</_>
    <_>
      8. 136. 171.</_>
    <_>
      8. 139. 167.</_>
    <_>
      7. 113. 250.</_>
    <_>
      7. 115. 247.</_>
    <_>
      7. 119. 238.</_>
    <_>
      7. 119. 238.</_>
    <_>
      8. 148. 177.</_>
    <_>
      8. 150. 175.</_>
    <_>
      8. 150. 175.</_>
    <_>
      8. 148. 177.</_>
    <_>
      8. 146. 173.</_>
    <_>
      8. 145. 174.</_>
    <_>
      8. 147. 172.</_>
    <_>
      8. 147. 172.</_>
    <_>
      8. 147. 172.</_>
    <_>
      8. 147. 172.</_>
    <_>
      8. 149. 170.</_>
    <_>
      8. 146. 168.</_>
    <_>
      8. 145. 169.</_>
    <_>
      8. 145. 169.</_>
    <_>
      8. 149. 170.</_>
    <_>
      8. 149. 169.</_>
    <_>
      8. 148. 167.</_>
    <_>
      8. 147. 167.</_>
    <_>
      8. 147. 167.</_>
    <_>
      8. 145. 167.</_>
    <_>
      8. 146. 166.</_>
    <_>
      8. 149. 169.</_>
    <_>
      8. 147. 167.</_>
    <_>
      8. 147. 166.</_>
    <_>
      8. 147. 165.</_>
    <_>
      8. 147. 165.</_>
    <_>
      8. 147. 165.</_>
    <_>
      8. 148. 178.</_>
    <_>
      8. 149. 169.</_>
    <_>
      8. 150. 168.</_>
    <_>
      8. 147. 166.</_>
    <_>
      8. 147. 166.</_>
    <_>
      8. 147. 165.</_>
    <_>
      8. 148. 164.</_>
    <_>
      8. 148. 164.</_>
    <_>
      8. 148. 164.</_>
    <_>
      8. 147. 166.</_>
    <_>
      8. 147. 166.</_>
    <_>
      8. 147. 165.</_>
    <_>
      8. 147. 165.</_>
    <_>
      8. 142. 163.</_>
    <_>
      8. 147. 167.</_>
    <_>
      8. 147. 167.</_>
    <_>
      8. 147. 167.</_>
    <_>
      8. 147. 179.</_>
    <_>
      8. 155. 176.</_>
    <_>
      8. 155. 176.</_>
    <_>
      8. 154. 177.</_>
    <_>
      8. 151. 174.</_>
    <_>
      8. 152. 173.</_>
    <_>
      8. 151. 174.</_>
    <_>
      8. 151. 174.</_>
    <_>
      8. 151. 174.</_>
    <_>
      8. 151. 174.</_>
    <_>
      8. 150. 175.</_>
    <_>
      8. 153. 175.</_>
    <_>
      8. 154. 174.</_>
    <_>
      8. 150. 173.</_>
    <_>
      8. 151. 172.</_>
    <_>
      8. 151. 172.</_>
    <_>
      8. 151. 172.</_>
    <_>
      8. 151. 172.</_>
    <_>
      8. 151. 172.</_>
    <_>
      8. 154. 172.</_>
    <_>
      8. 155. 173.</_>
    <_>
      8. 152. 171.</_>
    <_>
      8. 153. 170.</_>
    <_>
      8. 152. 171.</_>
    <_>
      8. 152. 171.</_>
    <_>
      8. 152. 171.</_>
    <_>
      8. 152. 171.</_>
    <_>
      8. 153. 170.</_>
    <_>
      8. 157. 169.</_>
    <_>
      8. 156. 170.</_>
    <_>
      8. 150. 175.</_>
    <_>
      8. 152. 170.</_>
    <_>
      8. 152. 169.</_>
    <_>
      8. 152. 170.</_>
    <_>
      8. 152. 170.</_>
    <_>
      8. 152. 169.</_>
    <_>
      8. 149. 169.</_>
    <_>
      8. 149. 169.</_>
    <_>
      8. 152. 169.</_>
    <_>
      8. 157. 167.</_>
    <_>
      8. 157. 169.</_>
    <_>
      8. 151. 174.</_>
    <_>
      8. 152. 170.</_>
    <_>
      8. 152. 169.</_>
    <_>
      8. 152. 171.</_>
    <_>
      8. 152. 171.</_>
    <_>
      8. 152. 171.</_>
    <_>
      8. 152. 171.</_>
    <_>
      8. 152. 169.</_>
    <_>
      8. 153. 168.</_>
    <_>
      8. 156. 170.</_>
    <_>
      8. 153. 172.</_>
    <_>
      8. 152. 173.</_>
    <_>
      8. 152. 173.</_>
    <_>
      8. 152. 173.</_>
    <_>
      8. 152. 173.</_>
    <_>
      8. 152. 173.</_>
    <_>
      8. 152. 173.</_>
    <_>
      8. 154. 171.</_>
    <_>
      8. 155. 170.</_>
    <_>
      8. 154. 171.</_>
    <_>
      8. 151. 174.</_>
    <_>
      8. 151. 174.</_>
    <_>
      8. 151. 174.</_>
    <_>
      8. 153. 172.</_>
    <_>
      8. 151. 174.</_>
    <_>
      8. 150. 175.</_>
    <_>
      8. 151. 174.</_>
    <_>
      8. 152. 173.</_>
    <_>
      8. 153. 172.</_>
    <_>
      8. 152. 173.</_>
    <_>
      8. 151. 174.</_>
    <_>
      8. 153. 172.</_>
    <_>
      8. 172. 168.</_>
    <_>
      8. 167. 169.</_>
    <_>
      8. 174. 169.</_>
    <_>
      8. 174. 166.</_>
    <_>
      8. 169. 171.</_>
    <_>
      8. 174. 169.</_>
    <_>
      8. 173. 168.</_>
    <_>
      8. 170. 170.</_>
    <_>
      8. 174. 169.</_>
    <_>
      8. 172. 169.</_>
    <_>
      8. 170. 171.</_>
    <_>
      8. 127. 253.</_>
    <_>
      9. 135. 248.</_>
    <_>
      9. 146. 237.</_>
    <_>
      8. 131. 247.</_>
    <_>
      9. 141. 237.</_>
    <_>
      9. 139. 236.</_>
    <_>
      9. 148. 223.</_>
    <_>
      171. 214. 105.</_>
    <_>
      173. 212. 107.</_>
    <_>
      175. 200. 112.</_>
    <_>
      176. 190. 121.</_>
    <_>
      177. 176. 132.</_>
    <_>
      178. 165. 142.</_>
    <_>
      178. 158. 153.</_>
    <_>
      179. 151. 162.</_>
    <_>
      179. 146. 173.</_>
    <_>
      179. 144. 177.</_>
    <_>
      173. 210. 107.</_>
    <_>
      174. 198. 112.</_>
    <_>
      176. 185. 121.</_>
    <_>
      177. 174. 132.</_>
    <_>
      178. 161. 144.</_>
    <_>
      174. 198. 112.</_>
    <_>
      175. 184. 119.</_>
    <_>
      177. 171. 130.</_>
    <_>
      179. 160. 142.</_>
    <_>
      175. 185. 121.</_>
    <_>
      177. 171. 130.</_>
    <_>
      179. 159. 143.</_>
    <_>
      177. 174. 132.</_>
    <_>
      178. 160. 145.</_>
    <_>
      178. 164. 143.</_>
    <_>
      179. 152. 159.</_>
    <_>
      179. 155. 158.</_>
    <_>
      179. 152. 168.</_>
    <_>
      34. 136. 184.</_>
    <_>
      39. 86. 249.</_>
    <_>
      41. 106. 254.</_>
    <_>
      38. 82. 247.</_>
    <_>
      40. 91. 251.</_>
    <_>
      40. 101. 255.</_>
    <_>
      41. 107. 251.</_>
    <_>
      40. 90. 254.</_>
    <_>
      41. 95. 254.</_>
    <_>
      41. 114. 251.</_>
    <_>
      17. 153. 50.</_>
    <_>
      24. 159. 56.</_>
    <_>
      27. 177. 59.</_>
    <_>
      28. 201. 85.</_>
    <_>
      28. 206. 83.</_>
    <_>
      21. 165. 54.</_>
    <_>
      26. 155. 66.</_>
    <_>
      28. 208. 82.</_>
    <_>
      22. 158. 66.</_>
    <_>
      27. 147. 78.</_>
    <_>
      29. 201. 80.</_>
    <_>
      29. 203. 79.</_>
    <_>
      25. 160. 75.</_>
    <_>
      31. 215. 77.</_>
    <_>
      29. 206. 78.</_>
    <_>
      26. 167. 81.</_>
    <_>
      28. 164. 87.</_>
    <_>
      30. 211. 75.</_>
    <_>
      29. 201. 80.</_>
    <_>
      29. 203. 79.</_>
    <_>
      29. 201. 80.</_>
    <_>
      29. 201. 80.</_>
    <_>
      31. 222. 84.</_>
    <_>
      30. 215. 83.</_>
    <_>
      28. 200. 83.</_>
    <_>
      29. 201. 80.</_>
    <_>
      29. 201. 80.</_>
    <_>
      29. 201. 80.</_>
    <_>
      29. 203. 79.</_>
    <_>
      37. 133. 226.</_>
    <_>
      37. 133. 226.</_>
    <_>
      17. 145. 74.</_>
    <_>
      21. 151. 81.</_>
    <_>
      23. 149. 89.</_>
    <_>
      27. 154. 93.</_>
    <_>
      31. 177. 125.</_>
    <_>
      21. 149. 82.</_>
    <_>
      23. 145. 88.</_>
    <_>
      26. 151. 93.</_>
    <_>
      28. 155. 99.</_>
    <_>
      31. 177. 125.</_>
    <_>
      31. 177. 125.</_>
    <_>
      22. 152. 89.</_>
    <_>
      24. 153. 95.</_>
    <_>
      27. 157. 99.</_>
    <_>
      28. 159. 104.</_>
    <_>
      25. 160. 94.</_>
    <_>
      27. 157. 99.</_>
    <_>
      28. 159. 104.</_>
    <_>
      27. 168. 97.</_>
    <_>
      28. 163. 105.</_>
    <_>
      29. 159. 112.</_>
    <_>
      29. 173. 103.</_>
    <_>
      31. 177. 125.</_>
    <_>
      31. 177. 125.</_>
    <_>
      31. 177. 125.</_>
    <_>
      31. 176. 126.</_>
    <_>
      30. 171. 125.</_>
    <_>
      30. 173. 124.</_>
    <_>
      31. 173. 128.</_>
    <_>
      30. 171. 125.</_>
    <_>
      30. 171. 125.</_>
    <_>
      31. 172. 129.</_>
    <_>
      31. 176. 126.</_>
    <_>
      28. 106. 157.</_>
    <_>
      30. 91. 184.</_>
    <_>
      33. 96. 199.</_>
    <_>
      31. 96. 183.</_>
    <_>
      33. 94. 199.</_>
    <_>
      23. 187. 71.</_>
    <_>
      25. 188. 80.</_>
    <_>
      26. 167. 101.</_>
    <_>
      28. 134. 135.</_>
    <_>
      30. 115. 164.</_>
    <_>
      33. 112. 189.</_>
    <_>
      34. 116. 193.</_>
    <_>
      26. 192. 73.</_>
    <_>
      27. 166. 95.</_>
    <_>
      28. 129. 132.</_>
    <_>
      30. 108. 166.</_>
    <_>
      32. 106. 186.</_>
    <_>
      33. 109. 195.</_>
    <_>
      28. 175. 89.</_>
    <_>
      30. 110. 163.</_>
    <_>
      32. 103. 188.</_>
    <_>
      33. 102. 198.</_>
    <_>
      31. 111. 163.</_>
    <_>
      33. 105. 187.</_>
    <_>
      33. 106. 195.</_>
    <_>
      33. 106. 185.</_>
    <_>
      34. 106. 198.</_>
    <_>
      33. 109. 180.</_>
    <_>
      37. 105. 239.</_>
    <_>
      37. 109. 237.</_>
    <_>
      37. 109. 237.</_>
    <_>
      38. 111. 243.</_>
    <_>
      37. 108. 238.</_>
    <_>
      37. 105. 239.</_>
    <_>
      38. 110. 243.</_>
    <_>
      38. 116. 242.</_>
    <_>
      37. 105. 238.</_>
    <_>
      37. 114. 240.</_>
    <_>
      37. 117. 237.</_>
    <_>
      37. 120. 234.</_>
    <_>
      37. 121. 232.</_>
    <_>
      37. 119. 233.</_>
    <_>
      37. 117. 233.</_>
    <_>
      37. 118. 232.</_>
    <_>
      37. 117. 233.</_>
    <_>
      37. 111. 239.</_>
    <_>
      37. 118. 237.</_>
    <_>
      37. 122. 237.</_>
    <_>
      37. 122. 236.</_>
    <_>
      37. 119. 236.</_>
    <_>
      37. 118. 235.</_>
    <_>
      37. 112. 237.</_>
    <_>
      37. 117. 237.</_>
    <_>
      37. 118. 237.</_>
    <_>
      37. 118. 237.</_>
    <_>
      37. 119. 235.</_>
    <_>
      37. 119. 234.</_>
    <_>
      37. 113. 235.</_>
    <_>
      37. 117. 237.</_>
    <_>
      37. 118. 237.</_>
    <_>
      37. 118. 237.</_>
    <_>
      37. 119. 233.</_>
    <_>
      37. 120. 231.</_>
    <_>
      37. 117. 237.</_>
    <_>
      37. 117. 234.</_>
    <_>
      37. 117. 234.</_>
    <_>
      37. 118. 232.</_>
    <_>
      37. 119. 234.</_>
    <_>
      37. 118. 232.</_>
    <_>
      37. 117. 237.</_>
    <_>
      37. 116. 235.</_>
    <_>
      37. 117. 233.</_>
    <_>
      37. 118. 232.</_>
    <_>
      37. 119. 234.</_>
    <_>
      37. 117. 237.</_>
    <_>
      37. 117. 234.</_>
    <_>
      37. 117. 233.</_>
    <_>
      37. 118. 232.</_>
    <_>
      37. 116. 235.</_>
    <_>
      37. 117. 233.</_>
    <_>
      37. 117. 233.</_>
    <_>
      37. 117. 233.</_>
    <_>
      37. 117. 233.</_>
    <_>
      37. 118. 232.</_>
    <_>
      37. 118. 232.</_>
    <_>
      37. 115. 237.</_>
    <_>
      37. 118. 235.</_>
    <_>
      37. 119. 234.</_>
    <_>
      37. 120. 232.</_>
    <_>
      37. 120. 233.</_>
    <_>
      37. 119. 233.</_>
    <_>
      37. 121. 232.</_>
    <_>
      37. 119. 233.</_>
    <_>
      45. 106. 254.</_>
    <_>
      46. 80. 252.</_>
    <_>
      46. 102. 254.</_>
    <_>
      44. 85. 255.</_>
    <_>
      13. 128. 32.</_>
    <_>
      17. 156. 31.</_>
    <_>
      21. 154. 38.</_>
    <_>
      24. 147. 52.</_>
    <_>
      31. 214. 112.</_>
    <_>
      31. 224. 108.</_>
    <_>
      30. 226. 106.</_>
    <_>
      31. 224. 108.</_>
    <_>
      32. 230. 114.</_>
    <_>
      32. 228. 115.</_>
    <_>
      17. 147. 33.</_>
    <_>
      21. 159. 37.</_>
    <_>
      24. 143. 50.</_>
    <_>
      31. 209. 111.</_>
    <_>
      31. 214. 112.</_>
    <_>
      31. 216. 111.</_>
    <_>
      30. 220. 108.</_>
    <_>
      31. 218. 110.</_>
    <_>
      22. 163. 39.</_>
    <_>
      24. 143. 50.</_>
    <_>
      31. 216. 111.</_>
    <_>
      31. 216. 111.</_>
    <_>
      31. 209. 111.</_>
    <_>
      30. 212. 108.</_>
    <_>
      32. 227. 119.</_>
    <_>
      24. 159. 48.</_>
    <_>
      26. 142. 63.</_>
    <_>
      30. 207. 106.</_>
    <_>
      32. 234. 119.</_>
    <_>
      32. 230. 121.</_>
    <_>
      32. 226. 123.</_>
    <_>
      26. 157. 60.</_>
    <_>
      30. 204. 105.</_>
    <_>
      32. 226. 123.</_>
    <_>
      30. 202. 105.</_>
    <_>
      32. 228. 122.</_>
    <_>
      32. 232. 113.</_>
    <_>
      30. 198. 108.</_>
    <_>
      33. 242. 118.</_>
    <_>
      30. 197. 109.</_>
    <_>
      32. 240. 116.</_>
    <_>
      30. 201. 109.</_>
    <_>
      31. 211. 110.</_>
    <_>
      30. 211. 109.</_>
    <_>
      31. 209. 111.</_>
    <_>
      32. 221. 119.</_>
    <_>
      31. 228. 94.</_>
    <_>
      32. 237. 111.</_>
    <_>
      31. 216. 111.</_>
    <_>
      30. 218. 109.</_>
    <_>
      31. 218. 110.</_>
    <_>
      32. 234. 98.</_>
    <_>
      32. 228. 115.</_>
    <_>
      31. 221. 112.</_>
    <_>
      31. 225. 110.</_>
    <_>
      31. 227. 109.</_>
    <_>
      32. 235. 102.</_>
    <_>
      31. 219. 113.</_>
    <_>
      31. 229. 110.</_>
    <_>
      31. 236. 110.</_>
    <_>
      32. 237. 111.</_>
    <_>
      31. 212. 113.</_>
    <_>
      32. 217. 121.</_>
    <_>
      32. 215. 122.</_>
    <_>
      32. 224. 124.</_>
    <_>
      32. 214. 123.</_>
    <_>
      32. 212. 124.</_>
    <_>
      32. 238. 120.</_>
    <_>
      32. 234. 121.</_>
    <_>
      32. 212. 125.</_>
    <_>
      26. 91. 87.</_>
    <_>
      40. 173. 236.</_>
    <_>
      40. 177. 234.</_>
    <_>
      39. 159. 233.</_>
    <_>
      39. 168. 234.</_>
    <_>
      39. 175. 235.</_>
    <_>
      39. 180. 232.</_>
    <_>
      39. 166. 235.</_>
    <_>
      39. 174. 237.</_>
    <_>
      39. 179. 234.</_>
    <_>
      39. 165. 234.</_>
    <_>
      39. 170. 237.</_>
    <_>
      39. 175. 236.</_>
    <_>
      39. 159. 237.</_>
    <_>
      39. 164. 239.</_>
    <_>
      39. 171. 236.</_>
    <_>
      45. 162. 250.</_>
    <_>
      43. 152. 250.</_>
    <_>
      46. 158. 249.</_>
    <_>
      43. 153. 250.</_>
    <_>
      43. 145. 251.</_>
    <_>
      43. 148. 250.</_>
    <_>
      43. 168. 248.</_>
    <_>
      43. 163. 247.</_>
    <_>
      43. 167. 246.</_>
    <_>
      36. 130. 212.</_>
    <_>
      35. 137. 208.</_>
    <_>
      34. 145. 201.</_>
    <_>
      35. 150. 197.</_>
    <_>
      35. 162. 190.</_>
    <_>
      34. 146. 201.</_>
    <_>
      34. 153. 192.</_>
    <_>
      35. 162. 186.</_>
    <_>
      35. 156. 198.</_>
    <_>
      35. 161. 187.</_>
    <_>
      35. 163. 192.</_>
    <_>
      35. 170. 182.</_>
    <_>
      35. 170. 187.</_>
    <_>
      35. 176. 181.</_>
    <_>
      34. 173. 168.</_>
    <_>
      34. 172. 169.</_>
    <_>
      34. 175. 168.</_>
    <_>
      34. 174. 169.</_>
    <_>
      34. 171. 170.</_>
    <_>
      26. 163. 58.</_>
    <_>
      35. 139. 197.</_>
    <_>
      35. 138. 198.</_>
    <_>
      35. 142. 200.</_>
    <_>
      35. 147. 192.</_>
    <_>
      35. 136. 201.</_>
    <_>
      35. 151. 194.</_>
    <_>
      35. 154. 191.</_>
    <_>
      36. 149. 206.</_>
    <_>
      36. 146. 206.</_>
    <_>
      36. 152. 201.</_>
    <_>
      35. 149. 193.</_>
    <_>
      35. 154. 187.</_>
    <_>
      34. 153. 175.</_>
    <_>
      34. 149. 180.</_>
    <_>
      28. 90. 130.</_>
    <_>
      17. 156. 49.</_>
    <_>
      24. 167. 64.</_>
    <_>
      34. 135. 189.</_>
    <_>
      35. 151. 194.</_>
    <_>
      35. 162. 190.</_>
    <_>
      35. 172. 187.</_>
    <_>
      35. 174. 186.</_>
    <_>
      35. 179. 184.</_>
    <_>
      35. 188. 178.</_>
    <_>
      34. 193. 174.</_>
    <_>
      33. 195. 167.</_>
    <_>
      33. 201. 160.</_>
    <_>
      33. 197. 159.</_>
    <_>
      34. 196. 159.</_>
    <_>
      34. 194. 160.</_>
    <_>
      34. 195. 162.</_>
    <_>
      34. 195. 162.</_>
    <_>
      34. 192. 162.</_>
    <_>
      34. 190. 164.</_>
    <_>
      24. 176. 61.</_>
    <_>
      28. 123. 112.</_>
    <_>
      33. 131. 187.</_>
    <_>
      34. 151. 192.</_>
    <_>
      35. 165. 193.</_>
    <_>
      35. 172. 188.</_>
    <_>
      35. 180. 184.</_>
    <_>
      35. 182. 182.</_>
    <_>
      35. 192. 174.</_>
    <_>
      34. 196. 165.</_>
    <_>
      33. 196. 160.</_>
    <_>
      34. 196. 159.</_>
    <_>
      34. 192. 162.</_>
    <_>
      28. 130. 106.</_>
    <_>
      30. 118. 151.</_>
    <_>
      32. 131. 185.</_>
    <_>
      33. 144. 199.</_>
    <_>
      35. 164. 196.</_>
    <_>
      35. 179. 187.</_>
    <_>
      35. 180. 187.</_>
    <_>
      35. 184. 176.</_>
    <_>
      34. 199. 159.</_>
    <_>
      34. 196. 159.</_>
    <_>
      34. 193. 161.</_>
    <_>
      34. 192. 162.</_>
    <_>
      32. 119. 188.</_>
    <_>
      33. 145. 193.</_>
    <_>
      34. 163. 194.</_>
    <_>
      35. 176. 194.</_>
    <_>
      35. 183. 187.</_>
    <_>
      33. 118. 192.</_>
    <_>
      34. 140. 191.</_>
    <_>
      34. 155. 201.</_>
    <_>
      35. 172. 194.</_>
    <_>
      35. 174. 192.</_>
    <_>
      35. 181. 183.</_>
    <_>
      33. 193. 148.</_>
    <_>
      35. 138. 200.</_>
    <_>
      35. 151. 199.</_>
    <_>
      35. 168. 196.</_>
    <_>
      35. 181. 189.</_>
    <_>
      35. 185. 182.</_>
    <_>
      33. 194. 147.</_>
    <_>
      33. 191. 147.</_>
    <_>
      35. 151. 204.</_>
    <_>
      35. 168. 197.</_>
    <_>
      35. 181. 192.</_>
    <_>
      36. 164. 204.</_>
    <_>
      36. 183. 194.</_>
    <_>
      36. 190. 189.</_>
    <_>
      36. 187. 194.</_>
    <_>
      36. 194. 185.</_>
    <_>
      33. 186. 151.</_>
    <_>
      32. 180. 146.</_>
    <_>
      36. 190. 191.</_>
    <_>
      36. 179. 194.</_>
    <_>
      35. 189. 181.</_>
    <_>
      35. 196. 172.</_>
    <_>
      35. 173. 186.</_>
    <_>
      35. 186. 177.</_>
    <_>
      34. 193. 161.</_>
    <_>
      35. 175. 182.</_>
    <_>
      35. 183. 180.</_>
    <_>
      35. 189. 177.</_>
    <_>
      34. 187. 175.</_>
    <_>
      35. 189. 177.</_>
    <_>
      35. 188. 178.</_>
    <_>
      35. 189. 177.</_>
    <_>
      34. 193. 161.</_>
    <_>
      35. 190. 176.</_>
    <_>
      34. 190. 172.</_>
    <_>
      35. 193. 176.</_>
    <_>
      34. 189. 173.</_>
    <_>
      34. 193. 161.</_>
    <_>
      35. 188. 180.</_>
    <_>
      34. 191. 171.</_>
    <_>
      34. 191. 167.</_>
    <_>
      35. 189. 179.</_>
    <_>
      34. 192. 170.</_>
    <_>
      34. 192. 166.</_>
    <_>
      35. 189. 179.</_>
    <_>
      34. 193. 169.</_>
    <_>
      34. 192. 165.</_>
    <_>
      35. 189. 179.</_>
    <_>
      34. 194. 168.</_>
    <_>
      34. 192. 165.</_>
    <_>
      35. 189. 179.</_>
    <_>
      34. 194. 168.</_>
    <_>
      34. 192. 165.</_>
    <_>
      35. 188. 180.</_>
    <_>
      34. 193. 169.</_>
    <_>
      34. 192. 165.</_>
    <_>
      35. 188. 180.</_>
    <_>
      34. 194. 168.</_>
    <_>
      34. 192. 165.</_>
    <_>
      35. 186. 180.</_>
    <_>
      34. 190. 164.</_>
    <_>
      21. 110. 111.</_>
    <_>
      26. 98. 127.</_>
    <_>
      26. 100. 125.</_>
    <_>
      29. 84. 149.</_>
    <_>
      40. 87. 252.</_>
    <_>
      39. 77. 248.</_>
    <_>
      40. 85. 252.</_>
    <_>
      39. 80. 248.</_>
    <_>
      40. 85. 253.</_>
    <_>
      41. 81. 252.</_>
    <_>
      35. 161. 184.</_>
    <_>
      35. 183. 180.</_>
    <_>
      35. 186. 181.</_>
    <_>
      34. 181. 180.</_>
    <_>
      34. 183. 178.</_>
    <_>
      34. 177. 180.</_>
    <_>
      35. 179. 179.</_>
    <_>
      33. 171. 180.</_>
    <_>
      35. 173. 181.</_>
    <_>
      37. 206. 192.</_>
    <_>
      34. 171. 182.</_>
    <_>
      35. 170. 182.</_>
    <_>
      36. 200. 187.</_>
    <_>
      36. 208. 190.</_>
    <_>
      34. 166. 183.</_>
    <_>
      35. 166. 183.</_>
    <_>
      36. 199. 188.</_>
    <_>
      36. 208. 190.</_>
    <_>
      34. 169. 184.</_>
    <_>
      35. 168. 184.</_>
    <_>
      36. 200. 189.</_>
    <_>
      37. 209. 190.</_>
    <_>
      35. 172. 185.</_>
    <_>
      36. 198. 188.</_>
    <_>
      36. 208. 188.</_>
    <_>
      35. 176. 184.</_>
    <_>
      35. 177. 183.</_>
    <_>
      35. 182. 182.</_>
    <_>
      36. 199. 186.</_>
    <_>
      35. 201. 184.</_>
    <_>
      35. 199. 183.</_>
    <_>
      35. 199. 182.</_>
    <_>
      35. 200. 182.</_>
    <_>
      35. 192. 183.</_>
    <_>
      35. 197. 184.</_>
    <_>
      35. 203. 186.</_>
    <_>
      35. 203. 186.</_>
    <_>
      35. 195. 186.</_>
    <_>
      35. 188. 187.</_>
    <_>
      36. 196. 189.</_>
    <_>
      34. 195. 184.</_>
    <_>
      34. 196. 180.</_>
    <_>
      35. 195. 179.</_>
    <_>
      35. 193. 182.</_>
    <_>
      36. 192. 185.</_>
    <_>
      35. 196. 186.</_>
    <_>
      35. 203. 187.</_>
    <_>
      35. 203. 187.</_>
    <_>
      35. 195. 187.</_>
    <_>
      36. 189. 188.</_>
    <_>
      35. 194. 188.</_>
    <_>
      34. 190. 183.</_>
    <_>
      34. 192. 178.</_>
    <_>
      35. 194. 175.</_>
    <_>
      35. 191. 179.</_>
    <_>
      36. 184. 188.</_>
    <_>
      36. 187. 187.</_>
    <_>
      36. 191. 186.</_>
    <_>
      36. 196. 186.</_>
    <_>
      36. 200. 187.</_>
    <_>
      36. 200. 187.</_>
    <_>
      36. 191. 188.</_>
    <_>
      36. 185. 189.</_>
    <_>
      36. 194. 187.</_>
    <_>
      35. 185. 187.</_>
    <_>
      34. 186. 181.</_>
    <_>
      34. 185. 176.</_>
    <_>
      34. 190. 172.</_>
    <_>
      35. 187. 177.</_>
    <_>
      36. 184. 188.</_>
    <_>
      36. 186. 188.</_>
    <_>
      36. 190. 187.</_>
    <_>
      36. 196. 186.</_>
    <_>
      36. 200. 187.</_>
    <_>
      36. 201. 188.</_>
    <_>
      36. 193. 188.</_>
    <_>
      35. 179. 185.</_>
    <_>
      34. 179. 178.</_>
    <_>
      33. 181. 173.</_>
    <_>
      34. 183. 173.</_>
    <_>
      35. 183. 177.</_>
    <_>
      36. 187. 187.</_>
    <_>
      36. 186. 188.</_>
    <_>
      36. 189. 189.</_>
    <_>
      36. 195. 188.</_>
    <_>
      36. 198. 188.</_>
    <_>
      35. 171. 185.</_>
    <_>
      34. 179. 174.</_>
    <_>
      35. 180. 177.</_>
    <_>
      36. 189. 189.</_>
    <_>
      36. 191. 190.</_>
    <_>
      35. 179. 180.</_>
    <_>
      36. 186. 188.</_>
    <_>
      36. 188. 190.</_>
    <_>
      36. 187. 187.</_>
    <_>
      36. 189. 189.</_>
    <_>
      36. 190. 188.</_>
    <_>
      36. 193. 185.</_>
    <_>
      35. 185. 179.</_>
    <_>
      36. 194. 187.</_>
    <_>
      36. 198. 183.</_>
    <_>
      35. 188. 184.</_>
    <_>
      35. 184. 186.</_>
    <_>
      35. 181. 186.</_>
    <_>
      36. 189. 188.</_>
    <_>
      36. 192. 189.</_>
    <_>
      36. 183. 189.</_>
    <_>
      35. 179. 191.</_>
    <_>
      36. 185. 189.</_>
    <_>
      37. 201. 193.</_>
    <_>
      37. 198. 196.</_>
    <_>
      37. 196. 195.</_>
    <_>
      37. 186. 200.</_>
    <_>
      37. 178. 203.</_>
    <_>
      36. 179. 194.</_>
    <_>
      36. 180. 194.</_>
    <_>
      37. 186. 200.</_>
    <_>
      37. 182. 202.</_>
    <_>
      37. 180. 203.</_>
    <_>
      36. 177. 196.</_>
    <_>
      36. 177. 197.</_>
    <_>
      37. 183. 204.</_>
    <_>
      37. 182. 202.</_>
    <_>
      36. 176. 197.</_>
    <_>
      36. 178. 196.</_>
    <_>
      37. 182. 207.</_>
    <_>
      37. 189. 200.</_>
    <_>
      37. 182. 207.</_>
    <_>
      37. 179. 208.</_>
    <_>
      37. 134. 169.</_>
    <_>
      34. 147. 182.</_>
    <_>
      34. 150. 179.</_>
    <_>
      34. 148. 178.</_>
    <_>
      34. 154. 174.</_>
    <_>
      33. 149. 164.</_>
    <_>
      37. 132. 230.</_>
    <_>
      36. 147. 212.</_>
    <_>
      35. 161. 200.</_>
    <_>
      35. 167. 194.</_>
    <_>
      35. 169. 189.</_>
    <_>
      34. 167. 186.</_>
    <_>
      35. 165. 185.</_>
    <_>
      35. 167. 183.</_>
    <_>
      36. 152. 216.</_>
    <_>
      36. 170. 199.</_>
    <_>
      35. 180. 190.</_>
    <_>
      35. 178. 188.</_>
    <_>
      35. 176. 183.</_>
    <_>
      35. 173. 184.</_>
    <_>
      35. 168. 182.</_>
    <_>
      36. 175. 204.</_>
    <_>
      36. 188. 191.</_>
    <_>
      35. 193. 185.</_>
    <_>
      35. 186. 185.</_>
    <_>
      34. 183. 178.</_>
    <_>
      35. 177. 180.</_>
    <_>
      36. 188. 194.</_>
    <_>
      35. 192. 190.</_>
    <_>
      35. 191. 187.</_>
    <_>
      35. 185. 186.</_>
    <_>
      35. 179. 179.</_>
    <_>
      36. 189. 190.</_>
    <_>
      35. 188. 187.</_>
    <_>
      35. 187. 183.</_>
    <_>
      35. 180. 180.</_>
    <_>
      35. 185. 185.</_>
    <_>
      35. 180. 184.</_>
    <_>
      33. 152. 161.</_>
    <_>
      35. 170. 184.</_>
    <_>
      34. 173. 167.</_>
    <_>
      34. 180. 166.</_>
    <_>
      38. 187. 237.</_>
    <_>
      36. 207. 216.</_>
    <_>
      35. 223. 197.</_>
    <_>
      35. 222. 188.</_>
    <_>
      35. 218. 184.</_>
    <_>
      35. 205. 182.</_>
    <_>
      35. 199. 173.</_>
    <_>
      34. 194. 164.</_>
    <_>
      33. 172. 156.</_>
    <_>
      32. 189. 146.</_>
    <_>
      32. 199. 146.</_>
    <_>
      34. 200. 159.</_>
    <_>
      38. 204. 223.</_>
    <_>
      36. 222. 202.</_>
    <_>
      35. 236. 185.</_>
    <_>
      34. 229. 179.</_>
    <_>
      35. 224. 171.</_>
    <_>
      33. 191. 152.</_>
    <_>
      38. 228. 204.</_>
    <_>
      36. 234. 191.</_>
    <_>
      34. 233. 184.</_>
    <_>
      34. 225. 178.</_>
    <_>
      35. 220. 166.</_>
    <_>
      38. 246. 189.</_>
    <_>
      36. 235. 189.</_>
    <_>
      34. 225. 185.</_>
    <_>
      33. 224. 172.</_>
    <_>
      34. 220. 158.</_>
    <_>
      38. 251. 181.</_>
    <_>
      36. 241. 179.</_>
    <_>
      34. 234. 173.</_>
    <_>
      33. 231. 162.</_>
    <_>
      34. 219. 154.</_>
    <_>
      33. 184. 150.</_>
    <_>
      33. 190. 156.</_>
    <_>
      34. 194. 163.</_>
    <_>
      34. 200. 163.</_>
    <_>
      36. 243. 173.</_>
    <_>
      33. 245. 160.</_>
    <_>
      32. 237. 152.</_>
    <_>
      34. 218. 151.</_>
    <_>
      33. 184. 158.</_>
    <_>
      33. 193. 164.</_>
    <_>
      34. 195. 169.</_>
    <_>
      34. 198. 165.</_>
    <_>
      34. 205. 159.</_>
    <_>
      36. 236. 172.</_>
    <_>
      33. 241. 159.</_>
    <_>
      32. 233. 152.</_>
    <_>
      34. 212. 153.</_>
    <_>
      33. 183. 164.</_>
    <_>
      33. 193. 169.</_>
    <_>
      34. 200. 170.</_>
    <_>
      34. 201. 165.</_>
    <_>
      36. 226. 176.</_>
    <_>
      33. 227. 166.</_>
    <_>
      32. 224. 157.</_>
    <_>
      34. 208. 156.</_>
    <_>
      34. 192. 165.</_>
    <_>
      34. 197. 167.</_>
    <_>
      34. 203. 167.</_>
    <_>
      36. 217. 180.</_>
    <_>
      33. 216. 169.</_>
    <_>
      32. 217. 159.</_>
    <_>
      34. 205. 158.</_>
    <_>
      34. 196. 163.</_>
    <_>
      34. 196. 165.</_>
    <_>
      34. 199. 164.</_>
    <_>
      36. 216. 177.</_>
    <_>
      33. 215. 167.</_>
    <_>
      33. 216. 158.</_>
    <_>
      34. 206. 157.</_>
    <_>
      34. 192. 162.</_>
    <_>
      34. 199. 160.</_>
    <_>
      34. 197. 162.</_>
    <_>
      34. 214. 161.</_>
    <_>
      33. 213. 153.</_>
    <_>
      34. 208. 157.</_>
    <_>
      34. 200. 158.</_>
    <_>
      34. 217. 155.</_>
    <_>
      33. 215. 147.</_>
    <_>
      35. 218. 164.</_>
    <_>
      34. 214. 155.</_>
    <_>
      31. 186. 141.</_>
    <_>
      32. 197. 144.</_>
    <_>
      33. 209. 144.</_>
    <_>
      34. 219. 156.</_>
    <_>
      34. 222. 162.</_>
    <_>
      35. 228. 163.</_>
    <_>
      34. 220. 153.</_>
    <_>
      30. 195. 136.</_>
    <_>
      31. 203. 138.</_>
    <_>
      31. 195. 140.</_>
    <_>
      31. 207. 143.</_>
    <_>
      32. 189. 147.</_>
    <_>
      33. 205. 153.</_>
    <_>
      37. 239. 178.</_>
    <_>
      37. 239. 178.</_>
    <_>
      33. 181. 152.</_>
    <_>
      33. 190. 150.</_>
    <_>
      33. 181. 151.</_>
    <_>
      33. 196. 146.</_>
    <_>
      32. 172. 150.</_>
    <_>
      48. 255. 219.</_>
    <_>
      48. 250. 220.</_>
    <_>
      37. 242. 175.</_>
    <_>
      36. 248. 175.</_>
    <_>
      37. 249. 177.</_>
    <_>
      36. 236. 177.</_>
    <_>
      37. 251. 177.</_>
    <_>
      37. 241. 176.</_>
    <_>
      37. 242. 179.</_>
    <_>
      36. 119. 231.</_>
    <_>
      37. 120. 233.</_>
    <_>
      37. 126. 228.</_>
    <_>
      36. 119. 231.</_>
    <_>
      37. 116. 234.</_>
    <_>
      37. 121. 232.</_>
    <_>
      37. 112. 236.</_>
    <_>
      36. 137. 209.</_>
    <_>
      36. 136. 210.</_>
    <_>
      36. 137. 209.</_>
    <_>
      36. 137. 209.</_>
    <_>
      36. 136. 210.</_>
    <_>
      36. 137. 209.</_>
    <_>
      36. 138. 210.</_>
    <_>
      36. 138. 210.</_>
    <_>
      36. 136. 210.</_>
    <_>
      36. 124. 222.</_>
    <_>
      36. 139. 209.</_>
    <_>
      36. 142. 210.</_>
    <_>
      36. 141. 211.</_>
    <_>
      36. 140. 208.</_>
    <_>
      36. 139. 209.</_>
    <_>
      36. 143. 208.</_>
    <_>
      36. 143. 210.</_>
    <_>
      36. 143. 209.</_>
    <_>
      36. 129. 221.</_>
    <_>
      36. 135. 211.</_>
    <_>
      36. 142. 210.</_>
    <_>
      36. 144. 209.</_>
    <_>
      36. 144. 209.</_>
    <_>
      36. 141. 212.</_>
    <_>
      36. 139. 209.</_>
    <_>
      36. 131. 222.</_>
    <_>
      36. 134. 213.</_>
    <_>
      36. 131. 222.</_>
    <_>
      36. 136. 214.</_>
    <_>
      36. 131. 222.</_>
    <_>
      36. 135. 216.</_>
    <_>
      36. 131. 222.</_>
    <_>
      36. 134. 217.</_>
    <_>
      36. 131. 222.</_>
    <_>
      36. 134. 217.</_>
    <_>
      36. 131. 222.</_>
    <_>
      36. 135. 216.</_>
    <_>
      36. 134. 223.</_>
    <_>
      36. 137. 217.</_>
    <_>
      36. 133. 224.</_>
    <_>
      36. 137. 218.</_>
    <_>
      36. 133. 225.</_>
    <_>
      36. 135. 221.</_>
    <_>
      36. 132. 226.</_>
    <_>
      36. 134. 222.</_>
    <_>
      36. 132. 226.</_>
    <_>
      36. 135. 223.</_>
    <_>
      37. 137. 222.</_>
    <_>
      36. 134. 225.</_>
    <_>
      36. 135. 223.</_>
    <_>
      36. 133. 225.</_>
    <_>
      36. 136. 222.</_>
    <_>
      36. 134. 225.</_>
    <_>
      36. 136. 222.</_>
    <_>
      36. 132. 226.</_>
    <_>
      36. 136. 222.</_>
    <_>
      37. 140. 221.</_>
    <_>
      36. 132. 226.</_>
    <_>
      36. 136. 222.</_>
    <_>
      15. 106. 108.</_>
    <_>
      20. 108. 116.</_>
    <_>
      23. 113. 122.</_>
    <_>
      26. 114. 132.</_>
    <_>
      28. 107. 145.</_>
    <_>
      29. 106. 151.</_>
    <_>
      30. 112. 146.</_>
    <_>
      30. 113. 145.</_>
    <_>
      30. 111. 143.</_>
    <_>
      30. 110. 144.</_>
    <_>
      30. 111. 143.</_>
    <_>
      30. 111. 143.</_>
    <_>
      30. 114. 143.</_>
    <_>
      30. 119. 139.</_>
    <_>
      28. 120. 144.</_>
    <_>
      29. 121. 148.</_>
    <_>
      29. 118. 151.</_>
    <_>
      29. 120. 149.</_>
    <_>
      29. 119. 150.</_>
    <_>
      30. 114. 152.</_>
    <_>
      30. 119. 146.</_>
    <_>
      30. 124. 140.</_>
    <_>
      30. 115. 146.</_>
    <_>
      30. 116. 145.</_>
    <_>
      17. 105. 114.</_>
    <_>
      21. 104. 128.</_>
    <_>
      24. 98. 148.</_>
    <_>
      28. 98. 156.</_>
    <_>
      29. 101. 154.</_>
    <_>
      29. 104. 154.</_>
    <_>
      30. 111. 147.</_>
    <_>
      30. 114. 143.</_>
    <_>
      30. 114. 139.</_>
    <_>
      30. 113. 140.</_>
    <_>
      30. 113. 140.</_>
    <_>
      30. 113. 140.</_>
    <_>
      30. 116. 141.</_>
    <_>
      30. 118. 138.</_>
    <_>
      30. 119. 142.</_>
    <_>
      29. 123. 145.</_>
    <_>
      29. 123. 145.</_>
    <_>
      29. 126. 142.</_>
    <_>
      30. 121. 143.</_>
    <_>
      30. 118. 147.</_>
    <_>
      30. 120. 144.</_>
    <_>
      30. 118. 143.</_>
    <_>
      30. 118. 143.</_>
    <_>
      21. 103. 129.</_>
    <_>
      23. 101. 144.</_>
    <_>
      26. 97. 155.</_>
    <_>
      28. 99. 157.</_>
    <_>
      29. 106. 151.</_>
    <_>
      30. 110. 148.</_>
    <_>
      30. 115. 142.</_>
    <_>
      30. 117. 139.</_>
    <_>
      30. 115. 138.</_>
    <_>
      30. 115. 138.</_>
    <_>
      30. 115. 138.</_>
    <_>
      30. 115. 138.</_>
    <_>
      30. 118. 138.</_>
    <_>
      30. 117. 139.</_>
    <_>
      30. 120. 140.</_>
    <_>
      30. 121. 139.</_>
    <_>
      30. 119. 141.</_>
    <_>
      30. 119. 141.</_>
    <_>
      30. 118. 143.</_>
    <_>
      30. 117. 144.</_>
    <_>
      30. 119. 141.</_>
    <_>
      30. 118. 138.</_>
    <_>
      30. 117. 140.</_>
    <_>
      23. 105. 139.</_>
    <_>
      25. 102. 148.</_>
    <_>
      28. 107. 145.</_>
    <_>
      29. 107. 145.</_>
    <_>
      30. 108. 146.</_>
    <_>
      30. 114. 143.</_>
    <_>
      30. 118. 138.</_>
    <_>
      30. 118. 138.</_>
    <_>
      30. 113. 140.</_>
    <_>
      30. 113. 140.</_>
    <_>
      30. 114. 139.</_>
    <_>
      30. 114. 139.</_>
    <_>
      30. 118. 138.</_>
    <_>
      30. 117. 140.</_>
    <_>
      30. 119. 141.</_>
    <_>
      30. 122. 138.</_>
    <_>
      30. 120. 140.</_>
    <_>
      30. 119. 141.</_>
    <_>
      30. 118. 143.</_>
    <_>
      30. 119. 142.</_>
    <_>
      30. 119. 137.</_>
    <_>
      30. 117. 140.</_>
    <_>
      25. 102. 152.</_>
    <_>
      27. 104. 152.</_>
    <_>
      28. 113. 142.</_>
    <_>
      29. 114. 141.</_>
    <_>
      30. 113. 145.</_>
    <_>
      30. 115. 142.</_>
    <_>
      30. 119. 137.</_>
    <_>
      30. 116. 141.</_>
    <_>
      30. 117. 139.</_>
    <_>
      30. 117. 139.</_>
    <_>
      30. 118. 138.</_>
    <_>
      30. 120. 140.</_>
    <_>
      30. 119. 141.</_>
    <_>
      30. 119. 137.</_>
    <_>
      30. 117. 140.</_>
    <_>
      27. 106. 154.</_>
    <_>
      28. 112. 148.</_>
    <_>
      30. 116. 143.</_>
    <_>
      30. 113. 145.</_>
    <_>
      30. 113. 144.</_>
    <_>
      30. 117. 139.</_>
    <_>
      30. 121. 135.</_>
    <_>
      30. 118. 138.</_>
    <_>
      30. 117. 139.</_>
    <_>
      30. 116. 141.</_>
    <_>
      30. 118. 138.</_>
    <_>
      30. 121. 139.</_>
    <_>
      30. 119. 137.</_>
    <_>
      27. 118. 147.</_>
    <_>
      28. 115. 148.</_>
    <_>
      30. 116. 145.</_>
    <_>
      30. 119. 142.</_>
    <_>
      30. 114. 147.</_>
    <_>
      30. 118. 138.</_>
    <_>
      30. 117. 139.</_>
    <_>
      30. 114. 139.</_>
    <_>
      30. 114. 139.</_>
    <_>
      30. 114. 139.</_>
    <_>
      30. 113. 140.</_>
    <_>
      30. 114. 139.</_>
    <_>
      30. 114. 139.</_>
    <_>
      28. 117. 148.</_>
    <_>
      30. 116. 145.</_>
    <_>
      30. 119. 142.</_>
    <_>
      30. 121. 139.</_>
    <_>
      30. 117. 139.</_>
    <_>
      30. 117. 139.</_>
    <_>
      30. 114. 139.</_>
    <_>
      30. 115. 138.</_>
    <_>
      30. 115. 138.</_>
    <_>
      30. 114. 139.</_>
    <_>
      30. 113. 140.</_>
    <_>
      30. 120. 140.</_>
    <_>
      30. 120. 140.</_>
    <_>
      30. 122. 138.</_>
    <_>
      30. 117. 139.</_>
    <_>
      30. 117. 139.</_>
    <_>
      30. 117. 139.</_>
    <_>
      30. 118. 138.</_>
    <_>
      30. 115. 138.</_>
    <_>
      30. 114. 139.</_>
    <_>
      30. 114. 139.</_>
    <_>
      30. 113. 140.</_>
    <_>
      30. 118. 143.</_>
    <_>
      30. 117. 144.</_>
    <_>
      30. 118. 138.</_>
    <_>
      30. 117. 139.</_>
    <_>
      30. 117. 139.</_>
    <_>
      30. 117. 139.</_>
    <_>
      30. 114. 139.</_>
    <_>
      30. 113. 140.</_>
    <_>
      30. 114. 139.</_>
    <_>
      30. 114. 143.</_>
    <_>
      30. 118. 138.</_>
    <_>
      30. 117. 139.</_>
    <_>
      30. 118. 140.</_>
    <_>
      30. 118. 140.</_>
    <_>
      30. 117. 139.</_>
    <_>
      30. 117. 139.</_>
    <_>
      30. 114. 139.</_>
    <_>
      30. 115. 138.</_>
    <_>
      30. 117. 139.</_>
    <_>
      30. 117. 139.</_>
    <_>
      30. 118. 140.</_>
    <_>
      30. 118. 140.</_>
    <_>
      30. 117. 139.</_>
    <_>
      30. 117. 139.</_>
    <_>
      30. 114. 139.</_>
    <_>
      30. 117. 139.</_>
    <_>
      30. 118. 140.</_>
    <_>
      30. 120. 140.</_>
    <_>
      30. 120. 140.</_>
    <_>
      30. 117. 139.</_>
    <_>
      30. 117. 140.</_>
    <_>
      30. 117. 139.</_>
    <_>
      30. 117. 139.</_>
    <_>
      30. 117. 139.</_>
    <_>
      30. 117. 139.</_>
    <_>
      30. 117. 139.</_>
    <_>
      30. 117. 139.</_>
    <_>
      30. 117. 140.</_>
    <_>
      30. 120. 144.</_>
    <_>
      30. 121. 143.</_>
    <_>
      30. 124. 144.</_>
    <_>
      30. 124. 144.</_>
    <_>
      30. 120. 144.</_>
    <_>
      30. 121. 143.</_>
    <_>
      30. 116. 145.</_>
    <_>
      30. 116. 145.</_>
    <_>
      30. 117. 139.</_>
    <_>
      30. 118. 138.</_>
    <_>
      30. 113. 140.</_>
    <_>
      30. 114. 139.</_>
    <_>
      29. 106. 139.</_>
    <_>
      30. 109. 140.</_>
    <_>
      29. 106. 139.</_>
    <_>
      29. 106. 139.</_>
    <_>
      29. 106. 139.</_>
    <_>
      30. 114. 139.</_>
    <_>
      30. 118. 138.</_>
    <_>
      30. 118. 138.</_>
    <_>
      30. 121. 139.</_>
    <_>
      30. 122. 138.</_>
    <_>
      30. 120. 144.</_>
    <_>
      30. 125. 143.</_>
    <_>
      30. 120. 149.</_>
    <_>
      30. 121. 148.</_>
    <_>
      31. 122. 149.</_>
    <_>
      31. 122. 149.</_>
    <_>
      30. 120. 149.</_>
    <_>
      30. 121. 148.</_>
    <_>
      31. 122. 149.</_></support_vectors>
  <decision_functions>
    <_>
      <sv_count>2000</sv_count>
      <rho>1.4062682330608371e+00</rho>
      <alpha>
        1.0000000000000001e-01 1.0000000000000001e-01
        1.0000000000000001e-01 1.0000000000000001e-01
        1.0000000000000001e-01 1.0000000000000001e-01
        1.0000000000000001e-01 1.0000000000000001e-01
        1.0000000000000001e-01 1.0000000000000001e-01
        1.0000000000000001e-01 1.0000000000000001e-01
        1.0000000000000001e-01 1.0000000000000001e-01
        1.0000000000000001e-01 1.0000000000000001e-01
        1.0000000000000001e-01 1.0000000000000001e-01
        1.0000000000000001e-01 1.0000000000000001e-01
        1.0000000000000001e-01 1.0000000000000001e-01
        1.0000000000000001e-01 1.0000000000000001e-01
        1.0000000000000001e-01 1.0000000000000001e-01
        1.0000000000000001e-01 1.0000000000000001e-01
        1.0000000000000001e-01 1.0000000000000001e-01
        1.0000000000000001e-01 1.0000000000000001e-01
        1.0000000000000001e-01 1.0000000000000001e-01
        1.0000000000000001e-01 1.0000000000000001e-01
        1.0000000000000001e-01 1.0000000000000001e-01
        1.0000000000000001e-01 1.0000000000000001e-01
        1.0000000000000001e-01 1.0000000000000001e-01
        1.0000000000000001e-01 1.0000000000000001e-01
        1.0000000000000001e-01 1.0000000000000001e-01
        1.0000000000000001e-01 1.0000000000000001e-01
        1.0000000000000001e-01 1.0000000000000001e-01
        1.0000000000000001e-01 1.0000000000000001e-01
        1.0000000000000001e-01 1.0000000000000001e-01
        1.0000000000000001e-01 1.0000000000000001e-01
        1.0000000000000001e-01 1.0000000000000001e-01
        1.0000000000000001e-01 1.0000000000000001e-01
        1.0000000000000001e-01 1.0000000000000001e-01
        1.0000000000000001e-01 1.0000000000000001e-01
        1.0000000000000001e-01 1.0000000000000001e-01
        1.0000000000000001e-01 1.0000000000000001e-01
        1.0000000000000001e-01 1.0000000000000001e-01
        1.0000000000000001e-01 1.0000000000000001e-01
        1.0000000000000001e-01 1.0000000000000001e-01
        1.0000000000000001e-01 1.0000000000000001e-01
        1.0000000000000001e-01 1.0000000000000001e-01
        1.0000000000000001e-01 1.0000000000000001e-01
        1.0000000000000001e-01 1.0000000000000001e-01
        1.0000000000000001e-01 1.0000000000000001e-01
        1.0000000000000001e-01 1.0000000000000001e-01
        1.0000000000000001e-01 1.0000000000000001e-01
        1.0000000000000001e-01 1.0000000000000001e-01
        1.0000000000000001e-01 1.0000000000000001e-01
        1.0000000000000001e-01 1.0000000000000001e-01
        1.0000000000000001e-01 1.0000000000000001e-01
        1.0000000000000001e-01 1.0000000000000001e-01
        1.0000000000000001e-01 1.0000000000000001e-01
        1.0000000000000001e-01 1.0000000000000001e-01
        1.0000000000000001e-01 1.0000000000000001e-01
        1.0000000000000001e-01 1.0000000000000001e-01
        1.0000000000000001e-01 1.0000000000000001e-01
        1.0000000000000001e-01 1.0000000000000001e-01
        1.0000000000000001e-01 1.0000000000000001e-01
        1.0000000000000001e-01 1.0000000000000001e-01
        1.0000000000000001e-01 1.0000000000000001e-01
        1.0000000000000001e-01 1.0000000000000001e-01
        1.0000000000000001e-01 1.0000000000000001e-01
        1.0000000000000001e-01 1.0000000000000001e-01
        1.0000000000000001e-01 1.0000000000000001e-01
        1.0000000000000001e-01 1.0000000000000001e-01
        1.0000000000000001e-01 1.0000000000000001e-01
        1.0000000000000001e-01 1.0000000000000001e-01
        1.0000000000000001e-01 1.0000000000000001e-01
        1.0000000000000001e-01 1.0000000000000001e-01
        1.0000000000000001e-01 1.0000000000000001e-01
        1.0000000000000001e-01 1.0000000000000001e-01
        1.0000000000000001e-01 1.0000000000000001e-01
        1.0000000000000001e-01 1.0000000000000001e-01
        1.0000000000000001e-01 1.0000000000000001e-01
        1.0000000000000001e-01 1.0000000000000001e-01
        1.0000000000000001e-01 1.0000000000000001e-01
        1.0000000000000001e-01 1.0000000000000001e-01
        1.0000000000000001e-01 1.0000000000000001e-01
        1.0000000000000001e-01 1.0000000000000001e-01
        1.0000000000000001e-01 1.0000000000000001e-01
        1.0000000000000001e-01 1.0000000000000001e-01
        1.0000000000000001e-01 1.0000000000000001e-01
        1.0000000000000001e-01 1.0000000000000001e-01
        1.0000000000000001e-01 1.0000000000000001e-01
        1.0000000000000001e-01 1.0000000000000001e-01
        1.0000000000000001e-01 1.0000000000000001e-01
        1.0000000000000001e-01 1.0000000000000001e-01
        1.0000000000000001e-01 1.0000000000000001e-01
        1.0000000000000001e-01 1.0000000000000001e-01
        1.0000000000000001e-01 1.0000000000000001e-01
        1.0000000000000001e-01 1.0000000000000001e-01
        1.0000000000000001e-01 1.0000000000000001e-01
        1.0000000000000001e-01 1.0000000000000001e-01
        1.0000000000000001e-01 1.0000000000000001e-01
        1.0000000000000001e-01 1.0000000000000001e-01
        1.0000000000000001e-01 1.0000000000000001e-01
        1.0000000000000001e-01 1.0000000000000001e-01
        1.0000000000000001e-01 1.0000000000000001e-01
        1.0000000000000001e-01 1.0000000000000001e-01
        1.0000000000000001e-01 1.0000000000000001e-01
        1.0000000000000001e-01 1.0000000000000001e-01
        1.0000000000000001e-01 1.0000000000000001e-01
        1.0000000000000001e-01 1.0000000000000001e-01
        1.0000000000000001e-01 1.0000000000000001e-01
        1.0000000000000001e-01 1.0000000000000001e-01
        1.0000000000000001e-01 1.0000000000000001e-01
        1.0000000000000001e-01 1.0000000000000001e-01
        1.0000000000000001e-01 1.0000000000000001e-01
        1.0000000000000001e-01 1.0000000000000001e-01
        1.0000000000000001e-01 1.0000000000000001e-01
        1.0000000000000001e-01 1.0000000000000001e-01
        1.0000000000000001e-01 1.0000000000000001e-01
        1.0000000000000001e-01 1.0000000000000001e-01
        1.0000000000000001e-01 1.0000000000000001e-01
        1.0000000000000001e-01 1.0000000000000001e-01
        1.0000000000000001e-01 1.0000000000000001e-01
        1.0000000000000001e-01 1.0000000000000001e-01
        1.0000000000000001e-01 1.0000000000000001e-01
        1.0000000000000001e-01 1.0000000000000001e-01
        1.0000000000000001e-01 1.0000000000000001e-01
        1.0000000000000001e-01 1.0000000000000001e-01
        1.0000000000000001e-01 1.0000000000000001e-01
        1.0000000000000001e-01 1.0000000000000001e-01
        1.0000000000000001e-01 1.0000000000000001e-01
        1.0000000000000001e-01 1.0000000000000001e-01
        1.0000000000000001e-01 1.0000000000000001e-01
        1.0000000000000001e-01 1.0000000000000001e-01
        1.0000000000000001e-01 1.0000000000000001e-01
        1.0000000000000001e-01 1.0000000000000001e-01
        1.0000000000000001e-01 1.0000000000000001e-01
        1.0000000000000001e-01 1.0000000000000001e-01
        1.0000000000000001e-01 1.0000000000000001e-01
        1.0000000000000001e-01 1.0000000000000001e-01
        1.0000000000000001e-01 1.0000000000000001e-01
        1.0000000000000001e-01 1.0000000000000001e-01
        1.0000000000000001e-01 1.0000000000000001e-01
        1.0000000000000001e-01 1.0000000000000001e-01
        1.0000000000000001e-01 1.0000000000000001e-01
        1.0000000000000001e-01 1.0000000000000001e-01
        1.0000000000000001e-01 1.0000000000000001e-01
        1.0000000000000001e-01 1.0000000000000001e-01
        1.0000000000000001e-01 1.0000000000000001e-01
        1.0000000000000001e-01 1.0000000000000001e-01
        1.0000000000000001e-01 1.0000000000000001e-01
        1.0000000000000001e-01 1.0000000000000001e-01
        1.0000000000000001e-01 1.0000000000000001e-01
        1.0000000000000001e-01 1.0000000000000001e-01
        1.0000000000000001e-01 1.0000000000000001e-01
        1.0000000000000001e-01 1.0000000000000001e-01
        1.0000000000000001e-01 1.0000000000000001e-01
        1.0000000000000001e-01 1.0000000000000001e-01
        1.0000000000000001e-01 1.0000000000000001e-01
        1.0000000000000001e-01 1.0000000000000001e-01
        1.0000000000000001e-01 1.0000000000000001e-01
        1.0000000000000001e-01 1.0000000000000001e-01
        1.0000000000000001e-01 1.0000000000000001e-01
        1.0000000000000001e-01 1.0000000000000001e-01
        1.0000000000000001e-01 1.0000000000000001e-01
        1.0000000000000001e-01 1.0000000000000001e-01
        1.0000000000000001e-01 1.0000000000000001e-01
        1.0000000000000001e-01 1.0000000000000001e-01
        1.0000000000000001e-01 1.0000000000000001e-01
        1.0000000000000001e-01 1.0000000000000001e-01
        1.0000000000000001e-01 1.0000000000000001e-01
        1.0000000000000001e-01 1.0000000000000001e-01
        1.0000000000000001e-01 1.0000000000000001e-01
        1.0000000000000001e-01 1.0000000000000001e-01
        1.0000000000000001e-01 1.0000000000000001e-01
        1.0000000000000001e-01 1.0000000000000001e-01
        1.0000000000000001e-01 1.0000000000000001e-01
        1.0000000000000001e-01 1.0000000000000001e-01
        1.0000000000000001e-01 1.0000000000000001e-01
        1.0000000000000001e-01 1.0000000000000001e-01
        1.0000000000000001e-01 1.0000000000000001e-01
        1.0000000000000001e-01 1.0000000000000001e-01
        1.0000000000000001e-01 1.0000000000000001e-01
        1.0000000000000001e-01 1.0000000000000001e-01
        1.0000000000000001e-01 1.0000000000000001e-01
        1.0000000000000001e-01 1.0000000000000001e-01
        1.0000000000000001e-01 1.0000000000000001e-01
        1.0000000000000001e-01 1.0000000000000001e-01
        1.0000000000000001e-01 1.0000000000000001e-01
        1.0000000000000001e-01 1.0000000000000001e-01
        1.0000000000000001e-01 1.0000000000000001e-01
        1.0000000000000001e-01 1.0000000000000001e-01
        1.0000000000000001e-01 1.0000000000000001e-01
        1.0000000000000001e-01 1.0000000000000001e-01
        1.0000000000000001e-01 1.0000000000000001e-01
        1.0000000000000001e-01 1.0000000000000001e-01
        1.0000000000000001e-01 1.0000000000000001e-01
        1.0000000000000001e-01 1.0000000000000001e-01
        1.0000000000000001e-01 1.0000000000000001e-01
        1.0000000000000001e-01 1.0000000000000001e-01
        1.0000000000000001e-01 1.0000000000000001e-01
        1.0000000000000001e-01 1.0000000000000001e-01
        1.0000000000000001e-01 1.0000000000000001e-01
        1.0000000000000001e-01 1.0000000000000001e-01
        1.0000000000000001e-01 1.0000000000000001e-01
        1.0000000000000001e-01 1.0000000000000001e-01
        1.0000000000000001e-01 1.0000000000000001e-01
        1.0000000000000001e-01 1.0000000000000001e-01
        1.0000000000000001e-01 1.0000000000000001e-01
        1.0000000000000001e-01 1.0000000000000001e-01
        1.0000000000000001e-01 1.0000000000000001e-01
        1.0000000000000001e-01 1.0000000000000001e-01
        1.0000000000000001e-01 1.0000000000000001e-01
        1.0000000000000001e-01 1.0000000000000001e-01
        1.0000000000000001e-01 1.0000000000000001e-01
        1.0000000000000001e-01 1.0000000000000001e-01
        1.0000000000000001e-01 1.0000000000000001e-01
        1.0000000000000001e-01 1.0000000000000001e-01
        1.0000000000000001e-01 1.0000000000000001e-01
        1.0000000000000001e-01 1.0000000000000001e-01
        1.0000000000000001e-01 1.0000000000000001e-01
        1.0000000000000001e-01 1.0000000000000001e-01
        1.0000000000000001e-01 1.0000000000000001e-01
        1.0000000000000001e-01 1.0000000000000001e-01
        1.0000000000000001e-01 1.0000000000000001e-01
        1.0000000000000001e-01 1.0000000000000001e-01
        1.0000000000000001e-01 1.0000000000000001e-01
        1.0000000000000001e-01 1.0000000000000001e-01
        1.0000000000000001e-01 1.0000000000000001e-01
        1.0000000000000001e-01 1.0000000000000001e-01
        1.0000000000000001e-01 1.0000000000000001e-01
        1.0000000000000001e-01 1.0000000000000001e-01
        1.0000000000000001e-01 1.0000000000000001e-01
        1.0000000000000001e-01 1.0000000000000001e-01
        1.0000000000000001e-01 1.0000000000000001e-01
        1.0000000000000001e-01 1.0000000000000001e-01
        1.0000000000000001e-01 1.0000000000000001e-01
        1.0000000000000001e-01 1.0000000000000001e-01
        1.0000000000000001e-01 1.0000000000000001e-01
        1.0000000000000001e-01 1.0000000000000001e-01
        1.0000000000000001e-01 1.0000000000000001e-01
        1.0000000000000001e-01 1.0000000000000001e-01
        1.0000000000000001e-01 1.0000000000000001e-01
        1.0000000000000001e-01 1.0000000000000001e-01
        1.0000000000000001e-01 1.0000000000000001e-01
        1.0000000000000001e-01 1.0000000000000001e-01
        1.0000000000000001e-01 1.0000000000000001e-01
        1.0000000000000001e-01 1.0000000000000001e-01
        1.0000000000000001e-01 1.0000000000000001e-01
        1.0000000000000001e-01 1.0000000000000001e-01
        1.0000000000000001e-01 1.0000000000000001e-01
        1.0000000000000001e-01 1.0000000000000001e-01
        1.0000000000000001e-01 1.0000000000000001e-01
        1.0000000000000001e-01 1.0000000000000001e-01
        1.0000000000000001e-01 1.0000000000000001e-01
        1.0000000000000001e-01 1.0000000000000001e-01
        1.0000000000000001e-01 1.0000000000000001e-01
        1.0000000000000001e-01 1.0000000000000001e-01
        1.0000000000000001e-01 1.0000000000000001e-01
        1.0000000000000001e-01 1.0000000000000001e-01
        1.0000000000000001e-01 1.0000000000000001e-01
        1.0000000000000001e-01 1.0000000000000001e-01
        1.0000000000000001e-01 1.0000000000000001e-01
        1.0000000000000001e-01 1.0000000000000001e-01
        1.0000000000000001e-01 1.0000000000000001e-01
        1.0000000000000001e-01 1.0000000000000001e-01
        1.0000000000000001e-01 1.0000000000000001e-01
        1.0000000000000001e-01 1.0000000000000001e-01
        1.0000000000000001e-01 1.0000000000000001e-01
        1.0000000000000001e-01 1.0000000000000001e-01
        1.0000000000000001e-01 1.0000000000000001e-01
        1.0000000000000001e-01 1.0000000000000001e-01
        1.0000000000000001e-01 1.0000000000000001e-01
        1.0000000000000001e-01 1.0000000000000001e-01
        1.0000000000000001e-01 1.0000000000000001e-01
        1.0000000000000001e-01 1.0000000000000001e-01
        1.0000000000000001e-01 1.0000000000000001e-01
        1.0000000000000001e-01 1.0000000000000001e-01
        1.0000000000000001e-01 1.0000000000000001e-01
        1.0000000000000001e-01 1.0000000000000001e-01
        1.0000000000000001e-01 1.0000000000000001e-01
        1.0000000000000001e-01 1.0000000000000001e-01
        1.0000000000000001e-01 1.0000000000000001e-01
        1.0000000000000001e-01 1.0000000000000001e-01
        1.0000000000000001e-01 1.0000000000000001e-01
        1.0000000000000001e-01 1.0000000000000001e-01
        1.0000000000000001e-01 1.0000000000000001e-01
        1.0000000000000001e-01 1.0000000000000001e-01
        1.0000000000000001e-01 1.0000000000000001e-01
        1.0000000000000001e-01 1.0000000000000001e-01
        1.0000000000000001e-01 1.0000000000000001e-01
        1.0000000000000001e-01 1.0000000000000001e-01
        1.0000000000000001e-01 1.0000000000000001e-01
        1.0000000000000001e-01 1.0000000000000001e-01
        1.0000000000000001e-01 1.0000000000000001e-01
        1.0000000000000001e-01 1.0000000000000001e-01
        1.0000000000000001e-01 1.0000000000000001e-01
        1.0000000000000001e-01 1.0000000000000001e-01
        1.0000000000000001e-01 1.0000000000000001e-01
        1.0000000000000001e-01 1.0000000000000001e-01
        1.0000000000000001e-01 1.0000000000000001e-01
        1.0000000000000001e-01 1.0000000000000001e-01
        1.0000000000000001e-01 1.0000000000000001e-01
        1.0000000000000001e-01 1.0000000000000001e-01
        1.0000000000000001e-01 1.0000000000000001e-01
        1.0000000000000001e-01 1.0000000000000001e-01
        1.0000000000000001e-01 1.0000000000000001e-01
        1.0000000000000001e-01 1.0000000000000001e-01
        1.0000000000000001e-01 1.0000000000000001e-01
        1.0000000000000001e-01 1.0000000000000001e-01
        1.0000000000000001e-01 1.0000000000000001e-01
        1.0000000000000001e-01 1.0000000000000001e-01
        1.0000000000000001e-01 1.0000000000000001e-01
        1.0000000000000001e-01 1.0000000000000001e-01
        1.0000000000000001e-01 1.0000000000000001e-01
        1.0000000000000001e-01 1.0000000000000001e-01
        1.0000000000000001e-01 1.0000000000000001e-01
        1.0000000000000001e-01 1.0000000000000001e-01
        1.0000000000000001e-01 1.0000000000000001e-01
        1.0000000000000001e-01 1.0000000000000001e-01
        1.0000000000000001e-01 1.0000000000000001e-01
        1.0000000000000001e-01 1.0000000000000001e-01
        1.0000000000000001e-01 1.0000000000000001e-01
        1.0000000000000001e-01 1.0000000000000001e-01
        1.0000000000000001e-01 1.0000000000000001e-01
        1.0000000000000001e-01 1.0000000000000001e-01
        1.0000000000000001e-01 1.0000000000000001e-01
        1.0000000000000001e-01 1.0000000000000001e-01
        1.0000000000000001e-01 1.0000000000000001e-01
        1.0000000000000001e-01 1.0000000000000001e-01
        1.0000000000000001e-01 1.0000000000000001e-01
        1.0000000000000001e-01 1.0000000000000001e-01
        1.0000000000000001e-01 1.0000000000000001e-01
        1.0000000000000001e-01 1.0000000000000001e-01
        1.0000000000000001e-01 1.0000000000000001e-01
        1.0000000000000001e-01 1.0000000000000001e-01
        1.0000000000000001e-01 1.0000000000000001e-01
        1.0000000000000001e-01 1.0000000000000001e-01
        1.0000000000000001e-01 1.0000000000000001e-01
        1.0000000000000001e-01 1.0000000000000001e-01
        1.0000000000000001e-01 1.0000000000000001e-01
        1.0000000000000001e-01 1.0000000000000001e-01
        1.0000000000000001e-01 1.0000000000000001e-01
        1.0000000000000001e-01 1.0000000000000001e-01
        1.0000000000000001e-01 1.0000000000000001e-01
        1.0000000000000001e-01 1.0000000000000001e-01
        1.0000000000000001e-01 1.0000000000000001e-01
        1.0000000000000001e-01 1.0000000000000001e-01
        1.0000000000000001e-01 1.0000000000000001e-01
        1.0000000000000001e-01 1.0000000000000001e-01
        1.0000000000000001e-01 1.0000000000000001e-01
        1.0000000000000001e-01 1.0000000000000001e-01
        1.0000000000000001e-01 1.0000000000000001e-01
        1.0000000000000001e-01 1.0000000000000001e-01
        1.0000000000000001e-01 1.0000000000000001e-01
        1.0000000000000001e-01 1.0000000000000001e-01
        1.0000000000000001e-01 1.0000000000000001e-01
        1.0000000000000001e-01 1.0000000000000001e-01
        1.0000000000000001e-01 1.0000000000000001e-01
        1.0000000000000001e-01 1.0000000000000001e-01
        1.0000000000000001e-01 1.0000000000000001e-01
        1.0000000000000001e-01 1.0000000000000001e-01
        1.0000000000000001e-01 1.0000000000000001e-01
        1.0000000000000001e-01 1.0000000000000001e-01
        1.0000000000000001e-01 1.0000000000000001e-01
        1.0000000000000001e-01 1.0000000000000001e-01
        1.0000000000000001e-01 1.0000000000000001e-01
        1.0000000000000001e-01 1.0000000000000001e-01
        1.0000000000000001e-01 1.0000000000000001e-01
        1.0000000000000001e-01 1.0000000000000001e-01
        1.0000000000000001e-01 1.0000000000000001e-01
        1.0000000000000001e-01 1.0000000000000001e-01
        1.0000000000000001e-01 1.0000000000000001e-01
        1.0000000000000001e-01 1.0000000000000001e-01
        1.0000000000000001e-01 1.0000000000000001e-01
        1.0000000000000001e-01 1.0000000000000001e-01
        1.0000000000000001e-01 1.0000000000000001e-01
        1.0000000000000001e-01 1.0000000000000001e-01
        1.0000000000000001e-01 1.0000000000000001e-01
        1.0000000000000001e-01 1.0000000000000001e-01
        1.0000000000000001e-01 1.0000000000000001e-01
        1.0000000000000001e-01 1.0000000000000001e-01
        1.0000000000000001e-01 1.0000000000000001e-01
        1.0000000000000001e-01 1.0000000000000001e-01
        1.0000000000000001e-01 1.0000000000000001e-01
        1.0000000000000001e-01 1.0000000000000001e-01
        1.0000000000000001e-01 1.0000000000000001e-01
        1.0000000000000001e-01 1.0000000000000001e-01
        1.0000000000000001e-01 1.0000000000000001e-01
        1.0000000000000001e-01 1.0000000000000001e-01
        1.0000000000000001e-01 1.0000000000000001e-01
        1.0000000000000001e-01 1.0000000000000001e-01
        1.0000000000000001e-01 1.0000000000000001e-01
        1.0000000000000001e-01 1.0000000000000001e-01
        1.0000000000000001e-01 1.0000000000000001e-01
        1.0000000000000001e-01 1.0000000000000001e-01
        1.0000000000000001e-01 1.0000000000000001e-01
        1.0000000000000001e-01 1.0000000000000001e-01
        1.0000000000000001e-01 1.0000000000000001e-01
        1.0000000000000001e-01 1.0000000000000001e-01
        1.0000000000000001e-01 1.0000000000000001e-01
        1.0000000000000001e-01 1.0000000000000001e-01
        1.0000000000000001e-01 1.0000000000000001e-01
        1.0000000000000001e-01 1.0000000000000001e-01
        1.0000000000000001e-01 1.0000000000000001e-01
        1.0000000000000001e-01 1.0000000000000001e-01
        1.0000000000000001e-01 1.0000000000000001e-01
        1.0000000000000001e-01 1.0000000000000001e-01
        1.0000000000000001e-01 1.0000000000000001e-01
        1.0000000000000001e-01 1.0000000000000001e-01
        1.0000000000000001e-01 1.0000000000000001e-01
        1.0000000000000001e-01 1.0000000000000001e-01
        1.0000000000000001e-01 1.0000000000000001e-01
        1.0000000000000001e-01 1.0000000000000001e-01
        1.0000000000000001e-01 1.0000000000000001e-01
        1.0000000000000001e-01 1.0000000000000001e-01
        1.0000000000000001e-01 1.0000000000000001e-01
        1.0000000000000001e-01 1.0000000000000001e-01
        1.0000000000000001e-01 1.0000000000000001e-01
        1.0000000000000001e-01 1.0000000000000001e-01
        1.0000000000000001e-01 1.0000000000000001e-01
        1.0000000000000001e-01 1.0000000000000001e-01
        1.0000000000000001e-01 1.0000000000000001e-01
        1.0000000000000001e-01 1.0000000000000001e-01
        1.0000000000000001e-01 1.0000000000000001e-01
        1.0000000000000001e-01 1.0000000000000001e-01
        1.0000000000000001e-01 1.0000000000000001e-01
        1.0000000000000001e-01 1.0000000000000001e-01
        1.0000000000000001e-01 1.0000000000000001e-01
        1.0000000000000001e-01 1.0000000000000001e-01
        1.0000000000000001e-01 1.0000000000000001e-01
        1.0000000000000001e-01 1.0000000000000001e-01
        1.0000000000000001e-01 1.0000000000000001e-01
        1.0000000000000001e-01 1.0000000000000001e-01
        1.0000000000000001e-01 1.0000000000000001e-01
        1.0000000000000001e-01 1.0000000000000001e-01
        1.0000000000000001e-01 1.0000000000000001e-01
        1.0000000000000001e-01 1.0000000000000001e-01
        1.0000000000000001e-01 1.0000000000000001e-01
        1.0000000000000001e-01 1.0000000000000001e-01
        1.0000000000000001e-01 1.0000000000000001e-01
        1.0000000000000001e-01 1.0000000000000001e-01
        1.0000000000000001e-01 1.0000000000000001e-01
        1.0000000000000001e-01 1.0000000000000001e-01
        1.0000000000000001e-01 1.0000000000000001e-01
        1.0000000000000001e-01 1.0000000000000001e-01
        1.0000000000000001e-01 1.0000000000000001e-01
        1.0000000000000001e-01 1.0000000000000001e-01
        1.0000000000000001e-01 1.0000000000000001e-01
        1.0000000000000001e-01 1.0000000000000001e-01
        1.0000000000000001e-01 1.0000000000000001e-01
        1.0000000000000001e-01 1.0000000000000001e-01
        1.0000000000000001e-01 1.0000000000000001e-01
        1.0000000000000001e-01 1.0000000000000001e-01
        1.0000000000000001e-01 1.0000000000000001e-01
        1.0000000000000001e-01 1.0000000000000001e-01
        1.0000000000000001e-01 1.0000000000000001e-01
        1.0000000000000001e-01 1.0000000000000001e-01
        1.0000000000000001e-01 1.0000000000000001e-01
        1.0000000000000001e-01 1.0000000000000001e-01
        1.0000000000000001e-01 1.0000000000000001e-01
        1.0000000000000001e-01 1.0000000000000001e-01
        1.0000000000000001e-01 1.0000000000000001e-01
        1.0000000000000001e-01 1.0000000000000001e-01
        1.0000000000000001e-01 1.0000000000000001e-01
        1.0000000000000001e-01 1.0000000000000001e-01
        1.0000000000000001e-01 1.0000000000000001e-01
        1.0000000000000001e-01 1.0000000000000001e-01
        1.0000000000000001e-01 1.0000000000000001e-01
        1.0000000000000001e-01 1.0000000000000001e-01
        1.0000000000000001e-01 1.0000000000000001e-01
        1.0000000000000001e-01 1.0000000000000001e-01
        1.0000000000000001e-01 1.0000000000000001e-01
        1.0000000000000001e-01 1.0000000000000001e-01
        1.0000000000000001e-01 1.0000000000000001e-01
        1.0000000000000001e-01 1.0000000000000001e-01
        1.0000000000000001e-01 1.0000000000000001e-01
        1.0000000000000001e-01 1.0000000000000001e-01
        1.0000000000000001e-01 1.0000000000000001e-01
        1.0000000000000001e-01 1.0000000000000001e-01
        1.0000000000000001e-01 1.0000000000000001e-01
        1.0000000000000001e-01 1.0000000000000001e-01
        1.0000000000000001e-01 1.0000000000000001e-01
        1.0000000000000001e-01 1.0000000000000001e-01
        1.0000000000000001e-01 1.0000000000000001e-01
        1.0000000000000001e-01 1.0000000000000001e-01
        1.0000000000000001e-01 1.0000000000000001e-01
        1.0000000000000001e-01 1.0000000000000001e-01
        1.0000000000000001e-01 1.0000000000000001e-01
        1.0000000000000001e-01 1.0000000000000001e-01
        1.0000000000000001e-01 1.0000000000000001e-01
        1.0000000000000001e-01 1.0000000000000001e-01
        1.0000000000000001e-01 1.0000000000000001e-01
        1.0000000000000001e-01 1.0000000000000001e-01
        1.0000000000000001e-01 1.0000000000000001e-01
        1.0000000000000001e-01 1.0000000000000001e-01
        1.0000000000000001e-01 1.0000000000000001e-01
        1.0000000000000001e-01 1.0000000000000001e-01
        1.0000000000000001e-01 1.0000000000000001e-01
        1.0000000000000001e-01 1.0000000000000001e-01
        1.0000000000000001e-01 1.0000000000000001e-01
        1.0000000000000001e-01 1.0000000000000001e-01
        1.0000000000000001e-01 1.0000000000000001e-01
        1.0000000000000001e-01 1.0000000000000001e-01
        1.0000000000000001e-01 1.0000000000000001e-01
        1.0000000000000001e-01 1.0000000000000001e-01
        1.0000000000000001e-01 1.0000000000000001e-01
        1.0000000000000001e-01 1.0000000000000001e-01
        1.0000000000000001e-01 1.0000000000000001e-01
        -1.0000000000000001e-01 -1.0000000000000001e-01
        -1.0000000000000001e-01 -1.0000000000000001e-01
        -1.0000000000000001e-01 -1.0000000000000001e-01
        -1.0000000000000001e-01 -1.0000000000000001e-01
        -1.0000000000000001e-01 -1.0000000000000001e-01
        -1.0000000000000001e-01 -1.0000000000000001e-01
        -1.0000000000000001e-01 -1.0000000000000001e-01
        -1.0000000000000001e-01 -1.0000000000000001e-01
        -1.0000000000000001e-01 -1.0000000000000001e-01
        -1.0000000000000001e-01 -1.0000000000000001e-01
        -1.0000000000000001e-01 -1.0000000000000001e-01
        -1.0000000000000001e-01 -1.0000000000000001e-01
        -1.0000000000000001e-01 -1.0000000000000001e-01
        -1.0000000000000001e-01 -1.0000000000000001e-01
        -1.0000000000000001e-01 -1.0000000000000001e-01
        -1.0000000000000001e-01 -1.0000000000000001e-01
        -1.0000000000000001e-01 -1.0000000000000001e-01
        -1.0000000000000001e-01 -1.0000000000000001e-01
        -1.0000000000000001e-01 -1.0000000000000001e-01
        -1.0000000000000001e-01 -1.0000000000000001e-01
        -1.0000000000000001e-01 -1.0000000000000001e-01
        -1.0000000000000001e-01 -1.0000000000000001e-01
        -1.0000000000000001e-01 -1.0000000000000001e-01
        -1.0000000000000001e-01 -1.0000000000000001e-01
        -1.0000000000000001e-01 -1.0000000000000001e-01
        -1.0000000000000001e-01 -1.0000000000000001e-01
        -1.0000000000000001e-01 -1.0000000000000001e-01
        -1.0000000000000001e-01 -1.0000000000000001e-01
        -1.0000000000000001e-01 -1.0000000000000001e-01
        -1.0000000000000001e-01 -1.0000000000000001e-01
        -1.0000000000000001e-01 -1.0000000000000001e-01
        -1.0000000000000001e-01 -1.0000000000000001e-01
        -1.0000000000000001e-01 -1.0000000000000001e-01
        -1.0000000000000001e-01 -1.0000000000000001e-01
        -1.0000000000000001e-01 -1.0000000000000001e-01
        -1.0000000000000001e-01 -1.0000000000000001e-01
        -1.0000000000000001e-01 -1.0000000000000001e-01
        -1.0000000000000001e-01 -1.0000000000000001e-01
        -1.0000000000000001e-01 -1.0000000000000001e-01
        -1.0000000000000001e-01 -1.0000000000000001e-01
        -1.0000000000000001e-01 -1.0000000000000001e-01
        -1.0000000000000001e-01 -1.0000000000000001e-01
        -1.0000000000000001e-01 -1.0000000000000001e-01
        -1.0000000000000001e-01 -1.0000000000000001e-01
        -1.0000000000000001e-01 -1.0000000000000001e-01
        -1.0000000000000001e-01 -1.0000000000000001e-01
        -1.0000000000000001e-01 -1.0000000000000001e-01
        -1.0000000000000001e-01 -1.0000000000000001e-01
        -1.0000000000000001e-01 -1.0000000000000001e-01
        -1.0000000000000001e-01 -1.0000000000000001e-01
        -1.0000000000000001e-01 -1.0000000000000001e-01
        -1.0000000000000001e-01 -1.0000000000000001e-01
        -1.0000000000000001e-01 -1.0000000000000001e-01
        -1.0000000000000001e-01 -1.0000000000000001e-01
        -1.0000000000000001e-01 -1.0000000000000001e-01
        -1.0000000000000001e-01 -1.0000000000000001e-01
        -1.0000000000000001e-01 -1.0000000000000001e-01
        -1.0000000000000001e-01 -1.0000000000000001e-01
        -1.0000000000000001e-01 -1.0000000000000001e-01
        -1.0000000000000001e-01 -1.0000000000000001e-01
        -1.0000000000000001e-01 -1.0000000000000001e-01
        -1.0000000000000001e-01 -1.0000000000000001e-01
        -1.0000000000000001e-01 -1.0000000000000001e-01
        -1.0000000000000001e-01 -1.0000000000000001e-01
        -1.0000000000000001e-01 -1.0000000000000001e-01
        -1.0000000000000001e-01 -1.0000000000000001e-01
        -1.0000000000000001e-01 -1.0000000000000001e-01
        -1.0000000000000001e-01 -1.0000000000000001e-01
        -1.0000000000000001e-01 -1.0000000000000001e-01
        -1.0000000000000001e-01 -1.0000000000000001e-01
        -1.0000000000000001e-01 -1.0000000000000001e-01
        -1.0000000000000001e-01 -1.0000000000000001e-01
        -1.0000000000000001e-01 -1.0000000000000001e-01
        -1.0000000000000001e-01 -1.0000000000000001e-01
        -1.0000000000000001e-01 -1.0000000000000001e-01
        -1.0000000000000001e-01 -1.0000000000000001e-01
        -1.0000000000000001e-01 -1.0000000000000001e-01
        -1.0000000000000001e-01 -1.0000000000000001e-01
        -1.0000000000000001e-01 -1.0000000000000001e-01
        -1.0000000000000001e-01 -1.0000000000000001e-01
        -1.0000000000000001e-01 -1.0000000000000001e-01
        -1.0000000000000001e-01 -1.0000000000000001e-01
        -1.0000000000000001e-01 -1.0000000000000001e-01
        -1.0000000000000001e-01 -1.0000000000000001e-01
        -1.0000000000000001e-01 -1.0000000000000001e-01
        -1.0000000000000001e-01 -1.0000000000000001e-01
        -1.0000000000000001e-01 -1.0000000000000001e-01
        -1.0000000000000001e-01 -1.0000000000000001e-01
        -1.0000000000000001e-01 -1.0000000000000001e-01
        -1.0000000000000001e-01 -1.0000000000000001e-01
        -1.0000000000000001e-01 -1.0000000000000001e-01
        -1.0000000000000001e-01 -1.0000000000000001e-01
        -1.0000000000000001e-01 -1.0000000000000001e-01
        -1.0000000000000001e-01 -1.0000000000000001e-01
        -1.0000000000000001e-01 -1.0000000000000001e-01
        -1.0000000000000001e-01 -1.0000000000000001e-01
        -1.0000000000000001e-01 -1.0000000000000001e-01
        -1.0000000000000001e-01 -1.0000000000000001e-01
        -1.0000000000000001e-01 -1.0000000000000001e-01
        -1.0000000000000001e-01 -1.0000000000000001e-01
        -1.0000000000000001e-01 -1.0000000000000001e-01
        -1.0000000000000001e-01 -1.0000000000000001e-01
        -1.0000000000000001e-01 -1.0000000000000001e-01
        -1.0000000000000001e-01 -1.0000000000000001e-01
        -1.0000000000000001e-01 -1.0000000000000001e-01
        -1.0000000000000001e-01 -1.0000000000000001e-01
        -1.0000000000000001e-01 -1.0000000000000001e-01
        -1.0000000000000001e-01 -1.0000000000000001e-01
        -1.0000000000000001e-01 -1.0000000000000001e-01
        -1.0000000000000001e-01 -1.0000000000000001e-01
        -1.0000000000000001e-01 -1.0000000000000001e-01
        -1.0000000000000001e-01 -1.0000000000000001e-01
        -1.0000000000000001e-01 -1.0000000000000001e-01
        -1.0000000000000001e-01 -1.0000000000000001e-01
        -1.0000000000000001e-01 -1.0000000000000001e-01
        -1.0000000000000001e-01 -1.0000000000000001e-01
        -1.0000000000000001e-01 -1.0000000000000001e-01
        -1.0000000000000001e-01 -1.0000000000000001e-01
        -1.0000000000000001e-01 -1.0000000000000001e-01
        -1.0000000000000001e-01 -1.0000000000000001e-01
        -1.0000000000000001e-01 -1.0000000000000001e-01
        -1.0000000000000001e-01 -1.0000000000000001e-01
        -1.0000000000000001e-01 -1.0000000000000001e-01
        -1.0000000000000001e-01 -1.0000000000000001e-01
        -1.0000000000000001e-01 -1.0000000000000001e-01
        -1.0000000000000001e-01 -1.0000000000000001e-01
        -1.0000000000000001e-01 -1.0000000000000001e-01
        -1.0000000000000001e-01 -1.0000000000000001e-01
        -1.0000000000000001e-01 -1.0000000000000001e-01
        -1.0000000000000001e-01 -1.0000000000000001e-01
        -1.0000000000000001e-01 -1.0000000000000001e-01
        -1.0000000000000001e-01 -1.0000000000000001e-01
        -1.0000000000000001e-01 -1.0000000000000001e-01
        -1.0000000000000001e-01 -1.0000000000000001e-01
        -1.0000000000000001e-01 -1.0000000000000001e-01
        -1.0000000000000001e-01 -1.0000000000000001e-01
        -1.0000000000000001e-01 -1.0000000000000001e-01
        -1.0000000000000001e-01 -1.0000000000000001e-01
        -1.0000000000000001e-01 -1.0000000000000001e-01
        -1.0000000000000001e-01 -1.0000000000000001e-01
        -1.0000000000000001e-01 -1.0000000000000001e-01
        -1.0000000000000001e-01 -1.0000000000000001e-01
        -1.0000000000000001e-01 -1.0000000000000001e-01
        -1.0000000000000001e-01 -1.0000000000000001e-01
        -1.0000000000000001e-01 -1.0000000000000001e-01
        -1.0000000000000001e-01 -1.0000000000000001e-01
        -1.0000000000000001e-01 -1.0000000000000001e-01
        -1.0000000000000001e-01 -1.0000000000000001e-01
        -1.0000000000000001e-01 -1.0000000000000001e-01
        -1.0000000000000001e-01 -1.0000000000000001e-01
        -1.0000000000000001e-01 -1.0000000000000001e-01
        -1.0000000000000001e-01 -1.0000000000000001e-01
        -1.0000000000000001e-01 -1.0000000000000001e-01
        -1.0000000000000001e-01 -1.0000000000000001e-01
        -1.0000000000000001e-01 -1.0000000000000001e-01
        -1.0000000000000001e-01 -1.0000000000000001e-01
        -1.0000000000000001e-01 -1.0000000000000001e-01
        -1.0000000000000001e-01 -1.0000000000000001e-01
        -1.0000000000000001e-01 -1.0000000000000001e-01
        -1.0000000000000001e-01 -1.0000000000000001e-01
        -1.0000000000000001e-01 -1.0000000000000001e-01
        -1.0000000000000001e-01 -1.0000000000000001e-01
        -1.0000000000000001e-01 -1.0000000000000001e-01
