<?xml version="1.0"?>
<opencv_storage>
<opencv_ml_svm>
  <format>3</format>
  <svmType>C_SVC</svmType>
  <kernel>
    <type>RBF</type>
    <gamma>1.0000000000000001e-05</gamma></kernel>
  <C>1.0000000000000001e-01</C>
  <term_criteria><epsilon>1.1920928955078125e-07</epsilon>
    <iterations>1000</iterations></term_criteria>
  <var_count>3</var_count>
  <class_count>2</class_count>
  <class_labels type_id="opencv-matrix">
    <rows>2</rows>
    <cols>1</cols>
    <dt>i</dt>
    <data>
      -1 1</data></class_labels>
  <sv_total>2000</sv_total>
  <support_vectors>
    <_>
      4. 181. 135.</_>
    <_>
      6. 195. 148.</_>
    <_>
      6. 197. 149.</_>
    <_>
      6. 198. 148.</_>
    <_>
      6. 195. 148.</_>
    <_>
      6. 197. 149.</_>
    <_>
      6. 197. 149.</_>
    <_>
      6. 197. 149.</_>
    <_>
      6. 197. 149.</_>
    <_>
      6. 193. 148.</_>
    <_>
      6. 193. 148.</_>
    <_>
      6. 193. 148.</_>
    <_>
      6. 193. 148.</_>
    <_>
      6. 197. 149.</_>
    <_>
      6. 198. 147.</_>
    <_>
      6. 193. 148.</_>
    <_>
      6. 198. 148.</_>
    <_>
      6. 198. 148.</_>
    <_>
      6. 198. 147.</_>
    <_>
      6. 196. 148.</_>
    <_>
      6. 195. 148.</_>
    <_>
      6. 197. 149.</_>
    <_>
      6. 196. 148.</_>
    <_>
      6. 193. 148.</_>
    <_>
      6. 190. 141.</_>
    <_>
      6. 189. 142.</_>
    <_>
      6. 188. 140.</_>
    <_>
      6. 187. 143.</_>
    <_>
      6. 188. 140.</_>
    <_>
      6. 186. 140.</_>
    <_>
      6. 187. 143.</_>
    <_>
      6. 187. 139.</_>
    <_>
      6. 184. 136.</_>
    <_>
      6. 189. 139.</_>
    <_>
      6. 188. 138.</_>
    <_>
      6. 187. 134.</_>
    <_>
      6. 192. 137.</_>
    <_>
      6. 184. 136.</_>
    <_>
      6. 186. 133.</_>
    <_>
      6. 192. 137.</_>
    <_>
      7. 190. 134.</_>
    <_>
      6. 189. 131.</_>
    <_>
      6. 195. 135.</_>
    <_>
      6. 185. 135.</_>
    <_>
      6. 189. 131.</_>
    <_>
      6. 193. 136.</_>
    <_>
      6. 186. 140.</_>
    <_>
      6. 188. 138.</_>
    <_>
      6. 190. 141.</_>
    <_>
      9. 178. 192.</_>
    <_>
      9. 177. 186.</_>
    <_>
      9. 177. 186.</_>
    <_>
      9. 178. 185.</_>
    <_>
      9. 178. 185.</_>
    <_>
      9. 178. 185.</_>
    <_>
      9. 178. 185.</_>
    <_>
      9. 174. 182.</_>
    <_>
      9. 174. 182.</_>
    <_>
      9. 174. 182.</_>
    <_>
      9. 174. 182.</_>
    <_>
      9. 174. 182.</_>
    <_>
      9. 173. 190.</_>
    <_>
      9. 174. 189.</_>
    <_>
      9. 174. 189.</_>
    <_>
      9. 172. 191.</_>
    <_>
      9. 173. 190.</_>
    <_>
      9. 173. 190.</_>
    <_>
      9. 172. 191.</_>
    <_>
      9. 173. 190.</_>
    <_>
      9. 172. 191.</_>
    <_>
      9. 172. 191.</_>
    <_>
      9. 172. 191.</_>
    <_>
      9. 172. 191.</_>
    <_>
      9. 172. 191.</_>
    <_>
      9. 172. 191.</_>
    <_>
      9. 172. 191.</_>
    <_>
      9. 172. 191.</_>
    <_>
      9. 174. 189.</_>
    <_>
      9. 176. 194.</_>
    <_>
      9. 176. 194.</_>
    <_>
      9. 174. 189.</_>
    <_>
      9. 176. 194.</_>
    <_>
      9. 176. 194.</_>
    <_>
      9. 174. 189.</_>
    <_>
      9. 175. 192.</_>
    <_>
      9. 175. 192.</_>
    <_>
      9. 173. 190.</_>
    <_>
      9. 175. 192.</_>
    <_>
      9. 175. 192.</_>
    <_>
      9. 173. 190.</_>
    <_>
      9. 175. 192.</_>
    <_>
      9. 175. 192.</_>
    <_>
      9. 175. 192.</_>
    <_>
      9. 175. 192.</_>
    <_>
      9. 173. 190.</_>
    <_>
      9. 173. 190.</_>
    <_>
      9. 175. 192.</_>
    <_>
      9. 175. 192.</_>
    <_>
      9. 175. 192.</_>
    <_>
      9. 175. 192.</_>
    <_>
      8. 188. 182.</_>
    <_>
      8. 179. 177.</_>
    <_>
      8. 179. 177.</_>
    <_>
      8. 179. 177.</_>
    <_>
      8. 179. 177.</_>
    <_>
      8. 179. 177.</_>
    <_>
      8. 179. 177.</_>
    <_>
      8. 179. 177.</_>
    <_>
      8. 179. 177.</_>
    <_>
      8. 179. 177.</_>
    <_>
      8. 179. 177.</_>
    <_>
      8. 179. 177.</_>
    <_>
      8. 179. 177.</_>
    <_>
      179. 170. 48.</_>
    <_>
      0. 170. 60.</_>
    <_>
      1. 178. 73.</_>
    <_>
      179. 188. 111.</_>
    <_>
      179. 183. 106.</_>
    <_>
      179. 187. 109.</_>
    <_>
      179. 190. 110.</_>
    <_>
      179. 192. 113.</_>
    <_>
      179. 192. 113.</_>
    <_>
      179. 192. 113.</_>
    <_>
      179. 192. 113.</_>
    <_>
      179. 194. 112.</_>
    <_>
      179. 192. 109.</_>
    <_>
      0. 167. 55.</_>
    <_>
      179. 167. 64.</_>
    <_>
      1. 170. 78.</_>
    <_>
      179. 188. 107.</_>
    <_>
      179. 187. 109.</_>
    <_>
      179. 188. 111.</_>
    <_>
      179. 188. 111.</_>
    <_>
      179. 188. 111.</_>
    <_>
      179. 188. 111.</_>
    <_>
      179. 190. 110.</_>
    <_>
      179. 165. 62.</_>
    <_>
      0. 163. 72.</_>
    <_>
      1. 168. 85.</_>
    <_>
      179. 187. 112.</_>
    <_>
      179. 188. 111.</_>
    <_>
      179. 185. 109.</_>
    <_>
      179. 183. 110.</_>
    <_>
      179. 184. 111.</_>
    <_>
      179. 188. 107.</_>
    <_>
      179. 185. 105.</_>
    <_>
      179. 187. 108.</_>
    <_>
      179. 187. 109.</_>
    <_>
      179. 190. 110.</_>
    <_>
      179. 190. 110.</_>
    <_>
      179. 187. 109.</_>
    <_>
      179. 187. 109.</_>
    <_>
      179. 189. 108.</_>
    <_>
      179. 173. 68.</_>
    <_>
      179. 168. 76.</_>
    <_>
      1. 169. 89.</_>
    <_>
      179. 185. 109.</_>
    <_>
      179. 184. 111.</_>
    <_>
      179. 187. 112.</_>
    <_>
      179. 187. 109.</_>
    <_>
      179. 185. 105.</_>
    <_>
      179. 188. 107.</_>
    <_>
      179. 188. 107.</_>
    <_>
      179. 188. 107.</_>
    <_>
      179. 188. 107.</_>
    <_>
      179. 188. 107.</_>
    <_>
      179. 188. 107.</_>
    <_>
      179. 177. 75.</_>
    <_>
      179. 179. 80.</_>
    <_>
      179. 185. 109.</_>
    <_>
      179. 185. 109.</_>
    <_>
      179. 185. 110.</_>
    <_>
      179. 184. 111.</_>
    <_>
      179. 187. 112.</_>
    <_>
      179. 185. 110.</_>
    <_>
      179. 186. 104.</_>
    <_>
      179. 185. 105.</_>
    <_>
      179. 186. 104.</_>
    <_>
      179. 186. 104.</_>
    <_>
      179. 186. 104.</_>
    <_>
      179. 186. 104.</_>
    <_>
      179. 186. 104.</_>
    <_>
      179. 174. 82.</_>
    <_>
      0. 180. 85.</_>
    <_>
      179. 185. 109.</_>
    <_>
      179. 185. 109.</_>
    <_>
      179. 185. 110.</_>
    <_>
      179. 184. 111.</_>
    <_>
      179. 187. 112.</_>
    <_>
      179. 185. 110.</_>
    <_>
      179. 185. 109.</_>
    <_>
      179. 187. 109.</_>
    <_>
      179. 185. 110.</_>
    <_>
      179. 182. 112.</_>
    <_>
      179. 187. 112.</_>
    <_>
      179. 189. 108.</_>
    <_>
      179. 185. 110.</_>
    <_>
      179. 185. 110.</_>
    <_>
      179. 184. 111.</_>
    <_>
      179. 182. 112.</_>
    <_>
      179. 187. 112.</_>
    <_>
      179. 187. 109.</_>
    <_>
      179. 185. 110.</_>
    <_>
      179. 187. 109.</_>
    <_>
      179. 188. 111.</_>
    <_>
      179. 185. 113.</_>
    <_>
      179. 184. 111.</_>
    <_>
      179. 187. 108.</_>
    <_>
      179. 185. 110.</_>
    <_>
      179. 187. 109.</_>
    <_>
      179. 188. 111.</_>
    <_>
      179. 187. 112.</_>
    <_>
      179. 185. 110.</_>
    <_>
      179. 187. 108.</_>
    <_>
      179. 188. 111.</_>
    <_>
      179. 188. 111.</_>
    <_>
      179. 187. 112.</_>
    <_>
      179. 184. 111.</_>
    <_>
      179. 183. 110.</_>
    <_>
      179. 183. 106.</_>
    <_>
      179. 179. 100.</_>
    <_>
      179. 182. 98.</_>
    <_>
      179. 188. 111.</_>
    <_>
      179. 187. 112.</_>
    <_>
      179. 187. 112.</_>
    <_>
      179. 182. 112.</_>
    <_>
      179. 183. 110.</_>
    <_>
      179. 179. 100.</_>
    <_>
      179. 188. 111.</_>
    <_>
      178. 192. 113.</_>
    <_>
      179. 187. 112.</_>
    <_>
      179. 184. 111.</_>
    <_>
      179. 185. 109.</_>
    <_>
      179. 181. 107.</_>
    <_>
      179. 180. 99.</_>
    <_>
      179. 182. 98.</_>
    <_>
      179. 187. 109.</_>
    <_>
      179. 187. 109.</_>
    <_>
      179. 185. 110.</_>
    <_>
      179. 185. 109.</_>
    <_>
      179. 183. 106.</_>
    <_>
      179. 180. 99.</_>
    <_>
      179. 182. 98.</_>
    <_>
      0. 184. 86.</_>
    <_>
      179. 184. 125.</_>
    <_>
      179. 188. 129.</_>
    <_>
      179. 189. 128.</_>
    <_>
      179. 186. 126.</_>
    <_>
      179. 185. 123.</_>
    <_>
      179. 181. 107.</_>
    <_>
      179. 175. 102.</_>
    <_>
      179. 175. 102.</_>
    <_>
      179. 186. 126.</_>
    <_>
      179. 188. 129.</_>
    <_>
      179. 188. 130.</_>
    <_>
      179. 189. 128.</_>
    <_>
      179. 185. 123.</_>
    <_>
      179. 177. 101.</_>
    <_>
      179. 177. 101.</_>
    <_>
      179. 186. 104.</_>
    <_>
      179. 185. 105.</_>
    <_>
      179. 186. 126.</_>
    <_>
      179. 189. 128.</_>
    <_>
      179. 188. 130.</_>
    <_>
      179. 188. 129.</_>
    <_>
      179. 183. 124.</_>
    <_>
      179. 185. 105.</_>
    <_>
      179. 183. 106.</_>
    <_>
      179. 184. 97.</_>
    <_>
      0. 184. 86.</_>
    <_>
      179. 184. 125.</_>
    <_>
      179. 189. 128.</_>
    <_>
      179. 188. 129.</_>
    <_>
      179. 185. 127.</_>
    <_>
      179. 183. 124.</_>
    <_>
      179. 184. 97.</_>
    <_>
      179. 183. 124.</_>
    <_>
      179. 186. 126.</_>
    <_>
      179. 189. 128.</_>
    <_>
      179. 186. 126.</_>
    <_>
      179. 185. 123.</_>
    <_>
      179. 186. 96.</_>
    <_>
      179. 184. 125.</_>
    <_>
      179. 186. 126.</_>
    <_>
      179. 184. 125.</_>
    <_>
      179. 186. 96.</_>
    <_>
      179. 184. 125.</_>
    <_>
      179. 186. 126.</_>
    <_>
      179. 184. 125.</_>
    <_>
      179. 183. 124.</_>
    <_>
      179. 184. 125.</_>
    <_>
      179. 183. 124.</_>
    <_>
      179. 182. 125.</_>
    <_>
      179. 182. 126.</_>
    <_>
      179. 183. 124.</_>
    <_>
      179. 181. 120.</_>
    <_>
      179. 185. 123.</_>
    <_>
      179. 179. 117.</_>
    <_>
      179. 188. 95.</_>
    <_>
      179. 190. 94.</_>
    <_>
      179. 186. 96.</_>
    <_>
      179. 188. 95.</_>
    <_>
      179. 180. 116.</_>
    <_>
      179. 184. 118.</_>
    <_>
      179. 182. 115.</_>
    <_>
      179. 186. 96.</_>
    <_>
      179. 188. 95.</_>
    <_>
      179. 181. 93.</_>
    <_>
      179. 179. 117.</_>
    <_>
      179. 180. 116.</_>
    <_>
      179. 188. 95.</_>
    <_>
      179. 188. 95.</_>
    <_>
      179. 179. 117.</_>
    <_>
      179. 181. 120.</_>
    <_>
      179. 180. 116.</_>
    <_>
      179. 186. 96.</_>
    <_>
      179. 186. 96.</_>
    <_>
      179. 185. 95.</_>
    <_>
      179. 183. 96.</_>
    <_>
      179. 181. 93.</_>
    <_>
      179. 177. 118.</_>
    <_>
      179. 177. 118.</_>
    <_>
      179. 179. 117.</_>
    <_>
      179. 184. 97.</_>
    <_>
      179. 184. 97.</_>
    <_>
      179. 181. 97.</_>
    <_>
      179. 179. 94.</_>
    <_>
      10. 181. 210.</_>
    <_>
      10. 180. 213.</_>
    <_>
      10. 179. 212.</_>
    <_>
      10. 179. 214.</_>
    <_>
      10. 182. 226.</_>
    <_>
      10. 182. 225.</_>
    <_>
      10. 184. 226.</_>
    <_>
      10. 182. 225.</_>
    <_>
      10. 181. 224.</_>
    <_>
      10. 181. 224.</_>
    <_>
      10. 182. 223.</_>
    <_>
      10. 181. 224.</_>
    <_>
      10. 183. 222.</_>
    <_>
      10. 182. 223.</_>
    <_>
      6. 200. 143.</_>
    <_>
      6. 200. 138.</_>
    <_>
      6. 201. 152.</_>
    <_>
      6. 198. 152.</_>
    <_>
      6. 202. 149.</_>
    <_>
      6. 197. 145.</_>
    <_>
      6. 205. 137.</_>
    <_>
      6. 202. 135.</_>
    <_>
      6. 198. 138.</_>
    <_>
      6. 201. 155.</_>
    <_>
      6. 203. 151.</_>
    <_>
      6. 200. 143.</_>
    <_>
      6. 203. 137.</_>
    <_>
      6. 200. 135.</_>
    <_>
      6. 205. 152.</_>
    <_>
      6. 208. 147.</_>
    <_>
      6. 200. 149.</_>
    <_>
      6. 200. 144.</_>
    <_>
      6. 203. 138.</_>
    <_>
      6. 199. 136.</_>
    <_>
      6. 197. 137.</_>
    <_>
      6. 206. 152.</_>
    <_>
      6. 209. 144.</_>
    <_>
      6. 200. 143.</_>
    <_>
      6. 195. 140.</_>
    <_>
      6. 191. 140.</_>
    <_>
      6. 195. 141.</_>
    <_>
      6. 195. 140.</_>
    <_>
      6. 203. 148.</_>
    <_>
      6. 201. 142.</_>
    <_>
      6. 206. 140.</_>
    <_>
      6. 206. 136.</_>
    <_>
      6. 202. 143.</_>
    <_>
      6. 199. 147.</_>
    <_>
      6. 199. 146.</_>
    <_>
      6. 195. 148.</_>
    <_>
      6. 202. 149.</_>
    <_>
      6. 205. 142.</_>
    <_>
      7. 205. 138.</_>
    <_>
      6. 198. 144.</_>
    <_>
      7. 203. 146.</_>
    <_>
      6. 199. 146.</_>
    <_>
      6. 198. 152.</_>
    <_>
      6. 197. 146.</_>
    <_>
      6. 203. 141.</_>
    <_>
      6. 197. 145.</_>
    <_>
      6. 197. 149.</_>
    <_>
      6. 195. 148.</_>
    <_>
      6. 203. 141.</_>
    <_>
      6. 197. 146.</_>
    <_>
      6. 198. 151.</_>
    <_>
      6. 197. 145.</_>
    <_>
      6. 196. 147.</_>
    <_>
      6. 203. 148.</_>
    <_>
      6. 196. 147.</_>
    <_>
      6. 203. 147.</_>
    <_>
      6. 200. 149.</_>
    <_>
      6. 204. 141.</_>
    <_>
      6. 202. 145.</_>
    <_>
      6. 202. 145.</_>
    <_>
      6. 201. 146.</_>
    <_>
      6. 208. 141.</_>
    <_>
      6. 205. 142.</_>
    <_>
      6. 205. 142.</_>
    <_>
      6. 201. 146.</_>
    <_>
      6. 208. 141.</_>
    <_>
      7. 208. 142.</_>
    <_>
      6. 205. 142.</_>
    <_>
      6. 199. 147.</_>
    <_>
      6. 205. 143.</_>
    <_>
      7. 205. 144.</_>
    <_>
      6. 202. 144.</_>
    <_>
      6. 202. 145.</_>
    <_>
      7. 204. 145.</_>
    <_>
      6. 202. 145.</_>
    <_>
      6. 197. 146.</_>
    <_>
      5. 191. 253.</_>
    <_>
      179. 198. 248.</_>
    <_>
      177. 215. 241.</_>
    <_>
      176. 222. 238.</_>
    <_>
      176. 220. 234.</_>
    <_>
      177. 214. 223.</_>
    <_>
      177. 213. 224.</_>
    <_>
      4. 197. 253.</_>
    <_>
      178. 216. 239.</_>
    <_>
      176. 222. 234.</_>
    <_>
      176. 220. 229.</_>
    <_>
      177. 213. 222.</_>
    <_>
      4. 205. 248.</_>
    <_>
      176. 220. 234.</_>
    <_>
      177. 217. 227.</_>
    <_>
      7. 224. 189.</_>
    <_>
      3. 210. 245.</_>
    <_>
      178. 213. 241.</_>
    <_>
      177. 216. 231.</_>
    <_>
      177. 214. 223.</_>
    <_>
      7. 229. 189.</_>
    <_>
      7. 226. 186.</_>
    <_>
      2. 214. 245.</_>
    <_>
      177. 216. 222.</_>
    <_>
      177. 213. 213.</_>
    <_>
      7. 223. 190.</_>
    <_>
      7. 224. 188.</_>
    <_>
      2. 220. 239.</_>
    <_>
      7. 227. 188.</_>
    <_>
      7. 226. 185.</_>
    <_>
      7. 225. 188.</_>
    <_>
      7. 228. 186.</_>
    <_>
      7. 230. 184.</_>
    <_>
      7. 228. 186.</_>
    <_>
      8. 230. 183.</_>
    <_>
      7. 231. 183.</_>
    <_>
      7. 228. 180.</_>
    <_>
      7. 230. 182.</_>
    <_>
      7. 231. 183.</_>
    <_>
      6. 220. 173.</_>
    <_>
      7. 228. 171.</_>
    <_>
      8. 232. 174.</_>
    <_>
      8. 231. 180.</_>
    <_>
      7. 231. 183.</_>
    <_>
      6. 223. 169.</_>
    <_>
      7. 231. 167.</_>
    <_>
      8. 234. 169.</_>
    <_>
      8. 235. 175.</_>
    <_>
      7. 229. 183.</_>
    <_>
      6. 224. 163.</_>
    <_>
      8. 234. 160.</_>
    <_>
      8. 235. 165.</_>
    <_>
      8. 236. 171.</_>
    <_>
      7. 230. 180.</_>
    <_>
      177. 208. 205.</_>
    <_>
      7. 226. 158.</_>
    <_>
      7. 232. 158.</_>
    <_>
      8. 234. 161.</_>
    <_>
      7. 234. 170.</_>
    <_>
      7. 227. 180.</_>
    <_>
      6. 220. 162.</_>
    <_>
      6. 225. 162.</_>
    <_>
      6. 224. 166.</_>
    <_>
      6. 224. 173.</_>
    <_>
      10. 199. 187.</_>
    <_>
      8. 206. 194.</_>
    <_>
      7. 223. 194.</_>
    <_>
      8. 228. 180.</_>
    <_>
      175. 211. 197.</_>
    <_>
      174. 216. 198.</_>
    <_>
      173. 219. 200.</_>
    <_>
      173. 218. 205.</_>
    <_>
      173. 218. 205.</_>
    <_>
      174. 214. 203.</_>
    <_>
      176. 205. 206.</_>
    <_>
      10. 200. 191.</_>
    <_>
      9. 209. 198.</_>
    <_>
      7. 228. 191.</_>
    <_>
      9. 230. 181.</_>
    <_>
      175. 212. 198.</_>
    <_>
      173. 217. 200.</_>
    <_>
      173. 221. 200.</_>
    <_>
      172. 221. 203.</_>
    <_>
      173. 220. 203.</_>
    <_>
      174. 218. 204.</_>
    <_>
      176. 207. 208.</_>
    <_>
      9. 194. 201.</_>
    <_>
      8. 201. 204.</_>
    <_>
      7. 226. 191.</_>
    <_>
      9. 230. 180.</_>
    <_>
      174. 215. 199.</_>
    <_>
      173. 216. 201.</_>
    <_>
      173. 219. 201.</_>
    <_>
      172. 222. 202.</_>
    <_>
      173. 220. 203.</_>
    <_>
      174. 219. 203.</_>
    <_>
      176. 209. 210.</_>
    <_>
      7. 224. 191.</_>
    <_>
      9. 235. 176.</_>
    <_>
      178. 201. 192.</_>
    <_>
      174. 218. 198.</_>
    <_>
      173. 216. 201.</_>
    <_>
      172. 219. 201.</_>
    <_>
      172. 221. 203.</_>
    <_>
      173. 218. 205.</_>
    <_>
      174. 218. 206.</_>
    <_>
      176. 209. 212.</_>
    <_>
      8. 228. 190.</_>
    <_>
      9. 236. 175.</_>
    <_>
      177. 202. 197.</_>
    <_>
      174. 219. 199.</_>
    <_>
      173. 217. 202.</_>
    <_>
      172. 222. 202.</_>
    <_>
      172. 222. 202.</_>
    <_>
      172. 218. 207.</_>
    <_>
      173. 218. 205.</_>
    <_>
      176. 210. 209.</_>
    <_>
      8. 223. 193.</_>
    <_>
      9. 230. 181.</_>
    <_>
      174. 218. 198.</_>
    <_>
      173. 216. 203.</_>
    <_>
      172. 221. 203.</_>
    <_>
      172. 218. 206.</_>
    <_>
      173. 209. 214.</_>
    <_>
      174. 207. 211.</_>
    <_>
      176. 200. 213.</_>
    <_>
      7. 221. 193.</_>
    <_>
      8. 211. 195.</_>
    <_>
      178. 201. 192.</_>
    <_>
      174. 214. 197.</_>
    <_>
      173. 216. 201.</_>
    <_>
      172. 203. 217.</_>
    <_>
      172. 206. 214.</_>
    <_>
      173. 207. 211.</_>
    <_>
      174. 185. 227.</_>
    <_>
      8. 212. 198.</_>
    <_>
      8. 206. 198.</_>
    <_>
      178. 199. 192.</_>
    <_>
      175. 210. 198.</_>
    <_>
      174. 215. 199.</_>
    <_>
      173. 209. 209.</_>
    <_>
      173. 205. 213.</_>
    <_>
      173. 186. 232.</_>
    <_>
      174. 182. 226.</_>
    <_>
      7. 218. 194.</_>
    <_>
      8. 210. 198.</_>
    <_>
      8. 206. 196.</_>
    <_>
      178. 199. 192.</_>
    <_>
      175. 224. 188.</_>
    <_>
      173. 219. 198.</_>
    <_>
      173. 214. 206.</_>
    <_>
      173. 208. 212.</_>
    <_>
      173. 201. 214.</_>
    <_>
      174. 182. 225.</_>
    <_>
      8. 215. 193.</_>
    <_>
      7. 222. 179.</_>
    <_>
      8. 211. 197.</_>
    <_>
      8. 206. 196.</_>
    <_>
      178. 209. 188.</_>
    <_>
      175. 222. 194.</_>
    <_>
      174. 216. 205.</_>
    <_>
      173. 221. 204.</_>
    <_>
      173. 217. 206.</_>
    <_>
      173. 207. 212.</_>
    <_>
      175. 199. 211.</_>
    <_>
      8. 218. 188.</_>
    <_>
      7. 233. 182.</_>
    <_>
      8. 214. 187.</_>
    <_>
      8. 208. 200.</_>
    <_>
      8. 208. 201.</_>
    <_>
      8. 212. 194.</_>
    <_>
      178. 218. 187.</_>
    <_>
      174. 232. 192.</_>
    <_>
      173. 237. 193.</_>
    <_>
      173. 226. 204.</_>
    <_>
      173. 223. 207.</_>
    <_>
      173. 223. 205.</_>
    <_>
      174. 205. 216.</_>
    <_>
      177. 207. 208.</_>
    <_>
      6. 242. 190.</_>
    <_>
      7. 222. 192.</_>
    <_>
      7. 230. 184.</_>
    <_>
      9. 221. 181.</_>
    <_>
      8. 211. 195.</_>
    <_>
      8. 210. 199.</_>
    <_>
      7. 214. 192.</_>
    <_>
      178. 219. 189.</_>
    <_>
      175. 239. 187.</_>
    <_>
      173. 237. 193.</_>
    <_>
      173. 241. 189.</_>
    <_>
      172. 218. 211.</_>
    <_>
      173. 222. 203.</_>
    <_>
      174. 215. 206.</_>
    <_>
      177. 210. 208.</_>
    <_>
      7. 222. 192.</_>
    <_>
      8. 223. 176.</_>
    <_>
      8. 209. 193.</_>
    <_>
      177. 226. 182.</_>
    <_>
      174. 233. 187.</_>
    <_>
      173. 232. 187.</_>
    <_>
      173. 232. 187.</_>
    <_>
      173. 226. 193.</_>
    <_>
      173. 218. 199.</_>
    <_>
      174. 212. 203.</_>
    <_>
      176. 218. 195.</_>
    <_>
      7. 236. 178.</_>
    <_>
      177. 217. 189.</_>
    <_>
      175. 234. 179.</_>
    <_>
      174. 216. 190.</_>
    <_>
      174. 219. 186.</_>
    <_>
      173. 202. 202.</_>
    <_>
      174. 211. 195.</_>
    <_>
      174. 220. 189.</_>
    <_>
      176. 216. 191.</_>
    <_>
      177. 213. 205.</_>
    <_>
      177. 205. 205.</_>
    <_>
      177. 217. 194.</_>
    <_>
      176. 218. 191.</_>
    <_>
      175. 214. 188.</_>
    <_>
      175. 199. 190.</_>
    <_>
      175. 177. 208.</_>
    <_>
      175. 179. 210.</_>
    <_>
      175. 199. 190.</_>
    <_>
      175. 212. 185.</_>
    <_>
      175. 216. 182.</_>
    <_>
      177. 200. 187.</_>
    <_>
      178. 193. 181.</_>
    <_>
      176. 204. 196.</_>
    <_>
      176. 203. 196.</_>
    <_>
      176. 200. 195.</_>
    <_>
      176. 197. 188.</_>
    <_>
      178. 182. 182.</_>
    <_>
      177. 188. 179.</_>
    <_>
      176. 203. 190.</_>
    <_>
      176. 214. 200.</_>
    <_>
      175. 220. 199.</_>
    <_>
      175. 221. 193.</_>
    <_>
      176. 213. 183.</_>
    <_>
      176. 179. 198.</_>
    <_>
      176. 179. 201.</_>
    <_>
      175. 213. 180.</_>
    <_>
      176. 210. 181.</_>
    <_>
      176. 193. 189.</_>
    <_>
      176. 174. 201.</_>
    <_>
      176. 198. 192.</_>
    <_>
      175. 200. 191.</_>
    <_>
      175. 199. 195.</_>
    <_>
      176. 198. 188.</_>
    <_>
      177. 189. 178.</_>
    <_>
      177. 186. 180.</_>
    <_>
      175. 201. 193.</_>
    <_>
      175. 209. 204.</_>
    <_>
      175. 215. 202.</_>
    <_>
      175. 218. 192.</_>
    <_>
      175. 216. 182.</_>
    <_>
      176. 173. 202.</_>
    <_>
      176. 176. 201.</_>
    <_>
      176. 218. 174.</_>
    <_>
      175. 218. 178.</_>
    <_>
      176. 199. 187.</_>
    <_>
      177. 168. 191.</_>
    <_>
      175. 196. 190.</_>
    <_>
      175. 197. 190.</_>
    <_>
      175. 200. 191.</_>
    <_>
      175. 199. 190.</_>
    <_>
      177. 189. 182.</_>
    <_>
      176. 187. 181.</_>
    <_>
      175. 206. 194.</_>
    <_>
      174. 214. 204.</_>
    <_>
      174. 221. 201.</_>
    <_>
      175. 221. 193.</_>
    <_>
      175. 213. 184.</_>
    <_>
      176. 172. 200.</_>
    <_>
      176. 174. 198.</_>
    <_>
      176. 218. 173.</_>
    <_>
      176. 222. 171.</_>
    <_>
      176. 195. 191.</_>
    <_>
      175. 195. 188.</_>
    <_>
      174. 196. 187.</_>
    <_>
      174. 203. 192.</_>
    <_>
      175. 200. 191.</_>
    <_>
      176. 190. 184.</_>
    <_>
      178. 157. 164.</_>
    <_>
      175. 193. 184.</_>
    <_>
      174. 210. 200.</_>
    <_>
      174. 218. 211.</_>
    <_>
      174. 225. 206.</_>
    <_>
      174. 222. 194.</_>
    <_>
      175. 212. 183.</_>
    <_>
      176. 172. 197.</_>
    <_>
      176. 212. 172.</_>
    <_>
      176. 218. 174.</_>
    <_>
      176. 196. 190.</_>
    <_>
      176. 179. 201.</_>
    <_>
      175. 196. 187.</_>
    <_>
      175. 199. 188.</_>
    <_>
      175. 201. 194.</_>
    <_>
      175. 199. 190.</_>
    <_>
      177. 191. 180.</_>
    <_>
      178. 158. 163.</_>
    <_>
      175. 193. 184.</_>
    <_>
      174. 209. 201.</_>
    <_>
      174. 218. 211.</_>
    <_>
      174. 226. 205.</_>
    <_>
      174. 223. 193.</_>
    <_>
      175. 213. 182.</_>
    <_>
      176. 170. 199.</_>
    <_>
      176. 214. 168.</_>
    <_>
      176. 218. 172.</_>
    <_>
      176. 197. 189.</_>
    <_>
      176. 199. 190.</_>
    <_>
      175. 199. 190.</_>
    <_>
      175. 199. 192.</_>
    <_>
      176. 195. 187.</_>
    <_>
      177. 182. 182.</_>
    <_>
      176. 187. 179.</_>
    <_>
      175. 206. 194.</_>
    <_>
      174. 213. 205.</_>
    <_>
      174. 222. 201.</_>
    <_>
      175. 223. 189.</_>
    <_>
      175. 208. 186.</_>
    <_>
      176. 173. 199.</_>
    <_>
      176. 173. 193.</_>
    <_>
      177. 208. 169.</_>
    <_>
      176. 213. 171.</_>
    <_>
      176. 193. 186.</_>
    <_>
      177. 166. 190.</_>
    <_>
      177. 166. 190.</_>
    <_>
      176. 197. 189.</_>
    <_>
      176. 193. 189.</_>
    <_>
      176. 199. 187.</_>
    <_>
      177. 190. 185.</_>
    <_>
      177. 192. 170.</_>
    <_>
      175. 212. 185.</_>
    <_>
      174. 214. 201.</_>
    <_>
      174. 221. 201.</_>
    <_>
      175. 218. 193.</_>
    <_>
      175. 203. 191.</_>
    <_>
      176. 191. 186.</_>
    <_>
      176. 171. 195.</_>
    <_>
      176. 170. 197.</_>
    <_>
      176. 186. 182.</_>
    <_>
      177. 194. 181.</_>
    <_>
      177. 191. 184.</_>
    <_>
      176. 191. 183.</_>
    <_>
      176. 176. 198.</_>
    <_>
      177. 196. 172.</_>
    <_>
      175. 217. 186.</_>
    <_>
      175. 230. 192.</_>
    <_>
      175. 221. 202.</_>
    <_>
      175. 220. 191.</_>
    <_>
      175. 202. 194.</_>
    <_>
      175. 195. 191.</_>
    <_>
      175. 177. 200.</_>
    <_>
      176. 175. 200.</_>
    <_>
      176. 190. 184.</_>
    <_>
      176. 192. 182.</_>
    <_>
      176. 192. 182.</_>
    <_>
      176. 170. 197.</_>
    <_>
      176. 170. 197.</_>
    <_>
      176. 175. 194.</_>
    <_>
      176. 189. 185.</_>
    <_>
      177. 191. 184.</_>
    <_>
      7. 156. 129.</_>
    <_>
      176. 209. 162.</_>
    <_>
      175. 217. 188.</_>
    <_>
      175. 230. 194.</_>
    <_>
      174. 221. 205.</_>
    <_>
      175. 218. 193.</_>
    <_>
      175. 202. 194.</_>
    <_>
      175. 203. 188.</_>
    <_>
      175. 196. 190.</_>
    <_>
      175. 193. 190.</_>
    <_>
      176. 197. 180.</_>
    <_>
      176. 187. 187.</_>
    <_>
      176. 173. 199.</_>
    <_>
      176. 170. 192.</_>
    <_>
      176. 171. 191.</_>
    <_>
      176. 172. 200.</_>
    <_>
      176. 192. 185.</_>
    <_>
      176. 193. 186.</_>
    <_>
      176. 197. 189.</_>
    <_>
      176. 169. 192.</_>
    <_>
      176. 174. 199.</_>
    <_>
      176. 170. 202.</_>
    <_>
      176. 194. 175.</_>
    <_>
      174. 221. 186.</_>
    <_>
      174. 231. 194.</_>
    <_>
      174. 222. 201.</_>
    <_>
      175. 216. 192.</_>
    <_>
      175. 204. 196.</_>
    <_>
      175. 202. 193.</_>
    <_>
      175. 201. 190.</_>
    <_>
      175. 197. 192.</_>
    <_>
      175. 198. 185.</_>
    <_>
      175. 192. 185.</_>
    <_>
      175. 176. 197.</_>
    <_>
      175. 171. 197.</_>
    <_>
      176. 167. 197.</_>
    <_>
      176. 172. 197.</_>
    <_>
      175. 192. 185.</_>
    <_>
      175. 197. 186.</_>
    <_>
      176. 198. 191.</_>
    <_>
      175. 202. 189.</_>
    <_>
      176. 167. 194.</_>
    <_>
      176. 173. 201.</_>
    <_>
      176. 170. 200.</_>
    <_>
      176. 194. 172.</_>
    <_>
      174. 216. 188.</_>
    <_>
      174. 218. 204.</_>
    <_>
      174. 218. 206.</_>
    <_>
      175. 210. 198.</_>
    <_>
      175. 203. 197.</_>
    <_>
      175. 200. 196.</_>
    <_>
      175. 203. 192.</_>
    <_>
      175. 199. 192.</_>
    <_>
      175. 197. 190.</_>
    <_>
      175. 198. 183.</_>
    <_>
      175. 188. 187.</_>
    <_>
      175. 170. 200.</_>
    <_>
      175. 174. 195.</_>
    <_>
      175. 172. 197.</_>
    <_>
      176. 190. 183.</_>
    <_>
      175. 193. 188.</_>
    <_>
      175. 198. 188.</_>
    <_>
      176. 221. 172.</_>
    <_>
      175. 217. 179.</_>
    <_>
      177. 168. 190.</_>
    <_>
      176. 169. 192.</_>
    <_>
      176. 167. 203.</_>
    <_>
      176. 167. 200.</_>
    <_>
      176. 171. 195.</_>
    <_>
      174. 203. 197.</_>
    <_>
      174. 210. 208.</_>
    <_>
      174. 210. 211.</_>
    <_>
      175. 206. 202.</_>
    <_>
      175. 207. 193.</_>
    <_>
      175. 202. 194.</_>
    <_>
      175. 204. 191.</_>
    <_>
      174. 201. 190.</_>
    <_>
      174. 197. 193.</_>
    <_>
      174. 199. 188.</_>
    <_>
      174. 196. 186.</_>
    <_>
      174. 179. 199.</_>
    <_>
      175. 174. 202.</_>
    <_>
      175. 192. 183.</_>
    <_>
      175. 196. 181.</_>
    <_>
      175. 194. 187.</_>
    <_>
      175. 216. 172.</_>
    <_>
      176. 218. 174.</_>
    <_>
      176. 220. 173.</_>
    <_>
      176. 170. 199.</_>
    <_>
      176. 168. 208.</_>
    <_>
      176. 171. 195.</_>
    <_>
      175. 200. 196.</_>
    <_>
      174. 203. 212.</_>
    <_>
      174. 204. 214.</_>
    <_>
      175. 203. 201.</_>
    <_>
      175. 205. 192.</_>
    <_>
      175. 200. 195.</_>
    <_>
      175. 198. 193.</_>
    <_>
      174. 200. 190.</_>
    <_>
      174. 197. 193.</_>
    <_>
      174. 199. 191.</_>
    <_>
      174. 198. 189.</_>
    <_>
      174. 195. 192.</_>
    <_>
      174. 196. 189.</_>
    <_>
      174. 194. 188.</_>
    <_>
      175. 195. 186.</_>
    <_>
      175. 211. 172.</_>
    <_>
      175. 217. 169.</_>
    <_>
      176. 233. 162.</_>
    <_>
      176. 217. 175.</_>
    <_>
      176. 176. 216.</_>
    <_>
      176. 179. 211.</_>
    <_>
      176. 176. 211.</_>
    <_>
      176. 170. 205.</_>
    <_>
      176. 168. 194.</_>
    <_>
      175. 178. 215.</_>
    <_>
      175. 204. 209.</_>
    <_>
      174. 201. 214.</_>
    <_>
      175. 201. 203.</_>
    <_>
      175. 200. 196.</_>
    <_>
      175. 198. 193.</_>
    <_>
      175. 197. 190.</_>
    <_>
      174. 199. 188.</_>
    <_>
      174. 197. 190.</_>
    <_>
      173. 200. 193.</_>
    <_>
      173. 200. 196.</_>
    <_>
      173. 206. 191.</_>
    <_>
      173. 202. 191.</_>
    <_>
      174. 196. 191.</_>
    <_>
      174. 216. 170.</_>
    <_>
      175. 214. 169.</_>
    <_>
      175. 231. 159.</_>
    <_>
      175. 240. 157.</_>
    <_>
      176. 218. 174.</_>
    <_>
      176. 204. 224.</_>
    <_>
      177. 204. 216.</_>
    <_>
      177. 199. 209.</_>
    <_>
      176. 176. 198.</_>
    <_>
      175. 197. 198.</_>
    <_>
      175. 199. 214.</_>
    <_>
      175. 205. 210.</_>
    <_>
      176. 205. 195.</_>
    <_>
      177. 199. 190.</_>
    <_>
      177. 197. 188.</_>
    <_>
      178. 191. 187.</_>
    <_>
      177. 192. 186.</_>
    <_>
      177. 194. 187.</_>
    <_>
      176. 196. 189.</_>
    <_>
      176. 195. 192.</_>
    <_>
      176. 196. 191.</_>
    <_>
      176. 198. 187.</_>
    <_>
      177. 202. 179.</_>
    <_>
      178. 209. 167.</_>
    <_>
      178. 209. 167.</_>
    <_>
      177. 214. 169.</_>
    <_>
      177. 215. 173.</_>
    <_>
      9. 132. 162.</_>
    <_>
      9. 132. 162.</_>
    <_>
      9. 131. 160.</_>
    <_>
      9. 131. 160.</_>
    <_>
      8. 172. 168.</_>
    <_>
      8. 174. 169.</_>
    <_>
      8. 174. 166.</_>
    <_>
      8. 174. 169.</_>
    <_>
      8. 173. 168.</_>
    <_>
      8. 170. 170.</_>
    <_>
      8. 174. 169.</_>
    <_>
      8. 172. 169.</_>
    <_>
      7. 208. 190.</_>
    <_>
      7. 211. 192.</_>
    <_>
      7. 211. 193.</_>
    <_>
      7. 211. 196.</_>
    <_>
      7. 209. 200.</_>
    <_>
      7. 213. 200.</_>
    <_>
      7. 212. 202.</_>
    <_>
      7. 215. 199.</_>
    <_>
      7. 214. 200.</_>
    <_>
      7. 217. 200.</_>
    <_>
      7. 211. 203.</_>
    <_>
      7. 214. 203.</_>
    <_>
      7. 208. 195.</_>
    <_>
      7. 208. 195.</_>
    <_>
      8. 205. 198.</_>
    <_>
      7. 206. 194.</_>
    <_>
      7. 206. 191.</_>
    <_>
      7. 206. 191.</_>
    <_>
      7. 206. 192.</_>
    <_>
      7. 206. 192.</_>
    <_>
      7. 207. 191.</_>
    <_>
      7. 208. 190.</_>
    <_>
      7. 210. 199.</_>
    <_>
      8. 207. 196.</_>
    <_>
      7. 209. 196.</_>
    <_>
      7. 207. 197.</_>
    <_>
      8. 208. 194.</_>
    <_>
      8. 208. 194.</_>
    <_>
      8. 207. 193.</_>
    <_>
      8. 204. 196.</_>
    <_>
      171. 214. 105.</_>
    <_>
      173. 212. 107.</_>
    <_>
      175. 200. 112.</_>
    <_>
      176. 190. 121.</_>
    <_>
      177. 176. 132.</_>
    <_>
      178. 165. 142.</_>
    <_>
      178. 158. 153.</_>
    <_>
      173. 210. 107.</_>
    <_>
      174. 198. 112.</_>
    <_>
      176. 185. 121.</_>
    <_>
      177. 174. 132.</_>
    <_>
      178. 161. 144.</_>
    <_>
      174. 198. 112.</_>
    <_>
      175. 184. 119.</_>
    <_>
      177. 171. 130.</_>
    <_>
      179. 160. 142.</_>
    <_>
      175. 185. 121.</_>
    <_>
      177. 171. 130.</_>
    <_>
      179. 159. 143.</_>
    <_>
      177. 174. 132.</_>
    <_>
      178. 160. 145.</_>
    <_>
      178. 164. 143.</_>
    <_>
      116. 142. 36.</_>
    <_>
      114. 162. 44.</_>
    <_>
      106. 226. 245.</_>
    <_>
      106. 225. 246.</_>
    <_>
      107. 237. 243.</_>
    <_>
      107. 234. 243.</_>
    <_>
      107. 235. 243.</_>
    <_>
      107. 234. 243.</_>
    <_>
      107. 233. 244.</_>
    <_>
      107. 236. 243.</_>
    <_>
      107. 234. 245.</_>
    <_>
      107. 237. 244.</_>
    <_>
      114. 136. 62.</_>
    <_>
      105. 218. 245.</_>
    <_>
      104. 214. 245.</_>
    <_>
      104. 207. 243.</_>
    <_>
      114. 223. 32.</_>
    <_>
      108. 236. 41.</_>
    <_>
      107. 235. 39.</_>
    <_>
      108. 238. 44.</_>
    <_>
      110. 148. 31.</_>
    <_>
      111. 146. 35.</_>
    <_>
      112. 152. 42.</_>
    <_>
      111. 142. 36.</_>
    <_>
      112. 155. 41.</_>
    <_>
      112. 151. 44.</_>
    <_>
      114. 151. 59.</_>
    <_>
      117. 158. 63.</_>
    <_>
      108. 186. 222.</_>
    <_>
      108. 186. 221.</_>
    <_>
      107. 190. 227.</_>
    <_>
      107. 186. 221.</_>
    <_>
      107. 185. 225.</_>
    <_>
      105. 182. 225.</_>
    <_>
      106. 186. 223.</_>
    <_>
      105. 183. 223.</_>
    <_>
      107. 186. 226.</_>
    <_>
      107. 188. 223.</_>
    <_>
      105. 181. 227.</_>
    <_>
      106. 184. 222.</_>
    <_>
      105. 182. 223.</_>
    <_>
      107. 188. 225.</_>
    <_>
      108. 189. 223.</_>
    <_>
      108. 186. 219.</_>
    <_>
      109. 193. 223.</_>
    <_>
      109. 193. 223.</_>
    <_>
      109. 194. 223.</_>
    <_>
      106. 181. 226.</_>
    <_>
      106. 185. 223.</_>
    <_>
      106. 182. 223.</_>
    <_>
      107. 190. 225.</_>
    <_>
      107. 186. 227.</_>
    <_>
      108. 184. 222.</_>
    <_>
      109. 191. 227.</_>
    <_>
      109. 191. 231.</_>
    <_>
      109. 192. 229.</_>
    <_>
      108. 191. 228.</_>
    <_>
      105. 180. 225.</_>
    <_>
      106. 183. 221.</_>
    <_>
      107. 187. 226.</_>
    <_>
      108. 184. 225.</_>
    <_>
      107. 183. 220.</_>
    <_>
      108. 193. 229.</_>
    <_>
      109. 190. 231.</_>
    <_>
      109. 190. 231.</_>
    <_>
      108. 190. 229.</_>
    <_>
      106. 177. 226.</_>
    <_>
      106. 180. 221.</_>
    <_>
      107. 186. 225.</_>
    <_>
      107. 186. 222.</_>
    <_>
      107. 193. 228.</_>
    <_>
      108. 192. 229.</_>
    <_>
      108. 191. 228.</_>
    <_>
      108. 193. 225.</_>
    <_>
      106. 177. 226.</_>
    <_>
      106. 181. 220.</_>
    <_>
      107. 188. 224.</_>
    <_>
      107. 185. 223.</_>
    <_>
      107. 177. 225.</_>
    <_>
      106. 180. 220.</_>
    <_>
      107. 182. 218.</_>
    <_>
      107. 178. 221.</_>
    <_>
      107. 177. 218.</_>
    <_>
      106. 175. 213.</_>
    <_>
      107. 187. 222.</_>
    <_>
      107. 185. 223.</_>
    <_>
      107. 186. 221.</_>
    <_>
      107. 177. 225.</_>
    <_>
      106. 179. 221.</_>
    <_>
      107. 177. 222.</_>
    <_>
      107. 177. 221.</_>
    <_>
      106. 175. 217.</_>
    <_>
      106. 175. 214.</_>
    <_>
      107. 187. 222.</_>
    <_>
      107. 174. 228.</_>
    <_>
      107. 175. 224.</_>
    <_>
      107. 183. 220.</_>
    <_>
      107. 182. 221.</_>
    <_>
      107. 177. 225.</_>
    <_>
      107. 175. 224.</_>
    <_>
      107. 173. 224.</_>
    <_>
      107. 176. 219.</_>
    <_>
      106. 180. 219.</_>
    <_>
      107. 186. 222.</_>
    <_>
      107. 173. 228.</_>
    <_>
      107. 173. 226.</_>
    <_>
      107. 178. 223.</_>
    <_>
      107. 180. 224.</_>
    <_>
      107. 177. 228.</_>
    <_>
      107. 174. 226.</_>
    <_>
      107. 173. 227.</_>
    <_>
      106. 178. 222.</_>
    <_>
      107. 188. 224.</_>
    <_>
      107. 186. 224.</_>
    <_>
      105. 253. 244.</_>
    <_>
      106. 252. 248.</_>
    <_>
      105. 253. 251.</_>
    <_>
      105. 255. 249.</_>
    <_>
      105. 255. 248.</_>
    <_>
      105. 255. 249.</_>
    <_>
      106. 253. 247.</_>
    <_>
      105. 253. 245.</_>
    <_>
      105. 252. 244.</_>
    <_>
      105. 253. 244.</_>
    <_>
      105. 252. 246.</_>
    <_>
      105. 255. 247.</_>
    <_>
      105. 255. 246.</_>
    <_>
      105. 255. 246.</_>
    <_>
      105. 255. 246.</_>
    <_>
      105. 254. 244.</_>
    <_>
      105. 253. 244.</_>
    <_>
      105. 253. 245.</_>
    <_>
      105. 254. 244.</_>
    <_>
      106. 255. 245.</_>
    <_>
      106. 255. 245.</_>
    <_>
      105. 254. 244.</_>
    <_>
      105. 253. 243.</_>
    <_>
      105. 253. 244.</_>
    <_>
      105. 254. 243.</_>
    <_>
      105. 253. 244.</_>
    <_>
      105. 253. 244.</_>
    <_>
      105. 238. 248.</_>
    <_>
      105. 230. 252.</_>
    <_>
      106. 238. 253.</_>
    <_>
      106. 248. 243.</_>
    <_>
      105. 227. 254.</_>
    <_>
      105. 238. 252.</_>
    <_>
      105. 240. 255.</_>
    <_>
      105. 245. 249.</_>
    <_>
      105. 227. 255.</_>
    <_>
      105. 241. 251.</_>
    <_>
      105. 243. 251.</_>
    <_>
      105. 255. 242.</_>
    <_>
      104. 231. 255.</_>
    <_>
      105. 239. 252.</_>
    <_>
      105. 255. 243.</_>
    <_>
      105. 253. 243.</_>
    <_>
      104. 232. 253.</_>
    <_>
      105. 252. 245.</_>
    <_>
      105. 253. 245.</_>
    <_>
      105. 252. 244.</_>
    <_>
      105. 254. 244.</_>
    <_>
      106. 254. 246.</_>
    <_>
      105. 253. 244.</_>
    <_>
      106. 254. 245.</_>
    <_>
      106. 254. 245.</_>
    <_>
      106. 253. 242.</_>
    <_>
      105. 248. 246.</_>
    <_>
      105. 252. 245.</_>
    <_>
      105. 251. 247.</_>
    <_>
      105. 251. 246.</_>
    <_>
      105. 251. 245.</_>
    <_>
      106. 252. 243.</_>
    <_>
      106. 250. 243.</_>
    <_>
      105. 234. 251.</_>
    <_>
      106. 255. 240.</_>
    <_>
      106. 255. 244.</_>
    <_>
      106. 253. 244.</_>
    <_>
      106. 251. 242.</_>
    <_>
      105. 236. 251.</_>
    <_>
      106. 255. 239.</_>
    <_>
      106. 255. 243.</_>
    <_>
      106. 255. 243.</_>
    <_>
      105. 236. 251.</_>
    <_>
      106. 255. 246.</_>
    <_>
      106. 254. 245.</_>
    <_>
      106. 249. 244.</_>
    <_>
      105. 237. 250.</_>
    <_>
      106. 255. 240.</_>
    <_>
      106. 255. 245.</_>
    <_>
      106. 254. 243.</_>
    <_>
      105. 239. 248.</_>
    <_>
      106. 253. 242.</_>
    <_>
      105. 239. 248.</_>
    <_>
      105. 239. 248.</_>
    <_>
      105. 249. 245.</_>
    <_>
      105. 249. 248.</_>
    <_>
      104. 238. 250.</_>
    <_>
      105. 248. 246.</_>
    <_>
      105. 248. 249.</_>
    <_>
      105. 255. 242.</_>
    <_>
      105. 235. 252.</_>
    <_>
      105. 248. 246.</_>
    <_>
      105. 248. 249.</_>
    <_>
      105. 255. 243.</_>
    <_>
      105. 255. 242.</_>
    <_>
      105. 253. 245.</_>
    <_>
      104. 235. 251.</_>
    <_>
      105. 248. 246.</_>
    <_>
      105. 249. 246.</_>
    <_>
      105. 255. 243.</_>
    <_>
      105. 255. 243.</_>
    <_>
      105. 254. 244.</_>
    <_>
      108. 167. 26.</_>
    <_>
      106. 152. 37.</_>
    <_>
      107. 245. 241.</_>
    <_>
      106. 249. 247.</_>
    <_>
      106. 251. 246.</_>
    <_>
      107. 247. 242.</_>
    <_>
      106. 254. 247.</_>
    <_>
      106. 255. 245.</_>
    <_>
      107. 252. 238.</_>
    <_>
      105. 251. 246.</_>
    <_>
      106. 255. 241.</_>
    <_>
      106. 247. 244.</_>
    <_>
      112. 255. 174.</_>
    <_>
      113. 254. 172.</_>
    <_>
      111. 255. 104.</_>
    <_>
      111. 255. 109.</_>
    <_>
      112. 255. 135.</_>
    <_>
      113. 255. 168.</_>
    <_>
      113. 255. 166.</_>
    <_>
      113. 255. 159.</_>
    <_>
      113. 255. 150.</_>
    <_>
      111. 255. 100.</_>
    <_>
      112. 255. 104.</_>
    <_>
      112. 255. 161.</_>
    <_>
      113. 255. 162.</_>
    <_>
      113. 255. 160.</_>
    <_>
      113. 255. 155.</_>
    <_>
      113. 255. 148.</_>
    <_>
      111. 255. 100.</_>
    <_>
      111. 255. 103.</_>
    <_>
      112. 255. 156.</_>
    <_>
      113. 255. 157.</_>
    <_>
      113. 253. 157.</_>
    <_>
      113. 252. 153.</_>
    <_>
      113. 255. 145.</_>
    <_>
      113. 255. 146.</_>
    <_>
      113. 255. 143.</_>
    <_>
      113. 255. 138.</_>
    <_>
      112. 255. 139.</_>
    <_>
      113. 255. 138.</_>
    <_>
      113. 255. 136.</_>
    <_>
      112. 255. 135.</_>
    <_>
      112. 255. 137.</_>
    <_>
      112. 255. 139.</_>
    <_>
      112. 255. 139.</_>
    <_>
      112. 255. 139.</_>
    <_>
      112. 255. 137.</_>
    <_>
      113. 253. 147.</_>
    <_>
      113. 253. 151.</_>
    <_>
      113. 252. 150.</_>
    <_>
      112. 255. 144.</_>
    <_>
      112. 255. 139.</_>
    <_>
      113. 255. 148.</_>
    <_>
      113. 255. 151.</_>
    <_>
      113. 253. 151.</_>
    <_>
      112. 255. 139.</_>
    <_>
      113. 255. 148.</_>
    <_>
      113. 255. 149.</_>
    <_>
      113. 255. 150.</_>
    <_>
      113. 255. 146.</_>
    <_>
      113. 253. 145.</_>
    <_>
      127. 158. 123.</_>
    <_>
      127. 162. 124.</_>
    <_>
      127. 164. 126.</_>
    <_>
      127. 163. 128.</_>
    <_>
      127. 164. 132.</_>
    <_>
      125. 167. 142.</_>
    <_>
      122. 178. 155.</_>
    <_>
      120. 184. 165.</_>
    <_>
      120. 183. 166.</_>
    <_>
      120. 182. 164.</_>
    <_>
      120. 179. 162.</_>
    <_>
      121. 180. 160.</_>
    <_>
      124. 178. 162.</_>
    <_>
      125. 181. 162.</_>
    <_>
      124. 179. 162.</_>
    <_>
      124. 180. 163.</_>
    <_>
      125. 181. 163.</_>
    <_>
      125. 181. 162.</_>
    <_>
      124. 179. 162.</_>
    <_>
      123. 172. 156.</_>
    <_>
      126. 154. 124.</_>
    <_>
      127. 158. 126.</_>
    <_>
      126. 158. 129.</_>
    <_>
      127. 162. 129.</_>
    <_>
      126. 164. 131.</_>
    <_>
      124. 164. 143.</_>
    <_>
      121. 176. 155.</_>
    <_>
      120. 184. 165.</_>
    <_>
      120. 183. 166.</_>
    <_>
      120. 182. 164.</_>
    <_>
      120. 179. 162.</_>
    <_>
      121. 180. 160.</_>
    <_>
      124. 178. 162.</_>
    <_>
      125. 179. 160.</_>
    <_>
      124. 178. 162.</_>
    <_>
      124. 178. 162.</_>
    <_>
      124. 179. 162.</_>
    <_>
      125. 181. 162.</_>
    <_>
      125. 179. 160.</_>
    <_>
      122. 169. 155.</_>
    <_>
      125. 157. 125.</_>
    <_>
      125. 155. 127.</_>
    <_>
      125. 156. 129.</_>
    <_>
      126. 161. 128.</_>
    <_>
      125. 163. 130.</_>
    <_>
      124. 166. 141.</_>
    <_>
      121. 176. 155.</_>
    <_>
      120. 182. 164.</_>
    <_>
      120. 183. 166.</_>
    <_>
      120. 183. 166.</_>
    <_>
      120. 183. 166.</_>
    <_>
      120. 183. 166.</_>
    <_>
      120. 182. 164.</_>
    <_>
      121. 180. 160.</_>
    <_>
      124. 178. 163.</_>
    <_>
      125. 181. 162.</_>
    <_>
      124. 179. 162.</_>
    <_>
      124. 179. 162.</_>
    <_>
      125. 179. 160.</_>
    <_>
      125. 179. 160.</_>
    <_>
      125. 179. 160.</_>
    <_>
      122. 169. 155.</_>
    <_>
      125. 157. 125.</_>
    <_>
      125. 156. 126.</_>
    <_>
      125. 157. 128.</_>
    <_>
      126. 161. 128.</_>
    <_>
      125. 162. 131.</_>
    <_>
      124. 164. 143.</_>
    <_>
      121. 176. 155.</_>
    <_>
      120. 182. 164.</_>
    <_>
      120. 183. 166.</_>
    <_>
      120. 183. 166.</_>
    <_>
      120. 182. 164.</_>
    <_>
      121. 180. 160.</_>
    <_>
      124. 178. 163.</_>
    <_>
      124. 180. 163.</_>
    <_>
      124. 178. 163.</_>
    <_>
      124. 178. 162.</_>
    <_>
      124. 179. 162.</_>
    <_>
      125. 181. 162.</_>
    <_>
      124. 179. 162.</_>
    <_>
      122. 169. 155.</_>
    <_>
      125. 154. 126.</_>
    <_>
      125. 154. 126.</_>
    <_>
      125. 157. 128.</_>
    <_>
      125. 160. 131.</_>
    <_>
      125. 162. 134.</_>
    <_>
      123. 165. 145.</_>
    <_>
      121. 176. 155.</_>
    <_>
      120. 182. 164.</_>
    <_>
      120. 183. 166.</_>
    <_>
      120. 183. 166.</_>
    <_>
      120. 183. 166.</_>
    <_>
      120. 183. 166.</_>
    <_>
      120. 182. 164.</_>
    <_>
      121. 183. 162.</_>
    <_>
      124. 181. 165.</_>
    <_>
      125. 182. 165.</_>
    <_>
      124. 181. 165.</_>
    <_>
      124. 181. 165.</_>
    <_>
      125. 182. 165.</_>
    <_>
      125. 181. 163.</_>
    <_>
      124. 180. 163.</_>
    <_>
      123. 172. 156.</_>
    <_>
      125. 154. 126.</_>
    <_>
      125. 159. 127.</_>
    <_>
      125. 158. 129.</_>
    <_>
      125. 160. 131.</_>
    <_>
      125. 163. 133.</_>
    <_>
      123. 168. 143.</_>
    <_>
      121. 177. 154.</_>
    <_>
      120. 182. 164.</_>
    <_>
      120. 183. 166.</_>
    <_>
      120. 183. 166.</_>
    <_>
      120. 182. 164.</_>
    <_>
      120. 179. 162.</_>
    <_>
      121. 183. 162.</_>
    <_>
      124. 181. 165.</_>
    <_>
      125. 182. 165.</_>
    <_>
      124. 182. 167.</_>
    <_>
      124. 182. 167.</_>
    <_>
      125. 182. 165.</_>
    <_>
      125. 182. 165.</_>
    <_>
      124. 180. 163.</_>
    <_>
      123. 172. 156.</_>
    <_>
      125. 157. 128.</_>
    <_>
      125. 157. 128.</_>
    <_>
      126. 160. 129.</_>
    <_>
      125. 162. 131.</_>
    <_>
      126. 165. 133.</_>
    <_>
      124. 168. 144.</_>
    <_>
      121. 176. 155.</_>
    <_>
      120. 182. 164.</_>
    <_>
      120. 183. 166.</_>
    <_>
      121. 184. 166.</_>
    <_>
      121. 184. 166.</_>
    <_>
      121. 184. 166.</_>
    <_>
      121. 182. 164.</_>
    <_>
      122. 183. 162.</_>
    <_>
      124. 182. 167.</_>
    <_>
      125. 183. 167.</_>
    <_>
      124. 182. 167.</_>
    <_>
      124. 182. 167.</_>
    <_>
      125. 182. 165.</_>
    <_>
      125. 182. 165.</_>
    <_>
      124. 180. 163.</_>
    <_>
      122. 173. 158.</_>
    <_>
      125. 157. 128.</_>
    <_>
      125. 157. 128.</_>
    <_>
      126. 160. 129.</_>
    <_>
      125. 162. 131.</_>
    <_>
      126. 165. 133.</_>
    <_>
      124. 168. 144.</_>
    <_>
      121. 176. 155.</_>
    <_>
      120. 179. 162.</_>
    <_>
      121. 182. 164.</_>
    <_>
      121. 184. 166.</_>
    <_>
      121. 184. 166.</_>
    <_>
      121. 182. 164.</_>
    <_>
      121. 181. 162.</_>
    <_>
      122. 183. 162.</_>
    <_>
      124. 181. 165.</_>
    <_>
      125. 182. 165.</_>
    <_>
      124. 181. 165.</_>
    <_>
      124. 181. 165.</_>
    <_>
      125. 182. 165.</_>
    <_>
      125. 181. 163.</_>
    <_>
      124. 180. 163.</_>
    <_>
      123. 172. 156.</_>
    <_>
      126. 159. 128.</_>
    <_>
      126. 159. 128.</_>
    <_>
      127. 162. 129.</_>
    <_>
      126. 164. 131.</_>
    <_>
      127. 167. 133.</_>
    <_>
      125. 168. 144.</_>
    <_>
      122. 178. 155.</_>
    <_>
      120. 182. 164.</_>
    <_>
      121. 184. 166.</_>
    <_>
      121. 184. 166.</_>
    <_>
      121. 184. 166.</_>
    <_>
      121. 184. 166.</_>
    <_>
      121. 182. 164.</_>
    <_>
      122. 182. 160.</_>
    <_>
      124. 178. 163.</_>
    <_>
      124. 180. 163.</_>
    <_>
      124. 178. 163.</_>
    <_>
      124. 178. 163.</_>
    <_>
      124. 180. 163.</_>
    <_>
      125. 181. 162.</_>
    <_>
      124. 179. 162.</_>
    <_>
      122. 169. 155.</_>
    <_>
      126. 159. 128.</_>
    <_>
      126. 159. 128.</_>
    <_>
      127. 162. 129.</_>
    <_>
      126. 164. 131.</_>
    <_>
      126. 165. 133.</_>
    <_>
      125. 168. 144.</_>
    <_>
      122. 178. 155.</_>
    <_>
      120. 179. 162.</_>
    <_>
      120. 182. 164.</_>
    <_>
      121. 184. 166.</_>
    <_>
      121. 184. 166.</_>
    <_>
      121. 182. 164.</_>
    <_>
      121. 181. 162.</_>
    <_>
      122. 182. 160.</_>
    <_>
      124. 179. 162.</_>
    <_>
      124. 179. 162.</_>
    <_>
      124. 178. 162.</_>
    <_>
      124. 178. 162.</_>
    <_>
      124. 179. 162.</_>
    <_>
      125. 181. 162.</_>
    <_>
      125. 179. 160.</_>
    <_>
      122. 171. 154.</_>
    <_>
      126. 159. 128.</_>
    <_>
      126. 159. 128.</_>
    <_>
      126. 160. 129.</_>
    <_>
      126. 164. 131.</_>
    <_>
      126. 165. 133.</_>
    <_>
      124. 168. 144.</_>
    <_>
      121. 176. 155.</_>
    <_>
      120. 182. 164.</_>
    <_>
      120. 183. 166.</_>
    <_>
      120. 183. 166.</_>
    <_>
      120. 182. 164.</_>
    <_>
      120. 182. 164.</_>
    <_>
      120. 179. 162.</_>
    <_>
      121. 180. 160.</_>
    <_>
      124. 178. 163.</_>
    <_>
      124. 179. 162.</_>
    <_>
      124. 178. 162.</_>
    <_>
      124. 179. 161.</_>
    <_>
      124. 181. 161.</_>
    <_>
      125. 181. 162.</_>
    <_>
      124. 179. 162.</_>
    <_>
      122. 169. 155.</_>
    <_>
      126. 159. 128.</_>
    <_>
      126. 159. 128.</_>
    <_>
      126. 160. 129.</_>
    <_>
      125. 162. 131.</_>
    <_>
      126. 165. 133.</_>
    <_>
      124. 168. 144.</_>
    <_>
      121. 176. 155.</_>
    <_>
      120. 182. 164.</_>
    <_>
      120. 183. 166.</_>
    <_>
      120. 182. 164.</_>
    <_>
      120. 182. 164.</_>
    <_>
      120. 179. 162.</_>
    <_>
      121. 180. 160.</_>
    <_>
      124. 178. 163.</_>
    <_>
      124. 179. 164.</_>
    <_>
      124. 177. 164.</_>
    <_>
      124. 178. 163.</_>
    <_>
      124. 180. 163.</_>
    <_>
      125. 180. 164.</_>
    <_>
      124. 179. 164.</_>
    <_>
      123. 172. 156.</_>
    <_>
      125. 156. 126.</_>
    <_>
      125. 157. 128.</_>
    <_>
      126. 160. 129.</_>
    <_>
      125. 162. 131.</_>
    <_>
      126. 165. 133.</_>
    <_>
      124. 168. 144.</_>
    <_>
      121. 176. 155.</_>
    <_>
      120. 182. 164.</_>
    <_>
      120. 183. 166.</_>
    <_>
      120. 183. 166.</_>
    <_>
      120. 182. 164.</_>
    <_>
      120. 182. 164.</_>
    <_>
      121. 180. 160.</_>
    <_>
      124. 183. 163.</_>
    <_>
      125. 182. 165.</_>
    <_>
      124. 181. 165.</_>
    <_>
      124. 181. 165.</_>
    <_>
      125. 182. 165.</_>
    <_>
      125. 182. 165.</_>
    <_>
      125. 182. 165.</_>
    <_>
      122. 176. 158.</_>
    <_>
      125. 157. 128.</_>
    <_>
      125. 157. 128.</_>
    <_>
      125. 157. 128.</_>
    <_>
      126. 160. 129.</_>
    <_>
      126. 165. 133.</_>
    <_>
      124. 168. 144.</_>
    <_>
      121. 176. 155.</_>
    <_>
      120. 182. 164.</_>
    <_>
      120. 183. 166.</_>
    <_>
      120. 182. 164.</_>
    <_>
      120. 182. 164.</_>
    <_>
      121. 180. 160.</_>
    <_>
      122. 179. 158.</_>
    <_>
      122. 175. 159.</_>
    <_>
      122. 174. 160.</_>
    <_>
      122. 172. 157.</_>
    <_>
      122. 174. 157.</_>
    <_>
      122. 173. 158.</_>
    <_>
      122. 175. 159.</_>
    <_>
      122. 176. 154.</_>
    <_>
      126. 160. 129.</_>
    <_>
      125. 157. 128.</_>
    <_>
      125. 157. 128.</_>
    <_>
      126. 160. 129.</_>
    <_>
      126. 165. 133.</_>
    <_>
      124. 168. 144.</_>
    <_>
      121. 179. 157.</_>
    <_>
      120. 182. 164.</_>
    <_>
      120. 182. 164.</_>
    <_>
      120. 182. 164.</_>
    <_>
      120. 182. 164.</_>
    <_>
      120. 182. 164.</_>
    <_>
      120. 182. 164.</_>
    <_>
      126. 160. 129.</_>
    <_>
      125. 157. 128.</_>
    <_>
      125. 156. 126.</_>
    <_>
      125. 157. 128.</_>
    <_>
      126. 165. 133.</_>
    <_>
      124. 168. 144.</_>
    <_>
      121. 179. 157.</_>
    <_>
      120. 182. 164.</_>
    <_>
      120. 182. 164.</_>
    <_>
      120. 182. 164.</_>
    <_>
      120. 182. 164.</_>
    <_>
      120. 182. 164.</_>
    <_>
      121. 182. 164.</_>
    <_>
      121. 184. 166.</_>
    <_>
      121. 184. 166.</_>
    <_>
      121. 184. 166.</_>
    <_>
      120. 182. 164.</_>
    <_>
      120. 182. 164.</_>
    <_>
      126. 160. 129.</_>
    <_>
      125. 157. 128.</_>
    <_>
      125. 156. 126.</_>
    <_>
      125. 157. 128.</_>
    <_>
      126. 165. 133.</_>
    <_>
      124. 168. 144.</_>
    <_>
      121. 179. 157.</_>
    <_>
      120. 182. 164.</_>
    <_>
      120. 182. 164.</_>
    <_>
      120. 182. 164.</_>
    <_>
      120. 182. 164.</_>
    <_>
      120. 182. 164.</_>
    <_>
      121. 182. 164.</_>
    <_>
      121. 183. 162.</_>
    <_>
      121. 182. 164.</_>
    <_>
      121. 182. 164.</_>
    <_>
      121. 182. 164.</_>
    <_>
      121. 182. 164.</_>
    <_>
      120. 182. 164.</_>
    <_>
      120. 182. 164.</_>
    <_>
      126. 160. 129.</_>
    <_>
      125. 157. 128.</_>
    <_>
      125. 156. 126.</_>
    <_>
      125. 157. 128.</_>
    <_>
      126. 165. 133.</_>
    <_>
      124. 168. 144.</_>
    <_>
      121. 179. 157.</_>
    <_>
      120. 182. 164.</_>
    <_>
      120. 182. 164.</_>
    <_>
      120. 182. 164.</_>
    <_>
      120. 182. 164.</_>
    <_>
      120. 182. 164.</_>
    <_>
      121. 182. 164.</_>
    <_>
      121. 180. 160.</_>
    <_>
      121. 181. 162.</_>
    <_>
      121. 182. 164.</_>
    <_>
      121. 182. 164.</_>
    <_>
      121. 182. 164.</_>
    <_>
      120. 182. 164.</_>
    <_>
      120. 182. 164.</_>
    <_>
      126. 160. 129.</_>
    <_>
      125. 157. 128.</_>
    <_>
      125. 156. 126.</_>
    <_>
      125. 157. 128.</_>
    <_>
      126. 165. 133.</_>
    <_>
      124. 168. 144.</_>
    <_>
      121. 179. 157.</_>
    <_>
      120. 182. 164.</_>
    <_>
      120. 182. 164.</_>
    <_>
      120. 182. 164.</_>
    <_>
      120. 182. 164.</_>
    <_>
      120. 182. 164.</_>
    <_>
      120. 182. 164.</_>
    <_>
      121. 180. 160.</_>
    <_>
      121. 181. 162.</_>
    <_>
      120. 179. 162.</_>
    <_>
      121. 181. 162.</_>
    <_>
      121. 181. 162.</_>
    <_>
      121. 181. 162.</_>
    <_>
      120. 179. 162.</_>
    <_>
      126. 160. 129.</_>
    <_>
      125. 157. 128.</_>
    <_>
      125. 156. 126.</_>
    <_>
      125. 157. 128.</_>
    <_>
      126. 165. 133.</_>
    <_>
      124. 168. 144.</_>
    <_>
      121. 179. 157.</_>
    <_>
      120. 182. 164.</_>
    <_>
      120. 182. 164.</_>
    <_>
      120. 182. 164.</_>
    <_>
      120. 182. 164.</_>
    <_>
      120. 182. 164.</_>
    <_>
      120. 182. 164.</_>
    <_>
      121. 180. 160.</_>
    <_>
      120. 179. 162.</_>
    <_>
      120. 179. 162.</_>
    <_>
      121. 181. 162.</_>
    <_>
      121. 181. 162.</_>
    <_>
      121. 181. 162.</_>
    <_>
      120. 179. 162.</_>
    <_>
      126. 160. 129.</_>
    <_>
      125. 157. 128.</_>
    <_>
      125. 156. 126.</_>
    <_>
      125. 157. 128.</_>
    <_>
      126. 165. 133.</_>
    <_>
      124. 168. 144.</_>
    <_>
      121. 179. 157.</_>
    <_>
      120. 182. 164.</_>
    <_>
      120. 182. 164.</_>
    <_>
      120. 182. 164.</_>
    <_>
      120. 182. 164.</_>
    <_>
      120. 182. 164.</_>
    <_>
      120. 182. 164.</_>
    <_>
      120. 179. 162.</_>
    <_>
      120. 179. 162.</_>
    <_>
      121. 181. 162.</_>
    <_>
      121. 181. 162.</_>
    <_>
      121. 181. 162.</_>
    <_>
      121. 181. 162.</_>
    <_>
      125. 158. 129.</_>
    <_>
      125. 157. 128.</_>
    <_>
      125. 156. 126.</_>
    <_>
      125. 157. 128.</_>
    <_>
      126. 165. 133.</_>
    <_>
      124. 168. 144.</_>
    <_>
      121. 179. 157.</_>
    <_>
      120. 182. 164.</_>
    <_>
      120. 182. 164.</_>
    <_>
      120. 182. 164.</_>
    <_>
      120. 182. 164.</_>
    <_>
      120. 182. 164.</_>
    <_>
      120. 182. 164.</_>
    <_>
      120. 179. 162.</_>
    <_>
      120. 179. 162.</_>
    <_>
      121. 181. 162.</_>
    <_>
      121. 181. 162.</_>
    <_>
      121. 181. 162.</_>
    <_>
      120. 179. 162.</_>
    <_>
      125. 158. 129.</_>
    <_>
      125. 157. 128.</_>
    <_>
      125. 155. 127.</_>
    <_>
      125. 157. 128.</_>
    <_>
      126. 165. 133.</_>
    <_>
      124. 168. 144.</_>
    <_>
      121. 179. 157.</_>
    <_>
      120. 182. 164.</_>
    <_>
      120. 182. 164.</_>
    <_>
      120. 182. 164.</_>
    <_>
      120. 182. 164.</_>
    <_>
      120. 182. 164.</_>
    <_>
      120. 182. 164.</_>
    <_>
      120. 179. 162.</_>
    <_>
      120. 182. 164.</_>
    <_>
      120. 182. 164.</_>
    <_>
      120. 182. 164.</_>
    <_>
      120. 182. 164.</_>
    <_>
      120. 182. 164.</_>
    <_>
      120. 182. 164.</_>
    <_>
      125. 158. 129.</_>
    <_>
      125. 157. 128.</_>
    <_>
      125. 156. 126.</_>
    <_>
      125. 157. 128.</_>
    <_>
      126. 165. 133.</_>
    <_>
      124. 168. 144.</_>
    <_>
      121. 179. 157.</_>
    <_>
      120. 182. 164.</_>
    <_>
      120. 182. 164.</_>
    <_>
      120. 182. 164.</_>
    <_>
      120. 182. 164.</_>
    <_>
      120. 182. 164.</_>
    <_>
      120. 182. 164.</_>
    <_>
      120. 179. 162.</_>
    <_>
      120. 182. 164.</_>
    <_>
      120. 182. 164.</_>
    <_>
      120. 182. 164.</_>
    <_>
      120. 182. 164.</_>
    <_>
      120. 182. 164.</_>
    <_>
      120. 182. 164.</_>
    <_>
      125. 157. 130.</_>
    <_>
      125. 157. 128.</_>
    <_>
      125. 154. 126.</_>
    <_>
      125. 159. 127.</_>
    <_>
      126. 165. 133.</_>
    <_>
      124. 168. 144.</_>
    <_>
      121. 179. 157.</_>
    <_>
      120. 182. 164.</_>
    <_>
      120. 182. 164.</_>
    <_>
      120. 182. 164.</_>
    <_>
      120. 182. 164.</_>
    <_>
      120. 182. 164.</_>
    <_>
      120. 182. 164.</_>
    <_>
      121. 181. 162.</_>
    <_>
      120. 182. 164.</_>
    <_>
      120. 182. 164.</_>
    <_>
      120. 183. 166.</_>
    <_>
      120. 183. 166.</_>
    <_>
      120. 183. 166.</_>
    <_>
      120. 182. 164.</_>
    <_>
      124. 155. 130.</_>
    <_>
      125. 157. 128.</_>
    <_>
      125. 154. 126.</_>
    <_>
      125. 159. 127.</_>
    <_>
      125. 163. 133.</_>
    <_>
      124. 168. 144.</_>
    <_>
      121. 179. 157.</_>
    <_>
      120. 182. 164.</_>
    <_>
      120. 182. 164.</_>
    <_>
      120. 182. 164.</_>
    <_>
      120. 182. 164.</_>
    <_>
      120. 182. 164.</_>
    <_>
      120. 182. 164.</_>
    <_>
      121. 180. 160.</_>
    <_>
      120. 179. 162.</_>
    <_>
      120. 182. 164.</_>
    <_>
      120. 183. 166.</_>
    <_>
      120. 183. 166.</_>
    <_>
      120. 183. 166.</_>
    <_>
      120. 182. 164.</_>
    <_>
      124. 156. 129.</_>
    <_>
      124. 154. 129.</_>
    <_>
      125. 153. 127.</_>
    <_>
      125. 157. 128.</_>
    <_>
      126. 165. 133.</_>
    <_>
      124. 168. 144.</_>
    <_>
      122. 179. 157.</_>
    <_>
      120. 182. 164.</_>
    <_>
      120. 182. 164.</_>
    <_>
      120. 182. 164.</_>
    <_>
      120. 182. 164.</_>
    <_>
      120. 182. 164.</_>
    <_>
      121. 181. 162.</_>
    <_>
      120. 183. 166.</_>
    <_>
      124. 156. 129.</_>
    <_>
      124. 155. 128.</_>
    <_>
      125. 153. 127.</_>
    <_>
      125. 156. 129.</_>
    <_>
      125. 163. 133.</_>
    <_>
      124. 168. 144.</_>
    <_>
      122. 179. 157.</_>
    <_>
      121. 181. 162.</_>
    <_>
      124. 156. 129.</_>
    <_>
      124. 155. 128.</_>
    <_>
      125. 153. 127.</_>
    <_>
      125. 156. 129.</_>
    <_>
      126. 165. 133.</_>
    <_>
      124. 168. 144.</_>
    <_>
      122. 179. 157.</_>
    <_>
      120. 179. 162.</_>
    <_>
      120. 179. 162.</_>
    <_>
      120. 179. 162.</_>
    <_>
      120. 179. 162.</_>
    <_>
      120. 179. 162.</_>
    <_>
      124. 156. 129.</_>
    <_>
      124. 157. 127.</_>
    <_>
      125. 154. 126.</_>
    <_>
      125. 157. 128.</_>
    <_>
      125. 163. 133.</_>
    <_>
      124. 165. 142.</_>
    <_>
      120. 169. 148.</_>
    <_>
      120. 179. 162.</_>
    <_>
      120. 179. 162.</_>
    <_>
      120. 179. 162.</_>
    <_>
      120. 179. 162.</_>
    <_>
      120. 179. 162.</_>
    <_>
      109. 253. 130.</_>
    <_>
      109. 239. 48.</_>
    <_>
      109. 244. 47.</_>
    <_>
      109. 239. 48.</_>
    <_>
      109. 239. 48.</_>
    <_>
      108. 251. 58.</_>
    <_>
      109. 245. 53.</_>
    <_>
      109. 255. 50.</_>
    <_>
      109. 249. 46.</_>
    <_>
      109. 249. 46.</_>
    <_>
      108. 238. 44.</_>
    <_>
      110. 232. 44.</_>
    <_>
      109. 238. 45.</_>
    <_>
      110. 232. 44.</_>
    <_>
      110. 232. 45.</_>
    <_>
      110. 232. 44.</_>
    <_>
      110. 238. 44.</_>
    <_>
      110. 232. 45.</_>
    <_>
      110. 239. 47.</_>
    <_>
      110. 238. 44.</_>
    <_>
      109. 239. 48.</_>
    <_>
      110. 239. 47.</_>
    <_>
      108. 238. 44.</_>
    <_>
      108. 238. 46.</_>
    <_>
      109. 239. 48.</_>
    <_>
      110. 239. 47.</_>
    <_>
      109. 239. 48.</_>
    <_>
      109. 239. 48.</_>
    <_>
      110. 239. 47.</_>
    <_>
      109. 239. 48.</_>
    <_>
      109. 239. 48.</_>
    <_>
      108. 243. 43.</_>
    <_>
      108. 238. 44.</_>
    <_>
      107. 245. 49.</_>
    <_>
      108. 243. 41.</_>
    <_>
      108. 237. 42.</_>
    <_>
      108. 245. 51.</_>
    <_>
      108. 243. 43.</_>
    <_>
      108. 243. 41.</_>
    <_>
      108. 243. 41.</_>
    <_>
      108. 243. 41.</_>
    <_>
      108. 238. 44.</_>
    <_>
      108. 237. 42.</_>
    <_>
      107. 245. 49.</_>
    <_>
      108. 237. 42.</_>
    <_>
      108. 237. 42.</_>
    <_>
      108. 245. 51.</_>
    <_>
      108. 243. 43.</_>
    <_>
      108. 237. 42.</_>
    <_>
      107. 245. 49.</_>
    <_>
      108. 243. 41.</_>
    <_>
      108. 243. 41.</_>
    <_>
      108. 238. 44.</_>
    <_>
      108. 237. 42.</_>
    <_>
      108. 237. 42.</_>
    <_>
      108. 237. 42.</_>
    <_>
      108. 245. 51.</_>
    <_>
      108. 243. 43.</_>
    <_>
      108. 237. 42.</_>
    <_>
      108. 238. 46.</_>
    <_>
      108. 245. 51.</_>
    <_>
      108. 243. 43.</_>
    <_>
      108. 243. 41.</_>
    <_>
      108. 245. 51.</_>
    <_>
      108. 243. 43.</_>
    <_>
      108. 243. 41.</_>
    <_>
      108. 245. 51.</_>
    <_>
      108. 243. 43.</_>
    <_>
      108. 237. 42.</_>
    <_>
      108. 238. 44.</_>
    <_>
      108. 237. 42.</_>
    <_>
      108. 246. 54.</_>
    <_>
      108. 244. 45.</_>
    <_>
      108. 238. 44.</_>
    <_>
      109. 239. 48.</_>
    <_>
      109. 239. 48.</_>
    <_>
      107. 248. 239.</_>
    <_>
      106. 255. 48.</_>
    <_>
      107. 242. 242.</_>
    <_>
      107. 249. 241.</_>
    <_>
      107. 247. 242.</_>
    <_>
      107. 250. 243.</_>
    <_>
      107. 254. 242.</_>
    <_>
      107. 255. 239.</_>
    <_>
      107. 255. 239.</_>
    <_>
      106. 250. 242.</_>
    <_>
      107. 252. 242.</_>
    <_>
      107. 253. 239.</_>
    <_>
      105. 254. 243.</_>
    <_>
      107. 252. 242.</_>
    <_>
      107. 253. 244.</_>
    <_>
      107. 252. 243.</_>
    <_>
      107. 254. 240.</_>
    <_>
      107. 254. 242.</_>
    <_>
      107. 255. 244.</_>
    <_>
      107. 253. 246.</_>
    <_>
      107. 252. 243.</_>
    <_>
      107. 254. 240.</_>
    <_>
      107. 255. 242.</_>
    <_>
      108. 254. 246.</_>
    <_>
      107. 253. 244.</_>
    <_>
      107. 255. 239.</_>
    <_>
      108. 254. 246.</_>
    <_>
      108. 252. 248.</_>
    <_>
      107. 250. 244.</_>
    <_>
      107. 253. 239.</_>
    <_>
      108. 251. 246.</_>
    <_>
      108. 249. 248.</_>
    <_>
      107. 248. 245.</_>
    <_>
      107. 243. 242.</_>
    <_>
      107. 244. 244.</_>
    <_>
      107. 242. 245.</_>
    <_>
      107. 241. 242.</_>
    <_>
      107. 244. 241.</_>
    <_>
      107. 237. 245.</_>
    <_>
      107. 237. 243.</_>
    <_>
      107. 237. 243.</_>
    <_>
      107. 236. 244.</_>
    <_>
      107. 232. 243.</_>
    <_>
      107. 235. 243.</_>
    <_>
      107. 237. 243.</_>
    <_>
      107. 236. 244.</_>
    <_>
      107. 232. 243.</_>
    <_>
      107. 236. 243.</_>
    <_>
      108. 239. 241.</_>
    <_>
      107. 242. 242.</_>
    <_>
      107. 239. 244.</_>
    <_>
      108. 242. 244.</_>
    <_>
      108. 245. 244.</_>
    <_>
      108. 246. 243.</_>
    <_>
      108. 245. 241.</_>
    <_>
      107. 240. 243.</_>
    <_>
      107. 238. 244.</_>
    <_>
      108. 241. 245.</_>
    <_>
      108. 244. 245.</_>
    <_>
      108. 244. 245.</_>
    <_>
      108. 244. 242.</_>
    <_>
      107. 236. 243.</_>
    <_>
      107. 236. 243.</_>
    <_>
      107. 241. 243.</_>
    <_>
      107. 242. 242.</_>
    <_>
      108. 243. 243.</_>
    <_>
      108. 241. 245.</_>
    <_>
      107. 240. 244.</_>
    <_>
      107. 236. 243.</_>
    <_>
      107. 236. 243.</_>
    <_>
      107. 244. 241.</_>
    <_>
      107. 240. 245.</_>
    <_>
      107. 239. 244.</_>
    <_>
      107. 238. 244.</_>
    <_>
      107. 237. 243.</_>
    <_>
      107. 236. 244.</_>
    <_>
      107. 234. 244.</_>
    <_>
      109. 255. 87.</_></support_vectors>
  <decision_functions>
    <_>
      <sv_count>2000</sv_count>
      <rho>3.1681603163480769e+00</rho>
      <alpha>
        1.0000000000000001e-01 1.0000000000000001e-01
        1.0000000000000001e-01 1.0000000000000001e-01
        1.0000000000000001e-01 1.0000000000000001e-01
        1.0000000000000001e-01 1.0000000000000001e-01
        1.0000000000000001e-01 1.0000000000000001e-01
        1.0000000000000001e-01 1.0000000000000001e-01
        1.0000000000000001e-01 1.0000000000000001e-01
        1.0000000000000001e-01 1.0000000000000001e-01
        1.0000000000000001e-01 1.0000000000000001e-01
        1.0000000000000001e-01 1.0000000000000001e-01
        1.0000000000000001e-01 1.0000000000000001e-01
        1.0000000000000001e-01 1.0000000000000001e-01
        1.0000000000000001e-01 1.0000000000000001e-01
        1.0000000000000001e-01 1.0000000000000001e-01
        1.0000000000000001e-01 1.0000000000000001e-01
        1.0000000000000001e-01 1.0000000000000001e-01
        1.0000000000000001e-01 1.0000000000000001e-01
        1.0000000000000001e-01 1.0000000000000001e-01
        1.0000000000000001e-01 1.0000000000000001e-01
        1.0000000000000001e-01 1.0000000000000001e-01
        1.0000000000000001e-01 1.0000000000000001e-01
        1.0000000000000001e-01 1.0000000000000001e-01
        1.0000000000000001e-01 1.0000000000000001e-01
        1.0000000000000001e-01 1.0000000000000001e-01
        1.0000000000000001e-01 1.0000000000000001e-01
        1.0000000000000001e-01 1.0000000000000001e-01
        1.0000000000000001e-01 1.0000000000000001e-01
        1.0000000000000001e-01 1.0000000000000001e-01
        1.0000000000000001e-01 1.0000000000000001e-01
        1.0000000000000001e-01 1.0000000000000001e-01
        1.0000000000000001e-01 1.0000000000000001e-01
        1.0000000000000001e-01 1.0000000000000001e-01
        1.0000000000000001e-01 1.0000000000000001e-01
        1.0000000000000001e-01 1.0000000000000001e-01
        1.0000000000000001e-01 1.0000000000000001e-01
        1.0000000000000001e-01 1.0000000000000001e-01
        1.0000000000000001e-01 1.0000000000000001e-01
        1.0000000000000001e-01 1.0000000000000001e-01
        1.0000000000000001e-01 1.0000000000000001e-01
        1.0000000000000001e-01 1.0000000000000001e-01
        1.0000000000000001e-01 1.0000000000000001e-01
        1.0000000000000001e-01 1.0000000000000001e-01
        1.0000000000000001e-01 1.0000000000000001e-01
        1.0000000000000001e-01 1.0000000000000001e-01
        1.0000000000000001e-01 1.0000000000000001e-01
        1.0000000000000001e-01 1.0000000000000001e-01
        1.0000000000000001e-01 1.0000000000000001e-01
        1.0000000000000001e-01 1.0000000000000001e-01
        1.0000000000000001e-01 1.0000000000000001e-01
        1.0000000000000001e-01 1.0000000000000001e-01
        1.0000000000000001e-01 1.0000000000000001e-01
        1.0000000000000001e-01 1.0000000000000001e-01
        1.0000000000000001e-01 1.0000000000000001e-01
        1.0000000000000001e-01 1.0000000000000001e-01
        1.0000000000000001e-01 1.0000000000000001e-01
        1.0000000000000001e-01 1.0000000000000001e-01
        1.0000000000000001e-01 1.0000000000000001e-01
        1.0000000000000001e-01 1.0000000000000001e-01
        1.0000000000000001e-01 1.0000000000000001e-01
        1.0000000000000001e-01 1.0000000000000001e-01
        1.0000000000000001e-01 1.0000000000000001e-01
        1.0000000000000001e-01 1.0000000000000001e-01
        1.0000000000000001e-01 1.0000000000000001e-01
        1.0000000000000001e-01 1.0000000000000001e-01
        1.0000000000000001e-01 1.0000000000000001e-01
        1.0000000000000001e-01 1.0000000000000001e-01
        1.0000000000000001e-01 1.0000000000000001e-01
        1.0000000000000001e-01 1.0000000000000001e-01
        1.0000000000000001e-01 1.0000000000000001e-01
        1.0000000000000001e-01 1.0000000000000001e-01
        1.0000000000000001e-01 1.0000000000000001e-01
        1.0000000000000001e-01 1.0000000000000001e-01
        1.0000000000000001e-01 1.0000000000000001e-01
        1.0000000000000001e-01 1.0000000000000001e-01
        1.0000000000000001e-01 1.0000000000000001e-01
        1.0000000000000001e-01 1.0000000000000001e-01
        1.0000000000000001e-01 1.0000000000000001e-01
        1.0000000000000001e-01 1.0000000000000001e-01
        1.0000000000000001e-01 1.0000000000000001e-01
        1.0000000000000001e-01 1.0000000000000001e-01
        1.0000000000000001e-01 1.0000000000000001e-01
        1.0000000000000001e-01 1.0000000000000001e-01
        1.0000000000000001e-01 1.0000000000000001e-01
        1.0000000000000001e-01 1.0000000000000001e-01
        1.0000000000000001e-01 1.0000000000000001e-01
        1.0000000000000001e-01 1.0000000000000001e-01
        1.0000000000000001e-01 1.0000000000000001e-01
        1.0000000000000001e-01 1.0000000000000001e-01
        1.0000000000000001e-01 1.0000000000000001e-01
        1.0000000000000001e-01 1.0000000000000001e-01
        1.0000000000000001e-01 1.0000000000000001e-01
        1.0000000000000001e-01 1.0000000000000001e-01
        1.0000000000000001e-01 1.0000000000000001e-01
        1.0000000000000001e-01 1.0000000000000001e-01
        1.0000000000000001e-01 1.0000000000000001e-01
        1.0000000000000001e-01 1.0000000000000001e-01
        1.0000000000000001e-01 1.0000000000000001e-01
        1.0000000000000001e-01 1.0000000000000001e-01
        1.0000000000000001e-01 1.0000000000000001e-01
        1.0000000000000001e-01 1.0000000000000001e-01
        1.0000000000000001e-01 1.0000000000000001e-01
        1.0000000000000001e-01 1.0000000000000001e-01
        1.0000000000000001e-01 1.0000000000000001e-01
        1.0000000000000001e-01 1.0000000000000001e-01
        1.0000000000000001e-01 1.0000000000000001e-01
        1.0000000000000001e-01 1.0000000000000001e-01
        1.0000000000000001e-01 1.0000000000000001e-01
        1.0000000000000001e-01 1.0000000000000001e-01
        1.0000000000000001e-01 1.0000000000000001e-01
        1.0000000000000001e-01 1.0000000000000001e-01
        1.0000000000000001e-01 1.0000000000000001e-01
        1.0000000000000001e-01 1.0000000000000001e-01
        1.0000000000000001e-01 1.0000000000000001e-01
        1.0000000000000001e-01 1.0000000000000001e-01
        1.0000000000000001e-01 1.0000000000000001e-01
        1.0000000000000001e-01 1.0000000000000001e-01
        1.0000000000000001e-01 1.0000000000000001e-01
        1.0000000000000001e-01 1.0000000000000001e-01
        1.0000000000000001e-01 1.0000000000000001e-01
        1.0000000000000001e-01 1.0000000000000001e-01
        1.0000000000000001e-01 1.0000000000000001e-01
        1.0000000000000001e-01 1.0000000000000001e-01
        1.0000000000000001e-01 1.0000000000000001e-01
        1.0000000000000001e-01 1.0000000000000001e-01
        1.0000000000000001e-01 1.0000000000000001e-01
        1.0000000000000001e-01 1.0000000000000001e-01
        1.0000000000000001e-01 1.0000000000000001e-01
        1.0000000000000001e-01 1.0000000000000001e-01
        1.0000000000000001e-01 1.0000000000000001e-01
        1.0000000000000001e-01 1.0000000000000001e-01
        1.0000000000000001e-01 1.0000000000000001e-01
        1.0000000000000001e-01 1.0000000000000001e-01
        1.0000000000000001e-01 1.0000000000000001e-01
        1.0000000000000001e-01 1.0000000000000001e-01
        1.0000000000000001e-01 1.0000000000000001e-01
        1.0000000000000001e-01 1.0000000000000001e-01
        1.0000000000000001e-01 1.0000000000000001e-01
        1.0000000000000001e-01 1.0000000000000001e-01
        1.0000000000000001e-01 1.0000000000000001e-01
        1.0000000000000001e-01 1.0000000000000001e-01
        1.0000000000000001e-01 1.0000000000000001e-01
        1.0000000000000001e-01 1.0000000000000001e-01
        1.0000000000000001e-01 1.0000000000000001e-01
        1.0000000000000001e-01 1.0000000000000001e-01
        1.0000000000000001e-01 1.0000000000000001e-01
        1.0000000000000001e-01 1.0000000000000001e-01
        1.0000000000000001e-01 1.0000000000000001e-01
        1.0000000000000001e-01 1.0000000000000001e-01
        1.0000000000000001e-01 1.0000000000000001e-01
        1.0000000000000001e-01 1.0000000000000001e-01
        1.0000000000000001e-01 1.0000000000000001e-01
        1.0000000000000001e-01 1.0000000000000001e-01
        1.0000000000000001e-01 1.0000000000000001e-01
        1.0000000000000001e-01 1.0000000000000001e-01
        1.0000000000000001e-01 1.0000000000000001e-01
        1.0000000000000001e-01 1.0000000000000001e-01
        1.0000000000000001e-01 1.0000000000000001e-01
        1.0000000000000001e-01 1.0000000000000001e-01
        1.0000000000000001e-01 1.0000000000000001e-01
        1.0000000000000001e-01 1.0000000000000001e-01
        1.0000000000000001e-01 1.0000000000000001e-01
        1.0000000000000001e-01 1.0000000000000001e-01
        1.0000000000000001e-01 1.0000000000000001e-01
        1.0000000000000001e-01 1.0000000000000001e-01
        1.0000000000000001e-01 1.0000000000000001e-01
        1.0000000000000001e-01 1.0000000000000001e-01
        1.0000000000000001e-01 1.0000000000000001e-01
        1.0000000000000001e-01 1.0000000000000001e-01
        1.0000000000000001e-01 1.0000000000000001e-01
        1.0000000000000001e-01 1.0000000000000001e-01
        1.0000000000000001e-01 1.0000000000000001e-01
        1.0000000000000001e-01 1.0000000000000001e-01
        1.0000000000000001e-01 1.0000000000000001e-01
        1.0000000000000001e-01 1.0000000000000001e-01
        1.0000000000000001e-01 1.0000000000000001e-01
        1.0000000000000001e-01 1.0000000000000001e-01
        1.0000000000000001e-01 1.0000000000000001e-01
        1.0000000000000001e-01 1.0000000000000001e-01
        1.0000000000000001e-01 1.0000000000000001e-01
        1.0000000000000001e-01 1.0000000000000001e-01
        1.0000000000000001e-01 1.0000000000000001e-01
        1.0000000000000001e-01 1.0000000000000001e-01
        1.0000000000000001e-01 1.0000000000000001e-01
        1.0000000000000001e-01 1.0000000000000001e-01
        1.0000000000000001e-01 1.0000000000000001e-01
        1.0000000000000001e-01 1.0000000000000001e-01
        1.0000000000000001e-01 1.0000000000000001e-01
        1.0000000000000001e-01 1.0000000000000001e-01
        1.0000000000000001e-01 1.0000000000000001e-01
        1.0000000000000001e-01 1.0000000000000001e-01
        1.0000000000000001e-01 1.0000000000000001e-01
        1.0000000000000001e-01 1.0000000000000001e-01
        1.0000000000000001e-01 1.0000000000000001e-01
        1.0000000000000001e-01 1.0000000000000001e-01
        1.0000000000000001e-01 1.0000000000000001e-01
        1.0000000000000001e-01 1.0000000000000001e-01
        1.0000000000000001e-01 1.0000000000000001e-01
        1.0000000000000001e-01 1.0000000000000001e-01
        1.0000000000000001e-01 1.0000000000000001e-01
        1.0000000000000001e-01 1.0000000000000001e-01
        1.0000000000000001e-01 1.0000000000000001e-01
        1.0000000000000001e-01 1.0000000000000001e-01
        1.0000000000000001e-01 1.0000000000000001e-01
        1.0000000000000001e-01 1.0000000000000001e-01
        1.0000000000000001e-01 1.0000000000000001e-01
        1.0000000000000001e-01 1.0000000000000001e-01
        1.0000000000000001e-01 1.0000000000000001e-01
        1.0000000000000001e-01 1.0000000000000001e-01
        1.0000000000000001e-01 1.0000000000000001e-01
        1.0000000000000001e-01 1.0000000000000001e-01
        1.0000000000000001e-01 1.0000000000000001e-01
        1.0000000000000001e-01 1.0000000000000001e-01
        1.0000000000000001e-01 1.0000000000000001e-01
        1.0000000000000001e-01 1.0000000000000001e-01
        1.0000000000000001e-01 1.0000000000000001e-01
        1.0000000000000001e-01 1.0000000000000001e-01
        1.0000000000000001e-01 1.0000000000000001e-01
        1.0000000000000001e-01 1.0000000000000001e-01
        1.0000000000000001e-01 1.0000000000000001e-01
        1.0000000000000001e-01 1.0000000000000001e-01
        1.0000000000000001e-01 1.0000000000000001e-01
        1.0000000000000001e-01 1.0000000000000001e-01
        1.0000000000000001e-01 1.0000000000000001e-01
        1.0000000000000001e-01 1.0000000000000001e-01
        1.0000000000000001e-01 1.0000000000000001e-01
        1.0000000000000001e-01 1.0000000000000001e-01
        1.0000000000000001e-01 1.0000000000000001e-01
        1.0000000000000001e-01 1.0000000000000001e-01
        1.0000000000000001e-01 1.0000000000000001e-01
        1.0000000000000001e-01 1.0000000000000001e-01
        1.0000000000000001e-01 1.0000000000000001e-01
        1.0000000000000001e-01 1.0000000000000001e-01
        1.0000000000000001e-01 1.0000000000000001e-01
        1.0000000000000001e-01 1.0000000000000001e-01
        1.0000000000000001e-01 1.0000000000000001e-01
        1.0000000000000001e-01 1.0000000000000001e-01
        1.0000000000000001e-01 1.0000000000000001e-01
        1.0000000000000001e-01 1.0000000000000001e-01
        1.0000000000000001e-01 1.0000000000000001e-01
        1.0000000000000001e-01 1.0000000000000001e-01
        1.0000000000000001e-01 1.0000000000000001e-01
        1.0000000000000001e-01 1.0000000000000001e-01
        1.0000000000000001e-01 1.0000000000000001e-01
        1.0000000000000001e-01 1.0000000000000001e-01
        1.0000000000000001e-01 1.0000000000000001e-01
        1.0000000000000001e-01 1.0000000000000001e-01
        1.0000000000000001e-01 1.0000000000000001e-01
        1.0000000000000001e-01 1.0000000000000001e-01
        1.0000000000000001e-01 1.0000000000000001e-01
        1.0000000000000001e-01 1.0000000000000001e-01
        1.0000000000000001e-01 1.0000000000000001e-01
        1.0000000000000001e-01 1.0000000000000001e-01
        1.0000000000000001e-01 1.0000000000000001e-01
        1.0000000000000001e-01 1.0000000000000001e-01
        1.0000000000000001e-01 1.0000000000000001e-01
        1.0000000000000001e-01 1.0000000000000001e-01
        1.0000000000000001e-01 1.0000000000000001e-01
        1.0000000000000001e-01 1.0000000000000001e-01
        1.0000000000000001e-01 1.0000000000000001e-01
        1.0000000000000001e-01 1.0000000000000001e-01
        1.0000000000000001e-01 1.0000000000000001e-01
        1.0000000000000001e-01 1.0000000000000001e-01
        1.0000000000000001e-01 1.0000000000000001e-01
        1.0000000000000001e-01 1.0000000000000001e-01
        1.0000000000000001e-01 1.0000000000000001e-01
        1.0000000000000001e-01 1.0000000000000001e-01
        1.0000000000000001e-01 1.0000000000000001e-01
        1.0000000000000001e-01 1.0000000000000001e-01
        1.0000000000000001e-01 1.0000000000000001e-01
        1.0000000000000001e-01 1.0000000000000001e-01
        1.0000000000000001e-01 1.0000000000000001e-01
        1.0000000000000001e-01 1.0000000000000001e-01
        1.0000000000000001e-01 1.0000000000000001e-01
        1.0000000000000001e-01 1.0000000000000001e-01
        1.0000000000000001e-01 1.0000000000000001e-01
        1.0000000000000001e-01 1.0000000000000001e-01
        1.0000000000000001e-01 1.0000000000000001e-01
        1.0000000000000001e-01 1.0000000000000001e-01
        1.0000000000000001e-01 1.0000000000000001e-01
        1.0000000000000001e-01 1.0000000000000001e-01
        1.0000000000000001e-01 1.0000000000000001e-01
        1.0000000000000001e-01 1.0000000000000001e-01
        1.0000000000000001e-01 1.0000000000000001e-01
        1.0000000000000001e-01 1.0000000000000001e-01
        1.0000000000000001e-01 1.0000000000000001e-01
        1.0000000000000001e-01 1.0000000000000001e-01
        1.0000000000000001e-01 1.0000000000000001e-01
        1.0000000000000001e-01 1.0000000000000001e-01
        1.0000000000000001e-01 1.0000000000000001e-01
        1.0000000000000001e-01 1.0000000000000001e-01
        1.0000000000000001e-01 1.0000000000000001e-01
        1.0000000000000001e-01 1.0000000000000001e-01
        1.0000000000000001e-01 1.0000000000000001e-01
        1.0000000000000001e-01 1.0000000000000001e-01
        1.0000000000000001e-01 1.0000000000000001e-01
        1.0000000000000001e-01 1.0000000000000001e-01
        1.0000000000000001e-01 1.0000000000000001e-01
        1.0000000000000001e-01 1.0000000000000001e-01
        1.0000000000000001e-01 1.0000000000000001e-01
        1.0000000000000001e-01 1.0000000000000001e-01
        1.0000000000000001e-01 1.0000000000000001e-01
        1.0000000000000001e-01 1.0000000000000001e-01
        1.0000000000000001e-01 1.0000000000000001e-01
        1.0000000000000001e-01 1.0000000000000001e-01
        1.0000000000000001e-01 1.0000000000000001e-01
        1.0000000000000001e-01 1.0000000000000001e-01
        1.0000000000000001e-01 1.0000000000000001e-01
        1.0000000000000001e-01 1.0000000000000001e-01
        1.0000000000000001e-01 1.0000000000000001e-01
        1.0000000000000001e-01 1.0000000000000001e-01
        1.0000000000000001e-01 1.0000000000000001e-01
        1.0000000000000001e-01 1.0000000000000001e-01
        1.0000000000000001e-01 1.0000000000000001e-01
        1.0000000000000001e-01 1.0000000000000001e-01
        1.0000000000000001e-01 1.0000000000000001e-01
        1.0000000000000001e-01 1.0000000000000001e-01
        1.0000000000000001e-01 1.0000000000000001e-01
        1.0000000000000001e-01 1.0000000000000001e-01
        1.0000000000000001e-01 1.0000000000000001e-01
        1.0000000000000001e-01 1.0000000000000001e-01
        1.0000000000000001e-01 1.0000000000000001e-01
        1.0000000000000001e-01 1.0000000000000001e-01
        1.0000000000000001e-01 1.0000000000000001e-01
        1.0000000000000001e-01 1.0000000000000001e-01
        1.0000000000000001e-01 1.0000000000000001e-01
        1.0000000000000001e-01 1.0000000000000001e-01
        1.0000000000000001e-01 1.0000000000000001e-01
        1.0000000000000001e-01 1.0000000000000001e-01
        1.0000000000000001e-01 1.0000000000000001e-01
        1.0000000000000001e-01 1.0000000000000001e-01
        1.0000000000000001e-01 1.0000000000000001e-01
        1.0000000000000001e-01 1.0000000000000001e-01
        1.0000000000000001e-01 1.0000000000000001e-01
        1.0000000000000001e-01 1.0000000000000001e-01
        1.0000000000000001e-01 1.0000000000000001e-01
        1.0000000000000001e-01 1.0000000000000001e-01
        1.0000000000000001e-01 1.0000000000000001e-01
        1.0000000000000001e-01 1.0000000000000001e-01
        1.0000000000000001e-01 1.0000000000000001e-01
        1.0000000000000001e-01 1.0000000000000001e-01
        1.0000000000000001e-01 1.0000000000000001e-01
        1.0000000000000001e-01 1.0000000000000001e-01
        1.0000000000000001e-01 1.0000000000000001e-01
        1.0000000000000001e-01 1.0000000000000001e-01
        1.0000000000000001e-01 1.0000000000000001e-01
        1.0000000000000001e-01 1.0000000000000001e-01
        1.0000000000000001e-01 1.0000000000000001e-01
        1.0000000000000001e-01 1.0000000000000001e-01
        1.0000000000000001e-01 1.0000000000000001e-01
        1.0000000000000001e-01 1.0000000000000001e-01
        1.0000000000000001e-01 1.0000000000000001e-01
        1.0000000000000001e-01 1.0000000000000001e-01
        1.0000000000000001e-01 1.0000000000000001e-01
        1.0000000000000001e-01 1.0000000000000001e-01
        1.0000000000000001e-01 1.0000000000000001e-01
        1.0000000000000001e-01 1.0000000000000001e-01
        1.0000000000000001e-01 1.0000000000000001e-01
        1.0000000000000001e-01 1.0000000000000001e-01
        1.0000000000000001e-01 1.0000000000000001e-01
        1.0000000000000001e-01 1.0000000000000001e-01
        1.0000000000000001e-01 1.0000000000000001e-01
        1.0000000000000001e-01 1.0000000000000001e-01
        1.0000000000000001e-01 1.0000000000000001e-01
        1.0000000000000001e-01 1.0000000000000001e-01
        1.0000000000000001e-01 1.0000000000000001e-01
        1.0000000000000001e-01 1.0000000000000001e-01
        1.0000000000000001e-01 1.0000000000000001e-01
        1.0000000000000001e-01 1.0000000000000001e-01
        1.0000000000000001e-01 1.0000000000000001e-01
        1.0000000000000001e-01 1.0000000000000001e-01
        1.0000000000000001e-01 1.0000000000000001e-01
        1.0000000000000001e-01 1.0000000000000001e-01
        1.0000000000000001e-01 1.0000000000000001e-01
        1.0000000000000001e-01 1.0000000000000001e-01
        1.0000000000000001e-01 1.0000000000000001e-01
        1.0000000000000001e-01 1.0000000000000001e-01
        1.0000000000000001e-01 1.0000000000000001e-01
        1.0000000000000001e-01 1.0000000000000001e-01
        1.0000000000000001e-01 1.0000000000000001e-01
        1.0000000000000001e-01 1.0000000000000001e-01
        1.0000000000000001e-01 1.0000000000000001e-01
        1.0000000000000001e-01 1.0000000000000001e-01
        1.0000000000000001e-01 1.0000000000000001e-01
        1.0000000000000001e-01 1.0000000000000001e-01
        1.0000000000000001e-01 1.0000000000000001e-01
        1.0000000000000001e-01 1.0000000000000001e-01
        1.0000000000000001e-01 1.0000000000000001e-01
        1.0000000000000001e-01 1.0000000000000001e-01
        1.0000000000000001e-01 1.0000000000000001e-01
        1.0000000000000001e-01 1.0000000000000001e-01
        1.0000000000000001e-01 1.0000000000000001e-01
        1.0000000000000001e-01 1.0000000000000001e-01
        1.0000000000000001e-01 1.0000000000000001e-01
        1.0000000000000001e-01 1.0000000000000001e-01
        1.0000000000000001e-01 1.0000000000000001e-01
        1.0000000000000001e-01 1.0000000000000001e-01
        1.0000000000000001e-01 1.0000000000000001e-01
        1.0000000000000001e-01 1.0000000000000001e-01
        1.0000000000000001e-01 1.0000000000000001e-01
        1.0000000000000001e-01 1.0000000000000001e-01
        1.0000000000000001e-01 1.0000000000000001e-01
        1.0000000000000001e-01 1.0000000000000001e-01
        1.0000000000000001e-01 1.0000000000000001e-01
        1.0000000000000001e-01 1.0000000000000001e-01
        1.0000000000000001e-01 1.0000000000000001e-01
        1.0000000000000001e-01 1.0000000000000001e-01
        1.0000000000000001e-01 1.0000000000000001e-01
        1.0000000000000001e-01 1.0000000000000001e-01
        1.0000000000000001e-01 1.0000000000000001e-01
        1.0000000000000001e-01 1.0000000000000001e-01
        1.0000000000000001e-01 1.0000000000000001e-01
        1.0000000000000001e-01 1.0000000000000001e-01
        1.0000000000000001e-01 1.0000000000000001e-01
        1.0000000000000001e-01 1.0000000000000001e-01
        1.0000000000000001e-01 1.0000000000000001e-01
        1.0000000000000001e-01 1.0000000000000001e-01
        1.0000000000000001e-01 1.0000000000000001e-01
        1.0000000000000001e-01 1.0000000000000001e-01
        1.0000000000000001e-01 1.0000000000000001e-01
        1.0000000000000001e-01 1.0000000000000001e-01
        1.0000000000000001e-01 1.0000000000000001e-01
        1.0000000000000001e-01 1.0000000000000001e-01
        1.0000000000000001e-01 1.0000000000000001e-01
        1.0000000000000001e-01 1.0000000000000001e-01
        1.0000000000000001e-01 1.0000000000000001e-01
        1.0000000000000001e-01 1.0000000000000001e-01
        1.0000000000000001e-01 1.0000000000000001e-01
        1.0000000000000001e-01 1.0000000000000001e-01
        1.0000000000000001e-01 1.0000000000000001e-01
        1.0000000000000001e-01 1.0000000000000001e-01
        1.0000000000000001e-01 1.0000000000000001e-01
        1.0000000000000001e-01 1.0000000000000001e-01
        1.0000000000000001e-01 1.0000000000000001e-01
        1.0000000000000001e-01 1.0000000000000001e-01
        1.0000000000000001e-01 1.0000000000000001e-01
        1.0000000000000001e-01 1.0000000000000001e-01
        1.0000000000000001e-01 1.0000000000000001e-01
        1.0000000000000001e-01 1.0000000000000001e-01
        1.0000000000000001e-01 1.0000000000000001e-01
        1.0000000000000001e-01 1.0000000000000001e-01
        1.0000000000000001e-01 1.0000000000000001e-01
        1.0000000000000001e-01 1.0000000000000001e-01
        1.0000000000000001e-01 1.0000000000000001e-01
        1.0000000000000001e-01 1.0000000000000001e-01
        1.0000000000000001e-01 1.0000000000000001e-01
        1.0000000000000001e-01 1.0000000000000001e-01
        1.0000000000000001e-01 1.0000000000000001e-01
        1.0000000000000001e-01 1.0000000000000001e-01
        1.0000000000000001e-01 1.0000000000000001e-01
        1.0000000000000001e-01 1.0000000000000001e-01
        1.0000000000000001e-01 1.0000000000000001e-01
        1.0000000000000001e-01 1.0000000000000001e-01
        1.0000000000000001e-01 1.0000000000000001e-01
        1.0000000000000001e-01 1.0000000000000001e-01
        1.0000000000000001e-01 1.0000000000000001e-01
        1.0000000000000001e-01 1.0000000000000001e-01
        1.0000000000000001e-01 1.0000000000000001e-01
        1.0000000000000001e-01 1.0000000000000001e-01
        1.0000000000000001e-01 1.0000000000000001e-01
        1.0000000000000001e-01 1.0000000000000001e-01
        1.0000000000000001e-01 1.0000000000000001e-01
        1.0000000000000001e-01 1.0000000000000001e-01
        1.0000000000000001e-01 1.0000000000000001e-01
        1.0000000000000001e-01 1.0000000000000001e-01
        1.0000000000000001e-01 1.0000000000000001e-01
        1.0000000000000001e-01 1.0000000000000001e-01
        1.0000000000000001e-01 1.0000000000000001e-01
        1.0000000000000001e-01 1.0000000000000001e-01
        1.0000000000000001e-01 1.0000000000000001e-01
        1.0000000000000001e-01 1.0000000000000001e-01
        1.0000000000000001e-01 1.0000000000000001e-01
        1.0000000000000001e-01 1.0000000000000001e-01
        1.0000000000000001e-01 1.0000000000000001e-01
        1.0000000000000001e-01 1.0000000000000001e-01
        1.0000000000000001e-01 1.0000000000000001e-01
        1.0000000000000001e-01 1.0000000000000001e-01
        1.0000000000000001e-01 1.0000000000000001e-01
        1.0000000000000001e-01 1.0000000000000001e-01
        1.0000000000000001e-01 1.0000000000000001e-01
        1.0000000000000001e-01 1.0000000000000001e-01
        1.0000000000000001e-01 1.0000000000000001e-01
        1.0000000000000001e-01 1.0000000000000001e-01
        1.0000000000000001e-01 1.0000000000000001e-01
        1.0000000000000001e-01 1.0000000000000001e-01
        1.0000000000000001e-01 1.0000000000000001e-01
        1.0000000000000001e-01 1.0000000000000001e-01
        1.0000000000000001e-01 1.0000000000000001e-01
        1.0000000000000001e-01 1.0000000000000001e-01
        1.0000000000000001e-01 1.0000000000000001e-01
        1.0000000000000001e-01 1.0000000000000001e-01
        1.0000000000000001e-01 1.0000000000000001e-01
        1.0000000000000001e-01 1.0000000000000001e-01
        1.0000000000000001e-01 1.0000000000000001e-01
        1.0000000000000001e-01 1.0000000000000001e-01
        1.0000000000000001e-01 1.0000000000000001e-01
        1.0000000000000001e-01 1.0000000000000001e-01
        1.0000000000000001e-01 1.0000000000000001e-01
        1.0000000000000001e-01 1.0000000000000001e-01
        1.0000000000000001e-01 1.0000000000000001e-01
        1.0000000000000001e-01 1.0000000000000001e-01
        -1.0000000000000001e-01 -1.0000000000000001e-01
        -1.0000000000000001e-01 -1.0000000000000001e-01
        -1.0000000000000001e-01 -1.0000000000000001e-01
        -1.0000000000000001e-01 -1.0000000000000001e-01
        -1.0000000000000001e-01 -1.0000000000000001e-01
        -1.0000000000000001e-01 -1.0000000000000001e-01
        -1.0000000000000001e-01 -1.0000000000000001e-01
        -1.0000000000000001e-01 -1.0000000000000001e-01
        -1.0000000000000001e-01 -1.0000000000000001e-01
        -1.0000000000000001e-01 -1.0000000000000001e-01
        -1.0000000000000001e-01 -1.0000000000000001e-01
        -1.0000000000000001e-01 -1.0000000000000001e-01
        -1.0000000000000001e-01 -1.0000000000000001e-01
        -1.0000000000000001e-01 -1.0000000000000001e-01
        -1.0000000000000001e-01 -1.0000000000000001e-01
        -1.0000000000000001e-01 -1.0000000000000001e-01
        -1.0000000000000001e-01 -1.0000000000000001e-01
        -1.0000000000000001e-01 -1.0000000000000001e-01
        -1.0000000000000001e-01 -1.0000000000000001e-01
        -1.0000000000000001e-01 -1.0000000000000001e-01
        -1.0000000000000001e-01 -1.0000000000000001e-01
        -1.0000000000000001e-01 -1.0000000000000001e-01
        -1.0000000000000001e-01 -1.0000000000000001e-01
        -1.0000000000000001e-01 -1.0000000000000001e-01
        -1.0000000000000001e-01 -1.0000000000000001e-01
        -1.0000000000000001e-01 -1.0000000000000001e-01
        -1.0000000000000001e-01 -1.0000000000000001e-01
        -1.0000000000000001e-01 -1.0000000000000001e-01
        -1.0000000000000001e-01 -1.0000000000000001e-01
        -1.0000000000000001e-01 -1.0000000000000001e-01
        -1.0000000000000001e-01 -1.0000000000000001e-01
        -1.0000000000000001e-01 -1.0000000000000001e-01
        -1.0000000000000001e-01 -1.0000000000000001e-01
        -1.0000000000000001e-01 -1.0000000000000001e-01
        -1.0000000000000001e-01 -1.0000000000000001e-01
        -1.0000000000000001e-01 -1.0000000000000001e-01
        -1.0000000000000001e-01 -1.0000000000000001e-01
        -1.0000000000000001e-01 -1.0000000000000001e-01
        -1.0000000000000001e-01 -1.0000000000000001e-01
        -1.0000000000000001e-01 -1.0000000000000001e-01
        -1.0000000000000001e-01 -1.0000000000000001e-01
        -1.0000000000000001e-01 -1.0000000000000001e-01
        -1.0000000000000001e-01 -1.0000000000000001e-01
        -1.0000000000000001e-01 -1.0000000000000001e-01
        -1.0000000000000001e-01 -1.0000000000000001e-01
        -1.0000000000000001e-01 -1.0000000000000001e-01
        -1.0000000000000001e-01 -1.0000000000000001e-01
        -1.0000000000000001e-01 -1.0000000000000001e-01
        -1.0000000000000001e-01 -1.0000000000000001e-01
        -1.0000000000000001e-01 -1.0000000000000001e-01
        -1.0000000000000001e-01 -1.0000000000000001e-01
        -1.0000000000000001e-01 -1.0000000000000001e-01
        -1.0000000000000001e-01 -1.0000000000000001e-01
        -1.0000000000000001e-01 -1.0000000000000001e-01
        -1.0000000000000001e-01 -1.0000000000000001e-01
        -1.0000000000000001e-01 -1.0000000000000001e-01
        -1.0000000000000001e-01 -1.0000000000000001e-01
        -1.0000000000000001e-01 -1.0000000000000001e-01
        -1.0000000000000001e-01 -1.0000000000000001e-01
        -1.0000000000000001e-01 -1.0000000000000001e-01
        -1.0000000000000001e-01 -1.0000000000000001e-01
        -1.0000000000000001e-01 -1.0000000000000001e-01
        -1.0000000000000001e-01 -1.0000000000000001e-01
        -1.0000000000000001e-01 -1.0000000000000001e-01
        -1.0000000000000001e-01 -1.0000000000000001e-01
        -1.0000000000000001e-01 -1.0000000000000001e-01
        -1.0000000000000001e-01 -1.0000000000000001e-01
        -1.0000000000000001e-01 -1.0000000000000001e-01
        -1.0000000000000001e-01 -1.0000000000000001e-01
        -1.0000000000000001e-01 -1.0000000000000001e-01
        -1.0000000000000001e-01 -1.0000000000000001e-01
        -1.0000000000000001e-01 -1.0000000000000001e-01
        -1.0000000000000001e-01 -1.0000000000000001e-01
        -1.0000000000000001e-01 -1.0000000000000001e-01
        -1.0000000000000001e-01 -1.0000000000000001e-01
        -1.0000000000000001e-01 -1.0000000000000001e-01
        -1.0000000000000001e-01 -1.0000000000000001e-01
        -1.0000000000000001e-01 -1.0000000000000001e-01
        -1.0000000000000001e-01 -1.0000000000000001e-01
        -1.0000000000000001e-01 -1.0000000000000001e-01
        -1.0000000000000001e-01 -1.0000000000000001e-01
        -1.0000000000000001e-01 -1.0000000000000001e-01
        -1.0000000000000001e-01 -1.0000000000000001e-01
        -1.0000000000000001e-01 -1.0000000000000001e-01
        -1.0000000000000001e-01 -1.0000000000000001e-01
        -1.0000000000000001e-01 -1.0000000000000001e-01
        -1.0000000000000001e-01 -1.0000000000000001e-01
        -1.0000000000000001e-01 -1.0000000000000001e-01
        -1.0000000000000001e-01 -1.0000000000000001e-01
        -1.0000000000000001e-01 -1.0000000000000001e-01
        -1.0000000000000001e-01 -1.0000000000000001e-01
        -1.0000000000000001e-01 -1.0000000000000001e-01
        -1.0000000000000001e-01 -1.0000000000000001e-01
        -1.0000000000000001e-01 -1.0000000000000001e-01
        -1.0000000000000001e-01 -1.0000000000000001e-01
        -1.0000000000000001e-01 -1.0000000000000001e-01
        -1.0000000000000001e-01 -1.0000000000000001e-01
        -1.0000000000000001e-01 -1.0000000000000001e-01
        -1.0000000000000001e-01 -1.0000000000000001e-01
        -1.0000000000000001e-01 -1.0000000000000001e-01
        -1.0000000000000001e-01 -1.0000000000000001e-01
        -1.0000000000000001e-01 -1.0000000000000001e-01
        -1.0000000000000001e-01 -1.0000000000000001e-01
        -1.0000000000000001e-01 -1.0000000000000001e-01
        -1.0000000000000001e-01 -1.0000000000000001e-01
        -1.0000000000000001e-01 -1.0000000000000001e-01
        -1.0000000000000001e-01 -1.0000000000000001e-01
        -1.0000000000000001e-01 -1.0000000000000001e-01
        -1.0000000000000001e-01 -1.0000000000000001e-01
        -1.0000000000000001e-01 -1.0000000000000001e-01
        -1.0000000000000001e-01 -1.0000000000000001e-01
        -1.0000000000000001e-01 -1.0000000000000001e-01
        -1.0000000000000001e-01 -1.0000000000000001e-01
        -1.0000000000000001e-01 -1.0000000000000001e-01
        -1.0000000000000001e-01 -1.0000000000000001e-01
        -1.0000000000000001e-01 -1.0000000000000001e-01
        -1.0000000000000001e-01 -1.0000000000000001e-01
        -1.0000000000000001e-01 -1.0000000000000001e-01
        -1.0000000000000001e-01 -1.0000000000000001e-01
        -1.0000000000000001e-01 -1.0000000000000001e-01
        -1.0000000000000001e-01 -1.0000000000000001e-01
        -1.0000000000000001e-01 -1.0000000000000001e-01
        -1.0000000000000001e-01 -1.0000000000000001e-01
        -1.0000000000000001e-01 -1.0000000000000001e-01
        -1.0000000000000001e-01 -1.0000000000000001e-01
        -1.0000000000000001e-01 -1.0000000000000001e-01
        -1.0000000000000001e-01 -1.0000000000000001e-01
