<?xml version="1.0"?>
<opencv_storage>
<opencv_ml_svm>
  <format>3</format>
  <svmType>C_SVC</svmType>
  <kernel>
    <type>RBF</type>
    <gamma>1.5000000000000001e-04</gamma></kernel>
  <C>1.0000000000000001e-01</C>
  <term_criteria><epsilon>1.1920928955078125e-07</epsilon>
    <iterations>1000</iterations></term_criteria>
  <var_count>3</var_count>
  <class_count>2</class_count>
  <class_labels type_id="opencv-matrix">
    <rows>2</rows>
    <cols>1</cols>
    <dt>i</dt>
    <data>
      -1 1</data></class_labels>
  <sv_total>184</sv_total>
  <support_vectors>
    <_>
      179. 170. 48.</_>
    <_>
      0. 170. 60.</_>
    <_>
      1. 178. 73.</_>
    <_>
      0. 167. 55.</_>
    <_>
      179. 167. 64.</_>
    <_>
      1. 170. 78.</_>
    <_>
      179. 165. 62.</_>
    <_>
      0. 163. 72.</_>
    <_>
      1. 168. 85.</_>
    <_>
      179. 173. 68.</_>
    <_>
      179. 168. 76.</_>
    <_>
      1. 169. 89.</_>
    <_>
      179. 177. 75.</_>
    <_>
      179. 179. 80.</_>
    <_>
      179. 174. 82.</_>
    <_>
      0. 180. 85.</_>
    <_>
      0. 180. 85.</_>
    <_>
      179. 181. 93.</_>
    <_>
      179. 179. 94.</_>
    <_>
      179. 139. 226.</_>
    <_>
      179. 152. 243.</_>
    <_>
      179. 161. 245.</_>
    <_>
      179. 160. 248.</_>
    <_>
      179. 160. 248.</_>
    <_>
      179. 164. 251.</_>
    <_>
      179. 159. 250.</_>
    <_>
      179. 162. 251.</_>
    <_>
      179. 159. 250.</_>
    <_>
      5. 103. 251.</_>
    <_>
      6. 108. 245.</_>
    <_>
      6. 106. 248.</_>
    <_>
      4. 103. 253.</_>
    <_>
      5. 191. 253.</_>
    <_>
      2. 195. 250.</_>
    <_>
      177. 215. 241.</_>
    <_>
      176. 222. 238.</_>
    <_>
      176. 220. 234.</_>
    <_>
      4. 197. 253.</_>
    <_>
      176. 222. 234.</_>
    <_>
      4. 205. 248.</_>
    <_>
      3. 210. 245.</_>
    <_>
      2. 214. 245.</_>
    <_>
      2. 220. 239.</_>
    <_>
      8. 234. 160.</_>
    <_>
      173. 237. 193.</_>
    <_>
      175. 239. 187.</_>
    <_>
      173. 237. 193.</_>
    <_>
      173. 241. 189.</_>
    <_>
      3. 247. 191.</_>
    <_>
      4. 247. 187.</_>
    <_>
      3. 248. 186.</_>
    <_>
      4. 247. 185.</_>
    <_>
      5. 247. 184.</_>
    <_>
      5. 254. 177.</_>
    <_>
      177. 154. 205.</_>
    <_>
      177. 153. 206.</_>
    <_>
      177. 153. 210.</_>
    <_>
      6. 138. 139.</_>
    <_>
      6. 133. 140.</_>
    <_>
      179. 148. 159.</_>
    <_>
      5. 128. 149.</_>
    <_>
      179. 147. 165.</_>
    <_>
      179. 141. 179.</_>
    <_>
      179. 147. 182.</_>
    <_>
      175. 240. 157.</_>
    <_>
      4. 94. 241.</_>
    <_>
      4. 98. 238.</_>
    <_>
      4. 102. 234.</_>
    <_>
      5. 100. 238.</_>
    <_>
      5. 103. 232.</_>
    <_>
      5. 105. 233.</_>
    <_>
      9. 129. 162.</_>
    <_>
      9. 130. 161.</_>
    <_>
      9. 130. 161.</_>
    <_>
      9. 130. 161.</_>
    <_>
      8. 128. 164.</_>
    <_>
      8. 129. 162.</_>
    <_>
      8. 127. 166.</_>
    <_>
      8. 127. 166.</_>
    <_>
      8. 127. 166.</_>
    <_>
      6. 106. 248.</_>
    <_>
      6. 108. 246.</_>
    <_>
      171. 214. 105.</_>
    <_>
      179. 151. 162.</_>
    <_>
      179. 146. 173.</_>
    <_>
      179. 144. 177.</_>
    <_>
      179. 152. 159.</_>
    <_>
      179. 155. 158.</_>
    <_>
      179. 152. 168.</_>
    <_>
      103. 49. 255.</_>
    <_>
      103. 49. 254.</_>
    <_>
      11. 57. 36.</_>
    <_>
      173. 8. 136.</_>
    <_>
      173. 26. 39.</_>
    <_>
      173. 20. 52.</_>
    <_>
      173. 21. 49.</_>
    <_>
      0. 0. 64.</_>
    <_>
      120. 8. 67.</_>
    <_>
      0. 0. 62.</_>
    <_>
      0. 0. 62.</_>
    <_>
      120. 7. 69.</_>
    <_>
      75. 7. 71.</_>
    <_>
      75. 7. 71.</_>
    <_>
      169. 87. 50.</_>
    <_>
      82. 58. 229.</_>
    <_>
      176. 74. 86.</_>
    <_>
      173. 4. 242.</_>
    <_>
      173. 4. 237.</_>
    <_>
      80. 6. 251.</_>
    <_>
      173. 4. 241.</_>
    <_>
      6. 5. 236.</_>
    <_>
      0. 0. 245.</_>
    <_>
      70. 6. 251.</_>
    <_>
      173. 4. 241.</_>
    <_>
      70. 6. 250.</_>
    <_>
      176. 86. 86.</_>
    <_>
      170. 7. 235.</_>
    <_>
      0. 0. 249.</_>
    <_>
      175. 84. 88.</_>
    <_>
      0. 51. 30.</_>
    <_>
      0. 0. 57.</_>
    <_>
      165. 9. 55.</_>
    <_>
      101. 49. 253.</_>
    <_>
      178. 85. 87.</_>
    <_>
      173. 4. 228.</_>
    <_>
      174. 118. 80.</_>
    <_>
      170. 88. 93.</_>
    <_>
      172. 89. 95.</_>
    <_>
      172. 100. 84.</_>
    <_>
      172. 77. 100.</_>
    <_>
      0. 0. 232.</_>
    <_>
      11. 98. 73.</_>
    <_>
      8. 80. 83.</_>
    <_>
      177. 13. 174.</_>
    <_>
      0. 0. 228.</_>
    <_>
      5. 25. 173.</_>
    <_>
      5. 16. 209.</_>
    <_>
      3. 12. 225.</_>
    <_>
      24. 5. 243.</_>
    <_>
      0. 7. 235.</_>
    <_>
      3. 64. 44.</_>
    <_>
      7. 98. 83.</_>
    <_>
      6. 85. 87.</_>
    <_>
      6. 66. 101.</_>
    <_>
      5. 89. 86.</_>
    <_>
      4. 71. 100.</_>
    <_>
      4. 78. 95.</_>
    <_>
      5. 43. 138.</_>
    <_>
      3. 13. 209.</_>
    <_>
      165. 3. 155.</_>
    <_>
      165. 3. 150.</_>
    <_>
      133. 88. 203.</_>
    <_>
      135. 90. 199.</_>
    <_>
      135. 90. 199.</_>
    <_>
      134. 92. 188.</_>
    <_>
      131. 93. 181.</_>
    <_>
      125. 94. 163.</_>
    <_>
      97. 159. 193.</_>
    <_>
      96. 162. 194.</_>
    <_>
      96. 167. 197.</_>
    <_>
      96. 163. 197.</_>
    <_>
      96. 162. 194.</_>
    <_>
      101. 163. 221.</_>
    <_>
      96. 162. 194.</_>
    <_>
      102. 162. 224.</_>
    <_>
      96. 162. 194.</_>
    <_>
      96. 162. 194.</_>
    <_>
      102. 162. 224.</_>
    <_>
      101. 164. 221.</_>
    <_>
      96. 162. 194.</_>
    <_>
      103. 158. 225.</_>
    <_>
      102. 162. 224.</_>
    <_>
      96. 163. 193.</_>
    <_>
      102. 162. 224.</_>
    <_>
      102. 162. 224.</_>
    <_>
      97. 162. 194.</_>
    <_>
      102. 162. 224.</_>
    <_>
      101. 164. 222.</_>
    <_>
      102. 162. 224.</_>
    <_>
      12. 39. 151.</_>
    <_>
      15. 39. 156.</_>
    <_>
      15. 39. 156.</_>
    <_>
      19. 40. 154.</_>
    <_>
      22. 43. 148.</_></support_vectors>
  <decision_functions>
    <_>
      <sv_count>184</sv_count>
      <rho>-4.8312722146866709e-02</rho>
      <alpha>
        1.0000000000000001e-01 1.0000000000000001e-01
        1.0000000000000001e-01 9.0122126505466221e-02
        1.0000000000000001e-01 9.7316796400577679e-02
        1.0000000000000001e-01 1.5870131981942547e-02
        1.0000000000000001e-01 1.0000000000000001e-01
        1.0000000000000001e-01 3.1469790120421469e-02
        1.0000000000000001e-01 8.3564869008923237e-02
        1.0000000000000001e-01 7.6120360729656986e-02
        2.2853565780218053e-02 1.0000000000000001e-01
        1.0000000000000001e-01 1.1646322025293424e-02
        1.0000000000000001e-01 1.0000000000000001e-01
        1.0000000000000001e-01 1.0000000000000001e-01
        1.0000000000000001e-01 5.5930302049991026e-02
        1.0000000000000001e-01 8.4319604702275452e-02
        1.0000000000000001e-01 1.0000000000000001e-01
        1.0000000000000001e-01 1.0000000000000001e-01
        1.0000000000000001e-01 4.8026123012043793e-02
        1.0000000000000001e-01 1.0000000000000001e-01
        1.0000000000000001e-01 1.0000000000000001e-01
        1.0000000000000001e-01 1.0000000000000001e-01
        1.0000000000000001e-01 1.0000000000000001e-01
        1.0000000000000001e-01 1.0000000000000001e-01
        6.1400227211502761e-02 4.8236089303688695e-02
        1.0000000000000001e-01 1.0000000000000001e-01
        1.0000000000000001e-01 1.0000000000000001e-01
        1.0000000000000001e-01 1.0000000000000001e-01
        1.0000000000000001e-01 1.0000000000000001e-01
        1.0000000000000001e-01 1.0000000000000001e-01
        1.0000000000000001e-01 1.0000000000000001e-01
        9.4301388872560898e-02 3.5499321106749131e-02
        8.4100749185310228e-02 1.0000000000000001e-01
        8.4748659674595564e-02 1.0000000000000001e-01
        1.0000000000000001e-01 1.0000000000000001e-01
        1.0000000000000001e-01 1.0000000000000001e-01
        6.4136463092876655e-02 1.0000000000000001e-01
        1.0000000000000001e-01 1.0000000000000001e-01
        1.0000000000000001e-01 6.9338862570265142e-02
        1.0000000000000001e-01 1.0000000000000001e-01
        1.0000000000000001e-01 1.0000000000000001e-01
        1.0000000000000001e-01 1.0000000000000001e-01
        1.0000000000000001e-01 1.0000000000000001e-01
        1.0000000000000001e-01 1.0000000000000001e-01
        1.0000000000000001e-01 1.0000000000000001e-01
        1.0000000000000001e-01 1.0000000000000001e-01
        1.0000000000000001e-01 1.0000000000000001e-01
        1.0000000000000001e-01 1.0000000000000001e-01
        1.0000000000000001e-01 1.0000000000000001e-01
        5.5956001811113439e-03 -1.0000000000000001e-01
        -1.0000000000000001e-01 -1.0000000000000001e-01
        -1.0000000000000001e-01 -1.0000000000000001e-01
        -1.0000000000000001e-01 -1.0000000000000001e-01
        -1.0000000000000001e-01 -1.0000000000000001e-01
        -1.0000000000000001e-01 -1.0000000000000001e-01
        -1.0000000000000001e-01 -1.0000000000000001e-01
        -1.0000000000000001e-01 -1.0000000000000001e-01
        -9.8572012905136008e-02 -1.0000000000000001e-01
        -2.4397535129920399e-02 -1.0000000000000001e-01
        -1.0000000000000001e-01 -1.0000000000000001e-01
        -1.0000000000000001e-01 -1.0000000000000001e-01
        -1.0000000000000001e-01 -1.0000000000000001e-01
        -1.0000000000000001e-01 -1.0000000000000001e-01
        -1.0000000000000001e-01 -1.0000000000000001e-01
        -8.8137289501992816e-02 -1.0000000000000001e-01
        -1.0000000000000001e-01 -1.0000000000000001e-01
        -6.4283245940661440e-02 -1.0000000000000001e-01
        -1.0000000000000001e-01 -3.1133845025440456e-02
        -1.0000000000000001e-01 -1.0000000000000001e-01
        -1.0000000000000001e-01 -1.0000000000000001e-01
        -1.0000000000000001e-01 -1.0000000000000001e-01
        -1.0000000000000001e-01 -1.0000000000000001e-01
        -1.0000000000000001e-01 -1.0000000000000001e-01
        -1.0000000000000001e-01 -9.9475787441490618e-02
        -1.0000000000000001e-01 -1.0000000000000001e-01
        -1.0000000000000001e-01 -1.0000000000000001e-01
        -1.0000000000000001e-01 -1.0000000000000001e-01
        -1.0000000000000001e-01 -1.0000000000000001e-01
        -1.0000000000000001e-01 -1.0000000000000001e-01
        -1.0000000000000001e-01 -1.0000000000000001e-01
        -1.0000000000000001e-01 -1.0000000000000001e-01
        -1.0000000000000001e-01 -1.0000000000000001e-01
        -1.0000000000000001e-01 -1.0000000000000001e-01
        -1.0000000000000001e-01 -1.0000000000000001e-01
        -1.0000000000000001e-01 -1.0000000000000001e-01
        -1.0000000000000001e-01 -1.0000000000000001e-01
        -1.0000000000000001e-01 -1.0000000000000001e-01
        -1.0000000000000001e-01 -6.5108626823404236e-02
        -1.0000000000000001e-01 -1.0000000000000001e-01
        -1.0000000000000001e-01 -1.0000000000000001e-01
        -1.0000000000000001e-01 -1.0000000000000001e-01
        -1.0000000000000001e-01 -1.0000000000000001e-01
        -1.0000000000000001e-01 -1.0000000000000001e-01
        -9.3489010747424273e-02 -1.0000000000000001e-01</alpha>
      <index>
        89 90 91 92 93 94 95 96 97 98 99 100 101 102 103 104 105 106 107
        108 109 110 111 112 113 114 115 116 117 118 119 120 121 122 123
        124 125 126 127 128 129 130 131 132 133 134 135 136 137 138 139
        140 141 142 143 144 145 146 147 148 149 150 151 152 153 154 155
        156 157 158 159 160 161 162 163 164 165 166 167 168 169 170 171
        172 173 174 175 176 177 178 179 180 181 182 183 0 1 2 3 4 5 6 7
        8 9 10 11 12 13 14 15 16 17 18 19 20 21 22 23 24 25 26 27 28 29
        30 31 32 33 34 35 36 37 38 39 40 41 42 43 44 45 46 47 48 49 50
        51 52 53 54 55 56 57 58 59 60 61 62 63 64 65 66 67 68 69 70 71
        72 73 74 75 76 77 78 79 80 81 82 83 84 85 86 87 88</index></_></decision_functions></opencv_ml_svm>
</opencv_storage>
