<?xml version="1.0"?>
<opencv_storage>
<opencv_ml_svm>
  <format>3</format>
  <svmType>C_SVC</svmType>
  <kernel>
    <type>RBF</type>
    <gamma>3.3750000000000002e-02</gamma></kernel>
  <C>2.5000000000000000e+00</C>
  <term_criteria><epsilon>1.1920928955078125e-07</epsilon>
    <iterations>1000</iterations></term_criteria>
  <var_count>3</var_count>
  <class_count>2</class_count>
  <class_labels type_id="opencv-matrix">
    <rows>2</rows>
    <cols>1</cols>
    <dt>i</dt>
    <data>
      -1 1</data></class_labels>
  <sv_total>1210</sv_total>
  <support_vectors>
    <_>
      175. 204. 90.</_>
    <_>
      175. 213. 109.</_>
    <_>
      175. 213. 126.</_>
    <_>
      176. 221. 121.</_>
    <_>
      174. 174. 204.</_>
    <_>
      173. 176. 214.</_>
    <_>
      175. 168. 215.</_>
    <_>
      172. 178. 242.</_>
    <_>
      175. 160. 220.</_>
    <_>
      174. 161. 245.</_>
    <_>
      175. 156. 227.</_>
    <_>
      176. 192. 106.</_>
    <_>
      176. 199. 123.</_>
    <_>
      175. 217. 181.</_>
    <_>
      176. 197. 114.</_>
    <_>
      175. 217. 174.</_>
    <_>
      175. 219. 177.</_>
    <_>
      175. 207. 171.</_>
    <_>
      175. 218. 173.</_>
    <_>
      176. 187. 153.</_>
    <_>
      176. 208. 163.</_>
    <_>
      175. 214. 169.</_>
    <_>
      175. 219. 172.</_>
    <_>
      176. 193. 168.</_>
    <_>
      175. 219. 175.</_>
    <_>
      175. 214. 187.</_>
    <_>
      175. 229. 158.</_>
    <_>
      175. 217. 187.</_>
    <_>
      175. 217. 186.</_>
    <_>
      175. 222. 170.</_>
    <_>
      176. 221. 136.</_>
    <_>
      175. 220. 174.</_>
    <_>
      176. 217. 168.</_>
    <_>
      176. 215. 167.</_>
    <_>
      176. 218. 150.</_>
    <_>
      174. 178. 199.</_>
    <_>
      173. 197. 232.</_>
    <_>
      173. 202. 217.</_>
    <_>
      173. 207. 216.</_>
    <_>
      177. 203. 102.</_>
    <_>
      177. 200. 176.</_>
    <_>
      176. 216. 169.</_>
    <_>
      176. 206. 181.</_>
    <_>
      176. 212. 176.</_>
    <_>
      176. 213. 183.</_>
    <_>
      176. 216. 172.</_>
    <_>
      175. 207. 187.</_>
    <_>
      175. 215. 190.</_>
    <_>
      175. 220. 194.</_>
    <_>
      176. 211. 193.</_>
    <_>
      175. 221. 194.</_>
    <_>
      175. 217. 193.</_>
    <_>
      175. 223. 192.</_>
    <_>
      175. 225. 189.</_>
    <_>
      176. 219. 193.</_>
    <_>
      176. 220. 188.</_>
    <_>
      176. 229. 146.</_>
    <_>
      176. 234. 134.</_>
    <_>
      176. 233. 161.</_>
    <_>
      176. 235. 140.</_>
    <_>
      176. 227. 180.</_>
    <_>
      176. 224. 174.</_>
    <_>
      175. 232. 158.</_>
    <_>
      176. 230. 162.</_>
    <_>
      173. 209. 214.</_>
    <_>
      173. 208. 211.</_>
    <_>
      174. 211. 205.</_>
    <_>
      173. 193. 240.</_>
    <_>
      173. 213. 206.</_>
    <_>
      173. 213. 204.</_>
    <_>
      174. 211. 199.</_>
    <_>
      173. 212. 207.</_>
    <_>
      173. 214. 205.</_>
    <_>
      173. 213. 202.</_>
    <_>
      173. 209. 210.</_>
    <_>
      174. 205. 247.</_>
    <_>
      174. 208. 239.</_>
    <_>
      173. 209. 193.</_>
    <_>
      174. 210. 242.</_>
    <_>
      174. 209. 201.</_>
    <_>
      174. 210. 199.</_>
    <_>
      172. 217. 207.</_>
    <_>
      173. 217. 208.</_>
    <_>
      173. 216. 207.</_>
    <_>
      172. 217. 207.</_>
    <_>
      173. 216. 204.</_>
    <_>
      172. 218. 211.</_>
    <_>
      172. 219. 206.</_>
    <_>
      172. 217. 203.</_>
    <_>
      172. 219. 205.</_>
    <_>
      173. 218. 202.</_>
    <_>
      173. 217. 203.</_>
    <_>
      173. 216. 201.</_>
    <_>
      173. 217. 199.</_>
    <_>
      173. 214. 198.</_>
    <_>
      173. 215. 200.</_>
    <_>
      173. 216. 201.</_>
    <_>
      173. 217. 199.</_>
    <_>
      173. 216. 201.</_>
    <_>
      173. 217. 202.</_>
    <_>
      173. 219. 211.</_>
    <_>
      173. 217. 202.</_>
    <_>
      173. 218. 207.</_>
    <_>
      173. 217. 199.</_>
    <_>
      175. 193. 190.</_>
    <_>
      176. 211. 232.</_>
    <_>
      176. 218. 236.</_>
    <_>
      176. 220. 236.</_>
    <_>
      176. 222. 235.</_>
    <_>
      176. 222. 230.</_>
    <_>
      176. 220. 225.</_>
    <_>
      176. 220. 211.</_>
    <_>
      176. 219. 205.</_>
    <_>
      176. 217. 199.</_>
    <_>
      176. 217. 232.</_>
    <_>
      176. 219. 233.</_>
    <_>
      176. 220. 232.</_>
    <_>
      176. 219. 212.</_>
    <_>
      176. 217. 228.</_>
    <_>
      176. 220. 224.</_>
    <_>
      176. 219. 214.</_>
    <_>
      176. 218. 213.</_>
    <_>
      176. 217. 199.</_>
    <_>
      176. 218. 204.</_>
    <_>
      176. 220. 204.</_>
    <_>
      175. 214. 236.</_>
    <_>
      176. 216. 203.</_>
    <_>
      176. 217. 202.</_>
    <_>
      175. 223. 206.</_>
    <_>
      176. 222. 217.</_>
    <_>
      175. 219. 200.</_>
    <_>
      176. 219. 229.</_>
    <_>
      176. 217. 214.</_>
    <_>
      176. 223. 214.</_>
    <_>
      176. 220. 199.</_>
    <_>
      176. 216. 229.</_>
    <_>
      176. 215. 211.</_>
    <_>
      175. 216. 205.</_>
    <_>
      175. 219. 206.</_>
    <_>
      175. 223. 205.</_>
    <_>
      175. 221. 201.</_>
    <_>
      176. 224. 215.</_>
    <_>
      176. 214. 224.</_>
    <_>
      175. 220. 202.</_>
    <_>
      176. 224. 207.</_>
    <_>
      175. 217. 210.</_>
    <_>
      176. 213. 213.</_>
    <_>
      176. 216. 208.</_>
    <_>
      176. 204. 224.</_>
    <_>
      176. 210. 214.</_>
    <_>
      177. 212. 206.</_>
    <_>
      177. 213. 202.</_>
    <_>
      176. 217. 195.</_>
    <_>
      177. 215. 193.</_>
    <_>
      175. 222. 203.</_>
    <_>
      176. 205. 223.</_>
    <_>
      176. 211. 213.</_>
    <_>
      177. 212. 206.</_>
    <_>
      177. 212. 203.</_>
    <_>
      177. 215. 191.</_>
    <_>
      177. 214. 192.</_>
    <_>
      177. 215. 189.</_>
    <_>
      176. 206. 228.</_>
    <_>
      175. 219. 204.</_>
    <_>
      176. 216. 213.</_>
    <_>
      175. 224. 205.</_>
    <_>
      176. 209. 225.</_>
    <_>
      176. 219. 196.</_>
    <_>
      176. 215. 192.</_>
    <_>
      176. 215. 204.</_>
    <_>
      176. 213. 220.</_>
    <_>
      176. 211. 197.</_>
    <_>
      176. 213. 199.</_>
    <_>
      176. 214. 222.</_>
    <_>
      176. 213. 200.</_>
    <_>
      176. 213. 202.</_>
    <_>
      176. 215. 223.</_>
    <_>
      176. 214. 199.</_>
    <_>
      173. 182. 146.</_>
    <_>
      175. 198. 250.</_>
    <_>
      173. 165. 184.</_>
    <_>
      175. 196. 248.</_>
    <_>
      175. 201. 241.</_>
    <_>
      174. 189. 255.</_>
    <_>
      174. 178. 252.</_>
    <_>
      175. 199. 87.</_>
    <_>
      174. 207. 107.</_>
    <_>
      174. 210. 102.</_>
    <_>
      175. 233. 164.</_>
    <_>
      175. 217. 173.</_>
    <_>
      175. 220. 174.</_>
    <_>
      172. 162. 145.</_>
    <_>
      172. 161. 182.</_>
    <_>
      172. 159. 176.</_>
    <_>
      173. 180. 210.</_>
    <_>
      173. 181. 225.</_>
    <_>
      172. 179. 208.</_>
    <_>
      173. 185. 249.</_>
    <_>
      174. 182. 226.</_>
    <_>
      173. 187. 232.</_>
    <_>
      173. 187. 226.</_>
    <_>
      174. 184. 226.</_>
    <_>
      174. 184. 233.</_>
    <_>
      174. 185. 227.</_>
    <_>
      175. 211. 167.</_>
    <_>
      175. 212. 171.</_>
    <_>
      174. 233. 92.</_>
    <_>
      174. 203. 167.</_>
    <_>
      174. 206. 212.</_>
    <_>
      174. 204. 196.</_>
    <_>
      175. 202. 211.</_>
    <_>
      174. 204. 194.</_>
    <_>
      174. 200. 195.</_>
    <_>
      174. 200. 198.</_>
    <_>
      174. 201. 189.</_>
    <_>
      175. 204. 213.</_>
    <_>
      173. 204. 189.</_>
    <_>
      175. 206. 214.</_>
    <_>
      174. 202. 203.</_>
    <_>
      173. 202. 194.</_>
    <_>
      173. 201. 193.</_>
    <_>
      172. 202. 201.</_>
    <_>
      173. 201. 195.</_>
    <_>
      173. 202. 192.</_>
    <_>
      173. 205. 189.</_>
    <_>
      173. 205. 214.</_>
    <_>
      173. 202. 53.</_>
    <_>
      173. 201. 81.</_>
    <_>
      172. 219. 78.</_>
    <_>
      173. 225. 69.</_>
    <_>
      173. 199. 59.</_>
    <_>
      172. 211. 86.</_>
    <_>
      172. 219. 85.</_>
    <_>
      173. 218. 68.</_>
    <_>
      172. 222. 94.</_>
    <_>
      173. 204. 65.</_>
    <_>
      174. 211. 75.</_>
    <_>
      175. 213. 61.</_>
    <_>
      173. 198. 72.</_>
    <_>
      174. 139. 187.</_>
    <_>
      171. 169. 242.</_>
    <_>
      173. 144. 195.</_>
    <_>
      176. 167. 226.</_>
    <_>
      175. 151. 216.</_>
    <_>
      173. 143. 208.</_>
    <_>
      170. 149. 221.</_>
    <_>
      171. 172. 222.</_>
    <_>
      169. 159. 236.</_>
    <_>
      169. 151. 229.</_>
    <_>
      172. 162. 214.</_>
    <_>
      172. 173. 230.</_>
    <_>
      169. 164. 230.</_>
    <_>
      172. 149. 239.</_>
    <_>
      173. 144. 228.</_>
    <_>
      173. 142. 221.</_>
    <_>
      172. 226. 80.</_>
    <_>
      175. 194. 130.</_>
    <_>
      176. 194. 172.</_>
    <_>
      176. 196. 191.</_>
    <_>
      173. 215. 103.</_>
    <_>
      176. 188. 170.</_>
    <_>
      176. 189. 188.</_>
    <_>
      177. 200. 208.</_>
    <_>
      174. 205. 132.</_>
    <_>
      175. 193. 153.</_>
    <_>
      177. 180. 219.</_>
    <_>
      176. 186. 186.</_>
    <_>
      177. 181. 209.</_>
    <_>
      177. 196. 223.</_>
    <_>
      177. 200. 215.</_>
    <_>
      175. 192. 171.</_>
    <_>
      176. 188. 186.</_>
    <_>
      177. 180. 210.</_>
    <_>
      178. 196. 200.</_>
    <_>
      178. 196. 211.</_>
    <_>
      178. 196. 203.</_>
    <_>
      178. 196. 208.</_>
    <_>
      176. 178. 196.</_>
    <_>
      177. 175. 207.</_>
    <_>
      177. 178. 208.</_>
    <_>
      178. 190. 196.</_>
    <_>
      177. 198. 196.</_>
    <_>
      178. 198. 196.</_>
    <_>
      177. 174. 202.</_>
    <_>
      177. 176. 212.</_>
    <_>
      177. 198. 196.</_>
    <_>
      178. 197. 194.</_>
    <_>
      178. 187. 192.</_>
    <_>
      178. 188. 195.</_>
    <_>
      176. 200. 212.</_>
    <_>
      177. 175. 214.</_>
    <_>
      177. 198. 196.</_>
    <_>
      178. 195. 194.</_>
    <_>
      178. 195. 194.</_>
    <_>
      0. 184. 198.</_>
    <_>
      177. 199. 209.</_>
    <_>
      176. 199. 213.</_>
    <_>
      176. 200. 212.</_>
    <_>
      177. 182. 226.</_>
    <_>
      179. 189. 215.</_>
    <_>
      179. 193. 200.</_>
    <_>
      179. 193. 207.</_>
    <_>
      178. 197. 202.</_>
    <_>
      178. 180. 221.</_>
    <_>
      178. 180. 223.</_>
    <_>
      178. 190. 196.</_>
    <_>
      177. 199. 204.</_>
    <_>
      174. 198. 117.</_>
    <_>
      174. 171. 170.</_>
    <_>
      175. 174. 193.</_>
    <_>
      174. 174. 196.</_>
    <_>
      176. 179. 212.</_>
    <_>
      176. 178. 223.</_>
    <_>
      176. 183. 222.</_>
    <_>
      176. 169. 250.</_>
    <_>
      176. 158. 241.</_>
    <_>
      176. 183. 227.</_>
    <_>
      176. 186. 243.</_>
    <_>
      175. 167. 250.</_>
    <_>
      175. 177. 216.</_>
    <_>
      175. 178. 218.</_>
    <_>
      175. 180. 221.</_>
    <_>
      176. 166. 235.</_>
    <_>
      176. 173. 239.</_>
    <_>
      175. 181. 226.</_>
    <_>
      176. 195. 64.</_>
    <_>
      176. 204. 75.</_>
    <_>
      173. 222. 107.</_>
    <_>
      177. 225. 102.</_>
    <_>
      174. 218. 109.</_>
    <_>
      173. 235. 113.</_>
    <_>
      176. 211. 93.</_>
    <_>
      173. 241. 124.</_>
    <_>
      175. 228. 115.</_>
    <_>
      173. 235. 128.</_>
    <_>
      175. 236. 105.</_>
    <_>
      173. 244. 113.</_>
    <_>
      174. 243. 107.</_>
    <_>
      177. 225. 92.</_>
    <_>
      177. 212. 108.</_>
    <_>
      178. 217. 95.</_>
    <_>
      174. 227. 126.</_>
    <_>
      175. 236. 118.</_>
    <_>
      175. 237. 99.</_>
    <_>
      174. 206. 210.</_>
    <_>
      172. 226. 208.</_>
    <_>
      174. 208. 210.</_>
    <_>
      171. 230. 207.</_>
    <_>
      171. 236. 203.</_>
    <_>
      171. 232. 214.</_>
    <_>
      174. 228. 223.</_>
    <_>
      172. 209. 212.</_>
    <_>
      171. 203. 214.</_>
    <_>
      172. 200. 212.</_>
    <_>
      171. 194. 214.</_>
    <_>
      172. 203. 216.</_>
    <_>
      172. 206. 214.</_>
    <_>
      169. 207. 217.</_>
    <_>
      174. 209. 209.</_>
    <_>
      173. 207. 212.</_>
    <_>
      174. 206. 209.</_>
    <_>
      175. 205. 208.</_>
    <_>
      176. 205. 216.</_>
    <_>
      174. 203. 215.</_>
    <_>
      173. 206. 212.</_>
    <_>
      176. 204. 217.</_>
    <_>
      176. 204. 217.</_>
    <_>
      176. 206. 218.</_>
    <_>
      176. 207. 217.</_>
    <_>
      174. 201. 214.</_>
    <_>
      174. 207. 211.</_>
    <_>
      174. 200. 215.</_>
    <_>
      176. 212. 221.</_>
    <_>
      172. 220. 246.</_>
    <_>
      172. 241. 243.</_>
    <_>
      172. 232. 240.</_>
    <_>
      172. 233. 243.</_>
    <_>
      172. 233. 231.</_>
    <_>
      173. 224. 235.</_>
    <_>
      173. 222. 239.</_>
    <_>
      176. 212. 225.</_>
    <_>
      176. 216. 222.</_>
    <_>
      174. 172. 199.</_>
    <_>
      174. 195. 190.</_>
    <_>
      174. 171. 198.</_>
    <_>
      174. 198. 187.</_>
    <_>
      174. 193. 185.</_>
    <_>
      174. 191. 184.</_>
    <_>
      174. 194. 184.</_>
    <_>
      174. 198. 184.</_>
    <_>
      176. 174. 204.</_>
    <_>
      176. 179. 201.</_>
    <_>
      176. 197. 190.</_>
    <_>
      176. 203. 187.</_>
    <_>
      174. 212. 179.</_>
    <_>
      174. 219. 172.</_>
    <_>
      176. 180. 200.</_>
    <_>
      176. 195. 191.</_>
    <_>
      176. 199. 188.</_>
    <_>
      176. 197. 189.</_>
    <_>
      176. 210. 180.</_>
    <_>
      175. 194. 192.</_>
    <_>
      175. 201. 185.</_>
    <_>
      175. 214. 172.</_>
    <_>
      175. 216. 170.</_>
    <_>
      175. 213. 170.</_>
    <_>
      175. 209. 173.</_>
    <_>
      175. 178. 203.</_>
    <_>
      175. 207. 193.</_>
    <_>
      174. 221. 186.</_>
    <_>
      175. 203. 191.</_>
    <_>
      175. 213. 188.</_>
    <_>
      175. 202. 189.</_>
    <_>
      175. 211. 185.</_>
    <_>
      175. 215. 183.</_>
    <_>
      175. 201. 190.</_>
    <_>
      175. 213. 183.</_>
    <_>
      175. 215. 183.</_>
    <_>
      175. 212. 183.</_>
    <_>
      175. 218. 179.</_>
    <_>
      175. 216. 177.</_>
    <_>
      175. 211. 184.</_>
    <_>
      175. 217. 179.</_>
    <_>
      175. 219. 171.</_>
    <_>
      174. 205. 195.</_>
    <_>
      175. 205. 192.</_>
    <_>
      174. 218. 188.</_>
    <_>
      174. 203. 197.</_>
    <_>
      174. 213. 188.</_>
    <_>
      174. 219. 185.</_>
    <_>
      174. 220. 189.</_>
    <_>
      174. 222. 187.</_>
    <_>
      175. 204. 199.</_>
    <_>
      175. 216. 189.</_>
    <_>
      174. 219. 191.</_>
    <_>
      174. 203. 212.</_>
    <_>
      174. 211. 211.</_>
    <_>
      174. 222. 207.</_>
    <_>
      173. 233. 193.</_>
    <_>
      174. 219. 203.</_>
    <_>
      174. 220. 196.</_>
    <_>
      175. 208. 196.</_>
    <_>
      175. 218. 191.</_>
    <_>
      175. 203. 196.</_>
    <_>
      175. 202. 201.</_>
    <_>
      175. 211. 197.</_>
    <_>
      175. 217. 188.</_>
    <_>
      175. 219. 192.</_>
    <_>
      175. 224. 188.</_>
    <_>
      174. 209. 200.</_>
    <_>
      174. 218. 193.</_>
    <_>
      174. 223. 189.</_>
    <_>
      175. 207. 206.</_>
    <_>
      174. 215. 203.</_>
    <_>
      174. 221. 201.</_>
    <_>
      174. 230. 195.</_>
    <_>
      173. 238. 192.</_>
    <_>
      175. 211. 202.</_>
    <_>
      174. 218. 198.</_>
    <_>
      174. 219. 199.</_>
    <_>
      174. 222. 194.</_>
    <_>
      175. 223. 194.</_>
    <_>
      174. 215. 200.</_>
    <_>
      174. 221. 202.</_>
    <_>
      174. 227. 203.</_>
    <_>
      174. 220. 202.</_>
    <_>
      175. 234. 195.</_>
    <_>
      174. 237. 194.</_>
    <_>
      175. 236. 150.</_>
    <_>
      175. 241. 159.</_>
    <_>
      176. 224. 170.</_>
    <_>
      176. 220. 159.</_>
    <_>
      177. 210. 153.</_>
    <_>
      175. 235. 179.</_>
    <_>
      172. 237. 171.</_>
    <_>
      175. 227. 183.</_>
    <_>
      175. 243. 155.</_>
    <_>
      174. 250. 163.</_>
    <_>
      176. 233. 177.</_>
    <_>
      176. 243. 170.</_>
    <_>
      175. 248. 178.</_>
    <_>
      173. 241. 189.</_>
    <_>
      173. 239. 194.</_>
    <_>
      176. 239. 186.</_>
    <_>
      174. 242. 190.</_>
    <_>
      174. 239. 188.</_>
    <_>
      174. 233. 187.</_>
    <_>
      175. 153. 203.</_>
    <_>
      175. 161. 199.</_>
    <_>
      175. 171. 192.</_>
    <_>
      176. 184. 184.</_>
    <_>
      176. 191. 182.</_>
    <_>
      175. 194. 179.</_>
    <_>
      175. 159. 197.</_>
    <_>
      175. 170. 191.</_>
    <_>
      175. 185. 183.</_>
    <_>
      176. 188. 180.</_>
    <_>
      176. 194. 179.</_>
    <_>
      175. 194. 175.</_>
    <_>
      175. 168. 191.</_>
    <_>
      175. 187. 180.</_>
    <_>
      175. 179. 182.</_>
    <_>
      175. 188. 179.</_>
    <_>
      175. 186. 181.</_>
    <_>
      175. 196. 172.</_>
    <_>
      173. 198. 160.</_>
    <_>
      175. 158. 204.</_>
    <_>
      175. 169. 199.</_>
    <_>
      174. 196. 186.</_>
    <_>
      174. 198. 184.</_>
    <_>
      175. 152. 207.</_>
    <_>
      174. 194. 184.</_>
    <_>
      174. 201. 178.</_>
    <_>
      174. 163. 204.</_>
    <_>
      174. 173. 198.</_>
    <_>
      174. 197. 181.</_>
    <_>
      174. 178. 196.</_>
    <_>
      174. 190. 188.</_>
    <_>
      174. 194. 184.</_>
    <_>
      174. 192. 186.</_>
    <_>
      174. 198. 187.</_>
    <_>
      174. 203. 153.</_>
    <_>
      175. 155. 207.</_>
    <_>
      175. 165. 204.</_>
    <_>
      175. 177. 199.</_>
    <_>
      174. 199. 186.</_>
    <_>
      175. 160. 205.</_>
    <_>
      175. 173. 200.</_>
    <_>
      174. 195. 188.</_>
    <_>
      175. 213. 170.</_>
    <_>
      175. 170. 204.</_>
    <_>
      174. 196. 189.</_>
    <_>
      175. 210. 160.</_>
    <_>
      175. 183. 198.</_>
    <_>
      174. 193. 190.</_>
    <_>
      175. 195. 192.</_>
    <_>
      175. 209. 183.</_>
    <_>
      175. 209. 168.</_>
    <_>
      175. 171. 206.</_>
    <_>
      175. 198. 198.</_>
    <_>
      174. 206. 194.</_>
    <_>
      175. 174. 208.</_>
    <_>
      175. 205. 192.</_>
    <_>
      174. 200. 191.</_>
    <_>
      174. 202. 189.</_>
    <_>
      174. 214. 182.</_>
    <_>
      174. 203. 190.</_>
    <_>
      174. 216. 190.</_>
    <_>
      175. 199. 197.</_>
    <_>
      179. 188. 129.</_>
    <_>
      179. 186. 130.</_>
    <_>
      179. 187. 131.</_>
    <_>
      179. 198. 135.</_>
    <_>
      179. 190. 134.</_>
    <_>
      0. 193. 136.</_>
    <_>
      169. 234. 157.</_>
    <_>
      168. 227. 137.</_>
    <_>
      168. 234. 143.</_>
    <_>
      168. 218. 132.</_>
    <_>
      167. 230. 164.</_>
    <_>
      166. 217. 155.</_>
    <_>
      164. 234. 172.</_>
    <_>
      176. 198. 144.</_>
    <_>
      166. 223. 159.</_>
    <_>
      179. 205. 143.</_>
    <_>
      163. 248. 175.</_>
    <_>
      163. 248. 188.</_>
    <_>
      179. 180. 146.</_>
    <_>
      163. 242. 180.</_>
    <_>
      0. 182. 144.</_>
    <_>
      0. 176. 145.</_>
    <_>
      168. 198. 138.</_>
    <_>
      163. 255. 180.</_>
    <_>
      1. 175. 141.</_>
    <_>
      0. 173. 146.</_>
    <_>
      167. 206. 146.</_>
    <_>
      1. 184. 133.</_>
    <_>
      1. 191. 123.</_>
    <_>
      163. 255. 187.</_>
    <_>
      165. 250. 166.</_>
    <_>
      2. 188. 118.</_>
    <_>
      0. 169. 137.</_>
    <_>
      3. 190. 114.</_>
    <_>
      169. 188. 136.</_>
    <_>
      3. 194. 108.</_>
    <_>
      168. 226. 151.</_>
    <_>
      0. 171. 130.</_>
    <_>
      3. 179. 114.</_>
    <_>
      168. 210. 141.</_>
    <_>
      167. 220. 144.</_>
    <_>
      179. 162. 129.</_>
    <_>
      173. 218. 202.</_>
    <_>
      172. 232. 188.</_>
    <_>
      172. 234. 182.</_>
    <_>
      173. 222. 196.</_>
    <_>
      173. 219. 198.</_>
    <_>
      173. 226. 192.</_>
    <_>
      173. 233. 187.</_>
    <_>
      174. 213. 141.</_>
    <_>
      174. 203. 202.</_>
    <_>
      174. 213. 196.</_>
    <_>
      174. 222. 193.</_>
    <_>
      173. 232. 187.</_>
    <_>
      174. 214. 197.</_>
    <_>
      174. 225. 193.</_>
    <_>
      174. 221. 194.</_>
    <_>
      174. 207. 203.</_>
    <_>
      174. 223. 200.</_>
    <_>
      174. 208. 213.</_>
    <_>
      173. 217. 210.</_>
    <_>
      173. 225. 203.</_>
    <_>
      174. 229. 194.</_>
    <_>
      174. 218. 206.</_>
    <_>
      174. 215. 206.</_>
    <_>
      174. 222. 200.</_>
    <_>
      174. 231. 192.</_>
    <_>
      174. 233. 187.</_>
    <_>
      175. 208. 212.</_>
    <_>
      175. 204. 209.</_>
    <_>
      174. 241. 185.</_>
    <_>
      175. 213. 204.</_>
    <_>
      175. 230. 194.</_>
    <_>
      175. 234. 191.</_>
    <_>
      174. 240. 157.</_>
    <_>
      173. 243. 146.</_>
    <_>
      171. 241. 214.</_>
    <_>
      172. 242. 223.</_>
    <_>
      173. 247. 217.</_>
    <_>
      173. 248. 208.</_>
    <_>
      172. 248. 193.</_>
    <_>
      171. 255. 157.</_>
    <_>
      175. 255. 197.</_>
    <_>
      171. 255. 171.</_>
    <_>
      169. 244. 161.</_>
    <_>
      171. 250. 150.</_>
    <_>
      174. 255. 184.</_>
    <_>
      172. 244. 136.</_>
    <_>
      172. 253. 143.</_>
    <_>
      171. 208. 108.</_>
    <_>
      172. 216. 117.</_>
    <_>
      171. 208. 115.</_>
    <_>
      4. 174. 148.</_>
    <_>
      4. 175. 140.</_>
    <_>
      4. 171. 145.</_>
    <_>
      6. 189. 158.</_>
    <_>
      6. 137. 229.</_>
    <_>
      6. 122. 225.</_>
    <_>
      2. 151. 135.</_>
    <_>
      8. 169. 216.</_>
    <_>
      9. 162. 225.</_>
    <_>
      8. 173. 204.</_>
    <_>
      8. 170. 184.</_>
    <_>
      9. 175. 192.</_>
    <_>
      1. 146. 205.</_>
    <_>
      9. 160. 241.</_>
    <_>
      6. 139. 250.</_>
    <_>
      5. 116. 255.</_>
    <_>
      4. 185. 186.</_>
    <_>
      5. 193. 177.</_>
    <_>
      179. 170. 48.</_>
    <_>
      0. 170. 60.</_>
    <_>
      1. 178. 73.</_>
    <_>
      0. 180. 99.</_>
    <_>
      179. 194. 112.</_>
    <_>
      179. 192. 109.</_>
    <_>
      1. 170. 78.</_>
    <_>
      179. 165. 62.</_>
    <_>
      0. 163. 72.</_>
    <_>
      0. 167. 98.</_>
    <_>
      179. 173. 68.</_>
    <_>
      179. 168. 76.</_>
    <_>
      1. 169. 89.</_>
    <_>
      179. 179. 80.</_>
    <_>
      179. 186. 104.</_>
    <_>
      1. 189. 108.</_>
    <_>
      1. 187. 117.</_>
    <_>
      0. 189. 120.</_>
    <_>
      0. 190. 122.</_>
    <_>
      0. 192. 121.</_>
    <_>
      0. 184. 86.</_>
    <_>
      179. 188. 129.</_>
    <_>
      179. 175. 102.</_>
    <_>
      179. 188. 130.</_>
    <_>
      179. 188. 130.</_>
    <_>
      179. 185. 127.</_>
    <_>
      0. 189. 97.</_>
    <_>
      0. 177. 121.</_>
    <_>
      179. 190. 94.</_>
    <_>
      0. 179. 114.</_>
    <_>
      0. 176. 113.</_>
    <_>
      179. 177. 118.</_>
    <_>
      179. 179. 94.</_>
    <_>
      1. 124. 200.</_>
    <_>
      1. 128. 219.</_>
    <_>
      1. 122. 246.</_>
    <_>
      3. 129. 231.</_>
    <_>
      3. 134. 240.</_>
    <_>
      10. 179. 212.</_>
    <_>
      10. 183. 222.</_>
    <_>
      9. 170. 231.</_>
    <_>
      5. 128. 255.</_>
    <_>
      2. 198. 102.</_>
    <_>
      4. 200. 115.</_>
    <_>
      4. 194. 133.</_>
    <_>
      4. 199. 158.</_>
    <_>
      2. 188. 114.</_>
    <_>
      3. 185. 131.</_>
    <_>
      3. 179. 177.</_>
    <_>
      5. 211. 161.</_>
    <_>
      6. 206. 152.</_>
    <_>
      6. 209. 144.</_>
    <_>
      4. 190. 138.</_>
    <_>
      2. 176. 146.</_>
    <_>
      4. 200. 144.</_>
    <_>
      6. 206. 136.</_>
    <_>
      1. 177. 160.</_>
    <_>
      0. 175. 168.</_>
    <_>
      5. 201. 170.</_>
    <_>
      2. 189. 151.</_>
    <_>
      3. 186. 167.</_>
    <_>
      2. 181. 144.</_>
    <_>
      2. 183. 142.</_>
    <_>
      0. 172. 209.</_>
    <_>
      0. 162. 221.</_>
    <_>
      2. 169. 226.</_>
    <_>
      4. 171. 241.</_>
    <_>
      6. 178. 230.</_>
    <_>
      179. 139. 226.</_>
    <_>
      2. 157. 231.</_>
    <_>
      0. 145. 236.</_>
    <_>
      1. 147. 228.</_>
    <_>
      179. 152. 243.</_>
    <_>
      0. 152. 245.</_>
    <_>
      179. 161. 245.</_>
    <_>
      179. 164. 251.</_>
    <_>
      1. 161. 241.</_>
    <_>
      4. 165. 250.</_>
    <_>
      6. 110. 239.</_>
    <_>
      6. 125. 212.</_>
    <_>
      8. 141. 157.</_>
    <_>
      8. 145. 169.</_>
    <_>
      4. 103. 253.</_>
    <_>
      6. 110. 247.</_>
    <_>
      7. 150. 194.</_>
    <_>
      8. 147. 207.</_>
    <_>
      3. 154. 200.</_>
    <_>
      8. 164. 176.</_>
    <_>
      6. 122. 238.</_>
    <_>
      3. 164. 196.</_>
    <_>
      3. 160. 186.</_>
    <_>
      4. 139. 216.</_>
    <_>
      5. 191. 253.</_>
    <_>
      179. 198. 248.</_>
    <_>
      176. 222. 238.</_>
    <_>
      176. 220. 234.</_>
    <_>
      178. 209. 227.</_>
    <_>
      178. 205. 219.</_>
    <_>
      177. 214. 223.</_>
    <_>
      177. 213. 224.</_>
    <_>
      178. 208. 216.</_>
    <_>
      179. 196. 210.</_>
    <_>
      179. 190. 195.</_>
    <_>
      3. 222. 202.</_>
    <_>
      0. 200. 204.</_>
    <_>
      2. 201. 246.</_>
    <_>
      179. 205. 243.</_>
    <_>
      176. 222. 234.</_>
    <_>
      176. 220. 229.</_>
    <_>
      178. 206. 218.</_>
    <_>
      177. 213. 222.</_>
    <_>
      179. 198. 206.</_>
    <_>
      5. 232. 198.</_>
    <_>
      179. 198. 201.</_>
    <_>
      178. 214. 239.</_>
    <_>
      176. 220. 234.</_>
    <_>
      177. 217. 227.</_>
    <_>
      178. 214. 216.</_>
    <_>
      177. 216. 231.</_>
    <_>
      177. 214. 223.</_>
    <_>
      178. 204. 212.</_>
    <_>
      179. 196. 199.</_>
    <_>
      179. 189. 193.</_>
    <_>
      2. 214. 245.</_>
    <_>
      177. 216. 222.</_>
    <_>
      177. 213. 213.</_>
    <_>
      179. 196. 203.</_>
    <_>
      179. 194. 196.</_>
    <_>
      7. 224. 188.</_>
    <_>
      179. 215. 234.</_>
    <_>
      178. 217. 212.</_>
    <_>
      178. 215. 202.</_>
    <_>
      179. 199. 199.</_>
    <_>
      179. 198. 201.</_>
    <_>
      0. 193. 198.</_>
    <_>
      0. 193. 189.</_>
    <_>
      1. 221. 237.</_>
    <_>
      178. 222. 214.</_>
    <_>
      178. 218. 200.</_>
    <_>
      179. 213. 192.</_>
    <_>
      179. 221. 226.</_>
    <_>
      179. 222. 219.</_>
    <_>
      179. 223. 207.</_>
    <_>
      178. 221. 203.</_>
    <_>
      179. 215. 189.</_>
    <_>
      6. 224. 179.</_>
    <_>
      178. 217. 214.</_>
    <_>
      0. 201. 183.</_>
    <_>
      4. 213. 176.</_>
    <_>
      178. 215. 211.</_>
    <_>
      178. 215. 202.</_>
    <_>
      0. 196. 182.</_>
    <_>
      6. 223. 169.</_>
    <_>
      0. 204. 195.</_>
    <_>
      178. 213. 206.</_>
    <_>
      179. 212. 201.</_>
    <_>
      8. 235. 165.</_>
    <_>
      178. 211. 205.</_>
    <_>
      178. 210. 202.</_>
    <_>
      7. 232. 158.</_>
    <_>
      6. 220. 162.</_>
    <_>
      4. 210. 187.</_>
    <_>
      179. 197. 195.</_>
    <_>
      10. 199. 187.</_>
    <_>
      175. 211. 197.</_>
    <_>
      174. 216. 198.</_>
    <_>
      173. 219. 200.</_>
    <_>
      173. 218. 205.</_>
    <_>
      173. 218. 205.</_>
    <_>
      174. 214. 203.</_>
    <_>
      176. 205. 206.</_>
    <_>
      2. 205. 239.</_>
    <_>
      179. 197. 193.</_>
    <_>
      175. 212. 198.</_>
    <_>
      173. 217. 200.</_>
    <_>
      173. 221. 200.</_>
    <_>
      173. 220. 203.</_>
    <_>
      174. 218. 204.</_>
    <_>
      176. 207. 208.</_>
    <_>
      9. 194. 201.</_>
    <_>
      2. 204. 231.</_>
    <_>
      1. 212. 232.</_>
    <_>
      178. 198. 194.</_>
    <_>
      174. 215. 199.</_>
    <_>
      173. 216. 201.</_>
    <_>
      173. 219. 201.</_>
    <_>
      174. 219. 203.</_>
    <_>
      176. 209. 210.</_>
    <_>
      8. 193. 209.</_>
    <_>
      7. 206. 205.</_>
    <_>
      2. 219. 213.</_>
    <_>
      0. 222. 227.</_>
    <_>
      174. 218. 198.</_>
    <_>
      173. 216. 201.</_>
    <_>
      173. 218. 205.</_>
    <_>
      174. 218. 206.</_>
    <_>
      176. 209. 212.</_>
    <_>
      0. 227. 215.</_>
    <_>
      9. 236. 175.</_>
    <_>
      174. 219. 199.</_>
    <_>
      173. 217. 202.</_>
    <_>
      172. 218. 207.</_>
    <_>
      173. 218. 205.</_>
    <_>
      176. 210. 209.</_>
    <_>
      6. 217. 209.</_>
    <_>
      174. 218. 198.</_>
    <_>
      173. 216. 203.</_>
    <_>
      172. 218. 206.</_>
    <_>
      173. 209. 214.</_>
    <_>
      174. 207. 211.</_>
    <_>
      176. 200. 213.</_>
    <_>
      174. 214. 197.</_>
    <_>
      173. 216. 201.</_>
    <_>
      172. 203. 217.</_>
    <_>
      172. 206. 214.</_>
    <_>
      173. 207. 211.</_>
    <_>
      174. 185. 227.</_>
    <_>
      177. 182. 226.</_>
    <_>
      1. 183. 221.</_>
    <_>
      175. 210. 198.</_>
    <_>
      174. 215. 199.</_>
    <_>
      173. 209. 209.</_>
    <_>
      173. 205. 213.</_>
    <_>
      173. 186. 232.</_>
    <_>
      174. 182. 226.</_>
    <_>
      177. 180. 220.</_>
    <_>
      175. 224. 188.</_>
    <_>
      173. 219. 198.</_>
    <_>
      173. 214. 206.</_>
    <_>
      173. 208. 212.</_>
    <_>
      173. 201. 214.</_>
    <_>
      174. 182. 225.</_>
    <_>
      177. 179. 221.</_>
    <_>
      178. 209. 188.</_>
    <_>
      175. 222. 194.</_>
    <_>
      174. 216. 205.</_>
    <_>
      173. 217. 206.</_>
    <_>
      173. 207. 212.</_>
    <_>
      175. 199. 211.</_>
    <_>
      177. 181. 223.</_>
    <_>
      1. 232. 220.</_>
    <_>
      7. 233. 182.</_>
    <_>
      5. 211. 220.</_>
    <_>
      7. 204. 214.</_>
    <_>
      178. 218. 187.</_>
    <_>
      174. 232. 192.</_>
    <_>
      173. 237. 193.</_>
    <_>
      173. 226. 204.</_>
    <_>
      173. 223. 207.</_>
    <_>
      173. 223. 205.</_>
    <_>
      174. 205. 216.</_>
    <_>
      3. 229. 206.</_>
    <_>
      3. 238. 208.</_>
    <_>
      175. 239. 187.</_>
    <_>
      173. 237. 193.</_>
    <_>
      173. 241. 189.</_>
    <_>
      172. 218. 211.</_>
    <_>
      174. 215. 206.</_>
    <_>
      0. 211. 204.</_>
    <_>
      3. 247. 191.</_>
    <_>
      177. 226. 182.</_>
    <_>
      174. 233. 187.</_>
    <_>
      173. 232. 187.</_>
    <_>
      173. 232. 187.</_>
    <_>
      173. 226. 193.</_>
    <_>
      173. 218. 199.</_>
    <_>
      174. 212. 203.</_>
    <_>
      176. 218. 195.</_>
    <_>
      0. 220. 192.</_>
    <_>
      2. 237. 189.</_>
    <_>
      5. 247. 184.</_>
    <_>
      5. 254. 177.</_>
    <_>
      177. 217. 189.</_>
    <_>
      175. 234. 179.</_>
    <_>
      174. 216. 190.</_>
    <_>
      174. 219. 186.</_>
    <_>
      173. 202. 202.</_>
    <_>
      174. 211. 195.</_>
    <_>
      174. 220. 189.</_>
    <_>
      176. 216. 191.</_>
    <_>
      177. 213. 205.</_>
    <_>
      0. 176. 194.</_>
    <_>
      179. 191. 194.</_>
    <_>
      177. 217. 194.</_>
    <_>
      176. 218. 191.</_>
    <_>
      175. 214. 188.</_>
    <_>
      175. 177. 208.</_>
    <_>
      175. 179. 210.</_>
    <_>
      175. 212. 185.</_>
    <_>
      175. 216. 182.</_>
    <_>
      177. 200. 187.</_>
    <_>
      178. 190. 189.</_>
    <_>
      176. 214. 200.</_>
    <_>
      175. 220. 199.</_>
    <_>
      175. 221. 193.</_>
    <_>
      176. 213. 183.</_>
    <_>
      176. 179. 198.</_>
    <_>
      176. 162. 213.</_>
    <_>
      176. 179. 201.</_>
    <_>
      175. 213. 180.</_>
    <_>
      176. 210. 181.</_>
    <_>
      176. 174. 201.</_>
    <_>
      175. 199. 195.</_>
    <_>
      0. 161. 174.</_>
    <_>
      175. 209. 204.</_>
    <_>
      175. 215. 202.</_>
    <_>
      175. 218. 192.</_>
    <_>
      175. 216. 182.</_>
    <_>
      176. 173. 202.</_>
    <_>
      176. 176. 201.</_>
    <_>
      176. 218. 174.</_>
    <_>
      175. 218. 178.</_>
    <_>
      175. 196. 190.</_>
    <_>
      176. 187. 181.</_>
    <_>
      175. 206. 194.</_>
    <_>
      174. 214. 204.</_>
    <_>
      174. 221. 201.</_>
    <_>
      175. 221. 193.</_>
    <_>
      175. 213. 184.</_>
    <_>
      176. 158. 207.</_>
    <_>
      176. 218. 173.</_>
    <_>
      176. 222. 171.</_>
    <_>
      176. 195. 191.</_>
    <_>
      174. 196. 187.</_>
    <_>
      174. 203. 192.</_>
    <_>
      1. 140. 151.</_>
    <_>
      175. 193. 184.</_>
    <_>
      174. 210. 200.</_>
    <_>
      174. 218. 211.</_>
    <_>
      174. 225. 206.</_>
    <_>
      174. 222. 194.</_>
    <_>
      175. 212. 183.</_>
    <_>
      177. 154. 205.</_>
    <_>
      176. 212. 172.</_>
    <_>
      176. 218. 174.</_>
    <_>
      176. 196. 190.</_>
    <_>
      176. 179. 201.</_>
    <_>
      175. 199. 188.</_>
    <_>
      175. 201. 194.</_>
    <_>
      177. 191. 180.</_>
    <_>
      178. 165. 175.</_>
    <_>
      178. 158. 163.</_>
    <_>
      175. 193. 184.</_>
    <_>
      174. 209. 201.</_>
    <_>
      174. 218. 211.</_>
    <_>
      174. 226. 205.</_>
    <_>
      174. 223. 193.</_>
    <_>
      175. 213. 182.</_>
    <_>
      177. 153. 206.</_>
    <_>
      176. 214. 168.</_>
    <_>
      176. 218. 172.</_>
    <_>
      177. 182. 182.</_>
    <_>
      176. 187. 179.</_>
    <_>
      175. 206. 194.</_>
    <_>
      174. 213. 205.</_>
    <_>
      174. 222. 201.</_>
    <_>
      175. 223. 189.</_>
    <_>
      175. 208. 186.</_>
    <_>
      176. 173. 193.</_>
    <_>
      177. 208. 169.</_>
    <_>
      176. 213. 171.</_>
    <_>
      177. 192. 170.</_>
    <_>
      175. 212. 185.</_>
    <_>
      174. 214. 201.</_>
    <_>
      174. 221. 201.</_>
    <_>
      175. 218. 193.</_>
    <_>
      175. 203. 191.</_>
    <_>
      176. 186. 182.</_>
    <_>
      6. 147. 142.</_>
    <_>
      177. 196. 172.</_>
    <_>
      175. 217. 186.</_>
    <_>
      175. 230. 192.</_>
    <_>
      175. 221. 202.</_>
    <_>
      175. 220. 191.</_>
    <_>
      175. 195. 191.</_>
    <_>
      175. 177. 200.</_>
    <_>
      176. 192. 182.</_>
    <_>
      176. 160. 204.</_>
    <_>
      176. 175. 194.</_>
    <_>
      176. 189. 185.</_>
    <_>
      177. 164. 202.</_>
    <_>
      7. 156. 129.</_>
    <_>
      0. 180. 136.</_>
    <_>
      176. 209. 162.</_>
    <_>
      175. 217. 188.</_>
    <_>
      175. 230. 194.</_>
    <_>
      174. 221. 205.</_>
    <_>
      175. 218. 193.</_>
    <_>
      175. 203. 188.</_>
    <_>
      175. 193. 190.</_>
    <_>
      176. 197. 180.</_>
    <_>
      176. 187. 187.</_>
    <_>
      177. 153. 210.</_>
    <_>
      176. 171. 191.</_>
    <_>
      176. 169. 192.</_>
    <_>
      176. 170. 202.</_>
    <_>
      176. 194. 175.</_>
    <_>
      174. 221. 186.</_>
    <_>
      174. 231. 194.</_>
    <_>
      174. 222. 201.</_>
    <_>
      175. 216. 192.</_>
    <_>
      175. 204. 196.</_>
    <_>
      175. 201. 190.</_>
    <_>
      175. 198. 185.</_>
    <_>
      175. 192. 185.</_>
    <_>
      175. 176. 197.</_>
    <_>
      175. 171. 197.</_>
    <_>
      176. 161. 204.</_>
    <_>
      176. 167. 197.</_>
    <_>
      175. 192. 185.</_>
    <_>
      175. 197. 186.</_>
    <_>
      175. 202. 189.</_>
    <_>
      178. 160. 193.</_>
    <_>
      6. 133. 140.</_>
    <_>
      179. 148. 159.</_>
    <_>
      176. 194. 172.</_>
    <_>
      174. 216. 188.</_>
    <_>
      174. 218. 204.</_>
    <_>
      174. 218. 206.</_>
    <_>
      175. 210. 198.</_>
    <_>
      175. 203. 197.</_>
    <_>
      175. 200. 196.</_>
    <_>
      175. 203. 192.</_>
    <_>
      175. 198. 183.</_>
    <_>
      175. 188. 187.</_>
    <_>
      175. 170. 200.</_>
    <_>
      175. 174. 195.</_>
    <_>
      175. 172. 197.</_>
    <_>
      176. 190. 183.</_>
    <_>
      175. 193. 188.</_>
    <_>
      176. 221. 172.</_>
    <_>
      175. 217. 179.</_>
    <_>
      177. 168. 190.</_>
    <_>
      0. 136. 185.</_>
    <_>
      5. 128. 149.</_>
    <_>
      174. 203. 197.</_>
    <_>
      174. 210. 208.</_>
    <_>
      174. 210. 211.</_>
    <_>
      175. 206. 202.</_>
    <_>
      175. 207. 193.</_>
    <_>
      175. 204. 191.</_>
    <_>
      174. 201. 190.</_>
    <_>
      174. 197. 193.</_>
    <_>
      174. 199. 188.</_>
    <_>
      174. 196. 186.</_>
    <_>
      174. 179. 199.</_>
    <_>
      175. 174. 202.</_>
    <_>
      175. 192. 183.</_>
    <_>
      175. 196. 181.</_>
    <_>
      175. 216. 172.</_>
    <_>
      176. 218. 174.</_>
    <_>
      176. 220. 173.</_>
    <_>
      176. 168. 208.</_>
    <_>
      178. 163. 186.</_>
    <_>
      179. 141. 179.</_>
    <_>
      175. 200. 196.</_>
    <_>
      174. 203. 212.</_>
    <_>
      174. 204. 214.</_>
    <_>
      175. 203. 201.</_>
    <_>
      175. 205. 192.</_>
    <_>
      175. 200. 195.</_>
    <_>
      174. 200. 190.</_>
    <_>
      174. 195. 192.</_>
    <_>
      174. 196. 189.</_>
    <_>
      174. 194. 188.</_>
    <_>
      175. 211. 172.</_>
    <_>
      175. 217. 169.</_>
    <_>
      176. 233. 162.</_>
    <_>
      176. 217. 175.</_>
    <_>
      176. 176. 216.</_>
    <_>
      176. 179. 211.</_>
    <_>
      176. 176. 211.</_>
    <_>
      176. 170. 205.</_>
    <_>
      1. 146. 189.</_>
    <_>
      1. 137. 173.</_>
    <_>
      175. 178. 215.</_>
    <_>
      175. 204. 209.</_>
    <_>
      174. 201. 214.</_>
    <_>
      175. 201. 203.</_>
    <_>
      175. 200. 196.</_>
    <_>
      174. 199. 188.</_>
    <_>
      173. 200. 193.</_>
    <_>
      173. 200. 196.</_>
    <_>
      173. 206. 191.</_>
    <_>
      173. 202. 191.</_>
    <_>
      174. 216. 170.</_>
    <_>
      175. 214. 169.</_>
    <_>
      175. 231. 159.</_>
    <_>
      175. 240. 157.</_>
    <_>
      176. 204. 224.</_>
    <_>
      177. 204. 216.</_>
    <_>
      177. 199. 209.</_>
    <_>
      178. 179. 209.</_>
    <_>
      178. 154. 184.</_>
    <_>
      175. 197. 198.</_>
    <_>
      175. 199. 214.</_>
    <_>
      175. 205. 210.</_>
    <_>
      176. 195. 192.</_>
    <_>
      176. 196. 191.</_>
    <_>
      177. 202. 179.</_>
    <_>
      177. 214. 169.</_>
    <_>
      4. 94. 241.</_>
    <_>
      4. 102. 234.</_>
    <_>
      4. 109. 225.</_>
    <_>
      5. 116. 217.</_>
    <_>
      6. 134. 198.</_>
    <_>
      8. 130. 171.</_>
    <_>
      4. 120. 191.</_>
    <_>
      5. 121. 177.</_>
    <_>
      7. 130. 188.</_>
    <_>
      7. 140. 193.</_>
    <_>
      8. 133. 207.</_>
    <_>
      7. 135. 161.</_>
    <_>
      8. 140. 180.</_>
    <_>
      8. 152. 218.</_>
    <_>
      7. 152. 181.</_>
    <_>
      7. 159. 207.</_>
    <_>
      8. 157. 167.</_>
    <_>
      8. 172. 169.</_>
    <_>
      5. 151. 253.</_>
    <_>
      5. 182. 238.</_>
    <_>
      3. 182. 211.</_>
    <_>
      3. 185. 196.</_>
    <_>
      3. 190. 230.</_>
    <_>
      2. 185. 201.</_>
    <_>
      3. 183. 198.</_>
    <_>
      2. 197. 217.</_>
    <_>
      5. 214. 198.</_>
    <_>
      8. 204. 196.</_>
    <_>
      9. 146. 237.</_>
    <_>
      8. 131. 247.</_>
    <_>
      9. 153. 227.</_>
    <_>
      171. 214. 105.</_>
    <_>
      173. 212. 107.</_>
    <_>
      175. 200. 112.</_>
    <_>
      176. 190. 121.</_>
    <_>
      177. 176. 132.</_>
    <_>
      178. 165. 142.</_>
    <_>
      178. 158. 153.</_>
    <_>
      179. 146. 173.</_>
    <_>
      173. 210. 107.</_>
    <_>
      174. 198. 112.</_>
    <_>
      178. 160. 145.</_>
    <_>
      0. 148. 158.</_>
    <_>
      2. 163. 158.</_>
    <_>
      0. 144. 174.</_>
    <_>
      0. 152. 168.</_>
    <_>
      179. 156. 173.</_>
    <_>
      2. 164. 143.</_>
    <_>
      3. 163. 142.</_>
    <_>
      2. 156. 147.</_></support_vectors>
  <decision_functions>
    <_>
      <sv_count>1210</sv_count>
      <rho>-9.8982892406538250e-02</rho>
      <alpha>
        1. 5.5021251365015511e-01 1.1162455930258726e+00
        7.8515353420692946e-01 7.3356106154959932e-01
        1.2998468948107709e+00 9.6084970830076766e-01
        8.9643621573267573e-01 8.0401246196308995e-01
        7.6322413803789657e-01 1.1487704612593128e+00
        9.9026755946299905e-01 9.8252600631059439e-01
        1.0069300044909701e+00 9.3613905618609872e-01
        9.9999976317100225e-01 1.2207628659683660e+00
        1.1143150237593509e+00 8.4034119909350879e-01
        1.1599239024130710e+00 1.2259831472960725e+00
        6.9503323636515502e-01 9.5820719209552552e-01
        7.1934185335866330e-01 1.6427664153700516e+00
        9.9917281025743654e-01 9.9489762553612238e-01
        8.5808247646855440e-01 9.9999167165586511e-01
        9.6765422588145811e-01 5.8975097229037532e-01
        8.3847576164419957e-01 9.6819589806317397e-01
        1.0344758617956424e+00 1.1190788794686866e+00
        1.6584367257254564e+00 1.4293179872550270e+00
        1.4626067330050097e+00 1.3626084715466420e+00
        1.2740168527039275e+00 1.9620198018305637e+00
        9.9975503309135416e-01 2.5000000000000000e+00
        2.5000000000000000e+00 1.2123752120028355e+00
        9.4544870777755441e-01 7.8430716774306997e-01
        1.0002275484439451e+00 1.7103907483814336e+00
        1.0120907422085277e+00 1.0694941032871037e+00
        9.1573276044455132e-01 1.1011341439789799e+00
        7.8040744334890122e-01 8.2464155560944219e-01
        6.7164584889209644e-01 9.2476832446277091e-01
        6.3711761932371824e-01 9.9626447915321514e-01
        1.0085723628272658e+00 1.0738440237312605e+00
        9.8916575680185281e-01 1.3459965246103154e+00
        1.0554296503145943e+00 9.4580565528024274e-01
        2.5000000000000000e+00 2.2646634317099776e+00
        1.0537376669726564e+00 9.8257624739059035e-01
        9.5303442546274508e-01 7.0322599937837749e-01
        8.5160169766345617e-01 1.8974298050282812e+00
        1.3295389324514404e+00 1.0341463042567718e+00
        1.1900891940366110e+00 6.3750067493601870e-01
        9.9999992102742152e-01 7.9201195343952846e-01
        9.9571833653430453e-01 1.4656069323134369e+00
        1.3836668949739144e+00 7.9080169979475423e-01
        9.1591528842941150e-01 6.7811562794103342e-01
        9.8881841766248302e-01 6.5389006330156341e-01
        1.2465512877066409e+00 9.9998497489711746e-01
        7.1520445414410638e-01 8.6503298061308176e-01
        1.0236194012846196e+00 9.9047340592434985e-01
        1.1873468227286894e+00 1.1385620293490604e+00
        7.2658014788464453e-01 8.0282780148742661e-01
        9.6120275467373462e-01 9.9999549642438690e-01
        6.1374953045920011e-01 6.3645660348970345e-01
        1.0204613726466369e+00 6.0053980717511779e-01
        9.6378411727700664e-01 7.7103236323935309e-01
        6.4117430446844170e-01 6.8968949524938861e-01
        9.9969641643876739e-01 9.9990344756220584e-01
        1.0105640615508713e+00 9.6304283443228600e-01
        1.0064935823626080e+00 1.4267372544185177e+00
        2.5000000000000000e+00 2.5000000000000000e+00
        2.5000000000000000e+00 2.5000000000000000e+00
        2.5000000000000000e+00 2.5000000000000000e+00
        1.1399358972858278e+00 2.5000000000000000e+00
        2.5000000000000000e+00 5.6651002559208075e-01
        6.8134620877187824e-01 8.1752017149831935e-01
        1.2168248923034788e+00 2.5000000000000000e+00
        2.5000000000000000e+00 1.3279662850402358e+00
        2.5000000000000000e+00 2.5000000000000000e+00
        8.8877200823898195e-01 2.5000000000000000e+00
        1.6740423341210064e+00 2.5000000000000000e+00
        2.5000000000000000e+00 8.3715762131771809e-01
        2.5000000000000000e+00 1.8256379418600903e+00
        2.1640404163489544e+00 2.5000000000000000e+00
        2.5000000000000000e+00 9.8427439481602663e-01
        2.5000000000000000e+00 2.5000000000000000e+00
        2.5000000000000000e+00 2.5000000000000000e+00
        9.8390380106504427e-01 1.0452908219205361e+00
        1.7986747586328271e+00 2.5000000000000000e+00
        8.6468143847827639e-01 1.1383193241421010e+00
        1.1722880790137646e+00 8.2442079621495856e-01
        8.6638017488655439e-01 2.5000000000000000e+00
        2.5000000000000000e+00 2.5000000000000000e+00
        8.9541010571127244e-01 1.3678932981157796e+00
        2.5000000000000000e+00 2.5000000000000000e+00
        7.2374993759969830e-01 7.8960789507982820e-01
        1.3031151743281626e+00 8.4381330441566305e-01
        9.3354854879969507e-01 1.4530758430576416e+00
        2.5000000000000000e+00 2.2133911274303042e-01
        1.2303158326743822e+00 8.9358932225919840e-01
        2.5000000000000000e+00 8.5833635926623875e-01
        7.1621752627637969e-01 1.0355011861270542e+00
        1.3287603563645725e+00 9.9229811286530312e-01
        6.2269776203043425e-01 9.9994579599955391e-01
        2.5000000000000000e+00 9.7046434537685755e-01
        2.5000000000000000e+00 2.5000000000000000e+00
        2.5000000000000000e+00 2.5000000000000000e+00
        2.5000000000000000e+00 2.5000000000000000e+00
        2.5000000000000000e+00 6.2486639556523860e-01
        2.5000000000000000e+00 2.5000000000000000e+00
        2.5000000000000000e+00 2.5000000000000000e+00
        2.3351358852479676e+00 2.5000000000000000e+00
        1.8528690666566392e+00 3.9417804551883773e-01
        9.9636543380346498e-01 1.2632314224743180e-01
        2.5000000000000000e+00 2.5000000000000000e+00
        2.5000000000000000e+00 2.5000000000000000e+00
        2.5000000000000000e+00 7.7410037501067486e-01
        9.0901293046713194e-01 9.9700984541202908e-01
        8.2144871011873155e-01 1.0071808816009831e+00
        2.5000000000000000e+00 2.5000000000000000e+00
        2.5000000000000000e+00 2.5000000000000000e+00
        2.5000000000000000e+00 9.6641956677734098e-01
        9.9548648780328830e-01 2.5000000000000000e+00
        2.5000000000000000e+00 2.5000000000000000e+00
        2.5000000000000000e+00 2.5000000000000000e+00
        3.1527985138444503e-01 2.5000000000000000e+00
        2.5000000000000000e+00 2.5000000000000000e+00
        2.5000000000000000e+00 2.5000000000000000e+00
        2.5000000000000000e+00 2.5000000000000000e+00
        2.5000000000000000e+00 2.5000000000000000e+00
        2.5000000000000000e+00 2.5000000000000000e+00
        2.5000000000000000e+00 2.5000000000000000e+00
        7.9059134903204764e-01 2.5000000000000000e+00
        2.5000000000000000e+00 2.5000000000000000e+00
        2.5000000000000000e+00 2.5000000000000000e+00
        2.5000000000000000e+00 2.5000000000000000e+00
        2.5000000000000000e+00 2.5000000000000000e+00
        2.5000000000000000e+00 2.5000000000000000e+00
        2.5000000000000000e+00 2.5000000000000000e+00
        2.5000000000000000e+00 1.4335598537501479e+00
        2.5000000000000000e+00 2.5000000000000000e+00
        2.5000000000000000e+00 2.5000000000000000e+00
        2.5000000000000000e+00 2.5000000000000000e+00
        7.3051402780750341e-01 6.2258600208382231e-01
        9.7164347424648390e-01 6.3883983521842369e-01
        1.5212655508386801e+00 2.5000000000000000e+00
        2.5000000000000000e+00 2.5000000000000000e+00
        2.5000000000000000e+00 2.5000000000000000e+00
        2.5000000000000000e+00 6.1525702996864506e-01
        9.9986522828027646e-01 2.5000000000000000e+00
        2.5000000000000000e+00 2.5000000000000000e+00
        2.5000000000000000e+00 2.5000000000000000e+00
        7.2267638798163114e-01 9.5861013341918411e-01
        2.5000000000000000e+00 2.5000000000000000e+00
        2.5000000000000000e+00 2.5000000000000000e+00
        2.5000000000000000e+00 2.5000000000000000e+00
        2.5000000000000000e+00 2.5000000000000000e+00
        7.8350905068056798e-01 9.9999648751163672e-01
        6.8513409560996030e-01 1.0208108950073846e+00
        2.5000000000000000e+00 2.5000000000000000e+00
        2.5000000000000000e+00 2.5000000000000000e+00
        2.5000000000000000e+00 2.5000000000000000e+00
        2.5000000000000000e+00 2.5000000000000000e+00
        2.5000000000000000e+00 9.5604900319140651e-01
        1.9716706323051951e+00 2.5000000000000000e+00
        2.5000000000000000e+00 2.5000000000000000e+00
        2.5000000000000000e+00 2.5000000000000000e+00
        2.5000000000000000e+00 2.5000000000000000e+00
        1.2173771794191390e+00 1.0020684909539517e+00
        2.5000000000000000e+00 2.5000000000000000e+00
        2.5000000000000000e+00 2.5000000000000000e+00
        2.5000000000000000e+00 9.7998034918014776e-01
        2.5000000000000000e+00 2.5000000000000000e+00
        2.5000000000000000e+00 1.2001114067823586e+00
        2.5000000000000000e+00 1.2010751849184103e+00
        2.5000000000000000e+00 2.5000000000000000e+00
        2.5000000000000000e+00 2.5000000000000000e+00
        2.5000000000000000e+00 1.6915936954233604e+00
        2.5000000000000000e+00 2.5000000000000000e+00
        2.0390596636958733e+00 2.5000000000000000e+00
        2.5000000000000000e+00 2.5000000000000000e+00
        2.5000000000000000e+00 2.5000000000000000e+00
        2.5000000000000000e+00 1.5695144537172203e+00
        2.5000000000000000e+00 2.5000000000000000e+00
        2.5000000000000000e+00 2.5000000000000000e+00
        2.5000000000000000e+00 9.0215446036722091e-01
        2.5000000000000000e+00 2.5000000000000000e+00
        2.5000000000000000e+00 2.5000000000000000e+00
        2.5000000000000000e+00 2.5000000000000000e+00
        2.2598210588609904e+00 2.5000000000000000e+00
        2.5000000000000000e+00 2.1772242960192996e+00
        2.5000000000000000e+00 2.5000000000000000e+00
        1.5622419755582657e+00 2.5000000000000000e+00
        1.2828499291079245e+00 9.4437431397075755e-01
        1.2614486997403269e+00 2.5000000000000000e+00
        2.5000000000000000e+00 2.5000000000000000e+00
        2.5000000000000000e+00 2.5000000000000000e+00
        1.8049667636348450e+00 2.5000000000000000e+00
        2.5000000000000000e+00 2.5000000000000000e+00
        2.5000000000000000e+00 2.5000000000000000e+00
        2.5000000000000000e+00 2.5000000000000000e+00
        2.5000000000000000e+00 2.5000000000000000e+00
        1.4312271087641919e+00 2.5000000000000000e+00
        2.5000000000000000e+00 2.5000000000000000e+00
        2.5000000000000000e+00 2.5000000000000000e+00
        2.5000000000000000e+00 2.5000000000000000e+00
        2.5000000000000000e+00 2.5000000000000000e+00
        9.9758282725431147e-01 2.5000000000000000e+00
        2.5000000000000000e+00 2.5000000000000000e+00
        2.5000000000000000e+00 2.5000000000000000e+00
        2.5000000000000000e+00 2.5000000000000000e+00
        6.4588787138001780e-01 2.5000000000000000e+00
        1.5040721256618470e+00 1.9201020495791314e+00
        1.8459132615714640e+00 1.1692089151653926e+00
        1.2781012546216797e+00 2.5000000000000000e+00
        2.5000000000000000e+00 2.5000000000000000e+00
        2.5000000000000000e+00 2.5000000000000000e+00
        2.5000000000000000e+00 2.5000000000000000e+00
        1.7720312781226140e+00 2.5000000000000000e+00
        1.6919794244269799e+00 2.5000000000000000e+00
        2.2845282203328527e+00 1.3516696733161080e+00
        2.5000000000000000e+00 2.5000000000000000e+00
        2.5000000000000000e+00 2.5000000000000000e+00
        2.5000000000000000e+00 2.5000000000000000e+00
        1.5074964248485749e+00 2.5000000000000000e+00
        2.5000000000000000e+00 2.5000000000000000e+00
        2.5000000000000000e+00 2.3792069135019673e+00
        9.9592787433815300e-01 6.6218055034544410e-01
        2.5000000000000000e+00 2.5000000000000000e+00
        1.4160148076258154e+00 9.2366097514429479e-01
        9.9921002085174737e-01 2.5000000000000000e+00
        2.5000000000000000e+00 2.5000000000000000e+00
        2.5000000000000000e+00 2.5000000000000000e+00
        2.5000000000000000e+00 2.5000000000000000e+00
        1.8655475928955974e+00 2.5000000000000000e+00
        2.5000000000000000e+00 2.5000000000000000e+00
        2.5000000000000000e+00 2.5000000000000000e+00
        1.4137178783464126e+00 2.5000000000000000e+00
        2.5000000000000000e+00 2.5000000000000000e+00
        1.7011014174298498e+00 9.9966491648331934e-01
        9.9799644621941530e-01 2.5000000000000000e+00
        2.5000000000000000e+00 2.5000000000000000e+00
        2.5000000000000000e+00 2.5000000000000000e+00
        2.5000000000000000e+00 2.5000000000000000e+00
        1.2222487184062110e+00 2.5000000000000000e+00
        2.5000000000000000e+00 2.5000000000000000e+00
        2.5000000000000000e+00 2.5000000000000000e+00
        2.5000000000000000e+00 2.5000000000000000e+00
        7.2018646317584001e-01 2.5000000000000000e+00
        2.2577977646565746e+00 7.7786404695120659e-01
        1.1540034753896846e+00 2.5000000000000000e+00
        2.5000000000000000e+00 2.5000000000000000e+00
        2.5000000000000000e+00 2.5000000000000000e+00
        8.4958053877192841e-01 2.5000000000000000e+00
        2.5000000000000000e+00 2.5000000000000000e+00
        2.5000000000000000e+00 2.5000000000000000e+00
        2.5000000000000000e+00 2.5000000000000000e+00
        2.5000000000000000e+00 2.5000000000000000e+00
        2.5000000000000000e+00 2.5000000000000000e+00
        2.5000000000000000e+00 7.8790281747220448e-01
        6.1187640384283792e-01 2.5000000000000000e+00
        2.5000000000000000e+00 2.5000000000000000e+00
        2.5000000000000000e+00 2.5000000000000000e+00
        2.5000000000000000e+00 2.5000000000000000e+00
        2.5000000000000000e+00 2.5000000000000000e+00
        2.5000000000000000e+00 2.5000000000000000e+00
        2.5000000000000000e+00 2.5000000000000000e+00
        2.5000000000000000e+00 2.5000000000000000e+00
        2.5000000000000000e+00 2.5000000000000000e+00
        2.5000000000000000e+00 9.2595565247874945e-01
        2.5000000000000000e+00 2.5000000000000000e+00
        2.5000000000000000e+00 2.5000000000000000e+00
        1.5436681137625765e+00 2.5000000000000000e+00
        2.5000000000000000e+00 9.9999994890924060e-01
        3.9258239408049089e-01 1.1456528642498611e+00
        9.3116507339258692e-01 9.8992250911517599e-01
        9.9999995277860565e-01 1.1711719793713229e+00
        9.8329357980860110e-01 9.6829511943229540e-01
        6.2524501312385317e-01 1.0386816575638758e+00
        9.4093370828848610e-01 8.5550787701421105e-01
        9.9593341565018267e-01 9.5590510996452993e-01
        9.2492582580086280e-01 9.9999979953960660e-01
        8.5991532083183642e-01 9.9999853786770565e-01
        9.6862446091186782e-01 8.8260577687486563e-01
        9.4694173391942416e-01 1.1404747667997073e+00
        1.1686113249411747e+00 1.0144289486016114e+00
        5.4726434022878712e-01 6.1088852842776997e-01
        9.5877837363623830e-01 6.4665125382210575e-01
        7.4392150137751578e-01 1.0289179408434939e+00
        2.0783396098369615e+00 1.1329723716530973e+00
        1.3132879237656445e+00 1.3499185971391181e+00
        8.7806337663288270e-01 8.9440846940173113e-01
        6.7637446575814475e-01 2.5000000000000000e+00
        1.6270544042861352e+00 5.2787364475771126e-01
        1.1611971384034609e+00 9.9485335824763532e-01
        9.0761023168056421e-01 7.4761909121267012e-01
        1.2402623399171047e+00 2.0251436421343438e-01
        6.1928328635074548e-01 9.0981751278492262e-01 -1.
        -1.0694941032871037e+00 -1.0002275484439451e+00
        -7.9232561379204980e-01 -1.4626067330050097e+00
        -1.4711221284370217e+00 -1.3916845863186107e+00
        -8.0189349457045012e-01 -7.8350905068056798e-01
        -1.6202979587909065e+00 -1.0020684909539517e+00
        -1.9689402956775048e+00 -9.2595565247874945e-01
        -1.8711494826165644e+00 -2.5000000000000000e+00
        -2.5000000000000000e+00 -7.4284018409558383e-01
        -1.1385620293490604e+00 -2.5000000000000000e+00
        -8.4958053877192841e-01 -1.9109059443525604e+00
        -2.5000000000000000e+00 -2.5000000000000000e+00
        -1.8065156421244075e+00 -1.0144289486016114e+00
        -2.5000000000000000e+00 -1.1143150237593509e+00
        -2.5000000000000000e+00 -1.3247269111628679e+00
        -1.9224624915633814e+00 -9.9229811286530312e-01
        -2.5000000000000000e+00 -1.8014399985507139e+00
        -1.4267372544185177e+00 -1.1190788794686866e+00
        -2.5000000000000000e+00 -1.1404747667997073e+00
        -1.9616382542012527e+00 -1.2269144254944320e-01
        -4.3563387601543280e-01 -2.4196628229377311e+00
        -2.5000000000000000e+00 -1.2447577638338250e+00
        -1.1761384495144165e+00 -2.5000000000000000e+00
        -2.5000000000000000e+00 -1.8768661316033837e+00
        -8.4187352058955955e-01 -2.4090391185797690e+00
        -1.2037646017872150e+00 -2.5000000000000000e+00
        -1.6581264794104404e+00 -1.0304376398974791e+00
        -2.0321670928835847e+00 -2.5000000000000000e+00
        -2.5000000000000000e+00 -9.6084970830076766e-01
        -9.9999976317100225e-01 -1.9354304344506359e+00
        -6.1374953045920011e-01 -1.2946324634958244e+00
        -1.3417763891697687e+00 -1.5599098113234355e+00
        -1.2881074157587369e+00 -5.4388892033343761e-01
        -1.3948873000484339e+00 -1.8959893658010418e+00
        -7.8770455001190332e-01 -1.9748668396383267e+00
        -6.0401063419895817e-01 -2.4769366921420133e+00
        -1.9473549427626269e+00 -1.2446058299824387e+00
        -7.8342283015652880e-01 -1.4441332887485554e+00
        -1.1644075654258863e+00 -8.6468143847827639e-01
        -1.4137178783464126e+00 -5.7753750843661855e-01
        -1.9842805582501495e+00 -1.5598330784136762e+00
        -2.5000000000000000e+00 -8.2144871011873155e-01
        -1.0835503464029383e+00 -2.5000000000000000e+00
        -2.5000000000000000e+00 -1.8259217117487034e+00
        -2.5000000000000000e+00 -2.5000000000000000e+00
        -2.5000000000000000e+00 -2.5000000000000000e+00
        -2.5000000000000000e+00 -2.5000000000000000e+00
        -2.5000000000000000e+00 -1.9520743037138948e+00
        -2.5000000000000000e+00 -2.5000000000000000e+00
        -2.5000000000000000e+00 -1.9140455712412721e+00
        -2.5000000000000000e+00 -1.3295389324514404e+00
        -2.5000000000000000e+00 -2.5000000000000000e+00
        -1.6308942131966222e+00 -2.5000000000000000e+00
        -9.8329357980860110e-01 -9.5468175062817839e-01
        -2.5000000000000000e+00 -2.5000000000000000e+00
        -1.4335598537501479e+00 -3.1819391838231681e-01
        -1.2577666924569324e+00 -1.6731555112497793e+00
        -2.5000000000000000e+00 -1.4609574770208880e+00
        -1.8975020954173187e+00 -1.3010683992087644e+00
        -2.1337370478582729e-01 -1.8836883470070127e+00
        -6.9348435787559248e-01 -7.2658014788464453e-01
        -1.1075189025863696e+00 -2.4616789496746856e+00
        -4.3875050760704948e-01 -1.2124438213031490e+00
        -8.4727585987612941e-01 -2.0612494923929505e+00
        -1.2254648557301662e+00 -4.7098512359657141e-01
        -1.6781305724123885e+00 -1.4840416474256242e+00
        -1.9235348681022000e+00 -1.5121677375271210e+00
        -6.8513409560996030e-01 -2.0390596636958733e+00
        -1.0938860128719048e+00 -2.0496560748796719e+00
        -1.7360087965635724e+00 -2.2058230137110844e+00
        -1.5124694949752764e+00 -1.7542305752544616e+00
        -4.9878034063595411e-01 -2.4988848937058790e+00
        -2.5000000000000000e+00 -2.4214702197162055e+00
        -6.7407828825129656e-01 -1.3142072624210011e+00
        -1.1599239024130710e+00 -2.5000000000000000e+00
        -1.2439759896784068e+00 -2.5000000000000000e+00
        -2.5000000000000000e+00 -2.5000000000000000e+00
        -2.5000000000000000e+00 -1.7622821222494758e+00
        -7.8960789507982820e-01 -2.5000000000000000e+00
        -2.5000000000000000e+00 -2.5000000000000000e+00
        -2.5000000000000000e+00 -4.9851071490420917e-01
        -2.5000000000000000e+00 -1.3035307392898108e+00
        -2.5000000000000000e+00 -7.9201195343952846e-01
        -2.5000000000000000e+00 -7.7303341633668499e-01
        -1.4258298186681868e+00 -1.5366318914281998e+00
        -2.0290148764034286e+00 -9.0170475243156911e-01
        -2.4807953246053653e+00 -1.3106311185204875e+00
        -2.5000000000000000e+00 -1.9240613948784402e+00
        -1.1931438818742963e+00 -1.4292291249726521e+00
        -3.6044032284285876e-01 -8.7061965581719813e-01
        -6.4665125382210575e-01 -9.3613905618609872e-01
        -1.3355924345741137e+00 -6.2885051738343556e-01
        -9.6862446091186782e-01 -9.9998497489711746e-01
        -6.1928328635074548e-01 -9.5590510996452993e-01
        -1.2182481442490567e+00 -1.2553941700175613e+00
        -2.0724447762821470e+00 -1.5755280566046528e+00
        -1.1083154136813893e+00 -6.2486639556523860e-01
        -1.0578592354652130e+00 -1.6354595672665673e+00
        -1.2945701336669559e+00 -1.0288778715629783e+00
        -6.3750875674205965e-01 -2.5000000000000000e+00
        -2.0048802429712667e+00 -1.3031151743281626e+00
        -4.9511975702873334e-01 -1.3268925591376708e+00
        -1.1731074408623292e+00 -1.1474158853964587e+00
        -2.5000000000000000e+00 -9.9999992102742152e-01
        -7.3460019115268183e-01 -1.6121873647979794e+00
        -1.1542254530124014e+00 -1.1906517403485244e+00
        -2.5000000000000000e+00 -2.5000000000000000e+00
        -1.1383193241421010e+00 -2.5000000000000000e+00
        -2.5000000000000000e+00 -8.8050379874051499e-01
        -1.2046784970125319e+00 -2.5000000000000000e+00
        -2.5000000000000000e+00 -2.5000000000000000e+00
        -1.2849620028310254e+00 -2.5000000000000000e+00
        -2.5000000000000000e+00 -1.3915734879613164e+00
        -2.5000000000000000e+00 -1.1012833020667219e+00
        -9.4093370828848610e-01 -6.4856094940462228e-01
        -9.9999994890924060e-01 -1.9259654181047292e-01
        -8.5550787701421105e-01 -9.9975503309135416e-01
        -9.1167994235107486e-01 -7.3784272068215129e-01
        -9.0901293046713194e-01 -9.9593341565018267e-01
        -9.9917281025743654e-01 -9.9999648751163672e-01
        -1.0376034367712794e+00 -6.8134620877187824e-01
        -1.2008231772349682e+00 -9.1591528842941150e-01
        -1.6198613502803707e+00 -9.6304283443228600e-01
        -5.4455905985183084e-01 -6.2524501312385317e-01
        -7.8040744334890122e-01 -9.2080742025972462e-01
        -1.0208108950073846e+00 -5.4485087222898665e-01
        -9.9966491648331934e-01 -9.9626447915321514e-01
        -5.8506414919180316e-01 -9.8916575680185281e-01
        -9.5604900319140651e-01 -1.0607459518951394e+00
        -2.5000000000000000e+00 -2.5000000000000000e+00
        -1.4278788802626043e+00 -1.1792499989582832e+00
        -2.5000000000000000e+00 -1.3367665258464674e+00
        -9.5820719209552552e-01 -9.9921002085174737e-01
        -1.3626084715466420e+00 -2.5000000000000000e+00
        -1.1345754308785834e+00 -9.0174387023482916e-01
        -7.9182974187642940e-01 -1.1814261407856048e+00
        -2.5000000000000000e+00 -2.5000000000000000e+00
        -1.5695144537172203e+00 -2.0201029461032212e+00
        -1.9741254286096963e+00 -1.1082450214584392e+00
        -2.5000000000000000e+00 -4.5426221157647184e-01
        -2.5000000000000000e+00 -2.5000000000000000e+00
        -2.5000000000000000e+00 -2.5000000000000000e+00
        -2.5000000000000000e+00 -2.0457377884235282e+00
        -2.5000000000000000e+00 -2.5000000000000000e+00
        -2.5000000000000000e+00 -5.2903768802273365e-01
        -2.5000000000000000e+00 -1.4312271087641919e+00
        -2.5000000000000000e+00 -2.5000000000000000e+00
        -2.5000000000000000e+00 -2.5000000000000000e+00
        -2.0026438543035523e+00 -2.0303168096842401e+00
        -1.7900349881615603e+00 -2.1345489716432384e+00
        -7.8515353420692946e-01 -1.4922164881305275e+00
        -1.3249742851729838e+00 -2.5000000000000000e+00
        -2.5000000000000000e+00 -1.3726319099577444e+00
        -1.4079017776606535e+00 -2.5000000000000000e+00
        -6.1525702996864506e-01 -1.1147446395756917e+00
        -2.5000000000000000e+00 -2.5000000000000000e+00
        -2.5000000000000000e+00 -1.6609101496409187e+00
        -1.6989795075843199e+00 -9.4797478586080808e-01
        -9.5877837363623830e-01 -1.5549984824454459e+00
        -9.7164347424648390e-01 -5.1266744031983835e-01
        -2.0301338220242977e+00 -1.3177632605482228e+00
        -2.4370818693511653e-01 -9.7188611154574223e-01
        -1.0120907422085277e+00 -5.8909405564743955e-01
        -1.0344758617956424e+00 -6.3711761932371824e-01
        -7.4761909121267012e-01 -9.9636543380346498e-01
        -1.6169147009079943e-01 -6.3420429035735015e-01
        -1.8516659928088508e-01 -9.9047340592434985e-01
        -9.9990344756220584e-01 -6.2258600208382231e-01
        -9.8427439481602663e-01 -9.9999995277860565e-01
        -6.7164584889209644e-01 -8.5808247646855440e-01
        -1.4974792710998361e+00 -9.6819589806317397e-01
        -1.2222487184062110e+00 -4.6986617797570229e-01
        -7.1520445414410638e-01 -8.9372985839823427e-01
        -2.5000000000000000e+00 -2.5000000000000000e+00
        -7.4222544934266077e-01 -9.7405678329010692e-01
        -9.7800102733630256e-01 -8.8877200823898195e-01
        -1.4289758138854323e+00 -1.3287603563645725e+00
        -1.3598616009859055e+00 -9.6120275467373462e-01
        -1.2908872973511001e+00 -1.2483267576371870e+00
        -6.3214298823570092e-01 -2.1395596771571412e+00
        -2.5000000000000000e+00 -9.0045525017356987e-01
        -2.5000000000000000e+00 -7.7103236323935309e-01
        -1.1014670572895120e+00 -2.5000000000000000e+00
        -2.5000000000000000e+00 -1.0738440237312605e+00
        -1.9734371309285015e+00 -9.2180301518913477e-01
        -1.9598474079229573e+00 -2.1189934094344336e+00
        -1.9095240678488474e+00 -1.1611971384034609e+00
        -8.9440846940173113e-01 -9.9999853786770565e-01
        -2.5008200959916405e-01 -7.9059134903204764e-01
        -9.9700984541202908e-01 -8.6638017488655439e-01
        -1.6527241401238706e+00 -2.5000000000000000e+00
        -2.4201751472559971e+00 -1.0105640615508713e+00
        -2.5000000000000000e+00 -2.5000000000000000e+00
        -2.5000000000000000e+00 -2.5000000000000000e+00
        -2.0229647219192550e+00 -2.5000000000000000e+00
        -2.5000000000000000e+00 -1.1711719793713229e+00
        -2.5000000000000000e+00 -2.5000000000000000e+00
        -1.5951822412531282e+00 -1.9613145480248337e+00
        -1.2535667179380972e+00 -2.5000000000000000e+00
        -2.5000000000000000e+00 -2.5000000000000000e+00
        -2.5000000000000000e+00 -9.3255300688847909e-01
        -2.5000000000000000e+00 -1.3894405537024777e+00
        -2.5000000000000000e+00 -2.0507776195032195e+00
        -2.5000000000000000e+00 -1.8911394932713048e+00
        -2.5000000000000000e+00 -2.5000000000000000e+00
        -2.3246817413506178e+00 -2.5000000000000000e+00
        -1.6990428490144229e+00 -2.5000000000000000e+00
        -2.5000000000000000e+00 -2.5000000000000000e+00
        -2.5000000000000000e+00 -2.5000000000000000e+00
        -2.5000000000000000e+00 -2.5000000000000000e+00
        -2.3501004520599311e+00 -9.5861013341918411e-01
        -2.5000000000000000e+00 -2.5000000000000000e+00
        -6.6218055034544410e-01 -1.1487704612593128e+00
        -2.5000000000000000e+00 -1.3476950305242903e+00
        -2.0331097263859341e+00 -1.0214166461950569e-01
        -2.0508127503591997e+00 -2.1088216376368272e+00
        -3.5406187149145518e-01 -2.5000000000000000e+00
        -1.6661762822548256e+00 -2.5000000000000000e+00
        -4.8386452471644237e-01 -1.3279662850402358e+00
        -2.5000000000000000e+00 -2.5000000000000000e+00
        -2.5000000000000000e+00 -1.2169372815099133e+00
        -2.5000000000000000e+00 -2.5000000000000000e+00
        -2.5000000000000000e+00 -2.5000000000000000e+00
        -2.5000000000000000e+00 -2.3483616537398087e+00
        -2.5000000000000000e+00 -1.2462638563579194e+00
        -2.0016980894194196e+00 -1.9882393522534423e+00
        -1.6740423341210064e+00 -2.5000000000000000e+00
        -1.5914460903893135e+00 -2.5000000000000000e+00
        -1.0971116118698918e+00 -1.3756618923671731e+00
        -2.5000000000000000e+00 -1.4451867664315317e+00
        -2.5000000000000000e+00 -1.2483543039821514e+00
        -1.0525404680252275e+00 -2.5000000000000000e+00
        -2.5000000000000000e+00 -1.9624506343236086e+00
        -2.5000000000000000e+00 -6.8680663419722643e-01
        -1.6618912133084602e+00 -7.7873896920988583e-01
        -6.4315116576579734e-01 -1.0596227227510664e+00
        -7.8790281747220448e-01 -7.4720424750000713e-01
        -2.2468787157095260e+00 -6.7316420774855601e-01
        -1.8515258543002491e+00 -1.2001114067823586e+00
        -8.8260577687486563e-01 -8.6657418238052331e-01
        -9.8257624739059035e-01 -1.1307057486205854e+00
        -1.4996832115100551e+00 -1.7248061721815393e+00
        -1.2465512877066409e+00 -5.6651002559208075e-01
        -1.2145900071373092e+00 -2.5000000000000000e+00
        -1.2295836780736331e+00 -1.5838453719796075e+00
        -2.5000000000000000e+00 -1.6552225286283533e+00
        -2.5000000000000000e+00 -1.7569636663510337e+00
        -7.6322413803789657e-01 -2.5000000000000000e+00
        -6.3756517483118946e-01 -2.5000000000000000e+00
        -2.5000000000000000e+00 -1.9554409401481692e+00
        -2.5000000000000000e+00 -2.4859021054354211e+00
        -1.4529600997389469e+00 -4.6206689498067766e-01
        -2.5000000000000000e+00 -1.8469041968399189e+00
        -8.5991532083183642e-01 -2.0516109677611896e+00
        -2.5000000000000000e+00 -2.5000000000000000e+00
        -1.5031046582417407e+00 -2.4852421573653580e+00
        -2.5000000000000000e+00 -1.0861791586758709e+00
        -8.6060152219735198e-01 -2.5000000000000000e+00
        -1.3185738592143952e+00 -8.3847576164419957e-01
        -1.2348350842318783e+00 -7.5462755439945761e-01
        -2.2471778595109306e+00 -2.5000000000000000e+00
        -9.4542249369210296e-01 -2.5000000000000000e+00
        -2.5000000000000000e+00 -2.5000000000000000e+00
        -8.2442079621495856e-01 -2.5000000000000000e+00
        -2.5000000000000000e+00 -2.5000000000000000e+00
        -7.7786404695120659e-01 -2.5000000000000000e+00
        -2.5000000000000000e+00 -1.6833497168438385e+00
        -1.1983490616569819e+00 -1.9098777728049980e+00
        -2.5000000000000000e+00 -1.5674469931115209e+00
        -6.6078425267071417e-01 -1.3344548777317955e+00
        -1.4654721508645245e+00 -1.4271394601921235e+00
        -1.3132879237656445e+00 -2.5000000000000000e+00
        -2.5000000000000000e+00 -2.5000000000000000e+00
        -1.3643453324052373e+00 -2.5000000000000000e+00
        -1.8017988661604289e+00 -2.5000000000000000e+00
        -2.5000000000000000e+00 -2.5000000000000000e+00
        -2.5000000000000000e+00 -7.2267638798163114e-01
        -1.2123752120028355e+00 -1.7160245224852897e+00
        -5.6562076374551262e-01 -8.9541010571127244e-01
        -9.9485335824763532e-01 -9.4694173391942416e-01
        -8.4034119909350879e-01 -9.6499521640354258e-01
        -9.9758282725431147e-01 -8.5160169766345617e-01
        -9.8992250911517599e-01 -9.9994579599955391e-01
        -9.9026755946299905e-01 -1.0787114986309252e+00
        -1.0773307874383784e+00 -1.0488787910502559e+00
        -2.5000000000000000e+00 -1.1329723716530973e+00
        -9.8390380106504427e-01 -9.2492582580086280e-01
        -1.6270544042861352e+00 -1.2998468948107709e+00
        -1.0236194012846196e+00 -2.5000000000000000e+00
        -2.5000000000000000e+00 -7.1934185335866330e-01
        -1.1541116488814807e+00 -2.5000000000000000e+00
        -7.9080169979475423e-01 -2.5000000000000000e+00
        -1.1236578592087831e+00 -1.0085723628272658e+00
        -8.3715762131771809e-01 -1.0558667112514446e+00
        -2.5000000000000000e+00 -6.4343599540776586e-01
        -9.9999167165586511e-01 -1.2194116785922264e+00
        -2.5000000000000000e+00 -1.0390425229791120e+00
        -8.6972322197962970e-01 -7.1511850808734723e-01
        -2.5000000000000000e+00 -2.2013613377063828e+00
        -6.4847414569975093e-01 -8.9672711281649320e-01
        -1.3081603593526714e+00 -1.4432894200606299e+00
        -2.0495886070578506e+00 -1.8655475928955974e+00
        -2.0118852453053693e+00 -1.5668222734006623e+00
        -1.9860408658254967e+00 -1.8773144353369158e+00
        -2.5000000000000000e+00 -4.9169256405687678e-01
        -1.2422333075430676e+00 -2.5000000000000000e+00
        -1.0470399002610531e+00 -2.5000000000000000e+00
        -2.0744351906563301e+00 -2.5000000000000000e+00
        -2.5000000000000000e+00 -1.4695623601025209e+00
        -2.5000000000000000e+00 -2.5000000000000000e+00
        -9.6361245555204866e-01 -2.5000000000000000e+00
        -2.5000000000000000e+00 -1.5711105302761830e+00
        -1.9280215484917815e+00 -9.0981751278492262e-01
        -7.9087997530120657e-01 -7.6546569370162532e-01
        -9.9999979953960660e-01 -9.6378411727700664e-01
        -8.5003042114881688e-01 -9.9571833653430453e-01
        -9.9969641643876739e-01 -9.9999549642438690e-01
        -6.5749423263705964e-01 -7.4413083577050798e-01
        -9.9489762553612238e-01 -1.0339210486255686e+00
        -9.9986522828027646e-01 -2.4542823418449444e+00
        -9.7046434537685755e-01 -8.6503298061308176e-01</alpha>
      <index>
        1174 641 642 643 644 645 646 647 648 649 650 651 652 653 654 655
        656 657 658 659 660 661 662 663 664 665 666 667 668 669 670 671
        672 673 674 675 676 677 678 679 680 681 682 683 684 685 686 687
        688 689 690 691 692 693 694 695 696 697 698 699 700 701 702 703
        704 705 706 707 708 709 710 711 712 713 714 715 716 717 718 719
        720 721 722 723 724 725 726 727 728 729 730 731 732 733 734 735
        736 737 738 739 740 741 742 743 744 745 746 747 748 749 750 751
        752 753 754 755 756 757 758 759 760 761 762 763 764 765 766 767
        768 769 770 771 772 773 774 775 776 777 778 779 780 781 782 783
        784 785 786 787 788 789 790 791 792 793 794 795 796 797 798 799
        800 801 802 803 804 805 806 807 808 809 810 811 812 813 814 815
        816 817 818 819 820 821 822 823 824 825 826 827 828 829 830 831
        832 833 834 835 836 837 838 839 840 841 842 843 844 845 846 847
        848 849 850 851 852 853 854 855 856 857 858 859 860 861 862 863
        864 865 866 867 868 869 870 871 872 873 874 875 876 877 878 879
        880 881 882 883 884 885 886 887 888 889 890 891 892 893 894 895
        896 897 898 899 900 901 902 903 904 905 906 907 908 909 910 911
        912 913 914 915 916 917 918 919 920 921 922 923 924 925 926 927
        928 929 930 931 932 933 934 935 936 937 938 939 940 941 942 943
        944 945 946 947 948 949 950 951 952 953 954 955 956 957 958 959
        960 961 962 963 964 965 966 967 968 969 970 971 972 973 974 975
        976 977 978 979 980 981 982 983 984 985 986 987 988 989 990 991
        992 993 994 995 996 997 998 999 1000 1001 1002 1003 1004 1005
        1006 1007 1008 1009 1010 1011 1012 1013 1014 1015 1016 1017 1018
        1019 1020 1021 1022 1023 1024 1025 1026 1027 1028 1029 1030 1031
        1032 1033 1034 1035 1036 1037 1038 1039 1040 1041 1042 1043 1044
        1045 1046 1047 1048 1049 1050 1051 1052 1053 1054 1055 1056 1057
        1058 1059 1060 1061 1062 1063 1064 1065 1066 1067 1068 1069 1070
        1071 1072 1073 1074 1075 1076 1077 1078 1079 1080 1081 1082 1083
        1084 1085 1086 1087 1088 1089 1090 1091 1092 1093 1094 1095 1096
        1097 1098 1099 1100 1101 1102 1103 1104 1105 1106 1107 1108 1109
        1110 1111 1112 1113 1114 1115 1116 1117 1118 1119 1120 1121 1122
        1123 1124 1125 1126 1127 1128 1129 1130 1131 1132 1133 1134 1135
        1136 1137 1138 1139 1140 1141 1142 1143 1144 1145 1146 1147 1148
        1149 1150 1151 1152 1153 1154 1155 1156 1157 1158 1159 1160 1161
        1162 1163 1164 1165 1166 1167 1168 1169 1170 1171 1172 1173 1175
        1176 1177 1178 1179 1180 1181 1182 1183 1184 1185 1186 1187 1188
        1189 1190 1191 1192 1193 1194 1195 1196 1197 1198 1199 1200 1201
        1202 1203 1204 1205 1206 1207 1208 1209 0 1 2 3 4 5 6 7 8 9 10
        11 12 13 14 15 16 17 18 19 20 21 22 23 24 25 26 27 28 29 30 31
        32 33 34 35 36 37 38 39 40 41 42 43 44 45 46 47 48 49 50 51 52
        53 54 55 56 57 58 59 60 61 62 63 64 65 66 67 68 69 70 71 72 73
        74 75 76 77 78 79 80 81 82 83 84 85 86 87 88 89 90 91 92 93 94
        95 96 97 98 99 100 101 102 103 104 105 106 107 108 109 110 111
        112 113 114 115 116 117 118 119 120 121 122 123 124 125 126 127
        128 129 130 131 132 133 134 135 136 137 138 139 140 141 142 143
        144 145 146 147 148 149 150 151 152 153 154 155 156 157 158 159
        160 161 162 163 164 165 166 167 168 169 170 171 172 173 174 175
        176 177 178 179 180 181 182 183 184 185 186 187 188 189 190 191
        192 193 194 195 196 197 198 199 200 201 202 203 204 205 206 207
        208 209 210 211 212 213 214 215 216 217 218 219 220 221 222 223
        224 225 226 227 228 229 230 231 232 233 234 235 236 237 238 239
        240 241 242 243 244 245 246 247 248 249 250 251 252 253 254 255
        256 257 258 259 260 261 262 263 264 265 266 267 268 269 270 271
        272 273 274 275 276 277 278 279 280 281 282 283 284 285 286 287
        288 289 290 291 292 293 294 295 296 297 298 299 300 301 302 303
        304 305 306 307 308 309 310 311 312 313 314 315 316 317 318 319
        320 321 322 323 324 325 326 327 328 329 330 331 332 333 334 335
        336 337 338 339 340 341 342 343 344 345 346 347 348 349 350 351
        352 353 354 355 356 357 358 359 360 361 362 363 364 365 366 367
        368 369 370 371 372 373 374 375 376 377 378 379 380 381 382 383
        384 385 386 387 388 389 390 391 392 393 394 395 396 397 398 399
        400 401 402 403 404 405 406 407 408 409 410 411 412 413 414 415
        416 417 418 419 420 421 422 423 424 425 426 427 428 429 430 431
        432 433 434 435 436 437 438 439 440 441 442 443 444 445 446 447
        448 449 450 451 452 453 454 455 456 457 458 459 460 461 462 463
        464 465 466 467 468 469 470 471 472 473 474 475 476 477 478 479
        480 481 482 483 484 485 486 487 488 489 490 491 492 493 494 495
        496 497 498 499 500 501 502 503 504 505 506 507 508 509 510 511
        512 513 514 515 516 517 518 519 520 521 522 523 524 525 526 527
        528 529 530 531 532 533 534 535 536 537 538 539 540 541 542 543
        544 545 546 547 548 549 550 551 552 553 554 555 556 557 558 559
        560 561 562 563 564 565 566 567 568 569 570 571 572 573 574 575
        576 577 578 579 580 581 582 583 584 585 586 587 588 589 590 591
        592 593 594 595 596 597 598 599 600 601 602 603 604 605 606 607
        608 609 610 611 612 613 614 615 616 617 618 619 620 621 622 623
        624 625 626 627 628 629 630 631 632 633 634 635 636 637 638 639
        640</index></_></decision_functions></opencv_ml_svm>
</opencv_storage>
