<?xml version="1.0"?>
<opencv_storage>
<opencv_ml_svm>
  <format>3</format>
  <svmType>C_SVC</svmType>
  <kernel>
    <type>RBF</type>
    <gamma>1.5000000000000001e-04</gamma></kernel>
  <C>1.0000000000000001e-01</C>
  <term_criteria><epsilon>1.1920928955078125e-07</epsilon>
    <iterations>1000</iterations></term_criteria>
  <var_count>3</var_count>
  <class_count>2</class_count>
  <class_labels type_id="opencv-matrix">
    <rows>2</rows>
    <cols>1</cols>
    <dt>i</dt>
    <data>
      -1 1</data></class_labels>
  <sv_total>150</sv_total>
  <support_vectors>
    <_>
      172. 162. 145.</_>
    <_>
      172. 159. 176.</_>
    <_>
      173. 202. 53.</_>
    <_>
      173. 211. 58.</_>
    <_>
      173. 199. 59.</_>
    <_>
      173. 196. 65.</_>
    <_>
      173. 213. 60.</_>
    <_>
      173. 213. 60.</_>
    <_>
      175. 213. 60.</_>
    <_>
      175. 213. 60.</_>
    <_>
      173. 201. 66.</_>
    <_>
      173. 201. 66.</_>
    <_>
      173. 198. 67.</_>
    <_>
      174. 139. 187.</_>
    <_>
      173. 144. 195.</_>
    <_>
      173. 143. 208.</_>
    <_>
      173. 143. 210.</_>
    <_>
      171. 144. 209.</_>
    <_>
      172. 145. 210.</_>
    <_>
      171. 145. 214.</_>
    <_>
      172. 144. 214.</_>
    <_>
      170. 147. 220.</_>
    <_>
      169. 154. 235.</_>
    <_>
      169. 151. 229.</_>
    <_>
      172. 149. 239.</_>
    <_>
      172. 149. 239.</_>
    <_>
      172. 143. 220.</_>
    <_>
      172. 144. 222.</_>
    <_>
      173. 142. 221.</_>
    <_>
      173. 142. 216.</_>
    <_>
      172. 142. 217.</_>
    <_>
      172. 144. 222.</_>
    <_>
      173. 144. 229.</_>
    <_>
      173. 143. 214.</_>
    <_>
      172. 144. 214.</_>
    <_>
      0. 184. 198.</_>
    <_>
      176. 195. 64.</_>
    <_>
      177. 199. 68.</_>
    <_>
      172. 235. 243.</_>
    <_>
      172. 237. 242.</_>
    <_>
      172. 237. 241.</_>
    <_>
      172. 236. 243.</_>
    <_>
      172. 237. 245.</_>
    <_>
      172. 241. 243.</_>
    <_>
      172. 238. 241.</_>
    <_>
      172. 238. 240.</_>
    <_>
      0. 182. 144.</_>
    <_>
      0. 177. 144.</_>
    <_>
      0. 176. 145.</_>
    <_>
      164. 255. 180.</_>
    <_>
      0. 177. 143.</_>
    <_>
      163. 255. 180.</_>
    <_>
      1. 175. 141.</_>
    <_>
      0. 173. 146.</_>
    <_>
      1. 175. 141.</_>
    <_>
      0. 172. 139.</_>
    <_>
      163. 255. 187.</_>
    <_>
      0. 171. 137.</_>
    <_>
      2. 188. 118.</_>
    <_>
      0. 169. 137.</_>
    <_>
      3. 190. 114.</_>
    <_>
      169. 188. 136.</_>
    <_>
      1. 170. 135.</_>
    <_>
      3. 194. 108.</_>
    <_>
      0. 171. 130.</_>
    <_>
      3. 179. 114.</_>
    <_>
      179. 162. 129.</_>
    <_>
      171. 255. 153.</_>
    <_>
      171. 255. 151.</_>
    <_>
      172. 253. 143.</_>
    <_>
      172. 253. 143.</_>
    <_>
      172. 253. 146.</_>
    <_>
      173. 8. 136.</_>
    <_>
      173. 8. 134.</_>
    <_>
      75. 3. 146.</_>
    <_>
      173. 26. 39.</_>
    <_>
      173. 21. 49.</_>
    <_>
      120. 8. 67.</_>
    <_>
      0. 0. 62.</_>
    <_>
      0. 0. 62.</_>
    <_>
      75. 7. 71.</_>
    <_>
      75. 7. 71.</_>
    <_>
      169. 87. 50.</_>
    <_>
      173. 4. 242.</_>
    <_>
      173. 4. 237.</_>
    <_>
      80. 6. 251.</_>
    <_>
      173. 4. 241.</_>
    <_>
      0. 0. 245.</_>
    <_>
      83. 4. 250.</_>
    <_>
      70. 6. 251.</_>
    <_>
      173. 4. 241.</_>
    <_>
      176. 86. 86.</_>
    <_>
      170. 7. 235.</_>
    <_>
      0. 0. 249.</_>
    <_>
      175. 84. 88.</_>
    <_>
      0. 51. 30.</_>
    <_>
      20. 20. 38.</_>
    <_>
      0. 0. 57.</_>
    <_>
      165. 9. 55.</_>
    <_>
      178. 85. 87.</_>
    <_>
      173. 4. 228.</_>
    <_>
      174. 118. 80.</_>
    <_>
      170. 88. 93.</_>
    <_>
      172. 89. 95.</_>
    <_>
      172. 100. 84.</_>
    <_>
      0. 0. 232.</_>
    <_>
      11. 98. 73.</_>
    <_>
      8. 80. 83.</_>
    <_>
      177. 13. 174.</_>
    <_>
      0. 0. 228.</_>
    <_>
      0. 7. 235.</_>
    <_>
      7. 98. 83.</_>
    <_>
      6. 85. 87.</_>
    <_>
      5. 89. 86.</_>
    <_>
      4. 71. 100.</_>
    <_>
      4. 78. 95.</_>
    <_>
      0. 0. 157.</_>
    <_>
      0. 0. 156.</_>
    <_>
      0. 0. 159.</_>
    <_>
      0. 0. 158.</_>
    <_>
      165. 3. 150.</_>
    <_>
      133. 88. 203.</_>
    <_>
      135. 90. 199.</_>
    <_>
      135. 90. 199.</_>
    <_>
      134. 92. 188.</_>
    <_>
      131. 93. 181.</_>
    <_>
      133. 87. 196.</_>
    <_>
      133. 87. 197.</_>
    <_>
      132. 89. 192.</_>
    <_>
      96. 162. 194.</_>
    <_>
      96. 167. 197.</_>
    <_>
      117. 110. 225.</_>
    <_>
      117. 110. 225.</_>
    <_>
      102. 162. 221.</_>
    <_>
      96. 162. 194.</_>
    <_>
      102. 162. 221.</_>
    <_>
      96. 162. 194.</_>
    <_>
      102. 162. 224.</_>
    <_>
      96. 162. 194.</_>
    <_>
      117. 110. 225.</_>
    <_>
      102. 162. 224.</_>
    <_>
      101. 164. 221.</_>
    <_>
      102. 162. 224.</_>
    <_>
      96. 163. 193.</_>
    <_>
      102. 162. 224.</_>
    <_>
      102. 162. 224.</_>
    <_>
      97. 162. 194.</_>
    <_>
      102. 162. 224.</_>
    <_>
      101. 164. 222.</_>
    <_>
      102. 162. 224.</_></support_vectors>
  <decision_functions>
    <_>
      <sv_count>150</sv_count>
      <rho>-2.7231084847495501e-01</rho>
      <alpha>
        1.0000000000000001e-01 5.2415548978362050e-02
        6.2512852031636409e-02 1.0000000000000001e-01
        1.0000000000000001e-01 8.6157244734114985e-02
        7.5294250338432109e-02 1.0000000000000001e-01
        9.0858430897809664e-02 5.1598233428396333e-02
        1.0000000000000001e-01 1.0000000000000001e-01
        1.0000000000000001e-01 3.0145655272277562e-02
        1.0000000000000001e-01 1.0000000000000001e-01
        1.0000000000000001e-01 1.0000000000000001e-01
        1.0000000000000001e-01 1.0000000000000001e-01
        3.5821816565888391e-02 1.0000000000000001e-01
        9.2361672582679816e-03 1.0000000000000001e-01
        4.5460524937948284e-02 1.0000000000000001e-01
        1.0000000000000001e-01 1.0000000000000001e-01
        4.7251463942142059e-02 1.0000000000000001e-01
        1.0000000000000001e-01 1.0000000000000001e-01
        1.0000000000000001e-01 1.0000000000000001e-01
        1.0000000000000001e-01 1.0000000000000001e-01
        2.3378530313489417e-02 6.5743097484958546e-02
        1.0000000000000001e-01 1.0000000000000001e-01
        1.0000000000000001e-01 1.0000000000000001e-01
        7.1581212730930974e-02 1.0000000000000001e-01
        1.0000000000000001e-01 5.0579436802247510e-02
        3.1341760066606689e-02 1.0000000000000001e-01
        4.3785461144287011e-02 1.0000000000000001e-01
        1.0000000000000001e-01 1.0000000000000001e-01
        1.0000000000000001e-01 1.0000000000000001e-01
        1.0000000000000001e-01 1.0000000000000001e-01
        5.6753101691508566e-02 1.0000000000000001e-01
        1.0000000000000001e-01 1.0000000000000001e-01
        1.0000000000000001e-01 1.0000000000000001e-01
        1.0000000000000001e-01 1.0000000000000001e-01
        1.0000000000000001e-01 1.0000000000000001e-01
        7.9871800786406183e-02 5.8772092119411560e-03
        1.0000000000000001e-01 6.1469373337376357e-02
        1.0000000000000001e-01 1.0000000000000001e-01
        1.0000000000000001e-01 1.0000000000000001e-01
        1.0000000000000001e-01 1.0000000000000001e-01
        1.0000000000000001e-01 1.0000000000000001e-01
        -1.0000000000000001e-01 -1.0000000000000001e-01
        -1.0000000000000001e-01 -1.0000000000000001e-01
        -1.0000000000000001e-01 -1.0000000000000001e-01
        -1.0000000000000001e-01 -5.1598233428396333e-02
        -6.4907808454569227e-02 -1.0000000000000001e-01
        -1.0000000000000001e-01 -3.2465389483651054e-02
        -1.0000000000000001e-01 -1.0000000000000001e-01
        -1.0000000000000001e-01 -1.0000000000000001e-01
        -1.0000000000000001e-01 -1.0000000000000001e-01
        -1.0000000000000001e-01 -1.0000000000000001e-01
        -1.0000000000000001e-01 -1.0000000000000001e-01
        -5.7138814546121935e-02 -1.0000000000000001e-01
        -1.0000000000000001e-01 -1.0000000000000001e-01
        -1.0000000000000001e-01 -1.0000000000000001e-01
        -1.0000000000000001e-01 -1.0000000000000001e-01
        -1.0000000000000001e-01 -1.0000000000000001e-01
        -8.7924706501476504e-02 -1.0000000000000001e-01
        -1.0000000000000001e-01 -1.0000000000000001e-01
        -1.0000000000000001e-01 -1.0000000000000001e-01
        -1.0000000000000001e-01 -1.0000000000000001e-01
        -1.0000000000000001e-01 -1.0000000000000001e-01
        -1.0000000000000001e-01 -1.0000000000000001e-01
        -1.0000000000000001e-01 -2.3673964422840962e-02
        -7.6764906332321997e-02 -1.0000000000000001e-01
        -1.0000000000000001e-01 -9.5271542461721745e-02
        -1.0000000000000001e-01 -1.0000000000000001e-01
        -1.0000000000000001e-01 -1.0000000000000001e-01
        -1.0000000000000001e-01 -1.0000000000000001e-01
        -1.0000000000000001e-01 -1.0000000000000001e-01
        -1.0000000000000001e-01 -1.0000000000000001e-01
        -1.0000000000000001e-01 -4.0290969135393991e-02
        -1.0000000000000001e-01 -1.0000000000000001e-01
        -1.0000000000000001e-01 -1.0000000000000001e-01
        -1.0000000000000001e-01 -1.0000000000000001e-01
        -1.0000000000000001e-01 -1.0000000000000001e-01
        -1.0000000000000001e-01 -4.7096837188534531e-02</alpha>
      <index>
        72 73 74 75 76 77 78 79 80 81 82 83 84 85 86 87 88 89 90 91 92
        93 94 95 96 97 98 99 100 101 102 103 104 105 106 107 108 109 110
        111 112 113 114 115 116 117 118 119 120 121 122 123 124 125 126
        127 128 129 130 131 132 133 134 135 136 137 138 139 140 141 142
        143 144 145 146 147 148 149 0 1 2 3 4 5 6 7 8 9 10 11 12 13 14
        15 16 17 18 19 20 21 22 23 24 25 26 27 28 29 30 31 32 33 34 35
        36 37 38 39 40 41 42 43 44 45 46 47 48 49 50 51 52 53 54 55 56
        57 58 59 60 61 62 63 64 65 66 67 68 69 70 71</index></_></decision_functions></opencv_ml_svm>
</opencv_storage>
