<?xml version="1.0"?>
<opencv_storage>
<opencv_ml_svm>
  <format>3</format>
  <svmType>C_SVC</svmType>
  <kernel>
    <type>RBF</type>
    <gamma>1.5000000000000001e-04</gamma></kernel>
  <C>5.0000000000000000e-01</C>
  <term_criteria><epsilon>1.1920928955078125e-07</epsilon>
    <iterations>1000</iterations></term_criteria>
  <var_count>3</var_count>
  <class_count>2</class_count>
  <class_labels type_id="opencv-matrix">
    <rows>2</rows>
    <cols>1</cols>
    <dt>i</dt>
    <data>
      -1 1</data></class_labels>
  <sv_total>60</sv_total>
  <support_vectors>
    <_>
      172. 162. 145.</_>
    <_>
      173. 202. 53.</_>
    <_>
      173. 199. 59.</_>
    <_>
      174. 139. 187.</_>
    <_>
      172. 149. 239.</_>
    <_>
      172. 149. 239.</_>
    <_>
      0. 184. 198.</_>
    <_>
      173. 244. 113.</_>
    <_>
      172. 237. 245.</_>
    <_>
      172. 241. 243.</_>
    <_>
      0. 193. 136.</_>
    <_>
      0. 193. 136.</_>
    <_>
      0. 193. 136.</_>
    <_>
      163. 254. 179.</_>
    <_>
      0. 194. 137.</_>
    <_>
      163. 255. 180.</_>
    <_>
      1. 175. 141.</_>
    <_>
      0. 173. 146.</_>
    <_>
      1. 175. 141.</_>
    <_>
      1. 184. 133.</_>
    <_>
      0. 172. 139.</_>
    <_>
      1. 191. 123.</_>
    <_>
      0. 171. 137.</_>
    <_>
      2. 188. 118.</_>
    <_>
      0. 169. 137.</_>
    <_>
      3. 190. 114.</_>
    <_>
      1. 170. 135.</_>
    <_>
      3. 194. 108.</_>
    <_>
      0. 171. 130.</_>
    <_>
      3. 179. 114.</_>
    <_>
      30. 171. 125.</_>
    <_>
      30. 173. 124.</_>
    <_>
      30. 171. 125.</_>
    <_>
      30. 171. 125.</_>
    <_>
      23. 187. 71.</_>
    <_>
      25. 188. 80.</_>
    <_>
      26. 167. 101.</_>
    <_>
      46. 80. 252.</_>
    <_>
      46. 80. 252.</_>
    <_>
      13. 128. 32.</_>
    <_>
      30. 226. 106.</_>
    <_>
      31. 236. 110.</_>
    <_>
      43. 168. 248.</_>
    <_>
      32. 180. 146.</_>
    <_>
      34. 74. 202.</_>
    <_>
      39. 77. 248.</_>
    <_>
      33. 171. 180.</_>
    <_>
      38. 187. 237.</_>
    <_>
      31. 186. 141.</_>
    <_>
      30. 195. 136.</_>
    <_>
      31. 203. 138.</_>
    <_>
      31. 195. 140.</_>
    <_>
      31. 207. 143.</_>
    <_>
      32. 189. 147.</_>
    <_>
      32. 172. 150.</_>
    <_>
      48. 255. 218.</_>
    <_>
      48. 255. 219.</_>
    <_>
      15. 106. 108.</_>
    <_>
      17. 105. 114.</_>
    <_>
      23. 101. 144.</_></support_vectors>
  <decision_functions>
    <_>
      <sv_count>60</sv_count>
      <rho>3.7522644293815086e-03</rho>
      <alpha>
        5.0000000000000000e-01 5.0000000000000000e-01
        5.0000000000000000e-01 5.0000000000000000e-01
        5.0000000000000000e-01 4.8815110291932762e-01
        5.0000000000000000e-01 5.0000000000000000e-01
        3.1363265005170331e-02 4.6585677992043895e-01
        5.0000000000000000e-01 2.6834019418072719e-01
        5.0000000000000000e-01 5.0000000000000000e-01
        1.0911647257180181e-01 1.8215590734909781e-01
        5.0000000000000000e-01 3.6936564938064476e-03
        5.0000000000000000e-01 5.0000000000000000e-01
        5.0000000000000000e-01 5.0000000000000000e-01
        5.0000000000000000e-01 4.6715699545006040e-01
        5.0000000000000000e-01 1.3889996552392342e-01
        5.0000000000000000e-01 5.0000000000000000e-01
        3.9113918759081751e-01 2.0985399555758000e-01
        -5.0000000000000000e-01 -5.0000000000000000e-01
        -3.0920090218822222e-01 -1.9713539164773922e-01
        -4.9962950964032954e-01 -1.5121245263627328e-01
        -5.0000000000000000e-01 -3.1644576892685111e-01
        -4.3128375022992355e-02 -5.0000000000000000e-01
        -5.0000000000000000e-01 -5.0000000000000000e-01
        -7.7995060262377930e-02 -2.3855388340825484e-02
        -5.0000000000000000e-01 -5.0000000000000000e-01
        -5.0000000000000000e-01 -1.3712467389714006e-01
        -5.0000000000000000e-01 -5.0000000000000000e-01
        -5.0000000000000000e-01 -5.0000000000000000e-01
        -5.0000000000000000e-01 -5.0000000000000000e-01
        -5.0000000000000000e-01 -5.0000000000000000e-01
        -5.0000000000000000e-01 -5.0000000000000000e-01
        -5.0000000000000000e-01 -5.0000000000000000e-01</alpha>
      <index>
        30 31 32 33 34 35 36 37 38 39 40 41 42 43 44 45 46 47 48 49 50
        51 52 53 54 55 56 57 58 59 0 1 2 3 4 5 6 7 8 9 10 11 12 13 14 15
        16 17 18 19 20 21 22 23 24 25 26 27 28 29</index></_></decision_functions></opencv_ml_svm>
</opencv_storage>
