<?xml version="1.0"?>
<opencv_storage>
<opencv_ml_svm>
  <format>3</format>
  <svmType>C_SVC</svmType>
  <kernel>
    <type>RBF</type>
    <gamma>1.5000000000000001e-04</gamma></kernel>
  <C>1.0000000000000001e-01</C>
  <term_criteria><epsilon>1.1920928955078125e-07</epsilon>
    <iterations>1000</iterations></term_criteria>
  <var_count>3</var_count>
  <class_count>2</class_count>
  <class_labels type_id="opencv-matrix">
    <rows>2</rows>
    <cols>1</cols>
    <dt>i</dt>
    <data>
      -1 1</data></class_labels>
  <sv_total>149</sv_total>
  <support_vectors>
    <_>
      174. 171. 253.</_>
    <_>
      172. 162. 145.</_>
    <_>
      172. 159. 176.</_>
    <_>
      173. 202. 53.</_>
    <_>
      173. 211. 58.</_>
    <_>
      173. 199. 59.</_>
    <_>
      173. 196. 65.</_>
    <_>
      173. 209. 61.</_>
    <_>
      173. 209. 61.</_>
    <_>
      173. 209. 61.</_>
    <_>
      173. 213. 60.</_>
    <_>
      173. 213. 60.</_>
    <_>
      173. 213. 60.</_>
    <_>
      173. 217. 61.</_>
    <_>
      173. 198. 67.</_>
    <_>
      174. 139. 187.</_>
    <_>
      173. 144. 195.</_>
    <_>
      171. 144. 209.</_>
    <_>
      173. 150. 240.</_>
    <_>
      173. 150. 240.</_>
    <_>
      172. 149. 239.</_>
    <_>
      172. 149. 239.</_>
    <_>
      173. 148. 238.</_>
    <_>
      172. 142. 217.</_>
    <_>
      173. 148. 238.</_>
    <_>
      173. 150. 240.</_>
    <_>
      0. 184. 198.</_>
    <_>
      176. 195. 64.</_>
    <_>
      173. 244. 113.</_>
    <_>
      172. 235. 243.</_>
    <_>
      172. 237. 242.</_>
    <_>
      172. 237. 241.</_>
    <_>
      172. 236. 243.</_>
    <_>
      172. 237. 245.</_>
    <_>
      172. 241. 243.</_>
    <_>
      172. 238. 241.</_>
    <_>
      0. 193. 136.</_>
    <_>
      0. 193. 136.</_>
    <_>
      0. 193. 136.</_>
    <_>
      0. 193. 136.</_>
    <_>
      0. 193. 136.</_>
    <_>
      0. 193. 136.</_>
    <_>
      0. 193. 136.</_>
    <_>
      0. 193. 136.</_>
    <_>
      163. 254. 179.</_>
    <_>
      0. 177. 144.</_>
    <_>
      163. 254. 181.</_>
    <_>
      0. 176. 145.</_>
    <_>
      0. 194. 137.</_>
    <_>
      164. 255. 180.</_>
    <_>
      0. 177. 143.</_>
    <_>
      0. 193. 136.</_>
    <_>
      163. 255. 180.</_>
    <_>
      1. 175. 141.</_>
    <_>
      0. 173. 146.</_>
    <_>
      1. 175. 141.</_>
    <_>
      1. 184. 133.</_>
    <_>
      163. 254. 181.</_>
    <_>
      0. 172. 139.</_>
    <_>
      1. 191. 123.</_>
    <_>
      163. 255. 187.</_>
    <_>
      0. 171. 137.</_>
    <_>
      2. 188. 118.</_>
    <_>
      0. 169. 137.</_>
    <_>
      3. 190. 114.</_>
    <_>
      169. 188. 136.</_>
    <_>
      1. 170. 135.</_>
    <_>
      3. 194. 108.</_>
    <_>
      0. 171. 130.</_>
    <_>
      3. 179. 114.</_>
    <_>
      179. 162. 129.</_>
    <_>
      171. 255. 151.</_>
    <_>
      172. 253. 143.</_>
    <_>
      172. 253. 143.</_>
    <_>
      60. 255. 7.</_>
    <_>
      57. 188. 102.</_>
    <_>
      57. 188. 102.</_>
    <_>
      57. 189. 100.</_>
    <_>
      57. 188. 102.</_>
    <_>
      57. 189. 101.</_>
    <_>
      57. 188. 102.</_>
    <_>
      57. 195. 102.</_>
    <_>
      57. 188. 102.</_>
    <_>
      69. 255. 27.</_>
    <_>
      60. 198. 9.</_>
    <_>
      63. 179. 140.</_>
    <_>
      63. 183. 146.</_>
    <_>
      110. 128. 6.</_>
    <_>
      110. 153. 5.</_>
    <_>
      126. 128. 10.</_>
    <_>
      114. 85. 15.</_>
    <_>
      110. 51. 15.</_>
    <_>
      83. 60. 17.</_>
    <_>
      60. 71. 25.</_>
    <_>
      110. 128. 6.</_>
    <_>
      96. 182. 7.</_>
    <_>
      110. 128. 6.</_>
    <_>
      67. 119. 175.</_>
    <_>
      67. 131. 200.</_>
    <_>
      67. 122. 172.</_>
    <_>
      66. 126. 199.</_>
    <_>
      66. 128. 196.</_>
    <_>
      63. 160. 164.</_>
    <_>
      62. 160. 172.</_>
    <_>
      62. 165. 172.</_>
    <_>
      61. 166. 175.</_>
    <_>
      61. 170. 177.</_>
    <_>
      72. 255. 23.</_>
    <_>
      70. 170. 251.</_>
    <_>
      71. 170. 251.</_>
    <_>
      72. 176. 251.</_>
    <_>
      72. 170. 249.</_>
    <_>
      70. 167. 249.</_>
    <_>
      69. 161. 247.</_>
    <_>
      69. 161. 247.</_>
    <_>
      56. 204. 101.</_>
    <_>
      57. 201. 104.</_>
    <_>
      56. 198. 99.</_>
    <_>
      64. 255. 28.</_>
    <_>
      70. 250. 234.</_>
    <_>
      69. 250. 237.</_>
    <_>
      68. 249. 239.</_>
    <_>
      69. 254. 236.</_>
    <_>
      68. 250. 238.</_>
    <_>
      69. 254. 233.</_>
    <_>
      69. 254. 230.</_>
    <_>
      72. 245. 236.</_>
    <_>
      60. 215. 147.</_>
    <_>
      59. 220. 147.</_>
    <_>
      57. 248. 143.</_>
    <_>
      56. 241. 148.</_>
    <_>
      56. 246. 148.</_>
    <_>
      56. 246. 148.</_>
    <_>
      56. 248. 148.</_>
    <_>
      56. 250. 147.</_>
    <_>
      60. 208. 152.</_>
    <_>
      69. 255. 14.</_>
    <_>
      51. 94. 19.</_>
    <_>
      68. 255. 11.</_>
    <_>
      80. 255. 112.</_>
    <_>
      80. 255. 102.</_>
    <_>
      48. 111. 103.</_>
    <_>
      47. 111. 103.</_>
    <_>
      47. 111. 103.</_>
    <_>
      48. 105. 102.</_>
    <_>
      49. 112. 105.</_>
    <_>
      49. 111. 106.</_>
    <_>
      49. 112. 105.</_>
    <_>
      48. 113. 102.</_></support_vectors>
  <decision_functions>
    <_>
      <sv_count>149</sv_count>
      <rho>-1.0045986760119018e-01</rho>
      <alpha>
        1.0000000000000001e-01 1.0000000000000001e-01
        6.4282632845389445e-02 1.0000000000000001e-01
        1.0000000000000001e-01 1.0000000000000001e-01
        1.0000000000000001e-01 1.0000000000000001e-01
        1.0000000000000001e-01 9.6608689580557891e-02
        1.0000000000000001e-01 1.0000000000000001e-01
        1.0000000000000001e-01 1.0000000000000001e-01
        1.0000000000000001e-01 1.0000000000000001e-01
        1.0000000000000001e-01 1.0000000000000001e-01
        1.0000000000000001e-01 1.0000000000000001e-01
        1.0000000000000001e-01 1.0000000000000001e-01
        1.0000000000000001e-01 9.6962699241440672e-02
        5.1837787542144506e-02 1.0000000000000001e-01
        1.0000000000000001e-01 8.4020714875693583e-02
        1.0000000000000001e-01 1.0000000000000001e-01
        1.0000000000000001e-01 1.9598880091658291e-02
        1.0000000000000001e-01 1.0000000000000001e-01
        1.0000000000000001e-01 6.5289122757854784e-02
        1.0000000000000001e-01 4.8067602469975601e-02
        1.0000000000000001e-01 1.0000000000000001e-01
        1.0000000000000001e-01 1.0000000000000001e-01
        1.0000000000000001e-01 1.0000000000000001e-01
        1.0000000000000001e-01 1.0000000000000001e-01
        1.0000000000000001e-01 1.0000000000000001e-01
        1.0000000000000001e-01 1.0000000000000001e-01
        1.0000000000000001e-01 1.5995630243225385e-02
        3.6670388801754994e-02 1.0000000000000001e-01
        7.0379441427220413e-02 1.0000000000000001e-01
        1.0000000000000001e-01 1.0000000000000001e-01
        1.0000000000000001e-01 1.0000000000000001e-01
        1.0000000000000001e-01 1.0000000000000001e-01
        1.0000000000000001e-01 1.0000000000000001e-01
        1.0000000000000001e-01 9.4962001424419781e-02
        8.6164968896159516e-02 1.0000000000000001e-01
        1.0000000000000001e-01 1.0000000000000001e-01
        8.8062455673819651e-02 1.0000000000000001e-01
        1.0000000000000001e-01 1.2259672690150395e-03
        1.0000000000000001e-01 -5.8794555559665042e-02
        -1.0000000000000001e-01 -1.0000000000000001e-01
        -1.0000000000000001e-01 -1.0000000000000001e-01
        -1.0000000000000001e-01 -1.0000000000000001e-01
        -5.9803624762588999e-02 -1.0000000000000001e-01
        -1.0000000000000001e-01 -1.0000000000000001e-01
        -1.0000000000000001e-01 -1.0000000000000001e-01
        -1.0000000000000001e-01 -5.5414619336277129e-02
        -1.0000000000000001e-01 -1.0000000000000001e-01
        -4.5478303474975654e-02 -1.0000000000000001e-01
        -1.0000000000000001e-01 -1.0000000000000001e-01
        -1.0000000000000001e-01 -1.0000000000000001e-01
        -1.0000000000000001e-01 -1.0000000000000001e-01
        -3.7433860758222588e-02 -1.0000000000000001e-01
        -1.0000000000000001e-01 -3.7007982876265590e-02
        -1.0000000000000001e-01 -1.0000000000000001e-01
        -1.5903805322857237e-02 -1.0000000000000001e-01
        -1.0000000000000001e-01 -1.0000000000000001e-01
        -1.0000000000000001e-01 -1.0000000000000001e-01
        -1.0000000000000001e-01 -1.0000000000000001e-01
        -1.0000000000000001e-01 -1.0000000000000001e-01
        -1.0000000000000001e-01 -1.0000000000000001e-01
        -1.0000000000000001e-01 -1.0000000000000001e-01
        -1.0000000000000001e-01 -1.0000000000000001e-01
        -1.0000000000000001e-01 -1.0000000000000001e-01
        -9.7734097181047877e-02 -6.8961982519870790e-02
        -1.0000000000000001e-01 -1.0000000000000001e-01
        -1.0000000000000001e-01 -1.0000000000000001e-01
        -1.0000000000000001e-01 -1.0000000000000001e-01
        -1.0000000000000001e-01 -1.0000000000000001e-01
        -1.0000000000000001e-01 -1.0000000000000001e-01
        -1.0000000000000001e-01 -1.0000000000000001e-01
        -1.0000000000000001e-01 -1.0000000000000001e-01
        -1.0000000000000001e-01 -1.0000000000000001e-01
        -1.0000000000000001e-01 -1.0000000000000001e-01
        -1.0000000000000001e-01 -1.0000000000000001e-01
        -4.3596151348558702e-02 -1.0000000000000001e-01
        -1.0000000000000001e-01</alpha>
      <index>
        75 76 77 78 79 80 81 82 83 84 85 86 87 88 89 90 91 92 93 94 95
        96 97 98 99 100 101 102 103 104 105 106 107 108 109 110 111 112
        113 114 115 116 117 118 119 120 121 122 123 124 125 126 127 128
        129 130 131 132 133 134 135 136 74 137 138 139 140 141 142 143
        144 145 146 147 148 0 1 2 3 4 5 6 7 8 9 10 11 12 13 14 15 16 17
        18 19 20 21 22 23 24 25 26 27 28 29 30 31 32 33 34 35 36 37 38
        39 40 41 42 43 44 45 46 47 48 49 50 51 52 53 54 55 56 57 58 59
        60 61 62 63 64 65 66 67 68 69 70 71 72 73</index></_></decision_functions></opencv_ml_svm>
</opencv_storage>
