<?xml version="1.0"?>
<opencv_storage>
<opencv_ml_svm>
  <format>3</format>
  <svmType>C_SVC</svmType>
  <kernel>
    <type>RBF</type>
    <gamma>1.5000000000000001e-04</gamma></kernel>
  <C>1.0000000000000001e-01</C>
  <term_criteria><epsilon>1.1920928955078125e-07</epsilon>
    <iterations>1000</iterations></term_criteria>
  <var_count>3</var_count>
  <class_count>2</class_count>
  <class_labels type_id="opencv-matrix">
    <rows>2</rows>
    <cols>1</cols>
    <dt>i</dt>
    <data>
      -1 1</data></class_labels>
  <sv_total>184</sv_total>
  <support_vectors>
    <_>
      174. 189. 255.</_>
    <_>
      172. 162. 145.</_>
    <_>
      172. 161. 182.</_>
    <_>
      172. 159. 176.</_>
    <_>
      173. 202. 53.</_>
    <_>
      173. 211. 58.</_>
    <_>
      173. 199. 59.</_>
    <_>
      173. 196. 65.</_>
    <_>
      173. 209. 61.</_>
    <_>
      173. 209. 61.</_>
    <_>
      173. 209. 61.</_>
    <_>
      173. 209. 61.</_>
    <_>
      173. 209. 61.</_>
    <_>
      173. 209. 61.</_>
    <_>
      173. 209. 61.</_>
    <_>
      173. 209. 61.</_>
    <_>
      173. 209. 61.</_>
    <_>
      173. 213. 60.</_>
    <_>
      173. 213. 60.</_>
    <_>
      173. 213. 60.</_>
    <_>
      173. 217. 61.</_>
    <_>
      174. 139. 187.</_>
    <_>
      173. 144. 195.</_>
    <_>
      171. 147. 210.</_>
    <_>
      171. 144. 209.</_>
    <_>
      171. 145. 214.</_>
    <_>
      170. 147. 220.</_>
    <_>
      169. 159. 236.</_>
    <_>
      169. 154. 235.</_>
    <_>
      169. 154. 233.</_>
    <_>
      169. 153. 230.</_>
    <_>
      169. 153. 233.</_>
    <_>
      169. 151. 229.</_>
    <_>
      169. 152. 228.</_>
    <_>
      0. 184. 198.</_>
    <_>
      172. 235. 243.</_>
    <_>
      172. 237. 242.</_>
    <_>
      172. 236. 243.</_>
    <_>
      172. 237. 245.</_>
    <_>
      172. 241. 243.</_>
    <_>
      172. 238. 241.</_>
    <_>
      172. 233. 243.</_>
    <_>
      172. 221. 246.</_>
    <_>
      169. 191. 139.</_>
    <_>
      169. 191. 136.</_>
    <_>
      169. 192. 138.</_>
    <_>
      0. 193. 136.</_>
    <_>
      0. 193. 136.</_>
    <_>
      0. 193. 136.</_>
    <_>
      169. 190. 134.</_>
    <_>
      169. 190. 134.</_>
    <_>
      163. 248. 175.</_>
    <_>
      163. 251. 181.</_>
    <_>
      163. 251. 189.</_>
    <_>
      163. 254. 179.</_>
    <_>
      163. 251. 189.</_>
    <_>
      163. 254. 181.</_>
    <_>
      0. 176. 145.</_>
    <_>
      0. 194. 137.</_>
    <_>
      169. 191. 136.</_>
    <_>
      169. 190. 134.</_>
    <_>
      163. 248. 179.</_>
    <_>
      163. 255. 180.</_>
    <_>
      1. 175. 141.</_>
    <_>
      0. 173. 146.</_>
    <_>
      163. 248. 179.</_>
    <_>
      1. 175. 141.</_>
    <_>
      169. 190. 134.</_>
    <_>
      169. 190. 134.</_>
    <_>
      163. 254. 188.</_>
    <_>
      163. 254. 181.</_>
    <_>
      1. 191. 123.</_>
    <_>
      169. 190. 134.</_>
    <_>
      163. 255. 187.</_>
    <_>
      163. 251. 183.</_>
    <_>
      2. 188. 118.</_>
    <_>
      169. 190. 134.</_>
    <_>
      169. 189. 135.</_>
    <_>
      163. 252. 189.</_>
    <_>
      3. 190. 114.</_>
    <_>
      169. 188. 136.</_>
    <_>
      163. 248. 179.</_>
    <_>
      1. 170. 135.</_>
    <_>
      3. 194. 108.</_>
    <_>
      169. 190. 134.</_>
    <_>
      169. 189. 135.</_>
    <_>
      163. 251. 177.</_>
    <_>
      163. 251. 190.</_>
    <_>
      163. 252. 182.</_>
    <_>
      3. 179. 114.</_>
    <_>
      179. 162. 129.</_>
    <_>
      116. 142. 36.</_>
    <_>
      114. 162. 44.</_>
    <_>
      114. 136. 62.</_>
    <_>
      114. 223. 32.</_>
    <_>
      112. 201. 52.</_>
    <_>
      110. 148. 31.</_>
    <_>
      111. 146. 35.</_>
    <_>
      112. 152. 42.</_>
    <_>
      111. 142. 36.</_>
    <_>
      112. 155. 41.</_>
    <_>
      112. 151. 44.</_>
    <_>
      107. 174. 228.</_>
    <_>
      107. 175. 224.</_>
    <_>
      107. 175. 224.</_>
    <_>
      107. 173. 224.</_>
    <_>
      107. 173. 228.</_>
    <_>
      107. 173. 226.</_>
    <_>
      107. 177. 228.</_>
    <_>
      107. 174. 226.</_>
    <_>
      107. 173. 227.</_>
    <_>
      105. 253. 251.</_>
    <_>
      105. 255. 249.</_>
    <_>
      105. 255. 249.</_>
    <_>
      106. 255. 246.</_>
    <_>
      108. 167. 26.</_>
    <_>
      106. 254. 247.</_>
    <_>
      113. 254. 172.</_>
    <_>
      113. 255. 168.</_>
    <_>
      113. 255. 166.</_>
    <_>
      113. 255. 159.</_>
    <_>
      113. 255. 150.</_>
    <_>
      112. 255. 104.</_>
    <_>
      113. 255. 162.</_>
    <_>
      113. 255. 160.</_>
    <_>
      113. 255. 155.</_>
    <_>
      113. 255. 148.</_>
    <_>
      113. 255. 157.</_>
    <_>
      113. 255. 148.</_>
    <_>
      113. 255. 151.</_>
    <_>
      113. 255. 148.</_>
    <_>
      113. 255. 149.</_>
    <_>
      113. 255. 150.</_>
    <_>
      127. 158. 123.</_>
    <_>
      127. 162. 124.</_>
    <_>
      127. 164. 126.</_>
    <_>
      127. 163. 128.</_>
    <_>
      127. 164. 132.</_>
    <_>
      126. 154. 124.</_>
    <_>
      127. 158. 126.</_>
    <_>
      127. 162. 129.</_>
    <_>
      125. 182. 165.</_>
    <_>
      125. 182. 165.</_>
    <_>
      125. 182. 165.</_>
    <_>
      125. 182. 165.</_>
    <_>
      125. 182. 165.</_>
    <_>
      125. 183. 167.</_>
    <_>
      125. 182. 165.</_>
    <_>
      125. 182. 165.</_>
    <_>
      125. 182. 165.</_>
    <_>
      125. 182. 165.</_>
    <_>
      126. 159. 128.</_>
    <_>
      126. 159. 128.</_>
    <_>
      127. 162. 129.</_>
    <_>
      127. 167. 133.</_>
    <_>
      126. 159. 128.</_>
    <_>
      127. 162. 129.</_>
    <_>
      125. 182. 165.</_>
    <_>
      125. 182. 165.</_>
    <_>
      125. 182. 165.</_>
    <_>
      125. 182. 165.</_>
    <_>
      109. 255. 50.</_>
    <_>
      109. 249. 46.</_>
    <_>
      109. 249. 46.</_>
    <_>
      110. 232. 44.</_>
    <_>
      110. 232. 44.</_>
    <_>
      110. 232. 44.</_>
    <_>
      110. 238. 44.</_>
    <_>
      110. 239. 47.</_>
    <_>
      110. 238. 44.</_>
    <_>
      110. 239. 47.</_>
    <_>
      110. 239. 47.</_>
    <_>
      110. 239. 47.</_>
    <_>
      108. 243. 41.</_>
    <_>
      108. 243. 41.</_>
    <_>
      107. 253. 244.</_>
    <_>
      107. 255. 244.</_>
    <_>
      107. 253. 246.</_>
    <_>
      107. 255. 242.</_>
    <_>
      108. 254. 246.</_>
    <_>
      108. 254. 246.</_>
    <_>
      108. 252. 248.</_>
    <_>
      108. 251. 246.</_>
    <_>
      108. 249. 248.</_></support_vectors>
  <decision_functions>
    <_>
      <sv_count>184</sv_count>
      <rho>1.1219037667069010e-01</rho>
      <alpha>
        1.0000000000000001e-01 1.0000000000000001e-01
        1.0000000000000001e-01 1.2427878323138910e-02
        1.0000000000000001e-01 1.0000000000000001e-01
        1.0000000000000001e-01 1.0000000000000001e-01
        1.0000000000000001e-01 6.4822189096468585e-02
        1.0000000000000001e-01 9.9409366640256736e-02
        9.7798063054086462e-02 1.0000000000000001e-01
        1.0000000000000001e-01 1.0000000000000001e-01
        1.0000000000000001e-01 1.0000000000000001e-01
        1.0000000000000001e-01 1.0000000000000001e-01
        9.6714815593742079e-02 7.0921910031123789e-02
        1.0000000000000001e-01 1.0000000000000001e-01
        1.0000000000000001e-01 1.0000000000000001e-01
        1.0000000000000001e-01 1.0000000000000001e-01
        1.0000000000000001e-01 1.0000000000000001e-01
        1.0000000000000001e-01 1.0000000000000001e-01
        1.0000000000000001e-01 1.0000000000000001e-01
        1.0000000000000001e-01 1.0000000000000001e-01
        1.0000000000000001e-01 1.0000000000000001e-01
        4.1731060897157397e-02 1.0000000000000001e-01
        1.0000000000000001e-01 1.0000000000000001e-01
        1.0000000000000001e-01 1.0000000000000001e-01
        1.0000000000000001e-01 1.0000000000000001e-01
        1.0000000000000001e-01 1.0000000000000001e-01
        1.0000000000000001e-01 1.0000000000000001e-01
        1.0000000000000001e-01 1.0000000000000001e-01
        1.0000000000000001e-01 1.0000000000000001e-01
        1.0000000000000001e-01 1.0000000000000001e-01
        1.0000000000000001e-01 1.0000000000000001e-01
        1.0000000000000001e-01 9.8854740279881323e-02
        1.0000000000000001e-01 1.0000000000000001e-01
        1.0000000000000001e-01 8.2097839010518547e-03
        1.0000000000000001e-01 1.0000000000000001e-01
        1.0000000000000001e-01 1.0000000000000001e-01
        1.0000000000000001e-01 1.0000000000000001e-01
        1.0000000000000001e-01 1.0000000000000001e-01
        1.0000000000000001e-01 1.0000000000000001e-01
        1.0000000000000001e-01 1.0000000000000001e-01
        1.0000000000000001e-01 1.0000000000000001e-01
        1.0000000000000001e-01 1.0000000000000001e-01
        1.0000000000000001e-01 1.0000000000000001e-01
        4.1867953573984311e-02 7.3856666136421978e-03
        5.2959949722997919e-03 1.0000000000000001e-01
        1.0000000000000001e-01 1.0000000000000001e-01
        1.0000000000000001e-01 1.0000000000000001e-01
        1.0000000000000001e-01 1.0000000000000001e-01
        1.0000000000000001e-01 -5.4088320858416784e-02
        -1.0000000000000001e-01 -1.0000000000000001e-01
        -1.0000000000000001e-01 -1.0000000000000001e-01
        -1.0000000000000001e-01 -1.0000000000000001e-01
        -1.0000000000000001e-01 -9.7686197105377237e-02
        -1.0000000000000001e-01 -1.0000000000000001e-01
        -1.0000000000000001e-01 -1.0000000000000001e-01
        -1.0000000000000001e-01 -1.0000000000000001e-01
        -1.0000000000000001e-01 -8.5382843270820991e-02
        -1.0000000000000001e-01 -1.0000000000000001e-01
        -1.0000000000000001e-01 -1.0000000000000001e-01
        -1.0000000000000001e-01 -1.0000000000000001e-01
        -1.0000000000000001e-01 -1.0000000000000001e-01
        -9.5737749794237478e-02 -1.0000000000000001e-01
        -6.8718228946702209e-02 -1.0000000000000001e-01
        -1.0000000000000001e-01 -1.0000000000000001e-01
        -1.0000000000000001e-01 -1.0000000000000001e-01
        -1.0000000000000001e-01 -1.0000000000000001e-01
        -1.0000000000000001e-01 -1.0000000000000001e-01
        -1.0000000000000001e-01 -1.0000000000000001e-01
        -1.0000000000000001e-01 -1.0000000000000001e-01
        -1.0000000000000001e-01 -3.3603526955125085e-02
        -1.0000000000000001e-01 -1.0000000000000001e-01
        -6.0075567586346287e-02 -9.9880882620123443e-02
        -1.0000000000000001e-01 -6.5427266353919322e-02
        -1.0000000000000001e-01 -1.0000000000000001e-01
        -1.0000000000000001e-01 -1.0000000000000001e-01
        -1.0000000000000001e-01 -1.0000000000000001e-01
        -1.0000000000000001e-01 -1.0000000000000001e-01
        -1.0000000000000001e-01 -1.0000000000000001e-01
        -1.0000000000000001e-01 -1.0000000000000001e-01
        -1.0000000000000001e-01 -1.0000000000000001e-01
        -1.0000000000000001e-01 -1.0000000000000001e-01
        -1.0000000000000001e-01 -1.0000000000000001e-01
        -1.0000000000000001e-01 -1.0000000000000001e-01
        -1.0000000000000001e-01 -1.0000000000000001e-01
        -1.0000000000000001e-01 -1.0000000000000001e-01
        -1.0000000000000001e-01 -1.0000000000000001e-01
        -1.0000000000000001e-01 -1.0000000000000001e-01
        -1.0000000000000001e-01 -1.0000000000000001e-01
        -1.0000000000000001e-01 -1.0000000000000001e-01
        -3.1007113261571236e-02 -5.3831726224193327e-02
        -1.0000000000000001e-01 -1.0000000000000001e-01
        -1.0000000000000001e-01 -1.0000000000000001e-01
        -1.0000000000000001e-01 -1.0000000000000001e-01
        -1.0000000000000001e-01 -1.0000000000000001e-01</alpha>
      <index>
        92 93 94 95 96 97 98 99 100 101 102 103 104 105 106 107 108 109
        110 111 112 113 114 115 116 117 118 119 120 121 122 123 124 125
        126 127 128 129 130 131 132 133 134 135 136 137 138 139 140 141
        142 143 144 145 146 147 148 149 150 151 152 153 154 155 156 157
        158 159 160 91 161 162 163 164 165 166 167 168 169 170 171 172
        173 174 175 176 177 178 179 180 181 182 183 0 1 2 3 4 5 6 7 8 9
        10 11 12 13 14 15 16 17 18 19 20 21 22 23 24 25 26 27 28 29 30
        31 32 33 34 35 36 37 38 39 40 41 42 43 44 45 46 47 48 49 50 51
        52 53 54 55 56 57 58 59 60 61 62 63 64 65 66 67 68 69 70 71 72
        73 74 75 76 77 78 79 80 81 82 83 84 85 86 87 88 89 90</index></_></decision_functions></opencv_ml_svm>
</opencv_storage>
