<?xml version="1.0"?>
<opencv_storage>
<opencv_ml_svm>
  <format>3</format>
  <svmType>C_SVC</svmType>
  <kernel>
    <type>RBF</type>
    <gamma>1.5000000000000001e-04</gamma></kernel>
  <C>5.0000000000000000e-01</C>
  <term_criteria><epsilon>1.1920928955078125e-07</epsilon>
    <iterations>1000</iterations></term_criteria>
  <var_count>3</var_count>
  <class_count>2</class_count>
  <class_labels type_id="opencv-matrix">
    <rows>2</rows>
    <cols>1</cols>
    <dt>i</dt>
    <data>
      -1 1</data></class_labels>
  <sv_total>104</sv_total>
  <support_vectors>
    <_>
      11. 57. 36.</_>
    <_>
      95. 24. 255.</_>
    <_>
      173. 26. 39.</_>
    <_>
      75. 7. 71.</_>
    <_>
      110. 11. 70.</_>
    <_>
      110. 11. 70.</_>
    <_>
      169. 87. 50.</_>
    <_>
      166. 71. 61.</_>
    <_>
      173. 4. 242.</_>
    <_>
      80. 6. 251.</_>
    <_>
      173. 4. 241.</_>
    <_>
      0. 0. 245.</_>
    <_>
      70. 6. 251.</_>
    <_>
      177. 15. 152.</_>
    <_>
      0. 0. 249.</_>
    <_>
      20. 20. 38.</_>
    <_>
      174. 118. 80.</_>
    <_>
      11. 98. 73.</_>
    <_>
      8. 80. 83.</_>
    <_>
      177. 13. 174.</_>
    <_>
      7. 98. 83.</_>
    <_>
      6. 85. 87.</_>
    <_>
      5. 89. 86.</_>
    <_>
      4. 78. 95.</_>
    <_>
      76. 58. 162.</_>
    <_>
      76. 59. 159.</_>
    <_>
      76. 60. 166.</_>
    <_>
      76. 60. 167.</_>
    <_>
      94. 160. 207.</_>
    <_>
      94. 163. 203.</_>
    <_>
      94. 161. 204.</_>
    <_>
      95. 163. 200.</_>
    <_>
      94. 161. 201.</_>
    <_>
      94. 164. 201.</_>
    <_>
      94. 160. 203.</_>
    <_>
      94. 160. 203.</_>
    <_>
      94. 157. 200.</_>
    <_>
      94. 160. 199.</_>
    <_>
      94. 158. 199.</_>
    <_>
      94. 161. 198.</_>
    <_>
      94. 156. 201.</_>
    <_>
      94. 159. 200.</_>
    <_>
      94. 156. 201.</_>
    <_>
      94. 159. 200.</_>
    <_>
      94. 159. 200.</_>
    <_>
      94. 160. 199.</_>
    <_>
      94. 159. 201.</_>
    <_>
      94. 160. 199.</_>
    <_>
      94. 159. 201.</_>
    <_>
      94. 160. 199.</_>
    <_>
      94. 160. 202.</_>
    <_>
      94. 162. 200.</_>
    <_>
      94. 156. 204.</_>
    <_>
      94. 159. 201.</_>
    <_>
      22. 43. 148.</_>
    <_>
      60. 255. 7.</_>
    <_>
      60. 198. 9.</_>
    <_>
      73. 168. 221.</_>
    <_>
      73. 155. 207.</_>
    <_>
      72. 164. 228.</_>
    <_>
      71. 158. 220.</_>
    <_>
      73. 146. 164.</_>
    <_>
      72. 149. 190.</_>
    <_>
      73. 151. 183.</_>
    <_>
      72. 167. 195.</_>
    <_>
      72. 165. 198.</_>
    <_>
      126. 128. 10.</_>
    <_>
      114. 85. 15.</_>
    <_>
      110. 51. 15.</_>
    <_>
      83. 60. 17.</_>
    <_>
      60. 71. 25.</_>
    <_>
      96. 182. 7.</_>
    <_>
      67. 119. 175.</_>
    <_>
      67. 131. 200.</_>
    <_>
      66. 126. 199.</_>
    <_>
      66. 128. 196.</_>
    <_>
      72. 164. 204.</_>
    <_>
      72. 160. 202.</_>
    <_>
      72. 162. 202.</_>
    <_>
      72. 168. 207.</_>
    <_>
      72. 162. 201.</_>
    <_>
      72. 168. 207.</_>
    <_>
      72. 163. 200.</_>
    <_>
      72. 166. 201.</_>
    <_>
      73. 172. 206.</_>
    <_>
      73. 175. 208.</_>
    <_>
      73. 176. 199.</_>
    <_>
      73. 175. 201.</_>
    <_>
      73. 168. 199.</_>
    <_>
      70. 135. 180.</_>
    <_>
      73. 171. 246.</_>
    <_>
      73. 175. 248.</_>
    <_>
      69. 254. 236.</_>
    <_>
      73. 255. 172.</_>
    <_>
      51. 94. 19.</_>
    <_>
      68. 255. 11.</_>
    <_>
      80. 255. 112.</_>
    <_>
      79. 255. 115.</_>
    <_>
      50. 101. 104.</_>
    <_>
      50. 101. 104.</_>
    <_>
      50. 100. 105.</_>
    <_>
      50. 100. 105.</_>
    <_>
      50. 100. 105.</_>
    <_>
      50. 100. 105.</_></support_vectors>
  <decision_functions>
    <_>
      <sv_count>104</sv_count>
      <rho>2.2842657036670300e-01</rho>
      <alpha>
        1.6459727403208887e-01 5.0000000000000000e-01
        5.0000000000000000e-01 5.0000000000000000e-01
        5.0000000000000000e-01 4.7652287956842720e-01
        5.0000000000000000e-01 5.0000000000000000e-01
        5.0000000000000000e-01 5.0000000000000000e-01
        5.0000000000000000e-01 2.0884157980236343e-01
        5.0000000000000000e-01 5.0000000000000000e-01
        5.0000000000000000e-01 1.4444230264538147e-01
        5.0000000000000000e-01 5.0000000000000000e-01
        5.0000000000000000e-01 2.5979128820498421e-01
        5.0000000000000000e-01 5.0000000000000000e-01
        5.0000000000000000e-01 5.0000000000000000e-01
        5.0000000000000000e-01 4.5718928606510634e-01
        5.0000000000000000e-01 5.0000000000000000e-01
        5.0000000000000000e-01 5.0000000000000000e-01
        5.0000000000000000e-01 5.0000000000000000e-01
        5.0000000000000000e-01 5.0000000000000000e-01
        5.0000000000000000e-01 2.0210930010476963e-01
        4.6922507808761832e-01 5.0000000000000000e-01
        1.8125270694284717e-01 5.0000000000000000e-01
        3.6289044996577741e-01 5.0000000000000000e-01
        2.7269973605831882e-01 4.9130028663615383e-01
        5.0000000000000000e-01 5.0000000000000000e-01
        5.0000000000000000e-01 5.0000000000000000e-01
        5.0000000000000000e-01 -5.0000000000000000e-01
        -1.8289906038982957e-02 -4.7650630088629559e-01
        -3.5118737146532947e-01 -4.9999977859594336e-01
        -1.0088269435271287e-01 -5.0000000000000000e-01
        -1.7213451882583838e-01 -5.0000000000000000e-01
        -6.5798324499755825e-02 -7.2939101956197697e-02
        -1.2558087518624841e-01 -6.4566152236638710e-03
        -1.3071744767106880e-03 -5.0000000000000000e-01
        -2.9033595352771480e-01 -5.0000000000000000e-01
        -5.0000000000000000e-01 -5.0000000000000000e-01
        -3.4472309284395014e-02 -5.0000000000000000e-01
        -5.0000000000000000e-01 -5.0000000000000000e-01
        -1.8506693944149241e-01 -2.5083943786903562e-01
        -5.0000000000000000e-01 -5.0000000000000000e-01
        -5.0000000000000000e-01 -5.0000000000000000e-01
        -5.0000000000000000e-01 -5.0000000000000000e-01
        -3.6450625819281401e-01 -5.0000000000000000e-01
        -5.0000000000000000e-01 -5.0000000000000000e-01
        -5.0000000000000000e-01 -5.0000000000000000e-01
        -5.0000000000000000e-01 -5.0000000000000000e-01
        -5.0000000000000000e-01 -5.0000000000000000e-01
        -5.0000000000000000e-01 -5.0000000000000000e-01
        -5.0000000000000000e-01 -5.0000000000000000e-01
        -5.0000000000000000e-01 -5.0000000000000000e-01
        -5.0000000000000000e-01 -5.0000000000000000e-01
        -5.0000000000000000e-01 -5.0000000000000000e-01
        -5.0000000000000000e-01 -5.0000000000000000e-01
        -5.0000000000000000e-01 -1.7455860829070599e-01</alpha>
      <index>
        56 57 58 59 60 61 62 63 64 65 66 67 68 69 70 71 72 73 74 75 76
        77 78 79 80 81 82 83 84 85 86 87 88 89 90 91 92 55 93 94 95 96
        97 98 99 100 101 102 103 0 1 2 3 4 5 6 7 8 9 10 11 12 13 14 15
        16 17 18 19 20 21 22 23 24 25 26 27 28 29 30 31 32 33 34 35 36
        37 38 39 40 41 42 43 44 45 46 47 48 49 50 51 52 53 54</index></_></decision_functions></opencv_ml_svm>
</opencv_storage>
