<?xml version="1.0"?>
<opencv_storage>
<opencv_ml_svm>
  <format>3</format>
  <svmType>C_SVC</svmType>
  <kernel>
    <type>RBF</type>
    <gamma>1.5000000000000001e-04</gamma></kernel>
  <C>1.0000000000000001e-01</C>
  <term_criteria><epsilon>1.1920928955078125e-07</epsilon>
    <iterations>1000</iterations></term_criteria>
  <var_count>3</var_count>
  <class_count>2</class_count>
  <class_labels type_id="opencv-matrix">
    <rows>2</rows>
    <cols>1</cols>
    <dt>i</dt>
    <data>
      -1 1</data></class_labels>
  <sv_total>340</sv_total>
  <support_vectors>
    <_>
      11. 57. 36.</_>
    <_>
      0. 0. 153.</_>
    <_>
      75. 3. 146.</_>
    <_>
      173. 26. 39.</_>
    <_>
      120. 8. 67.</_>
    <_>
      0. 0. 62.</_>
    <_>
      0. 0. 62.</_>
    <_>
      75. 7. 71.</_>
    <_>
      75. 7. 71.</_>
    <_>
      169. 87. 50.</_>
    <_>
      166. 71. 61.</_>
    <_>
      173. 4. 242.</_>
    <_>
      120. 2. 250.</_>
    <_>
      173. 4. 237.</_>
    <_>
      173. 4. 241.</_>
    <_>
      0. 0. 245.</_>
    <_>
      83. 4. 250.</_>
    <_>
      70. 6. 251.</_>
    <_>
      173. 4. 241.</_>
    <_>
      176. 86. 86.</_>
    <_>
      0. 0. 249.</_>
    <_>
      175. 84. 88.</_>
    <_>
      0. 51. 30.</_>
    <_>
      0. 0. 57.</_>
    <_>
      165. 9. 55.</_>
    <_>
      178. 85. 87.</_>
    <_>
      174. 118. 80.</_>
    <_>
      170. 88. 93.</_>
    <_>
      172. 89. 95.</_>
    <_>
      172. 100. 84.</_>
    <_>
      172. 77. 100.</_>
    <_>
      0. 0. 232.</_>
    <_>
      11. 98. 73.</_>
    <_>
      8. 80. 83.</_>
    <_>
      0. 0. 228.</_>
    <_>
      0. 7. 235.</_>
    <_>
      7. 98. 83.</_>
    <_>
      6. 85. 87.</_>
    <_>
      5. 89. 86.</_>
    <_>
      0. 0. 153.</_>
    <_>
      0. 0. 154.</_>
    <_>
      165. 3. 155.</_>
    <_>
      165. 3. 150.</_>
    <_>
      0. 0. 151.</_>
    <_>
      98. 159. 199.</_>
    <_>
      97. 156. 196.</_>
    <_>
      97. 159. 193.</_>
    <_>
      96. 158. 194.</_>
    <_>
      97. 158. 199.</_>
    <_>
      96. 161. 196.</_>
    <_>
      95. 159. 204.</_>
    <_>
      95. 159. 204.</_>
    <_>
      96. 162. 194.</_>
    <_>
      95. 160. 203.</_>
    <_>
      94. 163. 203.</_>
    <_>
      97. 161. 195.</_>
    <_>
      95. 161. 204.</_>
    <_>
      94. 161. 204.</_>
    <_>
      95. 163. 200.</_>
    <_>
      96. 159. 194.</_>
    <_>
      94. 161. 201.</_>
    <_>
      94. 164. 201.</_>
    <_>
      96. 167. 197.</_>
    <_>
      102. 159. 222.</_>
    <_>
      96. 159. 194.</_>
    <_>
      94. 160. 203.</_>
    <_>
      94. 160. 203.</_>
    <_>
      96. 163. 197.</_>
    <_>
      102. 160. 219.</_>
    <_>
      102. 160. 220.</_>
    <_>
      102. 159. 220.</_>
    <_>
      96. 159. 194.</_>
    <_>
      94. 160. 199.</_>
    <_>
      96. 161. 195.</_>
    <_>
      102. 162. 221.</_>
    <_>
      96. 159. 194.</_>
    <_>
      94. 161. 198.</_>
    <_>
      96. 162. 194.</_>
    <_>
      102. 161. 222.</_>
    <_>
      102. 161. 222.</_>
    <_>
      102. 162. 221.</_>
    <_>
      102. 160. 221.</_>
    <_>
      102. 160. 221.</_>
    <_>
      96. 158. 195.</_>
    <_>
      94. 159. 200.</_>
    <_>
      96. 161. 195.</_>
    <_>
      102. 161. 222.</_>
    <_>
      102. 161. 222.</_>
    <_>
      101. 163. 221.</_>
    <_>
      101. 162. 221.</_>
    <_>
      101. 162. 221.</_>
    <_>
      96. 158. 195.</_>
    <_>
      94. 159. 200.</_>
    <_>
      96. 162. 194.</_>
    <_>
      103. 158. 224.</_>
    <_>
      102. 162. 224.</_>
    <_>
      101. 161. 223.</_>
    <_>
      101. 163. 221.</_>
    <_>
      101. 162. 221.</_>
    <_>
      101. 162. 222.</_>
    <_>
      96. 162. 194.</_>
    <_>
      94. 159. 200.</_>
    <_>
      94. 160. 199.</_>
    <_>
      96. 162. 194.</_>
    <_>
      103. 159. 223.</_>
    <_>
      102. 162. 224.</_>
    <_>
      101. 162. 222.</_>
    <_>
      101. 163. 221.</_>
    <_>
      101. 164. 221.</_>
    <_>
      101. 162. 222.</_>
    <_>
      96. 162. 194.</_>
    <_>
      94. 159. 201.</_>
    <_>
      94. 160. 199.</_>
    <_>
      96. 161. 195.</_>
    <_>
      103. 158. 225.</_>
    <_>
      102. 162. 224.</_>
    <_>
      102. 161. 222.</_>
    <_>
      102. 161. 222.</_>
    <_>
      101. 162. 222.</_>
    <_>
      101. 162. 222.</_>
    <_>
      96. 163. 193.</_>
    <_>
      94. 159. 201.</_>
    <_>
      94. 160. 199.</_>
    <_>
      96. 159. 197.</_>
    <_>
      103. 158. 224.</_>
    <_>
      102. 162. 224.</_>
    <_>
      102. 161. 222.</_>
    <_>
      102. 161. 222.</_>
    <_>
      102. 161. 222.</_>
    <_>
      102. 161. 222.</_>
    <_>
      96. 162. 197.</_>
    <_>
      94. 160. 202.</_>
    <_>
      94. 162. 200.</_>
    <_>
      96. 162. 197.</_>
    <_>
      103. 158. 224.</_>
    <_>
      102. 162. 224.</_>
    <_>
      102. 159. 222.</_>
    <_>
      102. 159. 222.</_>
    <_>
      102. 159. 222.</_>
    <_>
      102. 159. 222.</_>
    <_>
      97. 162. 194.</_>
    <_>
      94. 159. 201.</_>
    <_>
      96. 161. 198.</_>
    <_>
      103. 158. 224.</_>
    <_>
      102. 162. 224.</_>
    <_>
      102. 159. 222.</_>
    <_>
      102. 159. 222.</_>
    <_>
      102. 159. 222.</_>
    <_>
      102. 159. 222.</_>
    <_>
      97. 161. 195.</_>
    <_>
      95. 159. 199.</_>
    <_>
      97. 158. 197.</_>
    <_>
      102. 159. 222.</_>
    <_>
      102. 161. 222.</_>
    <_>
      102. 159. 222.</_>
    <_>
      102. 159. 222.</_>
    <_>
      97. 159. 196.</_>
    <_>
      102. 161. 222.</_>
    <_>
      101. 162. 222.</_>
    <_>
      102. 161. 222.</_>
    <_>
      102. 159. 222.</_>
    <_>
      97. 156. 196.</_>
    <_>
      97. 158. 198.</_>
    <_>
      101. 161. 223.</_>
    <_>
      101. 164. 222.</_>
    <_>
      102. 161. 222.</_>
    <_>
      102. 161. 222.</_>
    <_>
      103. 158. 224.</_>
    <_>
      102. 160. 223.</_>
    <_>
      101. 162. 222.</_>
    <_>
      102. 162. 224.</_>
    <_>
      102. 159. 222.</_>
    <_>
      116. 142. 36.</_>
    <_>
      114. 136. 62.</_>
    <_>
      110. 148. 31.</_>
    <_>
      111. 146. 35.</_>
    <_>
      112. 152. 42.</_>
    <_>
      111. 142. 36.</_>
    <_>
      112. 155. 41.</_>
    <_>
      112. 151. 44.</_>
    <_>
      105. 178. 176.</_>
    <_>
      105. 183. 198.</_>
    <_>
      106. 175. 176.</_>
    <_>
      105. 180. 194.</_>
    <_>
      106. 184. 207.</_>
    <_>
      106. 172. 200.</_>
    <_>
      105. 180. 210.</_>
    <_>
      106. 183. 215.</_>
    <_>
      105. 178. 215.</_>
    <_>
      105. 184. 217.</_>
    <_>
      106. 186. 218.</_>
    <_>
      105. 184. 222.</_>
    <_>
      108. 184. 214.</_>
    <_>
      105. 183. 196.</_>
    <_>
      106. 184. 198.</_>
    <_>
      106. 183. 199.</_>
    <_>
      106. 184. 201.</_>
    <_>
      106. 184. 201.</_>
    <_>
      105. 187. 222.</_>
    <_>
      107. 185. 220.</_>
    <_>
      107. 184. 214.</_>
    <_>
      106. 184. 205.</_>
    <_>
      105. 186. 224.</_>
    <_>
      105. 186. 223.</_>
    <_>
      107. 186. 221.</_>
    <_>
      107. 185. 225.</_>
    <_>
      107. 185. 220.</_>
    <_>
      105. 182. 225.</_>
    <_>
      106. 186. 223.</_>
    <_>
      105. 183. 223.</_>
    <_>
      105. 183. 216.</_>
    <_>
      107. 186. 226.</_>
    <_>
      105. 181. 227.</_>
    <_>
      105. 186. 221.</_>
    <_>
      106. 184. 222.</_>
    <_>
      105. 182. 223.</_>
    <_>
      105. 183. 213.</_>
    <_>
      106. 181. 226.</_>
    <_>
      106. 185. 221.</_>
    <_>
      106. 185. 223.</_>
    <_>
      106. 182. 223.</_>
    <_>
      106. 182. 218.</_>
    <_>
      105. 184. 211.</_>
    <_>
      107. 186. 227.</_>
    <_>
      108. 184. 222.</_>
    <_>
      107. 185. 218.</_>
    <_>
      105. 180. 225.</_>
    <_>
      106. 183. 220.</_>
    <_>
      106. 184. 220.</_>
    <_>
      106. 183. 221.</_>
    <_>
      106. 184. 216.</_>
    <_>
      105. 184. 207.</_>
    <_>
      108. 184. 225.</_>
    <_>
      107. 183. 220.</_>
    <_>
      106. 177. 226.</_>
    <_>
      106. 180. 221.</_>
    <_>
      106. 183. 219.</_>
    <_>
      106. 183. 219.</_>
    <_>
      106. 183. 215.</_>
    <_>
      106. 183. 208.</_>
    <_>
      105. 183. 201.</_>
    <_>
      104. 183. 196.</_>
    <_>
      107. 186. 225.</_>
    <_>
      107. 186. 222.</_>
    <_>
      106. 177. 226.</_>
    <_>
      106. 181. 220.</_>
    <_>
      106. 184. 218.</_>
    <_>
      106. 184. 218.</_>
    <_>
      106. 181. 218.</_>
    <_>
      106. 181. 213.</_>
    <_>
      105. 179. 208.</_>
    <_>
      105. 179. 202.</_>
    <_>
      105. 184. 200.</_>
    <_>
      107. 185. 223.</_>
    <_>
      107. 177. 225.</_>
    <_>
      106. 180. 220.</_>
    <_>
      107. 184. 216.</_>
    <_>
      107. 182. 218.</_>
    <_>
      107. 178. 221.</_>
    <_>
      107. 177. 218.</_>
    <_>
      106. 175. 213.</_>
    <_>
      106. 176. 211.</_>
    <_>
      106. 182. 209.</_>
    <_>
      107. 185. 223.</_>
    <_>
      107. 186. 221.</_>
    <_>
      107. 177. 225.</_>
    <_>
      106. 179. 221.</_>
    <_>
      107. 184. 216.</_>
    <_>
      107. 183. 217.</_>
    <_>
      107. 177. 222.</_>
    <_>
      107. 177. 221.</_>
    <_>
      106. 175. 217.</_>
    <_>
      106. 175. 214.</_>
    <_>
      106. 180. 214.</_>
    <_>
      107. 174. 228.</_>
    <_>
      107. 175. 224.</_>
    <_>
      107. 183. 220.</_>
    <_>
      107. 182. 221.</_>
    <_>
      107. 177. 225.</_>
    <_>
      107. 175. 224.</_>
    <_>
      107. 173. 224.</_>
    <_>
      107. 176. 219.</_>
    <_>
      106. 180. 219.</_>
    <_>
      106. 185. 216.</_>
    <_>
      107. 186. 222.</_>
    <_>
      107. 173. 228.</_>
    <_>
      107. 173. 226.</_>
    <_>
      107. 178. 223.</_>
    <_>
      107. 180. 224.</_>
    <_>
      107. 177. 228.</_>
    <_>
      107. 174. 226.</_>
    <_>
      107. 173. 227.</_>
    <_>
      106. 178. 222.</_>
    <_>
      106. 183. 219.</_>
    <_>
      107. 186. 224.</_>
    <_>
      106. 185. 216.</_>
    <_>
      108. 167. 26.</_>
    <_>
      106. 152. 37.</_>
    <_>
      103. 255. 77.</_>
    <_>
      103. 255. 77.</_>
    <_>
      103. 255. 77.</_>
    <_>
      113. 157. 143.</_>
    <_>
      113. 156. 142.</_>
    <_>
      113. 154. 141.</_>
    <_>
      113. 154. 141.</_>
    <_>
      113. 156. 142.</_>
    <_>
      113. 157. 143.</_>
    <_>
      113. 157. 143.</_>
    <_>
      113. 156. 142.</_>
    <_>
      113. 155. 143.</_>
    <_>
      113. 157. 143.</_>
    <_>
      113. 161. 150.</_>
    <_>
      115. 158. 150.</_>
    <_>
      114. 151. 147.</_>
    <_>
      113. 152. 146.</_>
    <_>
      113. 159. 146.</_>
    <_>
      115. 160. 153.</_>
    <_>
      113. 156. 141.</_>
    <_>
      112. 151. 133.</_>
    <_>
      112. 151. 133.</_>
    <_>
      115. 162. 153.</_>
    <_>
      114. 160. 148.</_>
    <_>
      109. 150. 129.</_>
    <_>
      109. 150. 129.</_>
    <_>
      114. 161. 150.</_>
    <_>
      113. 165. 153.</_>
    <_>
      112. 160. 145.</_>
    <_>
      113. 159. 146.</_>
    <_>
      113. 163. 153.</_>
    <_>
      114. 169. 161.</_>
    <_>
      113. 163. 150.</_>
    <_>
      109. 255. 50.</_>
    <_>
      109. 249. 46.</_>
    <_>
      109. 249. 46.</_>
    <_>
      108. 243. 41.</_>
    <_>
      108. 243. 41.</_>
    <_>
      108. 243. 41.</_>
    <_>
      108. 243. 41.</_>
    <_>
      108. 243. 41.</_>
    <_>
      106. 255. 48.</_></support_vectors>
  <decision_functions>
    <_>
      <sv_count>340</sv_count>
      <rho>3.9646152989815203e-01</rho>
      <alpha>
        1.0000000000000001e-01 1.0000000000000001e-01
        1.0000000000000001e-01 1.0000000000000001e-01
        1.0000000000000001e-01 2.1711625069824318e-02
        1.0000000000000001e-01 1.0000000000000001e-01
        1.0000000000000001e-01 1.0000000000000001e-01
        1.0000000000000001e-01 1.0000000000000001e-01
        1.0000000000000001e-01 1.0000000000000001e-01
        1.0000000000000001e-01 1.0000000000000001e-01
        1.0000000000000001e-01 1.0000000000000001e-01
        1.0000000000000001e-01 1.0000000000000001e-01
        1.0000000000000001e-01 1.0000000000000001e-01
        1.0000000000000001e-01 1.0000000000000001e-01
        1.0000000000000001e-01 7.0276087685816668e-02
        1.0000000000000001e-01 1.0000000000000001e-01
        1.0000000000000001e-01 1.0000000000000001e-01
        1.0000000000000001e-01 1.0000000000000001e-01
        1.0000000000000001e-01 1.0000000000000001e-01
        1.0000000000000001e-01 1.0000000000000001e-01
        1.0000000000000001e-01 1.0000000000000001e-01
        1.0000000000000001e-01 1.0000000000000001e-01
        1.0000000000000001e-01 1.0000000000000001e-01
        1.0000000000000001e-01 1.0000000000000001e-01
        1.0000000000000001e-01 1.0000000000000001e-01
        1.0000000000000001e-01 1.0000000000000001e-01
        1.0000000000000001e-01 1.0000000000000001e-01
        1.0000000000000001e-01 1.0000000000000001e-01
        1.0000000000000001e-01 1.0000000000000001e-01
        1.0000000000000001e-01 1.0000000000000001e-01
        1.0000000000000001e-01 1.0000000000000001e-01
        1.0000000000000001e-01 1.0000000000000001e-01
        1.0000000000000001e-01 1.0000000000000001e-01
        1.0000000000000001e-01 1.0000000000000001e-01
        1.0000000000000001e-01 1.0000000000000001e-01
        1.0000000000000001e-01 1.0000000000000001e-01
        1.0000000000000001e-01 1.0000000000000001e-01
        1.0000000000000001e-01 1.0000000000000001e-01
        1.0000000000000001e-01 1.0000000000000001e-01
        1.0000000000000001e-01 1.0000000000000001e-01
        1.0000000000000001e-01 1.0000000000000001e-01
        1.0000000000000001e-01 1.0000000000000001e-01
        1.0000000000000001e-01 1.0000000000000001e-01
        1.0000000000000001e-01 1.0000000000000001e-01
        1.0000000000000001e-01 1.0000000000000001e-01
        1.0000000000000001e-01 1.0000000000000001e-01
        1.0000000000000001e-01 1.0000000000000001e-01
        1.0000000000000001e-01 1.0000000000000001e-01
        1.0000000000000001e-01 1.0000000000000001e-01
        1.0000000000000001e-01 1.0000000000000001e-01
        1.0000000000000001e-01 1.0000000000000001e-01
        1.0000000000000001e-01 1.0000000000000001e-01
        1.0000000000000001e-01 1.0000000000000001e-01
        1.0000000000000001e-01 1.0000000000000001e-01
        1.0000000000000001e-01 1.0000000000000001e-01
        1.0000000000000001e-01 1.0000000000000001e-01
        1.0000000000000001e-01 1.0000000000000001e-01
        1.0000000000000001e-01 1.0000000000000001e-01
        1.0000000000000001e-01 1.0000000000000001e-01
        1.0000000000000001e-01 1.0000000000000001e-01
        1.0000000000000001e-01 1.0000000000000001e-01
        1.0000000000000001e-01 1.0000000000000001e-01
        1.0000000000000001e-01 1.0000000000000001e-01
        1.0000000000000001e-01 1.0000000000000001e-01
        1.0000000000000001e-01 2.9866264681132262e-02
        1.0000000000000001e-01 7.5289214927376863e-02
        1.0000000000000001e-01 1.0000000000000001e-01
        1.0000000000000001e-01 1.0000000000000001e-01
        1.0000000000000001e-01 1.0000000000000001e-01
        1.0000000000000001e-01 1.0000000000000001e-01
        1.0000000000000001e-01 1.0000000000000001e-01
        1.0000000000000001e-01 1.0000000000000001e-01
        1.0000000000000001e-01 1.0000000000000001e-01
        1.0000000000000001e-01 1.0000000000000001e-01
        1.0000000000000001e-01 1.0000000000000001e-01
        1.0000000000000001e-01 1.0000000000000001e-01
        1.0000000000000001e-01 1.0000000000000001e-01
        1.0000000000000001e-01 1.0000000000000001e-01
        3.8364989712093650e-02 1.0000000000000001e-01
        1.0000000000000001e-01 1.0000000000000001e-01
        2.8214781713918190e-02 1.0000000000000001e-01
        1.0000000000000001e-01 1.0000000000000001e-01
        1.0000000000000001e-01 1.0000000000000001e-01
        9.9912788569853986e-02 1.0000000000000001e-01
        1.0000000000000001e-01 1.0000000000000001e-01
        2.0400396160095684e-02 1.0000000000000001e-01
        -1.0000000000000001e-01 -1.0000000000000001e-01
        -8.3741974316435833e-02 -1.0000000000000001e-01
        -5.9815638003139313e-02 -9.5107044092736306e-02
        -2.2841292414865454e-02 -9.9284038156891255e-02
        -7.6018355662098983e-02 -1.0000000000000001e-01
        -5.7440010279820840e-02 -1.0000000000000001e-01
        -2.3787359387889836e-02 -1.0000000000000001e-01
        -1.0000000000000001e-01 -1.0000000000000001e-01
        -1.0000000000000001e-01 -1.3767005622990913e-02
        -1.0000000000000001e-01 -1.0000000000000001e-01
        -1.0000000000000001e-01 -1.0000000000000001e-01
        -1.0000000000000001e-01 -1.0000000000000001e-01
        -8.5245658677388314e-02 -1.0000000000000001e-01
        -1.0000000000000001e-01 -1.0000000000000001e-01
        -1.0000000000000001e-01 -1.0000000000000001e-01
        -1.0000000000000001e-01 -1.0000000000000001e-01
        -1.0000000000000001e-01 -5.9687755612928706e-03
        -1.2386370414222754e-03 -1.0000000000000001e-01
        -1.0000000000000001e-01 -1.0000000000000001e-01
        -1.0000000000000001e-01 -1.0000000000000001e-01
        -3.9306638933359244e-03 -1.0000000000000001e-01
        -1.0000000000000001e-01 -4.0788890416830668e-02
        -1.0000000000000001e-01 -1.0000000000000001e-01
        -1.0000000000000001e-01 -1.0000000000000001e-01
        -1.0000000000000001e-01 -1.0000000000000001e-01
        -1.0000000000000001e-01 -1.5060804992972772e-02
        -1.0000000000000001e-01 -1.0000000000000001e-01
        -1.0000000000000001e-01 -1.0000000000000001e-01
        -1.0000000000000001e-01 -1.0000000000000001e-01
        -1.0000000000000001e-01 -1.0000000000000001e-01
        -1.0000000000000001e-01 -1.0000000000000001e-01
        -1.0000000000000001e-01 -1.0000000000000001e-01
        -1.0000000000000001e-01 -1.0000000000000001e-01
        -1.0000000000000001e-01 -1.0000000000000001e-01
        -1.0000000000000001e-01 -1.0000000000000001e-01
        -1.0000000000000001e-01 -1.0000000000000001e-01
        -1.0000000000000001e-01 -1.0000000000000001e-01
        -1.0000000000000001e-01 -1.0000000000000001e-01
        -1.0000000000000001e-01 -1.0000000000000001e-01
        -1.0000000000000001e-01 -1.0000000000000001e-01
        -1.0000000000000001e-01 -1.0000000000000001e-01
        -1.0000000000000001e-01 -1.0000000000000001e-01
        -1.0000000000000001e-01 -1.0000000000000001e-01
        -1.0000000000000001e-01 -1.0000000000000001e-01
        -1.0000000000000001e-01 -1.0000000000000001e-01
        -1.0000000000000001e-01 -1.0000000000000001e-01
        -1.0000000000000001e-01 -1.0000000000000001e-01
        -1.0000000000000001e-01 -1.0000000000000001e-01
        -1.0000000000000001e-01 -1.0000000000000001e-01
        -1.0000000000000001e-01 -1.0000000000000001e-01
        -1.0000000000000001e-01 -1.0000000000000001e-01
        -1.0000000000000001e-01 -1.0000000000000001e-01
        -1.0000000000000001e-01 -1.0000000000000001e-01
        -1.0000000000000001e-01 -1.0000000000000001e-01
        -1.0000000000000001e-01 -1.0000000000000001e-01
        -1.0000000000000001e-01 -1.0000000000000001e-01
        -1.0000000000000001e-01 -1.0000000000000001e-01
        -1.0000000000000001e-01 -1.0000000000000001e-01
        -1.0000000000000001e-01 -1.0000000000000001e-01
        -1.0000000000000001e-01 -1.0000000000000001e-01
        -1.0000000000000001e-01 -1.0000000000000001e-01
        -1.0000000000000001e-01 -1.0000000000000001e-01
        -1.0000000000000001e-01 -1.0000000000000001e-01
        -1.0000000000000001e-01 -1.0000000000000001e-01
        -1.0000000000000001e-01 -1.0000000000000001e-01
        -1.0000000000000001e-01 -1.0000000000000001e-01
        -1.0000000000000001e-01 -1.0000000000000001e-01
        -1.0000000000000001e-01 -1.0000000000000001e-01
        -1.0000000000000001e-01 -1.0000000000000001e-01
        -1.0000000000000001e-01 -1.0000000000000001e-01
        -1.0000000000000001e-01 -1.0000000000000001e-01
        -1.0000000000000001e-01 -1.0000000000000001e-01
        -1.0000000000000001e-01 -1.0000000000000001e-01
        -1.0000000000000001e-01 -1.0000000000000001e-01
        -1.0000000000000001e-01 -1.0000000000000001e-01
        -1.0000000000000001e-01 -1.0000000000000001e-01
        -1.0000000000000001e-01 -1.0000000000000001e-01
        -1.0000000000000001e-01 -1.0000000000000001e-01
        -1.0000000000000001e-01 -1.0000000000000001e-01
        -1.0000000000000001e-01 -1.0000000000000001e-01
        -1.0000000000000001e-01 -1.0000000000000001e-01
        -1.0000000000000001e-01 -1.0000000000000001e-01
        -1.0000000000000001e-01 -1.0000000000000001e-01
        -1.0000000000000001e-01 -1.0000000000000001e-01
        -1.0000000000000001e-01 -1.0000000000000001e-01
        -1.0000000000000001e-01 -1.0000000000000001e-01</alpha>
      <index>
        173 174 175 176 177 178 179 180 181 182 183 184 185 186 187 188
        189 190 191 192 193 194 195 196 197 198 199 200 201 202 203 204
        205 206 207 208 209 210 211 212 213 214 215 216 217 218 219 220
        221 222 223 224 225 226 227 228 229 230 231 232 233 234 235 236
        237 238 239 240 241 242 243 244 245 246 247 248 249 250 251 252
        253 254 255 256 257 258 259 260 261 262 263 264 265 266 267 268
        269 270 271 272 273 274 275 276 277 278 279 280 281 282 283 284
        285 286 287 288 289 290 291 292 293 294 295 296 297 298 299 300
        301 302 303 304 305 306 307 308 309 310 311 312 313 314 315 316
        317 318 319 320 321 322 323 324 325 326 327 328 329 330 172 331
        332 333 334 335 336 337 338 339 0 1 2 3 4 5 6 7 8 9 10 11 12 13
        14 15 16 17 18 19 20 21 22 23 24 25 26 27 28 29 30 31 32 33 34
        35 36 37 38 39 40 41 42 43 44 45 46 47 48 49 50 51 52 53 54 55
        56 57 58 59 60 61 62 63 64 65 66 67 68 69 70 71 72 73 74 75 76
        77 78 79 80 81 82 83 84 85 86 87 88 89 90 91 92 93 94 95 96 97
        98 99 100 101 102 103 104 105 106 107 108 109 110 111 112 113
        114 115 116 117 118 119 120 121 122 123 124 125 126 127 128 129
        130 131 132 133 134 135 136 137 138 139 140 141 142 143 144 145
        146 147 148 149 150 151 152 153 154 155 156 157 158 159 160 161
        162 163 164 165 166 167 168 169 170 171</index></_></decision_functions></opencv_ml_svm>
</opencv_storage>
