<?xml version="1.0"?>
<opencv_storage>
<opencv_ml_svm>
  <format>3</format>
  <svmType>C_SVC</svmType>
  <kernel>
    <type>RBF</type>
    <gamma>1.0000000000000001e-05</gamma></kernel>
  <C>1.0000000000000001e-01</C>
  <term_criteria><epsilon>1.1920928955078125e-07</epsilon>
    <iterations>1000</iterations></term_criteria>
  <var_count>3</var_count>
  <class_count>2</class_count>
  <class_labels type_id="opencv-matrix">
    <rows>2</rows>
    <cols>1</cols>
    <dt>i</dt>
    <data>
      -1 1</data></class_labels>
  <sv_total>763</sv_total>
  <support_vectors>
    <_>
      53. 180. 217.</_>
    <_>
      53. 179. 221.</_>
    <_>
      54. 181. 222.</_>
    <_>
      54. 180. 224.</_>
    <_>
      53. 185. 221.</_>
    <_>
      53. 192. 213.</_>
    <_>
      53. 191. 210.</_>
    <_>
      53. 198. 202.</_>
    <_>
      52. 203. 197.</_>
    <_>
      52. 201. 199.</_>
    <_>
      52. 199. 201.</_>
    <_>
      52. 202. 199.</_>
    <_>
      54. 201. 202.</_>
    <_>
      56. 199. 210.</_>
    <_>
      59. 199. 215.</_>
    <_>
      60. 195. 220.</_>
    <_>
      58. 192. 218.</_>
    <_>
      56. 188. 214.</_>
    <_>
      52. 191. 202.</_>
    <_>
      53. 183. 209.</_>
    <_>
      54. 183. 213.</_>
    <_>
      54. 188. 212.</_>
    <_>
      54. 191. 212.</_>
    <_>
      54. 192. 215.</_>
    <_>
      53. 192. 214.</_>
    <_>
      53. 195. 211.</_>
    <_>
      53. 192. 214.</_>
    <_>
      54. 190. 213.</_>
    <_>
      53. 192. 212.</_>
    <_>
      53. 192. 211.</_>
    <_>
      53. 196. 207.</_>
    <_>
      53. 200. 204.</_>
    <_>
      54. 199. 204.</_>
    <_>
      56. 196. 210.</_>
    <_>
      59. 195. 216.</_>
    <_>
      59. 195. 217.</_>
    <_>
      58. 192. 216.</_>
    <_>
      56. 188. 213.</_>
    <_>
      52. 191. 202.</_>
    <_>
      53. 193. 202.</_>
    <_>
      53. 189. 209.</_>
    <_>
      54. 189. 215.</_>
    <_>
      53. 190. 216.</_>
    <_>
      53. 193. 214.</_>
    <_>
      53. 195. 214.</_>
    <_>
      53. 193. 217.</_>
    <_>
      54. 193. 214.</_>
    <_>
      53. 191. 215.</_>
    <_>
      53. 191. 214.</_>
    <_>
      53. 191. 212.</_>
    <_>
      53. 189. 212.</_>
    <_>
      54. 188. 214.</_>
    <_>
      54. 188. 213.</_>
    <_>
      56. 192. 213.</_>
    <_>
      58. 189. 220.</_>
    <_>
      58. 188. 218.</_>
    <_>
      57. 185. 216.</_>
    <_>
      55. 185. 214.</_>
    <_>
      50. 199. 190.</_>
    <_>
      52. 200. 198.</_>
    <_>
      53. 200. 200.</_>
    <_>
      53. 202. 202.</_>
    <_>
      53. 205. 202.</_>
    <_>
      53. 208. 201.</_>
    <_>
      52. 206. 205.</_>
    <_>
      52. 195. 213.</_>
    <_>
      53. 193. 214.</_>
    <_>
      53. 184. 223.</_>
    <_>
      53. 181. 226.</_>
    <_>
      53. 183. 221.</_>
    <_>
      53. 187. 217.</_>
    <_>
      53. 184. 217.</_>
    <_>
      54. 184. 216.</_>
    <_>
      55. 187. 215.</_>
    <_>
      56. 186. 218.</_>
    <_>
      57. 191. 210.</_>
    <_>
      56. 191. 206.</_>
    <_>
      54. 188. 207.</_>
    <_>
      50. 202. 189.</_>
    <_>
      52. 202. 198.</_>
    <_>
      53. 203. 200.</_>
    <_>
      53. 206. 201.</_>
    <_>
      53. 205. 202.</_>
    <_>
      53. 208. 201.</_>
    <_>
      52. 208. 202.</_>
    <_>
      52. 199. 209.</_>
    <_>
      53. 191. 215.</_>
    <_>
      53. 187. 220.</_>
    <_>
      53. 183. 223.</_>
    <_>
      53. 179. 224.</_>
    <_>
      53. 180. 220.</_>
    <_>
      54. 184. 216.</_>
    <_>
      55. 186. 212.</_>
    <_>
      55. 188. 210.</_>
    <_>
      54. 187. 209.</_>
    <_>
      53. 184. 208.</_>
    <_>
      50. 205. 187.</_>
    <_>
      52. 202. 198.</_>
    <_>
      53. 202. 202.</_>
    <_>
      53. 207. 200.</_>
    <_>
      53. 203. 203.</_>
    <_>
      52. 206. 202.</_>
    <_>
      52. 208. 200.</_>
    <_>
      52. 205. 203.</_>
    <_>
      52. 196. 212.</_>
    <_>
      53. 192. 213.</_>
    <_>
      52. 191. 212.</_>
    <_>
      52. 192. 211.</_>
    <_>
      52. 192. 211.</_>
    <_>
      53. 191. 212.</_>
    <_>
      53. 189. 212.</_>
    <_>
      53. 186. 211.</_>
    <_>
      53. 190. 205.</_>
    <_>
      53. 188. 204.</_>
    <_>
      53. 188. 204.</_>
    <_>
      52. 192. 201.</_>
    <_>
      51. 193. 201.</_>
    <_>
      52. 197. 197.</_>
    <_>
      53. 200. 200.</_>
    <_>
      53. 203. 201.</_>
    <_>
      53. 202. 202.</_>
    <_>
      53. 204. 201.</_>
    <_>
      53. 205. 199.</_>
    <_>
      52. 206. 202.</_>
    <_>
      52. 205. 203.</_>
    <_>
      52. 197. 211.</_>
    <_>
      52. 194. 213.</_>
    <_>
      52. 192. 211.</_>
    <_>
      52. 192. 211.</_>
    <_>
      52. 193. 209.</_>
    <_>
      53. 194. 205.</_>
    <_>
      52. 191. 203.</_>
    <_>
      51. 198. 192.</_>
    <_>
      51. 196. 193.</_>
    <_>
      51. 202. 187.</_>
    <_>
      51. 195. 195.</_>
    <_>
      51. 197. 197.</_>
    <_>
      51. 204. 194.</_>
    <_>
      51. 203. 196.</_>
    <_>
      52. 197. 197.</_>
    <_>
      53. 200. 200.</_>
    <_>
      53. 204. 200.</_>
    <_>
      53. 203. 201.</_>
    <_>
      53. 203. 201.</_>
    <_>
      53. 205. 200.</_>
    <_>
      53. 204. 201.</_>
    <_>
      53. 210. 199.</_>
    <_>
      52. 207. 201.</_>
    <_>
      52. 207. 201.</_>
    <_>
      52. 207. 201.</_>
    <_>
      53. 203. 202.</_>
    <_>
      53. 203. 201.</_>
    <_>
      52. 205. 197.</_>
    <_>
      51. 204. 191.</_>
    <_>
      51. 206. 189.</_>
    <_>
      52. 202. 198.</_>
    <_>
      52. 203. 200.</_>
    <_>
      50. 202. 194.</_>
    <_>
      50. 200. 190.</_>
    <_>
      52. 202. 198.</_>
    <_>
      53. 204. 200.</_>
    <_>
      53. 206. 201.</_>
    <_>
      53. 205. 202.</_>
    <_>
      53. 205. 202.</_>
    <_>
      53. 203. 202.</_>
    <_>
      53. 203. 202.</_>
    <_>
      54. 204. 204.</_>
    <_>
      53. 205. 202.</_>
    <_>
      53. 205. 202.</_>
    <_>
      53. 204. 201.</_>
    <_>
      53. 205. 202.</_>
    <_>
      53. 203. 204.</_>
    <_>
      53. 202. 201.</_>
    <_>
      51. 202. 192.</_>
    <_>
      51. 206. 189.</_>
    <_>
      53. 204. 196.</_>
    <_>
      53. 204. 200.</_>
    <_>
      52. 203. 197.</_>
    <_>
      50. 203. 191.</_>
    <_>
      52. 203. 198.</_>
    <_>
      52. 206. 202.</_>
    <_>
      53. 206. 204.</_>
    <_>
      53. 207. 203.</_>
    <_>
      54. 205. 203.</_>
    <_>
      53. 203. 202.</_>
    <_>
      53. 203. 202.</_>
    <_>
      54. 203. 204.</_>
    <_>
      54. 205. 202.</_>
    <_>
      53. 205. 202.</_>
    <_>
      53. 205. 202.</_>
    <_>
      53. 207. 200.</_>
    <_>
      53. 206. 201.</_>
    <_>
      53. 203. 200.</_>
    <_>
      50. 204. 191.</_>
    <_>
      51. 202. 193.</_>
    <_>
      54. 206. 196.</_>
    <_>
      55. 206. 199.</_>
    <_>
      53. 199. 201.</_>
    <_>
      49. 208. 190.</_>
    <_>
      51. 210. 198.</_>
    <_>
      52. 211. 203.</_>
    <_>
      53. 211. 204.</_>
    <_>
      53. 210. 204.</_>
    <_>
      53. 208. 202.</_>
    <_>
      53. 205. 202.</_>
    <_>
      53. 203. 202.</_>
    <_>
      54. 200. 203.</_>
    <_>
      54. 202. 201.</_>
    <_>
      53. 202. 202.</_>
    <_>
      53. 201. 203.</_>
    <_>
      53. 206. 201.</_>
    <_>
      53. 205. 202.</_>
    <_>
      52. 201. 199.</_>
    <_>
      50. 203. 191.</_>
    <_>
      52. 203. 190.</_>
    <_>
      54. 199. 201.</_>
    <_>
      56. 209. 196.</_>
    <_>
      55. 201. 200.</_>
    <_>
      51. 208. 196.</_>
    <_>
      52. 209. 200.</_>
    <_>
      52. 212. 202.</_>
    <_>
      53. 211. 201.</_>
    <_>
      53. 207. 202.</_>
    <_>
      53. 204. 201.</_>
    <_>
      53. 204. 200.</_>
    <_>
      53. 198. 200.</_>
    <_>
      53. 199. 197.</_>
    <_>
      53. 202. 197.</_>
    <_>
      52. 202. 199.</_>
    <_>
      53. 203. 201.</_>
    <_>
      53. 204. 200.</_>
    <_>
      51. 203. 196.</_>
    <_>
      52. 204. 189.</_>
    <_>
      55. 200. 201.</_>
    <_>
      57. 204. 204.</_>
    <_>
      56. 206. 198.</_>
    <_>
      50. 203. 192.</_>
    <_>
      51. 205. 195.</_>
    <_>
      51. 207. 197.</_>
    <_>
      51. 207. 197.</_>
    <_>
      52. 202. 199.</_>
    <_>
      51. 201. 199.</_>
    <_>
      51. 203. 196.</_>
    <_>
      52. 196. 198.</_>
    <_>
      52. 193. 197.</_>
    <_>
      52. 196. 196.</_>
    <_>
      52. 199. 197.</_>
    <_>
      52. 201. 199.</_>
    <_>
      52. 202. 198.</_>
    <_>
      51. 204. 194.</_>
    <_>
      52. 200. 189.</_>
    <_>
      56. 202. 194.</_>
    <_>
      58. 199. 205.</_>
    <_>
      56. 206. 197.</_>
    <_>
      50. 201. 189.</_>
    <_>
      49. 206. 188.</_>
    <_>
      53. 186. 196.</_>
    <_>
      56. 189. 201.</_>
    <_>
      58. 190. 207.</_>
    <_>
      56. 188. 206.</_>
    <_>
      47. 242. 210.</_>
    <_>
      46. 236. 200.</_>
    <_>
      54. 170. 202.</_>
    <_>
      55. 175. 204.</_>
    <_>
      55. 175. 204.</_>
    <_>
      53. 180. 200.</_>
    <_>
      48. 249. 220.</_>
    <_>
      47. 243. 211.</_>
    <_>
      58. 84. 160.</_>
    <_>
      53. 175. 200.</_>
    <_>
      55. 161. 199.</_>
    <_>
      57. 155. 202.</_>
    <_>
      56. 161. 203.</_>
    <_>
      55. 165. 202.</_>
    <_>
      55. 164. 204.</_>
    <_>
      48. 254. 218.</_>
    <_>
      46. 248. 211.</_>
    <_>
      59. 75. 159.</_>
    <_>
      54. 164. 201.</_>
    <_>
      57. 152. 200.</_>
    <_>
      58. 148. 201.</_>
    <_>
      57. 153. 202.</_>
    <_>
      56. 159. 201.</_>
    <_>
      56. 162. 205.</_>
    <_>
      48. 255. 218.</_>
    <_>
      46. 253. 209.</_>
    <_>
      55. 162. 201.</_>
    <_>
      57. 151. 201.</_>
    <_>
      58. 146. 201.</_>
    <_>
      58. 153. 202.</_>
    <_>
      56. 159. 201.</_>
    <_>
      56. 159. 205.</_>
    <_>
      48. 255. 219.</_>
    <_>
      46. 254. 209.</_>
    <_>
      55. 164. 202.</_>
    <_>
      57. 155. 201.</_>
    <_>
      57. 153. 202.</_>
    <_>
      57. 155. 202.</_>
    <_>
      56. 162. 202.</_>
    <_>
      55. 162. 203.</_>
    <_>
      48. 250. 220.</_>
    <_>
      46. 250. 210.</_>
    <_>
      55. 163. 202.</_>
    <_>
      57. 155. 201.</_>
    <_>
      57. 153. 202.</_>
    <_>
      56. 157. 203.</_>
    <_>
      56. 161. 201.</_>
    <_>
      55. 163. 202.</_>
    <_>
      49. 244. 217.</_>
    <_>
      47. 243. 210.</_>
    <_>
      55. 160. 201.</_>
    <_>
      57. 152. 201.</_>
    <_>
      57. 152. 201.</_>
    <_>
      57. 154. 202.</_>
    <_>
      56. 158. 200.</_>
    <_>
      50. 245. 208.</_>
    <_>
      47. 241. 205.</_>
    <_>
      56. 154. 202.</_>
    <_>
      57. 151. 201.</_>
    <_>
      57. 152. 200.</_>
    <_>
      57. 151. 202.</_>
    <_>
      56. 156. 200.</_>
    <_>
      51. 233. 206.</_>
    <_>
      48. 230. 203.</_>
    <_>
      57. 149. 202.</_>
    <_>
      58. 148. 200.</_>
    <_>
      58. 149. 199.</_>
    <_>
      57. 152. 200.</_>
    <_>
      56. 155. 201.</_>
    <_>
      51. 226. 199.</_>
    <_>
      48. 228. 195.</_>
    <_>
      57. 147. 199.</_>
    <_>
      57. 152. 199.</_>
    <_>
      58. 151. 201.</_>
    <_>
      58. 149. 203.</_>
    <_>
      57. 153. 200.</_>
    <_>
      55. 157. 200.</_>
    <_>
      52. 212. 197.</_>
    <_>
      49. 221. 190.</_>
    <_>
      57. 150. 200.</_>
    <_>
      57. 157. 200.</_>
    <_>
      57. 158. 204.</_>
    <_>
      58. 151. 204.</_>
    <_>
      57. 153. 201.</_>
    <_>
      57. 155. 201.</_>
    <_>
      53. 202. 197.</_>
    <_>
      49. 220. 187.</_>
    <_>
      57. 133. 192.</_>
    <_>
      57. 150. 200.</_>
    <_>
      56. 157. 203.</_>
    <_>
      56. 160. 204.</_>
    <_>
      57. 156. 203.</_>
    <_>
      57. 153. 201.</_>
    <_>
      57. 155. 201.</_>
    <_>
      53. 196. 198.</_>
    <_>
      49. 214. 186.</_>
    <_>
      58. 125. 192.</_>
    <_>
      57. 144. 198.</_>
    <_>
      56. 159. 201.</_>
    <_>
      56. 162. 202.</_>
    <_>
      57. 156. 201.</_>
    <_>
      57. 153. 200.</_>
    <_>
      56. 154. 202.</_>
    <_>
      54. 194. 197.</_>
    <_>
      50. 213. 189.</_>
    <_>
      59. 96. 183.</_>
    <_>
      58. 118. 197.</_>
    <_>
      58. 140. 198.</_>
    <_>
      56. 157. 198.</_>
    <_>
      56. 161. 201.</_>
    <_>
      56. 157. 202.</_>
    <_>
      55. 160. 199.</_>
    <_>
      55. 194. 200.</_>
    <_>
      51. 211. 192.</_>
    <_>
      59. 115. 198.</_>
    <_>
      58. 136. 199.</_>
    <_>
      56. 151. 198.</_>
    <_>
      55. 155. 202.</_>
    <_>
      53. 196. 209.</_>
    <_>
      50. 208. 204.</_>
    <_>
      102. 218. 228.</_>
    <_>
      102. 218. 223.</_>
    <_>
      102. 218. 226.</_>
    <_>
      102. 218. 228.</_>
    <_>
      101. 227. 220.</_>
    <_>
      101. 222. 216.</_>
    <_>
      101. 218. 216.</_>
    <_>
      102. 218. 226.</_>
    <_>
      102. 217. 224.</_>
    <_>
      102. 218. 226.</_>
    <_>
      101. 225. 215.</_>
    <_>
      101. 219. 212.</_>
    <_>
      101. 215. 217.</_>
    <_>
      102. 218. 221.</_>
    <_>
      102. 218. 228.</_>
    <_>
      102. 217. 227.</_>
    <_>
      102. 217. 227.</_>
    <_>
      102. 217. 227.</_>
    <_>
      102. 218. 228.</_>
    <_>
      100. 224. 211.</_>
    <_>
      101. 215. 211.</_>
    <_>
      101. 214. 216.</_>
    <_>
      102. 218. 221.</_>
    <_>
      102. 217. 227.</_>
    <_>
      102. 216. 228.</_>
    <_>
      102. 216. 228.</_>
    <_>
      102. 218. 228.</_>
    <_>
      100. 221. 209.</_>
    <_>
      101. 215. 209.</_>
    <_>
      102. 213. 215.</_>
    <_>
      102. 218. 228.</_>
    <_>
      102. 216. 228.</_>
    <_>
      102. 216. 230.</_>
    <_>
      102. 217. 230.</_>
    <_>
      101. 222. 211.</_>
    <_>
      101. 219. 211.</_>
    <_>
      102. 217. 216.</_>
    <_>
      102. 217. 230.</_>
    <_>
      102. 216. 231.</_>
    <_>
      102. 218. 230.</_>
    <_>
      102. 216. 231.</_>
    <_>
      102. 217. 232.</_>
    <_>
      102. 218. 229.</_>
    <_>
      102. 215. 229.</_>
    <_>
      102. 213. 224.</_>
    <_>
      103. 207. 224.</_>
    <_>
      102. 219. 229.</_>
    <_>
      102. 217. 234.</_>
    <_>
      102. 215. 233.</_>
    <_>
      102. 216. 228.</_>
    <_>
      102. 214. 230.</_>
    <_>
      102. 216. 233.</_>
    <_>
      102. 217. 234.</_>
    <_>
      102. 215. 233.</_>
    <_>
      102. 216. 221.</_>
    <_>
      102. 214. 223.</_>
    <_>
      102. 215. 231.</_>
    <_>
      102. 216. 235.</_>
    <_>
      102. 218. 233.</_>
    <_>
      102. 218. 229.</_>
    <_>
      102. 217. 221.</_>
    <_>
      102. 214. 225.</_>
    <_>
      102. 215. 229.</_>
    <_>
      102. 216. 233.</_>
    <_>
      102. 217. 224.</_>
    <_>
      102. 218. 226.</_>
    <_>
      102. 218. 229.</_>
    <_>
      102. 217. 231.</_>
    <_>
      102. 215. 229.</_>
    <_>
      102. 217. 231.</_>
    <_>
      102. 217. 230.</_>
    <_>
      102. 215. 232.</_>
    <_>
      102. 220. 236.</_>
    <_>
      102. 215. 232.</_>
    <_>
      102. 218. 229.</_>
    <_>
      102. 216. 231.</_>
    <_>
      102. 217. 230.</_>
    <_>
      101. 224. 228.</_>
    <_>
      102. 219. 236.</_>
    <_>
      102. 215. 232.</_>
    <_>
      102. 215. 233.</_>
    <_>
      102. 217. 234.</_>
    <_>
      102. 217. 231.</_>
    <_>
      102. 216. 231.</_>
    <_>
      102. 217. 232.</_>
    <_>
      102. 219. 234.</_>
    <_>
      102. 215. 234.</_>
    <_>
      102. 216. 231.</_>
    <_>
      102. 217. 231.</_>
    <_>
      102. 219. 232.</_>
    <_>
      102. 215. 236.</_>
    <_>
      102. 219. 229.</_>
    <_>
      102. 214. 237.</_>
    <_>
      103. 211. 237.</_>
    <_>
      102. 215. 236.</_>
    <_>
      103. 210. 238.</_>
    <_>
      102. 217. 231.</_>
    <_>
      102. 217. 235.</_>
    <_>
      102. 215. 232.</_>
    <_>
      102. 217. 232.</_>
    <_>
      102. 213. 236.</_>
    <_>
      102. 217. 235.</_>
    <_>
      102. 216. 237.</_>
    <_>
      103. 209. 234.</_>
    <_>
      102. 213. 235.</_>
    <_>
      102. 217. 236.</_>
    <_>
      103. 211. 240.</_>
    <_>
      103. 210. 238.</_>
    <_>
      103. 209. 237.</_>
    <_>
      103. 206. 239.</_>
    <_>
      102. 211. 238.</_>
    <_>
      102. 213. 236.</_>
    <_>
      105. 181. 158.</_>
    <_>
      104. 189. 190.</_>
    <_>
      103. 194. 179.</_>
    <_>
      103. 193. 177.</_>
    <_>
      104. 189. 188.</_>
    <_>
      105. 188. 197.</_>
    <_>
      105. 176. 149.</_>
    <_>
      105. 178. 176.</_>
    <_>
      105. 183. 198.</_>
    <_>
      104. 191. 188.</_>
    <_>
      103. 195. 178.</_>
    <_>
      103. 193. 177.</_>
    <_>
      104. 192. 185.</_>
    <_>
      105. 189. 208.</_>
    <_>
      104. 195. 194.</_>
    <_>
      103. 202. 188.</_>
    <_>
      102. 211. 187.</_>
    <_>
      106. 175. 176.</_>
    <_>
      105. 180. 194.</_>
    <_>
      104. 194. 187.</_>
    <_>
      103. 197. 179.</_>
    <_>
      103. 194. 179.</_>
    <_>
      104. 193. 184.</_>
    <_>
      106. 172. 200.</_>
    <_>
      105. 180. 210.</_>
    <_>
      103. 196. 182.</_>
    <_>
      103. 196. 180.</_>
    <_>
      104. 194. 184.</_>
    <_>
      105. 178. 215.</_>
    <_>
      105. 184. 217.</_>
    <_>
      103. 196. 191.</_>
    <_>
      103. 197. 185.</_>
    <_>
      103. 194. 181.</_>
    <_>
      104. 193. 184.</_>
    <_>
      105. 184. 222.</_>
    <_>
      105. 190. 219.</_>
    <_>
      103. 198. 192.</_>
    <_>
      103. 200. 181.</_>
    <_>
      104. 192. 190.</_>
    <_>
      104. 197. 202.</_>
    <_>
      103. 201. 193.</_>
    <_>
      103. 200. 187.</_>
    <_>
      104. 195. 187.</_>
    <_>
      105. 188. 203.</_>
    <_>
      104. 191. 204.</_>
    <_>
      103. 203. 196.</_>
    <_>
      103. 203. 191.</_>
    <_>
      103. 202. 179.</_>
    <_>
      104. 198. 215.</_>
    <_>
      105. 187. 203.</_>
    <_>
      104. 190. 205.</_>
    <_>
      103. 204. 199.</_>
    <_>
      103. 204. 190.</_>
    <_>
      103. 201. 181.</_>
    <_>
      103. 200. 181.</_>
    <_>
      104. 195. 192.</_>
    <_>
      105. 189. 205.</_>
    <_>
      104. 197. 216.</_>
    <_>
      104. 196. 212.</_>
    <_>
      104. 193. 209.</_>
    <_>
      104. 192. 201.</_>
    <_>
      103. 205. 202.</_>
    <_>
      103. 206. 201.</_>
    <_>
      103. 203. 196.</_>
    <_>
      103. 200. 184.</_>
    <_>
      103. 198. 180.</_>
    <_>
      104. 195. 188.</_>
    <_>
      104. 196. 210.</_>
    <_>
      104. 192. 208.</_>
    <_>
      104. 192. 206.</_>
    <_>
      105. 187. 200.</_>
    <_>
      104. 193. 194.</_>
    <_>
      104. 194. 199.</_>
    <_>
      103. 204. 206.</_>
    <_>
      103. 205. 205.</_>
    <_>
      103. 202. 198.</_>
    <_>
      103. 199. 187.</_>
    <_>
      103. 197. 179.</_>
    <_>
      103. 196. 182.</_>
    <_>
      104. 188. 194.</_>
    <_>
      104. 196. 204.</_>
    <_>
      104. 192. 207.</_>
    <_>
      104. 190. 205.</_>
    <_>
      104. 191. 202.</_>
    <_>
      104. 191. 199.</_>
    <_>
      104. 190. 197.</_>
    <_>
      104. 193. 194.</_>
    <_>
      104. 193. 194.</_>
    <_>
      104. 194. 199.</_>
    <_>
      103. 205. 209.</_>
    <_>
      103. 206. 208.</_>
    <_>
      103. 204. 201.</_>
    <_>
      103. 198. 188.</_>
    <_>
      102. 197. 177.</_>
    <_>
      103. 198. 175.</_>
    <_>
      104. 190. 188.</_>
    <_>
      104. 188. 202.</_>
    <_>
      103. 190. 200.</_>
    <_>
      103. 190. 200.</_>
    <_>
      103. 190. 197.</_>
    <_>
      104. 190. 196.</_>
    <_>
      104. 191. 194.</_>
    <_>
      104. 191. 194.</_>
    <_>
      104. 193. 200.</_>
    <_>
      103. 202. 207.</_>
    <_>
      103. 203. 205.</_>
    <_>
      103. 195. 191.</_>
    <_>
      103. 194. 179.</_>
    <_>
      103. 196. 173.</_>
    <_>
      103. 191. 182.</_>
    <_>
      103. 203. 191.</_>
    <_>
      104. 192. 201.</_>
    <_>
      104. 192. 201.</_>
    <_>
      104. 191. 202.</_>
    <_>
      104. 193. 200.</_>
    <_>
      104. 190. 200.</_>
    <_>
      104. 191. 199.</_>
    <_>
      104. 192. 198.</_>
    <_>
      104. 195. 203.</_>
    <_>
      104. 196. 208.</_>
    <_>
      103. 189. 197.</_>
    <_>
      103. 192. 183.</_>
    <_>
      103. 195. 175.</_>
    <_>
      104. 188. 183.</_>
    <_>
      102. 205. 183.</_>
    <_>
      104. 191. 210.</_>
    <_>
      104. 190. 211.</_>
    <_>
      104. 193. 210.</_>
    <_>
      104. 195. 208.</_>
    <_>
      104. 196. 207.</_>
    <_>
      104. 196. 209.</_>
    <_>
      104. 198. 211.</_>
    <_>
      105. 187. 203.</_>
    <_>
      105. 187. 194.</_>
    <_>
      104. 187. 187.</_>
    <_>
      105. 186. 191.</_>
    <_>
      102. 211. 172.</_>
    <_>
      101. 211. 174.</_>
    <_>
      101. 213. 177.</_>
    <_>
      105. 185. 194.</_>
    <_>
      105. 183. 196.</_>
    <_>
      102. 209. 176.</_>
    <_>
      101. 209. 176.</_>
    <_>
      100. 213. 176.</_>
    <_>
      101. 219. 179.</_>
    <_>
      105. 190. 219.</_>
    <_>
      105. 191. 218.</_>
    <_>
      104. 197. 206.</_>
    <_>
      103. 203. 185.</_>
    <_>
      102. 203. 185.</_>
    <_>
      102. 208. 184.</_>
    <_>
      105. 189. 221.</_>
    <_>
      105. 191. 219.</_>
    <_>
      104. 196. 207.</_>
    <_>
      104. 196. 204.</_>
    <_>
      104. 196. 204.</_>
    <_>
      105. 187. 222.</_>
    <_>
      105. 191. 218.</_>
    <_>
      105. 190. 221.</_>
    <_>
      105. 189. 223.</_>
    <_>
      105. 189. 218.</_>
    <_>
      104. 193. 206.</_>
    <_>
      104. 194. 204.</_>
    <_>
      104. 194. 204.</_>
    <_>
      105. 186. 224.</_>
    <_>
      105. 190. 219.</_>
    <_>
      105. 190. 222.</_>
    <_>
      105. 186. 223.</_>
    <_>
      105. 187. 218.</_>
    <_>
      104. 192. 206.</_>
    <_>
      104. 192. 201.</_>
    <_>
      104. 191. 202.</_>
    <_>
      105. 189. 206.</_>
    <_>
      105. 182. 225.</_>
    <_>
      105. 187. 220.</_>
    <_>
      105. 183. 223.</_>
    <_>
      105. 183. 216.</_>
    <_>
      104. 189. 200.</_>
    <_>
      104. 192. 194.</_>
    <_>
      104. 193. 196.</_>
    <_>
      105. 181. 227.</_>
    <_>
      105. 186. 221.</_>
    <_>
      105. 182. 223.</_>
    <_>
      105. 183. 213.</_>
    <_>
      104. 190. 196.</_>
    <_>
      106. 181. 226.</_>
    <_>
      106. 182. 223.</_>
    <_>
      106. 182. 218.</_>
    <_>
      105. 184. 211.</_>
    <_>
      104. 191. 194.</_>
    <_>
      104. 192. 189.</_>
    <_>
      104. 194. 188.</_>
    <_>
      105. 180. 225.</_>
    <_>
      106. 183. 220.</_>
    <_>
      106. 183. 221.</_>
    <_>
      105. 184. 207.</_>
    <_>
      104. 186. 196.</_>
    <_>
      104. 189. 192.</_>
    <_>
      104. 191. 191.</_>
    <_>
      106. 177. 226.</_>
    <_>
      106. 180. 221.</_>
    <_>
      106. 183. 219.</_>
    <_>
      106. 183. 219.</_>
    <_>
      105. 183. 201.</_>
    <_>
      104. 183. 196.</_>
    <_>
      105. 186. 195.</_>
    <_>
      106. 177. 226.</_>
    <_>
      106. 181. 220.</_>
    <_>
      106. 181. 218.</_>
    <_>
      106. 181. 213.</_>
    <_>
      105. 179. 208.</_>
    <_>
      105. 179. 202.</_>
    <_>
      105. 184. 200.</_>
    <_>
      106. 180. 220.</_>
    <_>
      106. 175. 213.</_>
    <_>
      106. 176. 211.</_>
    <_>
      106. 179. 221.</_>
    <_>
      106. 175. 217.</_>
    <_>
      106. 175. 214.</_>
    <_>
      106. 180. 214.</_>
    <_>
      103. 206. 205.</_>
    <_>
      103. 206. 208.</_>
    <_>
      107. 174. 228.</_>
    <_>
      107. 175. 224.</_>
    <_>
      107. 175. 224.</_>
    <_>
      107. 173. 224.</_>
    <_>
      106. 180. 219.</_>
    <_>
      102. 212. 198.</_>
    <_>
      102. 213. 200.</_>
    <_>
      107. 173. 228.</_>
    <_>
      107. 173. 226.</_>
    <_>
      107. 174. 226.</_>
    <_>
      107. 173. 227.</_>
    <_>
      106. 178. 222.</_>
    <_>
      106. 183. 219.</_>
    <_>
      105. 190. 219.</_>
    <_>
      105. 189. 208.</_>
    <_>
      106. 158. 42.</_>
    <_>
      106. 152. 37.</_>
    <_>
      105. 163. 50.</_>
    <_>
      105. 163. 50.</_>
    <_>
      107. 160. 126.</_>
    <_>
      106. 158. 124.</_>
    <_>
      107. 161. 127.</_>
    <_>
      107. 161. 127.</_>
    <_>
      107. 158. 126.</_>
    <_>
      107. 158. 126.</_>
    <_>
      106. 158. 124.</_>
    <_>
      107. 161. 127.</_>
    <_>
      107. 159. 128.</_>
    <_>
      107. 158. 126.</_>
    <_>
      107. 158. 126.</_>
    <_>
      107. 160. 126.</_>
    <_>
      107. 161. 127.</_>
    <_>
      107. 161. 127.</_>
    <_>
      107. 158. 126.</_>
    <_>
      107. 160. 126.</_>
    <_>
      107. 160. 126.</_>
    <_>
      107. 160. 126.</_>
    <_>
      107. 157. 127.</_>
    <_>
      107. 159. 122.</_>
    <_>
      107. 160. 124.</_>
    <_>
      107. 160. 126.</_>
    <_>
      106. 158. 124.</_>
    <_>
      107. 160. 126.</_>
    <_>
      107. 161. 127.</_>
    <_>
      106. 166. 126.</_>
    <_>
      106. 166. 126.</_>
    <_>
      108. 153. 125.</_>
    <_>
      108. 153. 125.</_>
    <_>
      107. 157. 127.</_></support_vectors>
  <decision_functions>
    <_>
      <sv_count>763</sv_count>
      <rho>-2.6142397481122953e-01</rho>
      <alpha>
        1.0000000000000001e-01 1.0000000000000001e-01
        1.0000000000000001e-01 1.0000000000000001e-01
        1.0000000000000001e-01 1.0000000000000001e-01
        1.0000000000000001e-01 1.0000000000000001e-01
        1.0000000000000001e-01 1.0000000000000001e-01
        1.0000000000000001e-01 1.0000000000000001e-01
        1.0000000000000001e-01 1.0000000000000001e-01
        1.0000000000000001e-01 1.0000000000000001e-01
        1.0000000000000001e-01 1.0000000000000001e-01
        1.0000000000000001e-01 1.0000000000000001e-01
        1.0000000000000001e-01 1.0000000000000001e-01
        1.0000000000000001e-01 1.0000000000000001e-01
        1.0000000000000001e-01 1.0000000000000001e-01
        1.0000000000000001e-01 1.0000000000000001e-01
        1.0000000000000001e-01 1.0000000000000001e-01
        1.0000000000000001e-01 1.0000000000000001e-01
        1.0000000000000001e-01 1.0000000000000001e-01
        1.0000000000000001e-01 1.0000000000000001e-01
        1.0000000000000001e-01 1.0000000000000001e-01
        1.0000000000000001e-01 1.0000000000000001e-01
        1.0000000000000001e-01 1.0000000000000001e-01
        1.0000000000000001e-01 1.0000000000000001e-01
        1.0000000000000001e-01 1.0000000000000001e-01
        1.0000000000000001e-01 1.0000000000000001e-01
        1.0000000000000001e-01 1.0000000000000001e-01
        1.0000000000000001e-01 1.0000000000000001e-01
        1.0000000000000001e-01 1.0000000000000001e-01
        1.0000000000000001e-01 1.0000000000000001e-01
        1.0000000000000001e-01 1.0000000000000001e-01
        1.0000000000000001e-01 1.0000000000000001e-01
        1.0000000000000001e-01 1.0000000000000001e-01
        1.0000000000000001e-01 1.0000000000000001e-01
        1.0000000000000001e-01 1.0000000000000001e-01
        1.0000000000000001e-01 1.0000000000000001e-01
        1.0000000000000001e-01 1.0000000000000001e-01
        1.0000000000000001e-01 1.0000000000000001e-01
        1.0000000000000001e-01 1.0000000000000001e-01
        1.0000000000000001e-01 1.0000000000000001e-01
        1.0000000000000001e-01 1.0000000000000001e-01
        1.0000000000000001e-01 1.0000000000000001e-01
        1.0000000000000001e-01 1.0000000000000001e-01
        1.0000000000000001e-01 1.0000000000000001e-01
        1.0000000000000001e-01 1.0000000000000001e-01
        1.0000000000000001e-01 1.0000000000000001e-01
        1.0000000000000001e-01 1.0000000000000001e-01
        1.0000000000000001e-01 1.0000000000000001e-01
        1.0000000000000001e-01 3.8306696310676257e-02
        1.0000000000000001e-01 1.0000000000000001e-01
        1.0000000000000001e-01 1.0000000000000001e-01
        1.0000000000000001e-01 1.0000000000000001e-01
        1.0000000000000001e-01 1.0000000000000001e-01
        1.0000000000000001e-01 1.0000000000000001e-01
        1.0000000000000001e-01 1.0000000000000001e-01
        1.0000000000000001e-01 1.0000000000000001e-01
        1.0000000000000001e-01 1.0000000000000001e-01
        1.0000000000000001e-01 1.0000000000000001e-01
        1.0000000000000001e-01 1.0000000000000001e-01
        1.0000000000000001e-01 1.0000000000000001e-01
        1.0000000000000001e-01 3.3799816161152116e-02
        1.0000000000000001e-01 1.0000000000000001e-01
        1.0000000000000001e-01 1.0000000000000001e-01
        1.0000000000000001e-01 1.0000000000000001e-01
        1.0000000000000001e-01 1.0000000000000001e-01
        1.0000000000000001e-01 1.0000000000000001e-01
        1.0000000000000001e-01 1.0000000000000001e-01
        1.0000000000000001e-01 1.0000000000000001e-01
        1.0000000000000001e-01 1.0000000000000001e-01
        1.0000000000000001e-01 1.0000000000000001e-01
        1.0000000000000001e-01 1.0000000000000001e-01
        1.0000000000000001e-01 1.0000000000000001e-01
        1.0000000000000001e-01 1.0000000000000001e-01
        1.0000000000000001e-01 1.0000000000000001e-01
        1.0000000000000001e-01 1.0000000000000001e-01
        1.0000000000000001e-01 1.0000000000000001e-01
        1.0000000000000001e-01 1.0000000000000001e-01
        1.0000000000000001e-01 1.0000000000000001e-01
        1.0000000000000001e-01 1.0000000000000001e-01
        1.0000000000000001e-01 1.0000000000000001e-01
        1.0000000000000001e-01 1.0000000000000001e-01
        1.0000000000000001e-01 1.0000000000000001e-01
        1.0000000000000001e-01 1.0000000000000001e-01
        1.0000000000000001e-01 1.0000000000000001e-01
        1.0000000000000001e-01 1.0000000000000001e-01
        1.0000000000000001e-01 1.0000000000000001e-01
        1.0000000000000001e-01 1.0000000000000001e-01
        1.0000000000000001e-01 1.0000000000000001e-01
        1.0000000000000001e-01 1.0000000000000001e-01
        1.0000000000000001e-01 1.0000000000000001e-01
        1.0000000000000001e-01 1.0000000000000001e-01
        1.0000000000000001e-01 1.0000000000000001e-01
        1.0000000000000001e-01 1.0000000000000001e-01
        1.0000000000000001e-01 1.0000000000000001e-01
        1.0000000000000001e-01 1.0000000000000001e-01
        1.0000000000000001e-01 1.0000000000000001e-01
        1.0000000000000001e-01 1.0000000000000001e-01
        1.0000000000000001e-01 1.0000000000000001e-01
        1.0000000000000001e-01 1.0000000000000001e-01
        1.0000000000000001e-01 1.0000000000000001e-01
        1.0000000000000001e-01 1.0000000000000001e-01
        1.0000000000000001e-01 1.0000000000000001e-01
        1.0000000000000001e-01 1.0000000000000001e-01
        1.0000000000000001e-01 1.0000000000000001e-01
        1.0000000000000001e-01 1.0000000000000001e-01
        1.0000000000000001e-01 1.0000000000000001e-01
        1.0000000000000001e-01 1.0000000000000001e-01
        1.0000000000000001e-01 1.0000000000000001e-01
        1.0000000000000001e-01 1.0000000000000001e-01
        1.0000000000000001e-01 1.0000000000000001e-01
        1.0000000000000001e-01 1.0000000000000001e-01
        1.0000000000000001e-01 1.0000000000000001e-01
        1.0000000000000001e-01 1.0000000000000001e-01
        1.0000000000000001e-01 1.0000000000000001e-01
        1.0000000000000001e-01 1.0000000000000001e-01
        1.0000000000000001e-01 1.0000000000000001e-01
        1.0000000000000001e-01 1.0000000000000001e-01
        1.0000000000000001e-01 1.0000000000000001e-01
        1.0000000000000001e-01 1.0000000000000001e-01
        1.0000000000000001e-01 1.0000000000000001e-01
        1.0000000000000001e-01 1.0000000000000001e-01
        1.0000000000000001e-01 1.0000000000000001e-01
        1.0000000000000001e-01 1.0000000000000001e-01
        1.0000000000000001e-01 1.0000000000000001e-01
        1.0000000000000001e-01 1.0000000000000001e-01
        1.0000000000000001e-01 1.0000000000000001e-01
        1.0000000000000001e-01 1.0000000000000001e-01
        1.0000000000000001e-01 1.0000000000000001e-01
        1.0000000000000001e-01 1.0000000000000001e-01
        1.0000000000000001e-01 1.0000000000000001e-01
        1.0000000000000001e-01 1.0000000000000001e-01
        1.0000000000000001e-01 1.0000000000000001e-01
        1.0000000000000001e-01 1.0000000000000001e-01
        1.0000000000000001e-01 1.0000000000000001e-01
        1.0000000000000001e-01 1.0000000000000001e-01
        1.0000000000000001e-01 1.0000000000000001e-01
        1.0000000000000001e-01 1.0000000000000001e-01
        1.0000000000000001e-01 1.0000000000000001e-01
        1.0000000000000001e-01 1.0000000000000001e-01
        1.0000000000000001e-01 1.0000000000000001e-01
        1.0000000000000001e-01 1.0000000000000001e-01
        1.0000000000000001e-01 1.0000000000000001e-01
        1.0000000000000001e-01 1.0000000000000001e-01
        1.0000000000000001e-01 1.0000000000000001e-01
        1.0000000000000001e-01 1.0000000000000001e-01
        1.0000000000000001e-01 1.0000000000000001e-01
        1.0000000000000001e-01 1.0000000000000001e-01
        1.0000000000000001e-01 1.0000000000000001e-01
        1.0000000000000001e-01 1.0000000000000001e-01
        1.0000000000000001e-01 1.0000000000000001e-01
        1.0000000000000001e-01 1.0000000000000001e-01
        1.0000000000000001e-01 1.0000000000000001e-01
        1.0000000000000001e-01 1.0000000000000001e-01
        1.0000000000000001e-01 1.0000000000000001e-01
        1.0000000000000001e-01 1.0000000000000001e-01
        1.0000000000000001e-01 1.0000000000000001e-01
        1.0000000000000001e-01 1.0000000000000001e-01
        1.0000000000000001e-01 1.0000000000000001e-01
        1.0000000000000001e-01 6.9237433692434500e-02
        1.0000000000000001e-01 1.0000000000000001e-01
        1.0000000000000001e-01 1.0000000000000001e-01
        1.0000000000000001e-01 1.0000000000000001e-01
        1.0000000000000001e-01 1.0000000000000001e-01
        1.0000000000000001e-01 1.0000000000000001e-01
        1.0000000000000001e-01 1.0000000000000001e-01
        1.0000000000000001e-01 1.0000000000000001e-01
        1.0000000000000001e-01 1.0000000000000001e-01
        1.0000000000000001e-01 1.0000000000000001e-01
        1.0000000000000001e-01 1.0000000000000001e-01
        1.0000000000000001e-01 1.0000000000000001e-01
        1.0000000000000001e-01 1.0000000000000001e-01
        1.0000000000000001e-01 1.0000000000000001e-01
        1.0000000000000001e-01 1.0000000000000001e-01
        1.0000000000000001e-01 1.0000000000000001e-01
        1.0000000000000001e-01 1.0000000000000001e-01
        1.0000000000000001e-01 1.0000000000000001e-01
        1.0000000000000001e-01 1.0000000000000001e-01
        1.0000000000000001e-01 1.0000000000000001e-01
        1.0000000000000001e-01 1.0000000000000001e-01
        1.0000000000000001e-01 1.0000000000000001e-01
        1.0000000000000001e-01 1.0000000000000001e-01
        1.0000000000000001e-01 1.0000000000000001e-01
        1.0000000000000001e-01 1.0000000000000001e-01
        1.0000000000000001e-01 1.0000000000000001e-01
        1.0000000000000001e-01 1.0000000000000001e-01
        1.0000000000000001e-01 1.0000000000000001e-01
        1.0000000000000001e-01 1.0000000000000001e-01
        1.0000000000000001e-01 1.0000000000000001e-01
        1.0000000000000001e-01 1.0000000000000001e-01
        1.0000000000000001e-01 1.0000000000000001e-01
        1.0000000000000001e-01 1.0000000000000001e-01
        1.0000000000000001e-01 1.0000000000000001e-01
        4.0824976121766636e-03 5.4573556223560540e-02
        1.0000000000000001e-01 -1.0000000000000001e-01
        -1.0000000000000001e-01 -1.0000000000000001e-01
        -1.0000000000000001e-01 -1.0000000000000001e-01
        -1.0000000000000001e-01 -1.0000000000000001e-01
        -1.0000000000000001e-01 -1.0000000000000001e-01
        -1.0000000000000001e-01 -1.0000000000000001e-01
        -1.0000000000000001e-01 -1.0000000000000001e-01
        -1.0000000000000001e-01 -1.0000000000000001e-01
        -1.0000000000000001e-01 -1.0000000000000001e-01
        -1.0000000000000001e-01 -1.0000000000000001e-01
        -1.0000000000000001e-01 -1.0000000000000001e-01
        -1.0000000000000001e-01 -1.0000000000000001e-01
        -1.0000000000000001e-01 -1.0000000000000001e-01
        -1.0000000000000001e-01 -1.0000000000000001e-01
        -1.0000000000000001e-01 -1.0000000000000001e-01
        -1.0000000000000001e-01 -1.0000000000000001e-01
        -1.0000000000000001e-01 -1.0000000000000001e-01
        -1.0000000000000001e-01 -1.0000000000000001e-01
        -1.0000000000000001e-01 -1.0000000000000001e-01
        -1.0000000000000001e-01 -1.0000000000000001e-01
        -1.0000000000000001e-01 -1.0000000000000001e-01
        -1.0000000000000001e-01 -1.0000000000000001e-01
        -1.0000000000000001e-01 -1.0000000000000001e-01
        -1.0000000000000001e-01 -1.0000000000000001e-01
        -1.0000000000000001e-01 -1.0000000000000001e-01
        -1.0000000000000001e-01 -1.0000000000000001e-01
        -1.0000000000000001e-01 -1.0000000000000001e-01
        -1.0000000000000001e-01 -1.0000000000000001e-01
        -1.0000000000000001e-01 -1.0000000000000001e-01
        -1.0000000000000001e-01 -1.0000000000000001e-01
        -1.0000000000000001e-01 -1.0000000000000001e-01
        -1.0000000000000001e-01 -1.0000000000000001e-01
        -1.0000000000000001e-01 -1.0000000000000001e-01
        -1.0000000000000001e-01 -1.0000000000000001e-01
        -1.0000000000000001e-01 -1.0000000000000001e-01
        -1.0000000000000001e-01 -1.0000000000000001e-01
        -1.0000000000000001e-01 -1.0000000000000001e-01
        -1.0000000000000001e-01 -1.0000000000000001e-01
        -1.0000000000000001e-01 -1.0000000000000001e-01
        -1.0000000000000001e-01 -1.0000000000000001e-01
        -1.0000000000000001e-01 -1.0000000000000001e-01
        -1.0000000000000001e-01 -1.0000000000000001e-01
        -1.0000000000000001e-01 -1.0000000000000001e-01
        -1.0000000000000001e-01 -1.0000000000000001e-01
        -1.0000000000000001e-01 -1.0000000000000001e-01
        -1.0000000000000001e-01 -1.0000000000000001e-01
        -1.0000000000000001e-01 -1.0000000000000001e-01
        -1.0000000000000001e-01 -1.0000000000000001e-01
        -1.0000000000000001e-01 -1.0000000000000001e-01
        -1.0000000000000001e-01 -1.0000000000000001e-01
        -1.0000000000000001e-01 -1.0000000000000001e-01
        -1.0000000000000001e-01 -1.0000000000000001e-01
        -1.0000000000000001e-01 -1.0000000000000001e-01
        -1.0000000000000001e-01 -1.0000000000000001e-01
        -1.0000000000000001e-01 -1.0000000000000001e-01
        -1.0000000000000001e-01 -1.0000000000000001e-01
        -1.0000000000000001e-01 -1.0000000000000001e-01
        -1.0000000000000001e-01 -1.0000000000000001e-01
        -1.0000000000000001e-01 -1.0000000000000001e-01
        -1.0000000000000001e-01 -1.0000000000000001e-01
        -1.0000000000000001e-01 -1.0000000000000001e-01
        -1.0000000000000001e-01 -1.0000000000000001e-01
        -1.0000000000000001e-01 -1.0000000000000001e-01
        -1.0000000000000001e-01 -1.0000000000000001e-01
        -1.0000000000000001e-01 -1.0000000000000001e-01
        -1.0000000000000001e-01 -1.0000000000000001e-01
        -1.0000000000000001e-01 -1.0000000000000001e-01
        -1.0000000000000001e-01 -1.0000000000000001e-01
        -1.0000000000000001e-01 -1.0000000000000001e-01
        -1.0000000000000001e-01 -1.0000000000000001e-01
        -1.0000000000000001e-01 -1.0000000000000001e-01
        -1.0000000000000001e-01 -1.0000000000000001e-01
        -1.0000000000000001e-01 -1.0000000000000001e-01
        -1.0000000000000001e-01 -1.0000000000000001e-01
        -1.0000000000000001e-01 -1.0000000000000001e-01
        -1.0000000000000001e-01 -1.0000000000000001e-01
        -1.0000000000000001e-01 -1.0000000000000001e-01
        -1.0000000000000001e-01 -1.0000000000000001e-01
        -1.0000000000000001e-01 -1.0000000000000001e-01
        -1.0000000000000001e-01 -1.0000000000000001e-01
        -1.0000000000000001e-01 -1.0000000000000001e-01
        -1.0000000000000001e-01 -1.0000000000000001e-01
        -1.0000000000000001e-01 -1.0000000000000001e-01
        -1.0000000000000001e-01 -1.0000000000000001e-01
        -1.0000000000000001e-01 -1.0000000000000001e-01
        -1.0000000000000001e-01 -1.0000000000000001e-01
        -1.0000000000000001e-01 -1.0000000000000001e-01
        -1.0000000000000001e-01 -1.0000000000000001e-01
        -1.0000000000000001e-01 -1.0000000000000001e-01
        -1.0000000000000001e-01 -1.0000000000000001e-01
        -1.0000000000000001e-01 -1.0000000000000001e-01
        -1.0000000000000001e-01 -1.0000000000000001e-01
        -1.0000000000000001e-01 -1.0000000000000001e-01
        -1.0000000000000001e-01 -1.0000000000000001e-01
        -1.0000000000000001e-01 -1.0000000000000001e-01
        -1.0000000000000001e-01 -1.0000000000000001e-01
        -1.0000000000000001e-01 -1.0000000000000001e-01
        -1.0000000000000001e-01 -1.0000000000000001e-01
        -1.0000000000000001e-01 -1.0000000000000001e-01
        -1.0000000000000001e-01 -1.0000000000000001e-01
        -1.0000000000000001e-01 -1.0000000000000001e-01
        -1.0000000000000001e-01 -1.0000000000000001e-01
        -1.0000000000000001e-01 -1.0000000000000001e-01
        -1.0000000000000001e-01 -1.0000000000000001e-01
        -1.0000000000000001e-01 -1.0000000000000001e-01
        -1.0000000000000001e-01 -1.0000000000000001e-01
        -1.0000000000000001e-01 -1.0000000000000001e-01
        -1.0000000000000001e-01 -1.0000000000000001e-01
        -1.0000000000000001e-01 -1.0000000000000001e-01
        -1.0000000000000001e-01 -1.0000000000000001e-01
        -1.0000000000000001e-01 -1.0000000000000001e-01
        -1.0000000000000001e-01 -1.0000000000000001e-01
        -1.0000000000000001e-01 -1.0000000000000001e-01
        -1.0000000000000001e-01 -1.0000000000000001e-01
        -1.0000000000000001e-01 -1.0000000000000001e-01
        -1.0000000000000001e-01 -1.0000000000000001e-01
        -1.0000000000000001e-01 -1.0000000000000001e-01
        -1.0000000000000001e-01 -1.0000000000000001e-01
        -1.0000000000000001e-01 -1.0000000000000001e-01
        -1.0000000000000001e-01 -1.0000000000000001e-01
        -1.0000000000000001e-01 -1.0000000000000001e-01
        -1.0000000000000001e-01 -1.0000000000000001e-01
        -1.0000000000000001e-01 -1.0000000000000001e-01
        -1.0000000000000001e-01 -1.0000000000000001e-01
        -1.0000000000000001e-01 -1.0000000000000001e-01
        -1.0000000000000001e-01 -1.0000000000000001e-01
        -1.0000000000000001e-01 -1.0000000000000001e-01
        -1.0000000000000001e-01 -1.0000000000000001e-01
        -1.0000000000000001e-01 -1.0000000000000001e-01
        -1.0000000000000001e-01 -1.0000000000000001e-01
        -1.0000000000000001e-01 -1.0000000000000001e-01
        -1.0000000000000001e-01 -1.0000000000000001e-01
        -1.0000000000000001e-01 -1.0000000000000001e-01
        -1.0000000000000001e-01 -1.0000000000000001e-01
        -1.0000000000000001e-01 -1.0000000000000001e-01
        -1.0000000000000001e-01 -1.0000000000000001e-01
        -1.0000000000000001e-01 -1.0000000000000001e-01
        -1.0000000000000001e-01 -1.0000000000000001e-01
        -1.0000000000000001e-01 -1.0000000000000001e-01
        -1.0000000000000001e-01 -1.0000000000000001e-01
        -1.0000000000000001e-01 -1.0000000000000001e-01
        -1.0000000000000001e-01 -1.0000000000000001e-01
        -1.0000000000000001e-01 -1.0000000000000001e-01
        -1.0000000000000001e-01 -1.0000000000000001e-01
        -1.0000000000000001e-01 -1.0000000000000001e-01
        -1.0000000000000001e-01 -1.0000000000000001e-01
        -1.0000000000000001e-01 -1.0000000000000001e-01
        -1.0000000000000001e-01 -1.0000000000000001e-01
        -1.0000000000000001e-01 -1.0000000000000001e-01
        -1.0000000000000001e-01 -1.0000000000000001e-01
        -1.0000000000000001e-01 -1.0000000000000001e-01
        -1.0000000000000001e-01 -1.0000000000000001e-01
        -1.0000000000000001e-01 -1.0000000000000001e-01
        -1.0000000000000001e-01 -1.0000000000000001e-01
        -1.0000000000000001e-01 -1.0000000000000001e-01
        -1.0000000000000001e-01 -1.0000000000000001e-01
        -1.0000000000000001e-01 -1.0000000000000001e-01
        -1.0000000000000001e-01 -1.0000000000000001e-01
        -1.0000000000000001e-01 -1.0000000000000001e-01
        -1.0000000000000001e-01 -1.0000000000000001e-01
        -1.0000000000000001e-01 -1.0000000000000001e-01
        -1.0000000000000001e-01 -1.0000000000000001e-01
        -1.0000000000000001e-01 -1.0000000000000001e-01
        -1.0000000000000001e-01 -1.0000000000000001e-01
        -1.0000000000000001e-01 -1.0000000000000001e-01
        -1.0000000000000001e-01 -1.0000000000000001e-01
        -1.0000000000000001e-01 -1.0000000000000001e-01
        -1.0000000000000001e-01 -1.0000000000000001e-01
        -1.0000000000000001e-01 -1.0000000000000001e-01
        -1.0000000000000001e-01 -1.0000000000000001e-01
        -1.0000000000000001e-01 -1.0000000000000001e-01
        -1.0000000000000001e-01 -1.0000000000000001e-01
        -1.0000000000000001e-01 -1.0000000000000001e-01
        -1.0000000000000001e-01 -1.0000000000000001e-01
        -1.0000000000000001e-01 -1.0000000000000001e-01
        -1.0000000000000001e-01 -1.0000000000000001e-01
        -1.0000000000000001e-01 -1.0000000000000001e-01
        -1.0000000000000001e-01 -1.0000000000000001e-01
        -1.0000000000000001e-01 -1.0000000000000001e-01
        -1.0000000000000001e-01 -1.0000000000000001e-01
        -1.0000000000000001e-01 -1.0000000000000001e-01
        -1.0000000000000001e-01 -1.0000000000000001e-01
        -1.0000000000000001e-01 -1.0000000000000001e-01
        -1.0000000000000001e-01 -1.0000000000000001e-01
        -1.0000000000000001e-01 -1.0000000000000001e-01
        -1.0000000000000001e-01 -1.0000000000000001e-01
        -1.0000000000000001e-01 -1.0000000000000001e-01
        -1.0000000000000001e-01 -1.0000000000000001e-01
        -1.0000000000000001e-01 -1.0000000000000001e-01
        -1.0000000000000001e-01 -1.0000000000000001e-01
        -1.0000000000000001e-01</alpha>
      <index>
        380 381 382 383 384 385 386 387 388 389 390 391 392 393 394 395
        396 397 398 399 400 401 402 403 404 405 406 407 408 409 410 411
        412 413 414 415 416 417 418 419 420 421 422 423 424 425 426 427
        428 429 430 431 432 433 434 435 436 437 438 439 440 441 442 443
        444 445 446 447 448 449 450 451 452 453 454 455 456 457 458 459
        460 461 462 463 464 465 466 467 468 469 470 471 472 473 474 475
        476 477 478 479 480 481 482 483 484 485 486 487 488 489 490 491
        492 493 494 495 496 497 498 499 500 501 502 503 504 505 506 507
        508 509 510 511 512 513 514 515 516 517 518 519 520 521 522 523
        524 525 526 527 528 529 530 531 532 533 534 535 536 537 538 539
        540 541 542 543 544 545 546 547 548 549 550 551 552 553 554 555
        556 557 558 559 560 561 562 563 564 565 566 567 568 569 570 571
        572 573 574 575 576 577 578 579 580 581 582 583 584 585 586 587
        588 589 590 591 592 593 594 595 596 597 598 599 600 601 602 603
        604 605 606 607 608 609 610 611 612 613 614 615 616 617 618 619
        620 621 622 623 624 625 626 627 628 629 630 631 632 633 634 635
        636 637 638 639 640 641 642 643 644 645 646 647 648 649 650 651
        652 653 654 655 656 657 658 659 660 661 662 663 664 665 666 667
        668 669 670 671 672 673 674 675 676 677 678 679 680 681 682 683
        684 685 686 687 688 689 690 691 692 693 694 695 696 697 698 699
        700 701 702 703 704 705 706 707 708 709 710 711 712 713 714 715
        716 717 718 719 720 721 722 723 724 725 726 727 728 729 730 731
        732 733 734 735 736 737 738 739 740 741 742 743 744 745 746 747
        748 749 750 751 752 753 754 755 756 757 758 759 760 761 762 0 1
        2 3 4 5 6 7 8 9 10 11 12 13 14 15 16 17 18 19 20 21 22 23 24 25
        26 27 28 29 30 31 32 33 34 35 36 37 38 39 40 41 42 43 44 45 46
        47 48 49 50 51 52 53 54 55 56 57 58 59 60 61 62 63 64 65 66 67
        68 69 70 71 72 73 74 75 76 77 78 79 80 81 82 83 84 85 86 87 88
        89 90 91 92 93 94 95 96 97 98 99 100 101 102 103 104 105 106 107
        108 109 110 111 112 113 114 115 116 117 118 119 120 121 122 123
        124 125 126 127 128 129 130 131 132 133 134 135 136 137 138 139
        140 141 142 143 144 145 146 147 148 149 150 151 152 153 154 155
        156 157 158 159 160 161 162 163 164 165 166 167 168 169 170 171
        172 173 174 175 176 177 178 179 180 181 182 183 184 185 186 187
        188 189 190 191 192 193 194 195 196 197 198 199 200 201 202 203
        204 205 206 207 208 209 210 211 212 213 214 215 216 217 218 219
        220 221 222 223 224 225 226 227 228 229 230 231 232 233 234 235
        236 237 238 239 240 241 242 243 244 245 246 247 248 249 250 251
        252 253 254 255 256 257 258 259 260 261 262 263 264 265 266 267
        268 269 270 271 272 273 274 275 276 277 278 279 280 281 282 283
        284 285 286 287 288 289 290 291 292 293 294 295 296 297 298 299
        300 301 302 303 304 305 306 307 308 309 310 311 312 313 314 315
        316 317 318 319 320 321 322 323 324 325 326 327 328 329 330 331
        332 333 334 335 336 337 338 339 340 341 342 343 344 345 346 347
        348 349 350 351 352 353 354 355 356 357 358 359 360 361 362 363
        364 365 366 367 368 369 370 371 372 373 374 375 376 377 378 379</index></_></decision_functions></opencv_ml_svm>
</opencv_storage>
