<?xml version="1.0"?>
<opencv_storage>
<opencv_ml_svm>
  <format>3</format>
  <svmType>C_SVC</svmType>
  <kernel>
    <type>RBF</type>
    <gamma>1.5000000000000001e-04</gamma></kernel>
  <C>5.0000000000000000e-01</C>
  <term_criteria><epsilon>1.1920928955078125e-07</epsilon>
    <iterations>1000</iterations></term_criteria>
  <var_count>3</var_count>
  <class_count>2</class_count>
  <class_labels type_id="opencv-matrix">
    <rows>2</rows>
    <cols>1</cols>
    <dt>i</dt>
    <data>
      -1 1</data></class_labels>
  <sv_total>78</sv_total>
  <support_vectors>
    <_>
      46. 80. 251.</_>
    <_>
      46. 80. 252.</_>
    <_>
      46. 80. 252.</_>
    <_>
      13. 128. 32.</_>
    <_>
      17. 156. 31.</_>
    <_>
      17. 147. 33.</_>
    <_>
      33. 242. 118.</_>
    <_>
      32. 234. 98.</_>
    <_>
      26. 91. 87.</_>
    <_>
      29. 89. 92.</_>
    <_>
      33. 80. 118.</_>
    <_>
      37. 80. 160.</_>
    <_>
      32. 105. 90.</_>
    <_>
      34. 94. 120.</_>
    <_>
      40. 74. 224.</_>
    <_>
      28. 90. 130.</_>
    <_>
      34. 75. 184.</_>
    <_>
      40. 72. 224.</_>
    <_>
      60. 195. 220.</_>
    <_>
      59. 195. 216.</_>
    <_>
      59. 195. 217.</_>
    <_>
      58. 189. 220.</_>
    <_>
      58. 188. 218.</_>
    <_>
      58. 190. 207.</_>
    <_>
      58. 84. 160.</_>
    <_>
      59. 75. 159.</_>
    <_>
      55. 88. 159.</_>
    <_>
      56. 83. 157.</_>
    <_>
      58. 153. 202.</_>
    <_>
      48. 255. 219.</_>
    <_>
      55. 89. 178.</_>
    <_>
      58. 95. 190.</_>
    <_>
      57. 85. 179.</_>
    <_>
      59. 96. 183.</_>
    <_>
      15. 106. 108.</_>
    <_>
      17. 105. 114.</_>
    <_>
      173. 26. 39.</_>
    <_>
      169. 87. 50.</_>
    <_>
      94. 73. 230.</_>
    <_>
      85. 61. 221.</_>
    <_>
      83. 57. 225.</_>
    <_>
      82. 58. 229.</_>
    <_>
      83. 56. 229.</_>
    <_>
      173. 4. 242.</_>
    <_>
      0. 0. 249.</_>
    <_>
      165. 9. 55.</_>
    <_>
      174. 118. 80.</_>
    <_>
      11. 98. 73.</_>
    <_>
      9. 70. 87.</_>
    <_>
      8. 80. 83.</_>
    <_>
      3. 12. 225.</_>
    <_>
      7. 98. 83.</_>
    <_>
      6. 85. 87.</_>
    <_>
      6. 66. 101.</_>
    <_>
      5. 89. 86.</_>
    <_>
      4. 71. 100.</_>
    <_>
      4. 78. 95.</_>
    <_>
      76. 58. 164.</_>
    <_>
      76. 58. 162.</_>
    <_>
      76. 58. 162.</_>
    <_>
      76. 59. 159.</_>
    <_>
      76. 60. 166.</_>
    <_>
      76. 60. 167.</_>
    <_>
      76. 58. 172.</_>
    <_>
      94. 160. 207.</_>
    <_>
      94. 163. 203.</_>
    <_>
      94. 161. 204.</_>
    <_>
      94. 161. 201.</_>
    <_>
      94. 164. 201.</_>
    <_>
      94. 160. 203.</_>
    <_>
      94. 160. 199.</_>
    <_>
      94. 161. 198.</_>
    <_>
      94. 160. 199.</_>
    <_>
      94. 162. 200.</_>
    <_>
      15. 39. 156.</_>
    <_>
      19. 40. 154.</_>
    <_>
      22. 43. 148.</_>
    <_>
      24. 42. 147.</_></support_vectors>
  <decision_functions>
    <_>
      <sv_count>78</sv_count>
      <rho>-3.6240081468813290e-01</rho>
      <alpha>
        2.3336304798754001e-01 1.0476706492740596e-01
        2.2325356204157062e-01 7.5857222088186139e-03
        5.0000000000000000e-01 5.0000000000000000e-01
        5.0000000000000000e-01 2.2866602288271567e-01
        5.0000000000000000e-01 2.4416128979834598e-01
        4.1395194138777125e-01 5.0000000000000000e-01
        5.0000000000000000e-01 5.0000000000000000e-01
        4.1488788321060466e-01 5.0000000000000000e-01
        5.0000000000000000e-01 2.2123564786000358e-01
        5.0000000000000000e-01 5.0000000000000000e-01
        5.0000000000000000e-01 5.0000000000000000e-01
        5.0000000000000000e-01 5.0000000000000000e-01
        5.0000000000000000e-01 5.0000000000000000e-01
        5.0000000000000000e-01 4.5438284691583364e-01
        5.0000000000000000e-01 5.0000000000000000e-01
        5.0000000000000000e-01 5.0000000000000000e-01
        5.0000000000000000e-01 3.1805724701938021e-01
        3.9863624818250709e-01 5.0000000000000000e-01
        4.7265443744332558e-02 5.0000000000000000e-01
        2.3893229988627224e-01 5.0000000000000000e-01
        5.0000000000000000e-01 1.2309913667000577e-01
        -5.0000000000000000e-01 -5.0000000000000000e-01
        -5.0000000000000000e-01 -5.0000000000000000e-01
        -4.6997547590529026e-01 -5.0000000000000000e-01
        -4.5692515591932120e-01 -4.7749722666557204e-01
        -5.0000000000000000e-01 -5.0000000000000000e-01
        -5.0000000000000000e-01 -5.0000000000000000e-01
        -5.0000000000000000e-01 -5.0000000000000000e-01
        -5.0000000000000000e-01 -5.0000000000000000e-01
        -5.5713711712650382e-02 -5.0000000000000000e-01
        -5.0000000000000000e-01 -5.0000000000000000e-01
        -5.0000000000000000e-01 -4.5691156543009170e-01
        -5.0000000000000000e-01 -5.0000000000000000e-01
        -5.0000000000000000e-01 -5.0000000000000000e-01
        -5.0000000000000000e-01 -5.0000000000000000e-01
        -5.0000000000000000e-01 -2.5522226909018225e-01
        -5.0000000000000000e-01 -5.0000000000000000e-01
        -5.0000000000000000e-01 -5.0000000000000000e-01
        -5.0000000000000000e-01 -5.0000000000000000e-01</alpha>
      <index>
        36 37 38 39 40 41 42 43 44 45 46 47 48 49 50 51 52 53 54 55 56
        57 58 59 60 61 62 63 64 65 66 67 68 69 70 71 72 73 74 75 76 77 0
        1 2 3 4 5 6 7 8 9 10 11 12 13 14 15 16 17 18 19 20 21 22 23 24
        25 26 27 28 29 30 31 32 33 34 35</index></_></decision_functions></opencv_ml_svm>
</opencv_storage>
