<?xml version="1.0"?>
<opencv_storage>
<opencv_ml_svm>
  <format>3</format>
  <svmType>C_SVC</svmType>
  <kernel>
    <type>RBF</type>
    <gamma>2.2500000000000003e-03</gamma></kernel>
  <C>5.0000000000000000e-01</C>
  <term_criteria><epsilon>1.1920928955078125e-07</epsilon>
    <iterations>1000</iterations></term_criteria>
  <var_count>3</var_count>
  <class_count>2</class_count>
  <class_labels type_id="opencv-matrix">
    <rows>2</rows>
    <cols>1</cols>
    <dt>i</dt>
    <data>
      -1 1</data></class_labels>
  <sv_total>397</sv_total>
  <support_vectors>
    <_>
      27. 156. 59.</_>
    <_>
      31. 125. 90.</_>
    <_>
      31. 140. 73.</_>
    <_>
      32. 118. 110.</_>
    <_>
      32. 122. 107.</_>
    <_>
      34. 123. 124.</_>
    <_>
      34. 132. 122.</_>
    <_>
      35. 134. 137.</_>
    <_>
      35. 146. 129.</_>
    <_>
      43. 103. 255.</_>
    <_>
      33. 188. 87.</_>
    <_>
      34. 172. 89.</_>
    <_>
      34. 161. 95.</_>
    <_>
      35. 184. 100.</_>
    <_>
      35. 201. 100.</_>
    <_>
      35. 191. 99.</_>
    <_>
      36. 186. 111.</_>
    <_>
      35. 163. 116.</_>
    <_>
      36. 185. 124.</_>
    <_>
      37. 182. 115.</_>
    <_>
      36. 183. 124.</_>
    <_>
      41. 114. 251.</_>
    <_>
      27. 177. 59.</_>
    <_>
      29. 185. 62.</_>
    <_>
      31. 169. 74.</_>
    <_>
      31. 215. 77.</_>
    <_>
      30. 211. 75.</_>
    <_>
      32. 222. 85.</_>
    <_>
      33. 199. 82.</_>
    <_>
      35. 164. 95.</_>
    <_>
      17. 145. 74.</_>
    <_>
      22. 152. 89.</_>
    <_>
      24. 153. 95.</_>
    <_>
      35. 177. 134.</_>
    <_>
      36. 169. 139.</_>
    <_>
      36. 168. 140.</_>
    <_>
      30. 91. 184.</_>
    <_>
      28. 134. 135.</_>
    <_>
      30. 108. 166.</_>
    <_>
      32. 106. 186.</_>
    <_>
      33. 102. 198.</_>
    <_>
      30. 142. 115.</_>
    <_>
      36. 106. 215.</_>
    <_>
      31. 136. 107.</_>
    <_>
      44. 96. 221.</_>
    <_>
      46. 80. 252.</_>
    <_>
      45. 90. 224.</_>
    <_>
      13. 128. 32.</_>
    <_>
      17. 156. 31.</_>
    <_>
      17. 147. 33.</_>
    <_>
      24. 143. 50.</_>
    <_>
      36. 208. 113.</_>
    <_>
      22. 163. 39.</_>
    <_>
      26. 137. 65.</_>
    <_>
      33. 242. 119.</_>
    <_>
      33. 242. 118.</_>
    <_>
      35. 231. 129.</_>
    <_>
      32. 234. 98.</_>
    <_>
      32. 235. 102.</_>
    <_>
      37. 202. 134.</_>
    <_>
      36. 224. 130.</_>
    <_>
      36. 219. 133.</_>
    <_>
      26. 91. 87.</_>
    <_>
      29. 89. 92.</_>
    <_>
      33. 80. 118.</_>
    <_>
      37. 80. 160.</_>
    <_>
      32. 105. 90.</_>
    <_>
      34. 94. 120.</_>
    <_>
      34. 115. 113.</_>
    <_>
      44. 121. 225.</_>
    <_>
      46. 137. 247.</_>
    <_>
      45. 129. 232.</_>
    <_>
      45. 162. 250.</_>
    <_>
      46. 158. 249.</_>
    <_>
      46. 149. 236.</_>
    <_>
      43. 168. 248.</_>
    <_>
      40. 74. 224.</_>
    <_>
      31. 129. 87.</_>
    <_>
      34. 108. 134.</_>
    <_>
      34. 75. 184.</_>
    <_>
      46. 105. 231.</_>
    <_>
      32. 131. 185.</_>
    <_>
      32. 119. 188.</_>
    <_>
      29. 84. 149.</_>
    <_>
      34. 74. 202.</_>
    <_>
      39. 77. 248.</_>
    <_>
      40. 72. 224.</_>
    <_>
      33. 158. 157.</_>
    <_>
      36. 97. 210.</_>
    <_>
      33. 154. 159.</_>
    <_>
      33. 152. 161.</_>
    <_>
      33. 155. 153.</_>
    <_>
      38. 187. 237.</_>
    <_>
      36. 222. 202.</_>
    <_>
      39. 189. 150.</_>
    <_>
      34. 225. 185.</_>
    <_>
      35. 156. 144.</_>
    <_>
      33. 245. 160.</_>
    <_>
      32. 237. 152.</_>
    <_>
      31. 186. 141.</_>
    <_>
      44. 192. 163.</_>
    <_>
      30. 195. 136.</_>
    <_>
      32. 172. 150.</_>
    <_>
      54. 180. 224.</_>
    <_>
      59. 199. 215.</_>
    <_>
      60. 195. 220.</_>
    <_>
      58. 192. 218.</_>
    <_>
      59. 195. 216.</_>
    <_>
      59. 195. 217.</_>
    <_>
      58. 192. 216.</_>
    <_>
      56. 188. 213.</_>
    <_>
      58. 189. 220.</_>
    <_>
      58. 188. 218.</_>
    <_>
      57. 185. 216.</_>
    <_>
      44. 218. 158.</_>
    <_>
      56. 186. 218.</_>
    <_>
      57. 191. 210.</_>
    <_>
      56. 191. 206.</_>
    <_>
      43. 220. 159.</_>
    <_>
      44. 217. 160.</_>
    <_>
      47. 209. 171.</_>
    <_>
      56. 209. 196.</_>
    <_>
      57. 204. 204.</_>
    <_>
      56. 202. 194.</_>
    <_>
      58. 199. 205.</_>
    <_>
      56. 206. 197.</_>
    <_>
      52. 175. 189.</_>
    <_>
      53. 168. 191.</_>
    <_>
      52. 171. 189.</_>
    <_>
      51. 179. 189.</_>
    <_>
      53. 186. 196.</_>
    <_>
      56. 189. 201.</_>
    <_>
      58. 190. 207.</_>
    <_>
      56. 188. 206.</_>
    <_>
      49. 172. 173.</_>
    <_>
      53. 129. 176.</_>
    <_>
      55. 123. 162.</_>
    <_>
      47. 175. 173.</_>
    <_>
      54. 170. 202.</_>
    <_>
      55. 175. 204.</_>
    <_>
      55. 175. 204.</_>
    <_>
      53. 180. 200.</_>
    <_>
      53. 107. 162.</_>
    <_>
      55. 97. 160.</_>
    <_>
      50. 124. 158.</_>
    <_>
      53. 175. 200.</_>
    <_>
      55. 165. 202.</_>
    <_>
      59. 75. 159.</_>
    <_>
      58. 148. 201.</_>
    <_>
      56. 162. 205.</_>
    <_>
      48. 255. 218.</_>
    <_>
      56. 83. 157.</_>
    <_>
      46. 149. 168.</_>
    <_>
      58. 146. 201.</_>
    <_>
      58. 153. 202.</_>
    <_>
      48. 255. 219.</_>
    <_>
      56. 162. 202.</_>
    <_>
      48. 250. 220.</_>
    <_>
      47. 136. 158.</_>
    <_>
      52. 178. 191.</_>
    <_>
      49. 244. 217.</_>
    <_>
      53. 169. 190.</_>
    <_>
      51. 233. 206.</_>
    <_>
      58. 149. 199.</_>
    <_>
      51. 226. 199.</_>
    <_>
      58. 151. 201.</_>
    <_>
      58. 149. 203.</_>
    <_>
      57. 158. 204.</_>
    <_>
      58. 151. 204.</_>
    <_>
      49. 220. 187.</_>
    <_>
      39. 251. 174.</_>
    <_>
      57. 133. 192.</_>
    <_>
      39. 252. 176.</_>
    <_>
      58. 95. 190.</_>
    <_>
      58. 125. 192.</_>
    <_>
      56. 162. 202.</_>
    <_>
      57. 85. 179.</_>
    <_>
      58. 118. 197.</_>
    <_>
      58. 140. 198.</_>
    <_>
      41. 247. 185.</_>
    <_>
      38. 252. 180.</_>
    <_>
      58. 102. 178.</_>
    <_>
      59. 115. 198.</_>
    <_>
      58. 136. 199.</_>
    <_>
      36. 102. 224.</_>
    <_>
      36. 119. 231.</_>
    <_>
      36. 99. 222.</_>
    <_>
      36. 124. 222.</_>
    <_>
      36. 129. 221.</_>
    <_>
      36. 132. 226.</_>
    <_>
      36. 134. 225.</_>
    <_>
      15. 106. 108.</_>
    <_>
      24. 98. 148.</_>
    <_>
      21. 103. 129.</_>
    <_>
      23. 101. 144.</_>
    <_>
      23. 105. 139.</_>
    <_>
      27. 118. 147.</_>
    <_>
      60. 255. 7.</_>
    <_>
      56. 170. 21.</_>
    <_>
      59. 118. 65.</_>
    <_>
      59. 133. 75.</_>
    <_>
      57. 188. 102.</_>
    <_>
      69. 221. 52.</_>
    <_>
      67. 190. 227.</_>
    <_>
      67. 190. 229.</_>
    <_>
      67. 190. 227.</_>
    <_>
      60. 198. 9.</_>
    <_>
      63. 153. 125.</_>
    <_>
      63. 169. 127.</_>
    <_>
      62. 217. 127.</_>
    <_>
      63. 179. 140.</_>
    <_>
      62. 217. 122.</_>
    <_>
      63. 183. 146.</_>
    <_>
      73. 168. 137.</_>
    <_>
      69. 210. 194.</_>
    <_>
      74. 154. 106.</_>
    <_>
      58. 215. 63.</_>
    <_>
      58. 209. 56.</_>
    <_>
      63. 241. 72.</_>
    <_>
      59. 188. 57.</_>
    <_>
      63. 240. 67.</_>
    <_>
      68. 223. 192.</_>
    <_>
      68. 233. 186.</_>
    <_>
      110. 128. 6.</_>
    <_>
      110. 153. 5.</_>
    <_>
      126. 128. 10.</_>
    <_>
      114. 85. 15.</_>
    <_>
      110. 51. 15.</_>
    <_>
      83. 60. 17.</_>
    <_>
      60. 71. 25.</_>
    <_>
      96. 182. 7.</_>
    <_>
      96. 128. 10.</_>
    <_>
      90. 96. 16.</_>
    <_>
      96. 142. 9.</_>
    <_>
      80. 153. 15.</_>
    <_>
      80. 164. 14.</_>
    <_>
      72. 152. 37.</_>
    <_>
      83. 93. 11.</_>
    <_>
      70. 102. 15.</_>
    <_>
      57. 132. 56.</_>
    <_>
      67. 146. 197.</_>
    <_>
      65. 153. 212.</_>
    <_>
      70. 123. 102.</_>
    <_>
      68. 126. 138.</_>
    <_>
      67. 134. 169.</_>
    <_>
      67. 144. 190.</_>
    <_>
      66. 151. 204.</_>
    <_>
      68. 121. 139.</_>
    <_>
      67. 119. 175.</_>
    <_>
      67. 131. 200.</_>
    <_>
      67. 122. 172.</_>
    <_>
      66. 126. 199.</_>
    <_>
      66. 128. 196.</_>
    <_>
      66. 139. 208.</_>
    <_>
      66. 142. 207.</_>
    <_>
      66. 128. 20.</_>
    <_>
      64. 142. 144.</_>
    <_>
      63. 160. 164.</_>
    <_>
      63. 150. 162.</_>
    <_>
      63. 189. 209.</_>
    <_>
      62. 185. 209.</_>
    <_>
      63. 153. 147.</_>
    <_>
      63. 162. 195.</_>
    <_>
      65. 197. 210.</_>
    <_>
      65. 196. 208.</_>
    <_>
      60. 182. 202.</_>
    <_>
      60. 183. 206.</_>
    <_>
      61. 184. 207.</_>
    <_>
      64. 165. 141.</_>
    <_>
      63. 162. 195.</_>
    <_>
      65. 196. 209.</_>
    <_>
      59. 183. 205.</_>
    <_>
      60. 182. 206.</_>
    <_>
      60. 183. 204.</_>
    <_>
      63. 157. 202.</_>
    <_>
      63. 163. 211.</_>
    <_>
      59. 185. 205.</_>
    <_>
      59. 184. 204.</_>
    <_>
      60. 182. 202.</_>
    <_>
      63. 161. 197.</_>
    <_>
      63. 161. 218.</_>
    <_>
      59. 183. 205.</_>
    <_>
      63. 162. 209.</_>
    <_>
      60. 178. 205.</_>
    <_>
      61. 166. 175.</_>
    <_>
      60. 174. 182.</_>
    <_>
      59. 177. 187.</_>
    <_>
      60. 173. 190.</_>
    <_>
      62. 186. 214.</_>
    <_>
      62. 188. 212.</_>
    <_>
      60. 173. 186.</_>
    <_>
      60. 170. 193.</_>
    <_>
      62. 184. 212.</_>
    <_>
      60. 171. 188.</_>
    <_>
      72. 255. 23.</_>
    <_>
      67. 141. 190.</_>
    <_>
      66. 150. 207.</_>
    <_>
      66. 190. 235.</_>
    <_>
      70. 255. 39.</_>
    <_>
      70. 177. 251.</_>
    <_>
      69. 161. 247.</_>
    <_>
      71. 205. 248.</_>
    <_>
      69. 161. 247.</_>
    <_>
      60. 106. 29.</_>
    <_>
      54. 216. 84.</_>
    <_>
      54. 218. 83.</_>
    <_>
      60. 118. 41.</_>
    <_>
      55. 188. 84.</_>
    <_>
      55. 219. 92.</_>
    <_>
      56. 172. 80.</_>
    <_>
      55. 193. 82.</_>
    <_>
      57. 162. 77.</_>
    <_>
      56. 177. 78.</_>
    <_>
      56. 204. 101.</_>
    <_>
      57. 215. 102.</_>
    <_>
      57. 174. 97.</_>
    <_>
      58. 164. 95.</_>
    <_>
      67. 208. 199.</_>
    <_>
      67. 214. 210.</_>
    <_>
      67. 214. 210.</_>
    <_>
      67. 216. 208.</_>
    <_>
      66. 239. 225.</_>
    <_>
      69. 254. 236.</_>
    <_>
      69. 254. 230.</_>
    <_>
      64. 207. 227.</_>
    <_>
      63. 200. 232.</_>
    <_>
      64. 206. 232.</_>
    <_>
      66. 205. 178.</_>
    <_>
      58. 139. 33.</_>
    <_>
      55. 159. 48.</_>
    <_>
      57. 175. 64.</_>
    <_>
      61. 199. 122.</_>
    <_>
      61. 196. 121.</_>
    <_>
      58. 228. 149.</_>
    <_>
      56. 241. 148.</_>
    <_>
      56. 250. 147.</_>
    <_>
      60. 222. 154.</_>
    <_>
      60. 218. 153.</_>
    <_>
      61. 234. 160.</_>
    <_>
      60. 208. 152.</_>
    <_>
      61. 214. 156.</_>
    <_>
      73. 200. 42.</_>
    <_>
      73. 148. 98.</_>
    <_>
      73. 182. 123.</_>
    <_>
      73. 171. 115.</_>
    <_>
      73. 200. 129.</_>
    <_>
      71. 252. 185.</_>
    <_>
      72. 248. 193.</_>
    <_>
      72. 255. 164.</_>
    <_>
      72. 255. 142.</_>
    <_>
      72. 255. 159.</_>
    <_>
      72. 255. 171.</_>
    <_>
      51. 94. 19.</_>
    <_>
      60. 133. 23.</_>
    <_>
      56. 170. 21.</_>
    <_>
      59. 209. 28.</_>
    <_>
      62. 229. 39.</_>
    <_>
      59. 221. 37.</_>
    <_>
      62. 169. 115.</_>
    <_>
      62. 242. 97.</_>
    <_>
      62. 255. 89.</_>
    <_>
      61. 246. 81.</_>
    <_>
      62. 246. 56.</_>
    <_>
      60. 153. 20.</_>
    <_>
      62. 202. 134.</_>
    <_>
      64. 193. 160.</_>
    <_>
      64. 190. 160.</_>
    <_>
      68. 255. 11.</_>
    <_>
      70. 241. 204.</_>
    <_>
      71. 176. 42.</_>
    <_>
      73. 190. 74.</_>
    <_>
      73. 191. 112.</_>
    <_>
      71. 228. 244.</_>
    <_>
      70. 242. 215.</_>
    <_>
      67. 216. 178.</_>
    <_>
      65. 237. 114.</_>
    <_>
      78. 234. 123.</_>
    <_>
      80. 255. 112.</_>
    <_>
      78. 251. 124.</_>
    <_>
      62. 255. 129.</_>
    <_>
      80. 255. 102.</_>
    <_>
      47. 111. 103.</_>
    <_>
      47. 111. 103.</_>
    <_>
      50. 118. 106.</_>
    <_>
      48. 113. 102.</_>
    <_>
      63. 120. 125.</_>
    <_>
      50. 100. 105.</_>
    <_>
      50. 100. 105.</_>
    <_>
      59. 135. 108.</_>
    <_>
      61. 141. 110.</_>
    <_>
      88. 113. 36.</_>
    <_>
      77. 115. 51.</_>
    <_>
      80. 125. 53.</_>
    <_>
      76. 148. 67.</_>
    <_>
      74. 170. 75.</_>
    <_>
      74. 192. 85.</_>
    <_>
      74. 222. 93.</_></support_vectors>
  <decision_functions>
    <_>
      <sv_count>397</sv_count>
      <rho>-1.2716241737867190e-01</rho>
      <alpha>
        4.8659235967528314e-01 4.4772075825838248e-01
        3.7519278463229139e-01 4.2202658318240216e-01
        1.4695559961142921e-01 5.0000000000000000e-01
        8.1033159055399734e-02 5.0000000000000000e-01
        5.0000000000000000e-01 3.1858086386726059e-01
        1.2987898711974977e-01 1.1454466318817284e-01
        3.8772575093379136e-01 2.8495082010815603e-01
        1.5349337819680300e-01 1.0337428801648070e-02
        4.6664521952114416e-02 4.9978000212653070e-02
        1.6375571672561770e-01 1.3639944321104053e-01
        5.0830678276751626e-02 2.9733683027550917e-01
        1.2146631427942278e-01 3.2146889171102755e-01
        1.6775379372158464e-01 1.4021965201421815e-01
        5.0000000000000000e-01 5.0000000000000000e-01
        5.0000000000000000e-01 5.0000000000000000e-01
        5.0000000000000000e-01 5.0000000000000000e-01
        5.0000000000000000e-01 4.7103975486948935e-01
        1.1298288237181385e-01 1.0401181501519904e-02
        3.0734595915395052e-01 2.2550662282455997e-01
        1.1852535725066210e-01 4.8510411878196541e-01
        5.1914820466634662e-02 1.4161606734060161e-01
        5.0000000000000000e-01 5.0000000000000000e-01
        1.3578012558178212e-01 7.8450014975564225e-02
        5.0000000000000000e-01 4.4574752946555452e-01
        5.0000000000000000e-01 5.0000000000000000e-01
        5.0000000000000000e-01 5.0000000000000000e-01
        5.0000000000000000e-01 5.0000000000000000e-01
        5.0000000000000000e-01 5.0000000000000000e-01
        5.0000000000000000e-01 1.0929652974299306e-01
        4.6300183809302703e-01 3.9310542261544318e-02
        5.0000000000000000e-01 5.0000000000000000e-01
        4.5578785163149216e-01 1.4739568313605517e-01
        5.0000000000000000e-01 5.0000000000000000e-01
        5.0000000000000000e-01 5.0000000000000000e-01
        5.0000000000000000e-01 5.0000000000000000e-01
        5.0136427161877668e-02 5.0000000000000000e-01
        5.0000000000000000e-01 5.0000000000000000e-01
        5.0000000000000000e-01 5.0000000000000000e-01
        5.0000000000000000e-01 2.9725959199162455e-01
        5.0000000000000000e-01 5.0000000000000000e-01
        3.5438381140305730e-01 5.0000000000000000e-01
        5.0000000000000000e-01 5.0000000000000000e-01
        5.0000000000000000e-01 5.0000000000000000e-01
        4.9087688009358993e-01 5.0000000000000000e-01
        5.0000000000000000e-01 4.6271543212327210e-01
        5.0000000000000000e-01 5.0000000000000000e-01
        5.0000000000000000e-01 5.0000000000000000e-01
        5.0000000000000000e-01 5.0000000000000000e-01
        1.9050667162007384e-01 5.0000000000000000e-01
        5.0000000000000000e-01 4.6136612757146189e-01
        4.7238573646234566e-01 2.1888714732118639e-01
        5.0000000000000000e-01 7.4011241582393722e-02
        4.5644262922407880e-01 2.2083094544937557e-01
        2.5617209791487794e-01 5.0000000000000000e-01
        1.2992596080456831e-01 1.8188159550017585e-01
        4.4521709157057707e-02 1.0261276185682823e-02
        2.3742321133955963e-01 2.9567415744483760e-01
        7.4167293660462319e-02 2.2101779724529463e-01
        2.4821533209685387e-01 1.4785780992752548e-01
        4.1838809537515886e-01 5.0000000000000000e-01
        5.0000000000000000e-01 3.5774130784572450e-01
        1.9563394577509371e-01 4.8339017819962871e-01
        3.2705475738944889e-01 5.0000000000000000e-01
        5.0000000000000000e-01 5.0000000000000000e-01
        4.5599696559730750e-02 5.0000000000000000e-01
        1.0294928294336256e-01 5.0000000000000000e-01
        1.6574288825914951e-01 1.1045492475243474e-02
        4.1407752176847368e-01 4.0082952495770574e-01
        2.1612073519414310e-01 4.2345181262209225e-01
        2.1579494699807072e-01 4.5773949453970619e-02
        1.6282601975953651e-01 5.0000000000000000e-01
        2.9625875740753632e-01 3.6097449264546178e-01
        2.5512594504834141e-01 1.0208323088833989e-02
        1.4737477112387903e-01 6.0597443600419500e-02
        3.4930854102946124e-01 5.0000000000000000e-01
        7.0116426615020863e-02 3.1495350045279216e-02
        9.2703611801991895e-02 9.0403939601885863e-02
        3.8432887902264273e-01 5.0000000000000000e-01
        4.0009665896569546e-01 3.9004755724426521e-02
        3.4760004199960304e-01 2.8241793279779720e-01
        6.4953172393044586e-02 1.1545878865842893e-01
        8.1038054378157434e-02 5.0000000000000000e-01
        9.6034193495678377e-02 3.4646677428326739e-01
        4.6417538110241012e-02 3.5391666257631363e-02
        2.4227852572984494e-02 5.0000000000000000e-01
        2.2868152996322971e-01 5.0000000000000000e-01
        2.3762488740267462e-01 1.2662441830191334e-01
        1.0848867412786949e-02 3.9211115265993168e-01
        1.2243756777280189e-01 4.3018650148520626e-01
        1.4068469367306624e-01 3.0299609881205475e-01
        2.8213394968694167e-01 9.3264758082009513e-03
        3.8270231941880439e-01 2.9637360209022562e-01
        5.0000000000000000e-01 5.0000000000000000e-01
        2.3964514866071285e-01 3.7609440771139174e-02
        1.8256446272152271e-01 5.0000000000000000e-01
        2.5031748903775031e-01 2.5760580254435006e-01
        1.0669711897524398e-01 4.8716630602000610e-01
        8.8281025465860724e-02 2.8120073986282479e-01
        3.8378588821345921e-01 1.2242662755558886e-01
        1.1479841048168021e-01 2.2249358150267118e-01
        -1.3850799474203526e-01 -2.8130739659158654e-01
        -2.0493112652902223e-01 -2.8672027835158576e-01
        -3.1134106121207472e-01 -9.8826032486300314e-02
        -5.4915728428105638e-02 -1.7392736020891642e-01
        -4.4419929693925864e-01 -4.8321000392351138e-01
        -3.6419138809497636e-01 -2.0109647839457329e-01
        -6.5610026988499534e-02 -3.5147312570512831e-02
        -4.5325943621440479e-01 -7.0721647607937116e-02
        -2.2690359412247077e-02 -3.5327219109299846e-01
        -1.5205914421412184e-02 -5.0000000000000000e-01
        -9.2865580726264954e-03 -3.8027778414602298e-01
        -3.4613830499594583e-01 -5.0000000000000000e-01
        -2.3820687411408908e-01 -2.3703767886707025e-01
        -4.8669624641332637e-01 -5.0000000000000000e-01
        -8.5539089856666042e-02 -5.0000000000000000e-01
        -2.8770149594743949e-01 -1.4466594420552659e-01
        -6.9613298584924349e-02 -1.0940402205539707e-01
        -2.0385897422022625e-01 -1.9624565268093411e-01
        -2.1041592310864382e-01 -5.3697684154514390e-02
        -2.5172485808297573e-01 -7.2039351373715810e-02
        -2.2619700354226652e-01 -1.3973283941486134e-01
        -9.6502807214701974e-02 -7.0573344897630147e-02
        -1.2880193931223999e-01 -5.0000000000000000e-01
        -1.0379698860637859e-02 -5.0000000000000000e-01
        -5.0000000000000000e-01 -1.1561483407893910e-01
        -2.9987234223566595e-01 -4.9792563663520728e-01
        -4.2443465640351291e-01 -3.6165633288189281e-01
        -5.0000000000000000e-01 -2.3412714003980067e-01
        -2.7733634403732221e-01 -5.0000000000000000e-01
        -4.8603494994780408e-02 -5.0000000000000000e-01
        -2.6940409874634121e-02 -2.5200478396926929e-01
        -3.6699833196665377e-01 -4.7352050944588120e-01
        -5.0000000000000000e-01 -1.3195943980253874e-01
        -5.0000000000000000e-01 -5.0000000000000000e-01
        -5.0000000000000000e-01 -9.8666678060260107e-03
        -4.8769305960029802e-01 -2.5921926674356471e-02
        -4.8886403207925316e-01 -2.2960090005096054e-01
        -3.7413016144706396e-01 -3.6969436222369728e-01
        -1.2808441934280629e-01 -3.2355345045109002e-01
        -5.2915914309104257e-02 -5.0000000000000000e-01
        -2.0737056866151637e-01 -1.0833052137981677e-01
        -1.5279258790458278e-01 -5.0000000000000000e-01
        -4.8887891665527788e-01 -3.8148464742848026e-01
        -5.0000000000000000e-01 -1.5176428583648899e-01
        -2.5315894160395355e-02 -2.8007252371822243e-02
        -3.7791940378498860e-02 -6.3737599001776016e-02
        -3.8856018075802290e-01 -2.3166474885188269e-02
        -3.6230002674903222e-01 -2.0760765435298772e-01
        -1.1608293061132141e-01 -4.5100841090067739e-01
        -3.9724033258592500e-01 -2.8805297318007586e-02
        -4.7951334427297015e-01 -1.7089992527601523e-02
        -5.8708381948412422e-02 -5.0000000000000000e-01
        -5.0000000000000000e-01 -5.0000000000000000e-01
        -5.0000000000000000e-01 -5.0000000000000000e-01
        -5.0000000000000000e-01 -5.0000000000000000e-01
        -5.0000000000000000e-01 -5.0000000000000000e-01
        -5.0000000000000000e-01 -5.0000000000000000e-01
        -5.0000000000000000e-01 -4.0511230628710992e-01
        -5.0000000000000000e-01 -5.0000000000000000e-01
        -1.2742600970589951e-01 -5.0000000000000000e-01
        -5.0000000000000000e-01 -5.0000000000000000e-01
        -1.9450185935155109e-01 -5.0000000000000000e-01
        -5.0000000000000000e-01 -3.3710859503391888e-01
        -5.0000000000000000e-01 -5.0000000000000000e-01
        -5.0000000000000000e-01 -4.6017533700125471e-02
        -5.0000000000000000e-01 -5.0000000000000000e-01
        -5.0000000000000000e-01 -5.0000000000000000e-01
        -5.0000000000000000e-01 -5.0000000000000000e-01
        -5.0000000000000000e-01 -4.4487404686394538e-01
        -5.0000000000000000e-01 -5.0000000000000000e-01
        -5.0000000000000000e-01 -5.0000000000000000e-01
        -2.4187561591588966e-01 -1.5685032771595192e-01
        -2.6625419677212336e-01 -5.0000000000000000e-01
        -2.7649778684866833e-01 -5.0000000000000000e-01
        -5.0000000000000000e-01 -5.0000000000000000e-01
        -2.0778126189690191e-01 -1.8574869800245075e-01
        -5.0000000000000000e-01 -5.0000000000000000e-01
        -5.0000000000000000e-01 -5.0000000000000000e-01
        -5.0000000000000000e-01 -3.3802760317374453e-01
        -5.0000000000000000e-01 -5.0000000000000000e-01
        -4.7204668044411480e-01 -5.0000000000000000e-01
        -5.0000000000000000e-01 -3.2998338107617281e-01
        -5.0000000000000000e-01 -5.0000000000000000e-01
        -5.0000000000000000e-01 -5.0000000000000000e-01
        -5.0000000000000000e-01 -7.2634538738070867e-02
        -3.5309140567945610e-02 -5.0000000000000000e-01
        -5.0000000000000000e-01 -2.2160889785016380e-01
        -5.0000000000000000e-01 -5.0000000000000000e-01
        -2.2991249777483366e-01 -5.0000000000000000e-01
        -5.0000000000000000e-01 -2.3293243725548957e-01
        -1.5994635521076817e-01 -3.2634040856821200e-01
        -5.0000000000000000e-01 -5.0000000000000000e-01
        -9.5653935977831228e-02 -8.7042083420082350e-02
        -1.6379584708698397e-01 -8.8662984609121476e-02
        -2.2038574460911023e-01 -7.1363253724395753e-02
        -1.2433808280277592e-01 -3.2819508502937250e-01
        -1.4392848568442390e-01 -5.0286952793797739e-02
        -9.2024539127929794e-02 -9.7254889408561418e-02
        -3.4036605188570895e-01</alpha>
      <index>
        198 199 200 201 202 203 204 205 206 207 208 209 210 211 212 213
        214 215 216 217 218 219 220 221 222 223 224 225 226 227 228 229
        230 231 232 233 234 235 236 237 238 239 240 241 242 243 244 245
        246 247 248 249 250 251 252 253 254 255 256 257 258 259 260 261
        262 263 264 265 266 267 268 269 270 271 272 273 274 275 276 277
        278 279 280 281 282 283 284 285 286 287 288 289 290 291 292 293
        294 295 296 297 298 299 300 301 302 303 304 305 306 307 308 309
        310 311 312 313 314 315 316 317 318 319 320 321 322 323 324 325
        326 327 328 329 330 331 332 333 334 335 336 337 338 339 340 341
        342 343 344 345 346 197 347 348 349 350 351 352 353 354 355 356
        357 358 359 360 361 362 363 364 365 366 367 368 369 370 371 372
        373 374 375 376 377 378 379 380 381 382 383 384 385 386 387 388
        389 390 391 392 393 394 395 396 0 1 2 3 4 5 6 7 8 9 10 11 12 13
        14 15 16 17 18 19 20 21 22 23 24 25 26 27 28 29 30 31 32 33 34
        35 36 37 38 39 40 41 42 43 44 45 46 47 48 49 50 51 52 53 54 55
        56 57 58 59 60 61 62 63 64 65 66 67 68 69 70 71 72 73 74 75 76
        77 78 79 80 81 82 83 84 85 86 87 88 89 90 91 92 93 94 95 96 97
        98 99 100 101 102 103 104 105 106 107 108 109 110 111 112 113
        114 115 116 117 118 119 120 121 122 123 124 125 126 127 128 129
        130 131 132 133 134 135 136 137 138 139 140 141 142 143 144 145
        146 147 148 149 150 151 152 153 154 155 156 157 158 159 160 161
        162 163 164 165 166 167 168 169 170 171 172 173 174 175 176 177
        178 179 180 181 182 183 184 185 186 187 188 189 190 191 192 193
        194 195 196</index></_></decision_functions></opencv_ml_svm>
</opencv_storage>
